{
  "generation": 3,
  "best_fitness": 385.7364828118593,
  "mean_fitness": 54.80593673462745,
  "best_morph_weights": [
    -0.1251694400639363,
    -0.22981697869713968,
    1.3192811700313847,
    0.935498632283731,
    -0.69161514271439,
    -0.5175771761016331,
    -1.5072459238513625,
    0.5074766411759849,
    -0.8444495319993709,
    1.0458809867637666,
    -0.6706083370974711,
    -1.3862833777065215,
    -0.6137641276100886,
    1.5850371347949,
    -1.7942460537103742,
    -1.3037571709087394,
    -2.457712506132837,
    1.1441546963396934,
    1.0126105914483516,
    0.2614898902775905,
    -1.4232444200289474,
    0.7288186398443405,
    0.28344632242033146,
    1.1259988178562714,
    0.5807795169151561,
    0.08119340268795387,
    -0.953339944597263,
    -1.045662084200183,
    1.1278518616507467,
    1.1323751324062301,
    0.9671526355995305,
    -0.11932961074901854,
    -0.45940451919334474,
    0.2895950489355757,
    -0.6153149785372846,
    -1.351282824852728,
    -0.15139223888940845,
    0.5420127705144634,
    1.5388923534538825,
    1.428064184386796,
    1.0049956602391357,
    -0.5425941785084335,
    -0.9558101442560971,
    -0.537082617002051,
    1.424140920768053,
    0.4357060629381468,
    0.207583260507372,
    -0.5943338835829245,
    0.1745020187798343,
    -0.2880203521416922,
    -0.2604807203084647,
    -0.16943038468873295,
    0.12891962196388268,
    1.558496710011347,
    1.2345531205167029,
    0.38444080883025267,
    1.1857635960693325,
    0.7861453900739006,
    2.255025859802938,
    -0.6231457602058907,
    -1.2309281553937947,
    1.982384830523809,
    0.7784157781520924,
    0.6968965588041466,
    -1.6172761712641288,
    -0.926441266799986,
    -0.19913981690305763,
    0.8010908704062897,
    -1.0995991362447972,
    -1.037896982588044,
    0.741119377382276,
    0.3240571011387326,
    0.9620542491720443,
    -0.8366779940303191,
    1.989896312684467,
    -0.4774977749669305,
    -1.171867187981864,
    -0.5044262536066756,
    0.06784164328721712,
    -0.2887848278016589,
    0.20766427985257271,
    0.8635093308209658,
    -0.12438089528508653,
    0.5137360431855044,
    -1.6259815862876807,
    -0.8067844826880262,
    0.3660941951305852,
    1.4090706366217496,
    -0.48197274899328124,
    -1.4869781507576405,
    0.9619404382436828,
    -0.5400615520761985,
    -1.0721823467599176,
    0.6108603208792946,
    -0.2143233032141345,
    -0.2842946223085123,
    -1.0161290236644667,
    0.5130433210954419,
    -1.9167863665072766,
    0.23344326884362887,
    -1.4308718607691742,
    -0.27512531292332204,
    -0.3429633556326685,
    -2.2582814923686407,
    0.619175325507807,
    -2.046697000890053,
    -0.001141152178986471,
    0.7932767185081777,
    -0.5411945108192647,
    0.7021946250038514,
    -1.2113275787704583,
    0.07236108916065721,
    1.844549556538639,
    -0.020962153816212192,
    2.2275929386975535,
    -0.16554812691452686,
    -1.4799648093557598,
    1.9679392273222787,
    1.6693250289592683,
    -0.6829586740440069,
    -0.22368559643223238,
    -0.6370580947280667,
    1.6984970697609543,
    -0.500165661887357,
    -0.1192985850680833,
    -2.91856681071772,
    0.5306753160432358,
    0.36556731684477,
    -0.3525746278194029,
    -0.6289227369683777,
    0.23789611013222198,
    0.2953520366828576,
    1.2875076851724419,
    -0.9964647851501082,
    -0.07413288522668976,
    0.1936412675827505,
    0.7678934042103266,
    0.015705421089070318,
    -1.0600480252475057,
    -1.7563869397791174,
    2.205282283993225,
    1.5350605947683975,
    0.6787308130085982,
    -0.2228588741193859,
    0.11296159056801447,
    -1.0503045542184373,
    -0.21859570650844837,
    -0.10442611875795639,
    1.5179315514888883,
    -1.7405296397400485,
    0.7689954525495872,
    0.8254527630757954,
    0.357336086294803,
    0.6140749524982244,
    -0.051837024469504916,
    -0.832416678227101,
    0.11077788242752429,
    -0.19080669443721504,
    -0.6135929172358751,
    0.015133984410357348,
    0.47642415249978465,
    -1.162457610182919,
    -0.44738339206029304,
    1.0434118638473606,
    -0.5072644710350855,
    1.3123061544414816,
    1.8037705154310057,
    0.23766970652382483,
    1.1961320751809454,
    1.0233254151735123,
    1.4374748479333228,
    -0.7847818242480952,
    -0.42756502153425574,
    0.14630161906264905,
    0.31745301897222694,
    0.2221024451848165,
    -1.5351334385002326,
    -0.8676520894133254,
    1.0788806810347833,
    0.18967996771777262,
    -0.8927691897311707,
    0.541606198796635,
    0.3025459583430265,
    -3.151306655383497,
    -1.7782252508138476,
    0.013893615461581249,
    -0.35806097730276054,
    0.5713772650459991,
    0.16544081004745934,
    0.01775127778757409,
    -0.10289432544080487,
    -0.28620360537784745,
    0.4735545340547559,
    -0.7037364447791246,
    0.34508282855993516,
    0.5409503650072739,
    1.1868746047271845,
    0.29446469997218894,
    0.6313475382755976,
    -0.7561081097042938,
    -0.234958104423041,
    -1.4532152482048366,
    1.833645427160394,
    -1.2541107718246705,
    0.8000312001185507,
    0.312128685525056,
    0.21994612175967368,
    0.5400621652634466,
    0.8824538644331645,
    -0.10135210706314432,
    0.8915343465527148,
    -0.7213770215235249,
    -0.707805384977751,
    -0.6072431280932244,
    -0.2912434855516367,
    0.746060060271098,
    0.9936012682641705,
    0.0956675700230464,
    -0.5969333391436695,
    -0.42018722216733184,
    -0.8856699028421732,
    0.7477362019128306,
    -0.9607961287140183,
    0.13202092589379918,
    -0.2775697440868027,
    1.4602604866267588,
    -1.585735736820529,
    0.39303851675005325,
    0.8340994155730592,
    2.3300631999426433,
    0.3784576894580812,
    1.1014273865534505,
    -0.09691815134622048,
    -0.9372505520794572,
    -0.8648375774880597,
    -0.1579196126941738,
    -1.8132641412094832,
    0.2655253749721174,
    -1.4257603779062604,
    0.9583428494876614,
    0.5466907625858236,
    0.9946432690058247,
    -0.0733469463606105,
    0.5134279179901486,
    -0.2611429567305258,
    -0.7992121300025977,
    0.39407748095724476,
    -0.534395388677692,
    -1.4200450626176544,
    0.5246805113323181,
    -2.6632839863744615,
    1.2676681002654673,
    0.5554367093781,
    0.7626445770800973,
    1.0415255681070268,
    1.37610309776811,
    -0.44206308871036315,
    0.5618961937243367,
    -0.8410177590861107,
    -0.2657703833694849,
    0.8558915375321747,
    1.0645753428418663,
    0.1230642572271756,
    0.3698903963754733,
    0.6980698707277981,
    0.8773215054322379,
    0.1546250866655341,
    -1.9535906129641605,
    -0.3202964536329008,
    1.3441285606346574,
    0.1539051523201748,
    0.27391185817671976,
    1.194993855924345,
    -0.020178858438790862,
    1.7587468422924428,
    1.5032338746448886,
    0.7852890432260972,
    -0.15269720399243408,
    -0.38381649589015354,
    1.6345933862932651,
    -0.44487415995176344,
    0.9498774804775133,
    -0.49346214798516125,
    0.31312551619565043,
    0.0018432794624002116,
    -0.17549186267877792,
    -0.6981189676448003,
    -0.8605698307929815,
    1.9127992473490214,
    -0.4745069196886011,
    0.8354896196971753,
    1.6452416497537503,
    -0.21894054572303429,
    -0.8708752756599603,
    -0.24872893168624782,
    0.22230212191242327,
    -1.3204342150697228,
    -0.026649780108214075,
    0.1693076481067115,
    0.44882788941136076,
    0.4746630613245194,
    -0.8497027221003052,
    -1.509839298635145,
    0.6021942577389167,
    1.0914716069031132,
    -1.5542647542762482,
    0.37905317841344927,
    0.4162170100812532,
    -1.2335550692957367,
    -0.9985860650137862,
    1.548281515288464,
    -1.0634311379447405,
    -0.370666604200158,
    -1.6476970937931021,
    0.34599746854497,
    0.829832690496661,
    -0.16338250959923764,
    -0.8537538864257751,
    0.7698600896105933,
    -0.1368853735008367,
    -0.47266572393185213,
    1.3224385696529128,
    0.8701821133495926,
    -0.09797400583141405,
    0.8512135916082476,
    -0.9960283660233672,
    0.12046556910687073,
    -1.5036367395263373,
    0.5013986176176439,
    1.5606088168001042,
    -1.8413886396568917,
    1.5130795383661046,
    1.6574295196647826,
    -0.06112229447429898,
    1.114831656970366,
    0.5630387730341361,
    -0.2971642085194182,
    0.4233290288818641,
    0.29507162176538976,
    0.05889175663225787,
    -0.014144288998399923,
    -0.2338764578839664,
    0.47390099135731273,
    0.43689427068686415,
    0.28513792516284125,
    0.6735242147672391,
    0.4680708800673025,
    -2.5557567010964144,
    -0.26848036034364303,
    1.9632145622210808,
    0.24219478885076426,
    0.8215101566789712,
    1.9728720246029912,
    -2.1778801387961777,
    0.8018456869472121,
    -1.4525570025272887,
    0.32114838118688877,
    0.2906863507668101,
    -0.27209518699425744,
    -0.11228368303347736,
    0.30840200903878506,
    0.25129533224441764,
    1.778671005255192,
    -0.7743578914398352,
    0.8513465547095943,
    -0.14640870967179487,
    -1.1750395141357497,
    1.0831340856901417,
    1.424122103786876,
    0.4938151076698761,
    -0.8528530819522225,
    0.7272967456696626,
    0.31828330113184594,
    -0.4228445173091655,
    0.37196976107651963,
    0.8987537482666029,
    0.17373556250748878,
    -1.424165236156182,
    -2.190459410661135,
    -0.6799695495899045,
    1.138507968737647,
    0.0930231306937897,
    -0.998065092007307,
    0.8743749888118874,
    -0.5487122166469554,
    0.24334194549360694,
    1.7342378702165737,
    0.13766100360473293,
    -0.10246997982945576,
    -0.15575146351303565,
    1.1078993720536832,
    0.06576553476279967,
    0.2803763093349654,
    0.6732464420844244,
    -0.4114654381016362,
    -0.5745280879968226,
    0.4239207631537043,
    0.033030364576953374,
    -0.6633418136194664,
    -0.8412160518841929,
    1.173283690647979,
    0.4227120885277522,
    -1.3877942294019205,
    0.9157190477604943,
    -1.0570382143536343,
    1.5872725233883642,
    1.4408053125529523,
    0.9568607059270048,
    -0.056859142327453524,
    0.48241774150816724,
    0.44756766982564994,
    0.7174732106578814,
    0.006980405441565597,
    0.5832361584316971,
    -1.0491675174156214,
    1.177034059379022,
    -0.6489932086571317,
    0.29373119971379924,
    1.1271208941848618,
    -0.7503535550108774,
    -1.4774251296396321,
    -0.6539740893892461,
    -0.4678880757603474,
    0.5700987298562424,
    -1.7527868774417847,
    0.9044075630600048,
    0.8046621416229172,
    0.46021116824189545,
    -0.02351994801240655,
    0.41475465663861955,
    -1.4000195678634306,
    2.357909978020447,
    0.49303337932719316,
    -1.0760374720633832,
    -1.6028236746934619,
    -0.8216763959864097,
    -0.06397641257455797,
    0.19690422138116812,
    0.2008832972838779,
    2.176988903285216,
    0.31670176349871276,
    0.6607239697701432,
    1.2907823514007064,
    0.896510036055776,
    -0.3081819009076328,
    0.2620506920674322,
    -0.5026749941679325,
    -0.46215533803374476,
    0.5870907265273347,
    -0.7395222749082547,
    -0.7125969437164508,
    0.37215893152230034,
    -0.9855478339780204
  ],
  "best_ctrl_weights": [
    1.206035341196313,
    -0.30670160584372474,
    -0.37723571260798716,
    -0.7024405728271855,
    -1.7992201639037961,
    -1.2698138334329736,
    0.3906497634478069,
    1.546533977404727,
    1.2161975927131417,
    -1.6410944463613213,
    -0.43130465779718774,
    -0.7907275910125334,
    -1.6070640852068927,
    -0.041695282793368156,
    -1.4491261731387433,
    -0.583733963539854,
    1.319184615850381,
    0.3439569859732481,
    0.3730896545518886,
    -0.11990410193641118,
    -0.5834766597574308,
    -0.07449517209607573,
    0.7888979306336881,
    -0.9893919208844828,
    0.14966418755082014,
    -0.821811801843293,
    3.035408942138625,
    -1.1151562839689855,
    -0.6204291402890305,
    -0.7662436250198124,
    0.5115699035202358,
    -0.030021086552539294,
    -2.2809834505048348,
    0.7333668868226509,
    -0.21426682840362152,
    0.806913382503207,
    0.3960768909090579,
    0.5985017927290869,
    -0.5818239108173044,
    0.30275318063121986,
    0.1434796733544448,
    -1.373521039627547,
    -0.8601213285510562,
    -1.0119085108879333,
    -1.7052592741801038,
    -0.12626104106819824,
    0.8320690526489407,
    -0.6407992540590131,
    0.7008509976576964,
    1.6118261265872664,
    -0.6654910694584669,
    0.17820908344833467,
    -1.3172537830881652,
    2.694826521697794,
    -0.02104132894361932,
    0.11481574641433223,
    -0.6328389171757582,
    0.482074958758667,
    -0.23162690763519203,
    -0.4392023816960422,
    1.425394619589015,
    -1.147670268317127,
    0.1600729895478704,
    -0.6325754335493319,
    -0.2299112090385896,
    0.44835849124666566,
    -1.4227456541095174,
    1.7790612438177837,
    0.29278561492910266,
    -0.8327679124300932,
    -0.16340297000625006,
    -0.9677620498879739,
    -0.6305781981230125,
    -0.0909102961476783,
    -0.5983765158287078,
    -0.5436387788937214,
    -0.9786081972066012,
    0.48512238843129984,
    0.6074570108278143,
    0.6791197340748119,
    -0.562624976702658,
    1.2740352002400954,
    1.0059858973201614,
    1.2587892882336977,
    -2.538386293753998,
    -0.3679292141338317,
    -0.2253953485689129,
    1.297002248703416,
    -0.2178608820908192,
    0.7615886779150488,
    1.671245637994509,
    0.18728500766534686,
    -0.16693453578020684,
    -1.6432246144096634,
    1.9667711330193403,
    2.461195448090606,
    0.1457154013921543,
    0.014760730208994282,
    -0.7995848805995414,
    0.3596426025852435,
    0.5055611896737146,
    -1.2227037082104952,
    0.6042705320330305,
    -0.14499438566966125,
    0.10871722595716572,
    1.5013893801244094,
    -1.3884333663484512,
    1.3134766573508574,
    -0.2934728785877461,
    0.9955449953948442,
    -0.0020142859723251048,
    2.643868795595985,
    1.8690632105537521,
    -1.5518832558326,
    0.8455642330950662,
    0.03581690876776711,
    0.11471394460396757,
    -0.0804918502246363,
    -0.24786394431324174,
    -1.084223202747722,
    0.5002041775432927,
    0.9704533263450096,
    -0.45866154366157413,
    0.9390311358177815,
    -1.4285581465394275,
    -0.32110593843400725,
    -0.8044495820356035,
    -1.0403744640037387,
    -1.0548254195308844,
    -1.797852008223381,
    1.4793953826143174,
    -0.4853612916992403,
    -0.28563554834709215,
    -0.20936163273220243,
    -3.0918318285522104,
    0.3428869688456008,
    0.37511081507836563,
    0.27717147724252916,
    -1.2410629028150124,
    0.9225371461861887,
    -0.07762045731057275,
    -0.1585963538286168,
    -0.3597861670991603,
    -0.3223094725632516,
    0.9503103581725219,
    -0.0318351963968154,
    -0.26884925562844225,
    1.1975020428224372,
    1.0077421644603397,
    -0.32278692434097533,
    1.1279965103411496,
    -0.8248794033083595,
    1.632749350754269,
    0.7366601153545717,
    -0.851501863712654,
    -0.6526779773995764,
    1.516393755693005,
    -0.03129942980365394,
    -1.4314680932277608,
    -0.5871481005328155,
    -1.4218637202854854,
    -0.9960562832794501,
    -0.23173369798280455,
    0.6253061861868691,
    0.22042317256879412,
    -1.940965105644567,
    -0.26893066580754155,
    0.41852794030505724,
    -0.38900677563078523,
    0.6463962983788669,
    2.2279426391315735,
    -0.02909996836467067,
    -2.6500473670822022,
    -0.9972639433461817,
    2.3067972003870807,
    -0.21504635625220114,
    -1.0206014985829512,
    -0.12458507615591817,
    1.0061164118579835,
    0.13754224548280258,
    0.364167505822776,
    -0.6267816903894369,
    0.85892470719357,
    0.5074116009561088,
    -0.44793587057215933,
    -1.3888378830066168,
    1.2344054738378014,
    -0.6611573103506153,
    -2.340488238797581,
    -0.7135796855599368,
    -0.275409845102228,
    -0.23793057684820706,
    -1.0487220046120578,
    -0.40752090909688643,
    -1.2778847533128848,
    1.7315894763030302,
    -0.045223196789117855,
    0.6697666644349614,
    0.9824694892128429,
    -0.8620240543634918,
    0.0644897156653218,
    0.07706177956753178,
    0.7100286152353197,
    -2.1705413775984903,
    -0.7994782794580378,
    -0.4903107150657767,
    0.4099687311654962,
    -0.45229868355260894,
    0.5886084857361173,
    1.1676049310265966,
    -0.12167423036557498,
    -1.4169426940440843,
    0.6094435875293903,
    -0.9813005598322841,
    0.999278055139098,
    -0.22019211948181,
    -0.7437569995793886,
    0.5087769219886071,
    -0.40554612313859373,
    0.08561545409741977,
    -2.127886310374649,
    -1.233321826088328,
    1.777513769705236,
    0.38481204950685743,
    0.16504152034962635,
    1.3528756814387641,
    2.4895310196311717,
    0.014394663524880537,
    0.6742073968543657,
    -0.8608979387155222,
    0.2720598568407108,
    -0.7375155566430974,
    0.6601033889865358,
    0.7538979720035195,
    -0.8985586036844299,
    -0.40722015066213035,
    -0.8644698340234271,
    -1.2507240137784,
    -0.4702567972418829,
    0.10245957018646257,
    -1.0058799294143743,
    0.7926399430641231,
    2.3032189081489154,
    -0.5849262191331436,
    -0.12963706935469868,
    -0.5875646619357345,
    0.947534309936622,
    -1.0166933718547178,
    0.7254660062827261,
    0.28768103306863096,
    -0.91278807024282,
    1.6063505278286418,
    0.6462192203750148,
    -1.1691517853688564,
    -1.0254095876795706,
    -0.5718221142568441,
    0.05437976261796424,
    0.3597454419575586,
    -0.19945810365909408,
    1.1767435618084265,
    -0.7927021260659702,
    -0.7681162061821991,
    0.5988725561467982,
    -1.0469653683219278,
    -1.88230671968487,
    0.30786493728029807,
    2.070152811909655,
    -0.17165164578821318,
    -1.2738591963925237,
    0.47784814058240094,
    0.5624863683683505,
    2.030637039357268,
    0.01458651174512643,
    0.750478747600104,
    0.705506193968781,
    -0.8847050420011268,
    1.7818142401122454,
    -3.091024603962271,
    -1.2211324459770112,
    -2.2352039473338623,
    -1.705682876128989,
    -0.3258194764945129,
    -1.2434582390133522,
    0.28412956158525,
    0.012297627344322978,
    0.6008091913245562,
    -0.6414092307457312,
    1.187249391515738,
    1.1957824275606606,
    0.9228740340368109,
    0.05300551060406903,
    -0.7009356536679131,
    -0.22107407786574143,
    -0.004307710725443412,
    0.6369490522606744,
    -0.08747830732742821,
    -0.49072768010930407,
    1.0043405577102185,
    -1.530313124062552,
    1.949698767745053,
    -0.10185693712671738,
    0.34937845315587557,
    -0.4541046339531983,
    0.8147318097160586,
    -0.44636215910594107,
    0.5761146666797774,
    -0.9468175798126819,
    -0.3564924726950513,
    -0.891204051204662,
    -0.4265072984478252,
    -0.9792486370582627,
    -0.6407448542875178,
    0.7009298797589341,
    -0.8995446855903922,
    -1.7017766252068307,
    -2.364591182839213,
    1.4307945311282955,
    -1.6514309093296704,
    -0.21541876544038563,
    -0.7419093342225364,
    -0.19314059726905328,
    -0.4558176423467358,
    1.3343550621317593,
    -0.6409819516847229,
    0.02687752840729666,
    1.5157043951054097,
    0.6174023675072575,
    -0.7686210043898555,
    -0.5280577346955115,
    0.553730390429175,
    1.1485902069170426,
    1.85225824953318,
    0.3097150725917261,
    -1.2943593122157564,
    2.720403328964854,
    -0.6731574758613613,
    0.6072722294570797,
    0.07607515269796174,
    1.3373889827334653,
    0.75343554446268,
    0.7205956907939192,
    -1.5017948543812556,
    0.2998418606010442,
    -1.5505520416650933,
    -0.3122195205786404,
    -2.0617642920669734,
    1.8725091890312588,
    0.839704321145755,
    0.6126853671735838,
    -1.5984128203768002,
    1.620419342654825,
    0.13027756799284723,
    -0.9343125057878314,
    -0.5895449677584211,
    0.8459058539263431,
    -2.0731714509008112,
    0.2517909060443214,
    -0.18794229653818345,
    1.405499207313454,
    -0.6339738998666363,
    0.2355199238740253,
    -1.6456615743156966,
    -0.20461705445461564,
    0.9892217236021148,
    0.09098021402866392,
    0.0703175840829304,
    -1.380855465828547,
    0.9323117340168229,
    0.36245290970554084,
    -3.207977692340013,
    1.305906865212207,
    0.2508850543978368,
    1.0810714246401238,
    0.825928215479707,
    -0.45179441895350436,
    0.3104966200070318,
    1.0660455719570894,
    -0.18239020646486537,
    1.1280277163228838,
    0.5453451606418415,
    0.07474011973755984,
    1.1422938018620592,
    1.829086856960699,
    -1.3198510303354674,
    0.23288263635841402,
    1.48350013708085,
    -1.0453520302424517,
    0.5658071838884097,
    -1.109508202865691,
    0.7663704466271893,
    1.8823637888918066,
    0.697676720989796,
    -1.0158798013197143,
    -0.4711532810264667,
    -1.4999550055294653,
    0.48400209559249807,
    1.6615284235545813,
    2.1386935264572475,
    -0.2205929901293489,
    -2.6104981548472947,
    0.200002415786241,
    0.9802054263219546,
    1.061020702031426,
    0.38199154025029713,
    -1.028362607883987,
    1.3082498126176423,
    0.8905030403460539,
    -1.3132741172327427,
    -1.212060477457676,
    -0.6444938227278175,
    1.0323930166028477,
    0.5181319158219867,
    -0.2121723589344535,
    -0.8994972814157371,
    0.4117221504744084,
    0.008491638816906533,
    0.3326893142823104,
    1.2765831151584943,
    -1.2469959428442094
  ],
  "best_morphology": [
    [
      0,
      0,
      0,
      0,
      0,
      0,
      0,
      0
    ],
    [
      0,
      0,
      0,
      0,
      0,
      0,
      0,
      0
    ],
    [
      0,
      0,
      0,
      0,
      0,
      0,
      0,
      0
    ],
    [
      3,
      0,
      0,
      0,
      0,
      0,
      0,
      0
    ],
    [
      3,
      3,
      0,
      0,
      3,
      3,
      0,
      0
    ],
    [
      3,
      3,
      3,
      3,
      2,
      2,
      2,
      0
    ],
    [
      2,
      2,
      2,
      2,
      2,
      2,
      2,
      2
    ],
    [
      2,
      2,
      2,
      2,
      2,
      2,
      2,
      2
    ]
  ],
  "all_fitnesses": [
    240.75094833421582,
    0.9066911644924289,
    22.948166645091703,
    57.21874140042314,
    385.7364828118593,
    -15.867075073777642,
    192.85858682838176,
    -1.3111238117555786,
    180.60541957401892,
    1.3298478503911042,
    0.3150267319081763,
    1.1012776363038483,
    -0.026641073972086815,
    28.77968159736224,
    -0.5713066314874595,
    1.1625871453281889,
    -45.02836584073674,
    37.36033125348382,
    -1.088863089664983,
    8.938321240683194
  ]
}