{
  "generation": 1,
  "best_fitness": 135.95286618846637,
  "mean_fitness": -36.1652704303794,
  "best_morph_weights": [
    1.4825953930488969,
    0.6891491573360161,
    2.038812919807023,
    -0.3445138055891318,
    1.4760048717750336,
    0.5451030565491046,
    -0.5796572357220526,
    1.2916162188238858,
    -0.621797279356462,
    0.6574556111786388,
    -0.18053857545202198,
    -0.1894877949238984,
    0.7311890710808118,
    -0.2472785767373237,
    -1.9383248978900747,
    -0.3380484098143352,
    -0.31763308951109614,
    0.8695917987935677,
    2.451970715993041,
    -0.0999939771726163,
    -0.5094016097483944,
    0.6685048589441029,
    0.7871059667907456,
    0.07274314785639968,
    1.2337918199245836,
    0.426161697629632,
    -1.2852495088528202,
    1.1312350288892108,
    0.7751882734109626,
    1.490824889882073,
    -0.19167178753974204,
    -1.0998260584883905,
    -0.6107481570799161,
    -3.226606748148736,
    -0.984793014923239,
    1.6675852466111223,
    -1.1877230455563148,
    0.8950895434669964,
    0.2904689176372154,
    -0.3743996879933268,
    0.39828101690423784,
    0.8665842209257107,
    -2.0190673976828704,
    -0.05939274281434441,
    -1.0840377066335514,
    -0.09109976453882328,
    1.0243260994369732,
    0.03987573911867285,
    -0.6015106720942076,
    -0.6341471664516491,
    -0.657523193883418,
    -0.5971606152570866,
    0.2532306768082786,
    -0.1342944036318538,
    1.0301464183937326,
    1.3803885335931043,
    -0.6382901880203582,
    0.16899998752016118,
    0.4562295068454058,
    -0.9061448887050707,
    -0.5751245365451175,
    1.4755265414490075,
    -0.2942567682231198,
    -0.07371297028442132,
    0.49582906242676833,
    -0.09735801762399905,
    -0.4400154119182839,
    1.175374951410801,
    -0.5126179252269016,
    0.7939455236192058,
    -0.012775372908519933,
    -0.5801890144102716,
    1.1892166924087864,
    0.6454900528385242,
    -1.238310669787394,
    -1.4020009143430094,
    0.2951797334057323,
    -0.6255752468367992,
    0.5254082259323773,
    -0.9421017385428567,
    -0.45433962127538696,
    0.2467832142561691,
    1.4216101555715637,
    0.4669023018529072,
    -0.7169118768248237,
    0.19256529214645898,
    1.9541388475611716,
    -0.7814405090406078,
    0.04606528051368211,
    -0.06895344003107609,
    -0.21722680202924596,
    -1.2658646925081465,
    -1.048481746470355,
    1.0613866475245257,
    1.24542412552903,
    0.8578228616651914,
    1.0715675053077578,
    -1.6361563432178823,
    -1.4437538776175636,
    0.18950251710155752,
    -2.790201031152141,
    0.6808267104361299,
    -0.6475296757195453,
    -0.6625492438333692,
    -2.616315069345475,
    -1.7756064235533346,
    -1.328603217571063,
    1.1712354471101545,
    -1.1553146431741455,
    0.4947411466150119,
    0.8511784716152854,
    -1.2316445089049814,
    -1.3539560371529564,
    -1.4138870885574484,
    -0.04812961623897505,
    -0.10791296566844862,
    0.3811013444467397,
    -0.29538225701179177,
    1.6965679900103012,
    -0.8476403419997863,
    -0.24676706508938795,
    -0.3380082015347302,
    -0.457866822884643,
    0.6321534197242371,
    -1.593381906085064,
    0.011220684474365254,
    1.209093584254382,
    -0.5084024667700429,
    0.41173467066002073,
    -1.219054130517578,
    -1.2303662075753636,
    0.003376453027026364,
    -0.25323789447614975,
    1.3794103308648535,
    -1.2769857783377982,
    -0.8769692112063091,
    -1.2943647755027123,
    -0.1064904562119359,
    0.4230918811079638,
    -0.6275876501418861,
    1.74508303396687,
    -0.7054139998828957,
    -0.5970335933641031,
    -1.2573128012278043,
    0.04179648512880748,
    0.06784786042286733,
    -0.0037611010049760805,
    -0.846772320793238,
    -0.5244676464820267,
    -0.8359383808290498,
    -1.1473210159215015,
    1.740165581087121,
    -0.8361848005721063,
    -0.44396442207707043,
    1.0404709226625353,
    -1.5239276456748856,
    0.005448884492992672,
    -2.8984059442770236,
    0.15708446970422854,
    -2.078645841818766,
    -1.2521373875376591,
    -1.1647260585045671,
    -0.6419263637213073,
    -0.4812295754707757,
    -0.8633084580029801,
    0.0224541979403477,
    0.20069920098321342,
    1.4041766081050073,
    0.18627657321698743,
    0.8725777729495967,
    -1.6062141652141306,
    0.6296818086389777,
    -0.013157531514210353,
    1.4887812827168663,
    -0.06910792738257861,
    1.2415460074368125,
    0.6614726785144314,
    0.753088098215436,
    -2.7782122247907277,
    0.3710548752842412,
    0.15253840255633278,
    -0.5936103501939755,
    1.0578849230942073,
    1.8353114366062218,
    -1.955608141319187,
    0.22255759467013642,
    -0.14294750274216406,
    0.6108280720789129,
    -1.840622992000327,
    0.7790291253393639,
    0.6503100022807308,
    -0.07239509948705623,
    -0.35477382838414956,
    -0.9578271272178187,
    1.2374806677630814,
    0.8801013128699816,
    0.08714758628665864,
    -0.11789743605588185,
    -0.6116026175944846,
    -0.22793234268237558,
    0.7919492422207837,
    -0.9094996146963391,
    0.6577972197033648,
    1.530748751314589,
    -1.1843417481340126,
    -0.7986171739353785,
    -0.2095011284063317,
    -0.92751518130161,
    -1.347381572299877,
    -0.165382917290618,
    -0.09720135634755393,
    0.472328015529631,
    0.32813282444448966,
    -0.06876030074589953,
    -1.5438350213762575,
    -2.855670533933485,
    -0.49205147560958,
    0.009328030076646416,
    -0.026672541421023932,
    -0.6860949919064983,
    -0.45583234730824096,
    0.33420674840326786,
    0.4947754243929303,
    0.8913894514322777,
    -2.3702992460793153,
    -0.24660645521599206,
    1.0903506352222252,
    0.7282958029371737,
    1.7898514883760743,
    1.127475096787622,
    0.0005072215255000881,
    -1.368472324251485,
    -0.9993501078850995,
    1.114909429571797,
    -1.1765642781131223,
    0.7601308927289047,
    0.5569033276420012,
    -0.6520013687528926,
    -0.49225231684427223,
    0.7584383923317798,
    1.375327752315184,
    0.16704485221754797,
    1.1731125543084782,
    0.4423067381217323,
    0.1954915303365111,
    -0.5920759307892166,
    0.6695040847761372,
    -1.4623225411057954,
    0.13895644597959983,
    2.268133508946594,
    -0.15293066337274241,
    0.24964093648011004,
    -0.9458310012212439,
    0.404293278224436,
    -0.4135995468756578,
    -0.4952977478909106,
    -0.3503946083879863,
    0.9955340238800735,
    -1.0458315018048527,
    -1.6328612485977207,
    0.04067410975908267,
    -0.6808013787612641,
    1.6221400362929306,
    0.8719858275776268,
    1.3555374317036402,
    -0.8376094322132132,
    0.6897314778763797,
    1.0482645760644318,
    -2.0168277166989617,
    1.7551195412718978,
    0.35196196281347497,
    -1.1739071891725403,
    -1.2220713041912397,
    0.3732094264746206,
    0.32162397192254893,
    0.33148346929956707,
    -0.31765600608963945,
    0.7788288133253096,
    0.9167151279188964,
    0.18774403250035804,
    -0.12268821450185124,
    0.48801843162364145,
    -1.789842069409472,
    -0.3317798618465828,
    0.16555699482579142,
    1.682027570398629,
    1.5956257585646814,
    0.9390871300488738,
    -0.2482456395596887,
    -0.13167445427846014,
    -0.11305704381268589,
    -0.12685419266151796,
    1.0816611493745143,
    0.5706504960223794,
    -0.47025226333762826,
    0.050194452718106804,
    -1.079855497679712,
    -1.7025297822549095,
    1.0197157727297765,
    -0.5236803740904066,
    0.6864850193262975,
    1.0701378856706116,
    -0.400031284595636,
    -0.6574209903700758,
    -0.9787847150563208,
    -1.8307444711230692,
    0.4198455728369598,
    -0.05559622591542124,
    -0.22865055153408836,
    -0.10915409356713078,
    -0.47498972013427726,
    -0.32489167587905027,
    -0.8816218670167612,
    0.25357448343919475,
    -0.8821272047365419,
    -0.1471620909854259,
    0.36658087562717534,
    -0.525805790543617,
    0.8963497069185284,
    2.1753332841465745,
    0.3355788522490996,
    0.573718127292851,
    1.8113073453827095,
    1.5391493607468059,
    -0.0461472262538792,
    0.22758814079678158,
    -1.1666002265841748,
    -0.02836420640814977,
    0.7795569752298074,
    -1.3202002245750457,
    -1.720364755477274,
    -0.5345192539408226,
    -0.25527511554534693,
    -0.4861317364736877,
    -0.34341610279154666,
    0.3649871148590997,
    -0.1800384370874608,
    -2.060965303903365,
    1.0197965824682502,
    -0.747744239802405,
    0.600660293503474,
    -0.001496571118121761,
    -0.12181797506684337,
    0.9489702496673589,
    0.027670676021808695,
    0.8309359028779885,
    2.263052294395935,
    -1.6161222615964856,
    0.6797915986097225,
    0.8144469767717156,
    0.7819409368345566,
    1.1018150939827227,
    -0.23189827957403544,
    1.7702595444114326,
    -0.8718412366124932,
    0.5825300394420001,
    0.25356884041107647,
    -1.4242536239536823,
    -1.1272838704037356,
    0.2389055480658992,
    0.9014451564019423,
    0.9747127683399303,
    -0.4236075088427331,
    -0.01464808600829059,
    -1.0954923183804084,
    -0.4106333047420444,
    -0.23886265120355646,
    0.272970060801476,
    -0.48950701477904135,
    0.4527031653457418,
    -1.6983291074204243,
    -0.39157485007175863,
    -0.0005740353896723659,
    0.4417516443305749,
    1.6707701122658651,
    1.3563302662692094,
    -0.7285648709648259,
    0.17148363205874473,
    0.04778236002314045,
    0.6686770633755936,
    -0.6290984482308287,
    0.6002455439585185,
    0.2777775241661503,
    0.367064649819589,
    -0.1628670274478865,
    0.006570849608255399,
    -0.5835484169956053,
    1.246411274083833,
    -0.734783280572607,
    -0.7827206586847947,
    -0.3302489009077703,
    1.8748830004467263,
    -0.8050109827741111,
    1.2439518759099988,
    -0.011327906117792516,
    0.04594270772173512,
    0.5730816470758735,
    1.788821256866885,
    -1.4096724846676172,
    -0.698146868673752,
    -0.2256258423564773,
    0.8878717463740777,
    0.04037881527640283,
    -0.15050254848094716,
    -1.6858155165445985,
    0.6345216053557481,
    -0.2455885104440402,
    -1.03025373611522,
    -0.5314270129360288,
    0.6408292408442992,
    1.0497296745281717,
    0.01939172514664622,
    -0.1342259682748088,
    -1.777241434835322,
    -1.5681254530011248,
    -0.35118023666828707,
    0.6025360682043428,
    -1.3448630973244717,
    -0.8288367507319343,
    1.3813867009150016,
    -1.7938679411849738,
    1.1711865831260249,
    1.6357958127760632,
    0.3521443430225436,
    0.8008651316701808,
    -1.0360734866607022,
    -0.770061521596761,
    -1.246858715237114,
    -0.06726719075543172,
    3.5718904505548563,
    -0.89125895936904,
    0.4631857856915614,
    -1.3278164214303871,
    -1.1718130409538083,
    -0.2415037344242804,
    -0.5740833743103809,
    0.602250481661349,
    0.23280827881863256,
    0.23627381198721,
    -0.8054697023587375,
    0.11253974642697956,
    -0.3557807126965339,
    2.0678921059931885,
    2.7598197114311955,
    0.3322640833897984,
    -1.030495684547381,
    -0.37129526146732655,
    0.0007427172972956045,
    0.7629356752420444,
    -0.5468780638852697,
    -0.6044003902561352,
    1.6021365322929917,
    -0.9052424051560617
  ],
  "best_ctrl_weights": [
    1.33046153673511,
    -0.08449936673867844,
    1.1588495994470966,
    -0.608729601251733,
    -1.1832066074238987,
    1.6249638068768932,
    -0.19621179014348794,
    -0.7682009637593291,
    -0.9919347790544008,
    -1.819618444399603,
    -0.43130465779718774,
    -0.7907275910125334,
    -1.6070640852068927,
    -0.0012159310593887315,
    -1.4491261731387433,
    -0.583733963539854,
    0.4269694551434144,
    -0.1422834344850295,
    0.3730896545518886,
    0.16740897477614478,
    -0.5834766597574308,
    -0.07449517209607573,
    0.7888979306336881,
    -0.9893919208844828,
    0.0908693743173887,
    -0.821811801843293,
    3.035408942138625,
    -1.1151562839689855,
    -0.6204291402890305,
    -0.7662436250198124,
    0.5115699035202358,
    -0.030021086552539294,
    -2.2809834505048348,
    0.7333668868226509,
    -0.21426682840362152,
    0.806913382503207,
    0.3960768909090579,
    0.5985017927290869,
    -0.5818239108173044,
    0.2917327929784449,
    0.1434796733544448,
    -1.373521039627547,
    -0.8601213285510562,
    -1.0119085108879333,
    -1.0760548275422794,
    -0.12626104106819824,
    0.8320690526489407,
    -0.6407992540590131,
    0.7008509976576964,
    1.6118261265872664,
    -0.4633037623541164,
    0.17820908344833467,
    -1.3172537830881652,
    2.694826521697794,
    -0.6130761994422609,
    0.6517775718866831,
    -0.48549279392910866,
    0.482074958758667,
    -0.23162690763519203,
    -0.4392023816960422,
    1.425394619589015,
    -1.147670268317127,
    0.1600729895478704,
    -0.6325754335493319,
    -0.2299112090385896,
    0.44835849124666566,
    -1.4227456541095174,
    1.7790612438177837,
    0.29278561492910266,
    -0.8327679124300932,
    -0.16340297000625006,
    -0.9677620498879739,
    -0.6305781981230125,
    -0.0909102961476783,
    -0.5983765158287078,
    -0.5436387788937214,
    -0.9786081972066012,
    0.48512238843129984,
    0.6074570108278143,
    0.6791197340748119,
    -0.562624976702658,
    1.2740352002400954,
    1.0059858973201614,
    1.2587892882336977,
    -2.538386293753998,
    -0.3679292141338317,
    -0.2253953485689129,
    1.297002248703416,
    -0.2178608820908192,
    0.7615886779150488,
    1.6891723803006866,
    0.18728500766534686,
    -0.16693453578020684,
    -1.6432246144096634,
    1.9667711330193403,
    2.461195448090606,
    0.1457154013921543,
    0.014760730208994282,
    -0.7995848805995414,
    0.7457437652549213,
    0.5055611896737146,
    -1.2227037082104952,
    0.6042705320330305,
    -0.14499438566966125,
    0.10871722595716572,
    1.5013893801244094,
    -1.3884333663484512,
    1.3134766573508574,
    -0.2934728785877461,
    0.9955449953948442,
    -0.0020142859723251048,
    2.643868795595985,
    1.9505149246923001,
    -1.5518832558326,
    0.8455642330950662,
    0.03581690876776711,
    0.11471394460396757,
    -0.0804918502246363,
    -0.24786394431324174,
    -1.084223202747722,
    0.5002041775432927,
    0.9704533263450096,
    -0.45866154366157413,
    0.9390311358177815,
    -1.4285581465394275,
    -0.32110593843400725,
    -0.5368590946636552,
    -1.0403744640037387,
    -1.0548254195308844,
    -1.797852008223381,
    1.4793953826143174,
    -0.4853612916992403,
    -0.28563554834709215,
    -0.20936163273220243,
    -3.0918318285522104,
    0.3428869688456008,
    0.37511081507836563,
    0.27717147724252916,
    -1.2410629028150124,
    0.9225371461861887,
    -0.07762045731057275,
    -0.1585963538286168,
    -0.3597861670991603,
    -0.3455112377205043,
    0.9503103581725219,
    -0.0318351963968154,
    -0.26884925562844225,
    1.1975020428224372,
    1.0077421644603397,
    -0.32278692434097533,
    0.4844700029966335,
    -0.8248794033083595,
    1.632749350754269,
    0.7366601153545717,
    -0.851501863712654,
    -0.6526779773995764,
    0.36719082635273925,
    -0.03129942980365394,
    -1.4314680932277608,
    -0.5871481005328155,
    -1.4218637202854854,
    -0.9960562832794501,
    -0.23173369798280455,
    0.3997463838334677,
    0.22042317256879412,
    -1.940965105644567,
    -0.26893066580754155,
    0.41852794030505724,
    -0.38900677563078523,
    0.6463962983788669,
    2.2279426391315735,
    -0.02909996836467067,
    -2.6500473670822022,
    -0.9972639433461817,
    2.3067972003870807,
    -0.21504635625220114,
    -1.0206014985829512,
    -0.12458507615591817,
    1.0061164118579835,
    0.13754224548280258,
    0.364167505822776,
    -0.6267816903894369,
    0.85892470719357,
    0.5074116009561088,
    -0.44793587057215933,
    -1.3888378830066168,
    1.2344054738378014,
    -0.6611573103506153,
    -2.340488238797581,
    -0.7135796855599368,
    -0.275409845102228,
    -0.762647204222471,
    -1.0487220046120578,
    -0.40752090909688643,
    -1.2778847533128848,
    1.7315894763030302,
    -0.045223196789117855,
    0.6697666644349614,
    0.9824694892128429,
    -0.8620240543634918,
    0.0644897156653218,
    0.07706177956753178,
    0.7100286152353197,
    -2.1705413775984903,
    -0.7994782794580378,
    -0.4903107150657767,
    0.4099687311654962,
    -0.45229868355260894,
    0.5886084857361173,
    1.1676049310265966,
    -0.12167423036557498,
    -1.4169426940440843,
    0.6094435875293903,
    -0.9813005598322841,
    0.999278055139098,
    -0.22019211948181,
    -0.7437569995793886,
    0.5087769219886071,
    -0.40554612313859373,
    0.08561545409741977,
    -2.127886310374649,
    -0.7035651736897247,
    1.777513769705236,
    0.38481204950685743,
    0.16504152034962635,
    1.3528756814387641,
    2.4895310196311717,
    0.014394663524880537,
    0.6742073968543657,
    -0.8608979387155222,
    0.2720598568407108,
    -0.7375155566430974,
    0.6601033889865358,
    0.7538979720035195,
    -0.9013283757622761,
    -0.40722015066213035,
    -0.8644698340234271,
    -1.2507240137784,
    -0.4702567972418829,
    0.3295226956471411,
    -1.0058799294143743,
    0.7926399430641231,
    1.6282161962796764,
    -0.5849262191331436,
    -0.12963706935469868,
    -0.5875646619357345,
    0.947534309936622,
    -1.0166933718547178,
    0.7254660062827261,
    0.28768103306863096,
    -0.91278807024282,
    1.6063505278286418,
    0.6462192203750148,
    -1.1691517853688564,
    -1.0254095876795706,
    -0.5718221142568441,
    0.05437976261796424,
    0.3597454419575586,
    -0.19945810365909408,
    1.1767435618084265,
    -0.7927021260659702,
    -0.7681162061821991,
    0.5988725561467982,
    -1.0469653683219278,
    -1.88230671968487,
    0.8899372717722237,
    2.070152811909655,
    -0.17165164578821318,
    -1.2738591963925237,
    0.47784814058240094,
    0.5624863683683505,
    2.030637039357268,
    0.01458651174512643,
    0.750478747600104,
    0.705506193968781,
    -0.8847050420011268,
    1.234706440869437,
    -2.4194960395791214,
    -1.2211324459770112,
    -1.9777537472354398,
    -1.705682876128989,
    0.07435570902605261,
    -1.2434582390133522,
    -0.08364479590202271,
    0.012297627344322978,
    0.6008091913245562,
    -0.6414092307457312,
    1.187249391515738,
    1.1957824275606606,
    0.9228740340368109,
    0.05300551060406903,
    -0.7009356536679131,
    -0.22107407786574143,
    -0.004307710725443412,
    0.6369490522606744,
    -0.08747830732742821,
    -0.49072768010930407,
    0.9867439861666768,
    -1.1860947506636064,
    1.949698767745053,
    -0.10185693712671738,
    0.34937845315587557,
    -0.4541046339531983,
    0.8147318097160586,
    -0.44636215910594107,
    0.17613512511413731,
    -0.9468175798126819,
    -0.3564924726950513,
    -0.6675786167454553,
    -0.4265072984478252,
    -0.9792486370582627,
    -0.6407448542875178,
    0.7009298797589341,
    -0.8995446855903922,
    -1.7017766252068307,
    -1.8768147047865196,
    1.4307945311282955,
    -1.6514309093296704,
    0.11345002796635928,
    -0.7419093342225364,
    -0.19314059726905328,
    -0.4558176423467358,
    1.3343550621317593,
    -0.6409819516847229,
    0.02687752840729666,
    1.5157043951054097,
    0.6174023675072575,
    -0.7686210043898555,
    -0.5280577346955115,
    0.553730390429175,
    1.1485902069170426,
    1.85225824953318,
    0.3097150725917261,
    -1.2943593122157564,
    2.720403328964854,
    -0.6731574758613613,
    0.6072722294570797,
    0.07607515269796174,
    1.3373889827334653,
    0.75343554446268,
    0.7205956907939192,
    -1.5017948543812556,
    0.2998418606010442,
    -1.5505520416650933,
    -0.3122195205786404,
    -2.0617642920669734,
    1.8725091890312588,
    0.839704321145755,
    0.6126853671735838,
    -1.5984128203768002,
    1.620419342654825,
    0.13027756799284723,
    -0.9343125057878314,
    -0.5895449677584211,
    0.8459058539263431,
    -2.0731714509008112,
    0.2517909060443214,
    0.08165712604397989,
    1.405499207313454,
    -0.6339738998666363,
    0.2355199238740253,
    -1.0614340324949623,
    -0.20461705445461564,
    1.2167241536908042,
    0.09098021402866392,
    0.0703175840829304,
    -1.380855465828547,
    0.9323117340168229,
    0.36245290970554084,
    -3.207977692340013,
    1.305906865212207,
    0.2508850543978368,
    1.0810714246401238,
    0.825928215479707,
    -0.45179441895350436,
    0.16457280736278618,
    1.0660455719570894,
    -0.18239020646486537,
    1.1280277163228838,
    0.5453451606418415,
    0.07474011973755984,
    0.07756056796835335,
    1.829086856960699,
    -0.9426916720786321,
    0.23288263635841402,
    1.48350013708085,
    -1.0453520302424517,
    0.5658071838884097,
    -1.109508202865691,
    0.7663704466271893,
    1.8823637888918066,
    0.697676720989796,
    -1.6343733498128878,
    -0.4711532810264667,
    -1.4999550055294653,
    0.48400209559249807,
    1.6615284235545813,
    2.1386935264572475,
    -0.2205929901293489,
    -2.6104981548472947,
    0.200002415786241,
    0.9802054263219546,
    1.061020702031426,
    0.38199154025029713,
    -1.028362607883987,
    1.3082498126176423,
    0.3774483329665543,
    -1.3132741172327427,
    -1.212060477457676,
    -0.6444938227278175,
    1.0323930166028477,
    0.5181319158219867,
    -0.2121723589344535,
    -0.8994972814157371,
    0.4117221504744084,
    0.008491638816906533,
    0.3326893142823104,
    1.2765831151584943,
    -1.2469959428442094
  ],
  "best_morphology": [
    [
      3,
      3,
      3,
      3,
      3,
      3,
      3,
      3
    ],
    [
      3,
      3,
      3,
      3,
      3,
      3,
      3,
      3
    ],
    [
      3,
      3,
      3,
      3,
      3,
      3,
      3,
      3
    ],
    [
      3,
      3,
      3,
      3,
      3,
      3,
      3,
      3
    ],
    [
      3,
      3,
      3,
      3,
      3,
      3,
      3,
      3
    ],
    [
      3,
      3,
      3,
      3,
      3,
      3,
      3,
      3
    ],
    [
      2,
      3,
      3,
      3,
      3,
      3,
      3,
      3
    ],
    [
      2,
      2,
      3,
      3,
      3,
      3,
      3,
      3
    ]
  ],
  "all_fitnesses": [
    -789.1499586563729,
    -88.79474573719554,
    6.532974747220521,
    -1.110989490159625,
    135.95286618846637,
    5.524831082843093,
    -0.651315453281768,
    -3.0455895176965555,
    17.294470173204274,
    18.57934211254593,
    5.7325655348297175,
    60.36079489337146,
    -8.603398920702858,
    0.9453837089214403,
    -17.82587474497052,
    3.1279951437689704,
    1.3579476670568624,
    4.083404616148357,
    0.0642842008513469,
    -73.68039615643647
  ]
}