{
  "generation": 14,
  "best_fitness": 1552.1341092729542,
  "mean_fitness": 284.3523510992783,
  "best_morph_weights": [
    -2.2084711924625706,
    -0.3043544598836106,
    -0.8025139168160773,
    -0.49066343705155807,
    -2.000288503294703,
    1.0784572446933796,
    1.9539646087560827,
    -1.2944881531560148,
    -0.3319148480155248,
    -0.6311415140963591,
    -1.4328911781362847,
    -4.523311851692871,
    -0.745933818010971,
    0.1159845087269983,
    0.24819496109870426,
    -0.9468154207196045,
    -0.4928977404894464,
    0.6326987168902266,
    2.9260190332408396,
    -2.0852702143194985,
    -0.9156753938350326,
    -1.762899589705203,
    -2.426595911055736,
    -0.3175843701094889,
    0.31251133258038916,
    0.24925972483266376,
    -1.1530873028159054,
    -0.20893107322567267,
    0.01579968612314356,
    -1.1817470976638715,
    -0.43643750957796906,
    1.1083391750538032,
    -0.5617682076072199,
    -0.7555892075782435,
    -1.831730016770825,
    1.481372656103584,
    -0.5023291276805023,
    1.5785047528669338,
    -0.5994613382518971,
    2.9066505455294687,
    -1.1545328774605124,
    -2.4260870332893267,
    -1.2094535275023215,
    -0.6201524976701784,
    -1.064906986543494,
    -0.12270777800901589,
    1.7535096324686807,
    -0.2005130999551507,
    -0.4370071021146076,
    -0.4269559738831934,
    -0.3966365252687607,
    -0.33162904648148445,
    0.08873032750148889,
    -1.1356398830318017,
    0.46185139479775644,
    0.8340283962709139,
    1.1342106958881826,
    0.8151769956024411,
    -0.31122487345251526,
    0.4431001794529569,
    -2.1279142611569255,
    -1.878541326724248,
    -0.2965093454805164,
    -1.9820853131905298,
    2.411573731455578,
    -0.7816681268522795,
    -0.3281882179552859,
    0.42016308894849874,
    -0.9407865570810475,
    -0.23087508150901015,
    1.2330300940758172,
    0.9392449108566311,
    1.0054129326022536,
    0.28407737896229635,
    -0.2875289673770213,
    0.4542324185922659,
    0.8248801454652676,
    1.9957003694965074,
    0.4360709150463351,
    -1.0353351479678208,
    0.3149746723132315,
    0.5739144623297481,
    1.55913427061131,
    0.6824102720646004,
    -1.0365508984665415,
    -1.1728747943949445,
    0.8046224335776291,
    0.8447765956382197,
    -0.9798190448136317,
    -2.628906414047224,
    0.9781095680020493,
    0.8064926249796491,
    -0.8401114586620839,
    0.7657302733505859,
    -0.20445522361679713,
    0.3776791724201373,
    1.089050479275898,
    -0.10913200558057867,
    -0.9821145756761878,
    1.2190533022362742,
    -0.018492470564584584,
    1.0891480863749887,
    1.2377415298173418,
    0.0889493287550771,
    0.04854970183902795,
    -1.3725089323072999,
    -1.1316210539325096,
    -0.6941041594391077,
    -1.179085378136595,
    1.0901323471753894,
    -0.8999379025120753,
    -0.25672600495587056,
    -0.4158150413712397,
    -1.4943963409620986,
    0.3284231219426278,
    -1.2395186884667593,
    -3.53399347273478,
    -1.2167667837484093,
    -0.2905741101138905,
    -1.2079168976181665,
    -1.8449582383600662,
    -0.014237592281701184,
    -1.2640764085907668,
    0.3435171403301238,
    1.221234390683455,
    1.4718995400764017,
    -1.1989900919601364,
    -0.16785207499295057,
    -0.9072679272549797,
    0.27227976469956416,
    0.448083566323563,
    -0.8655616599522596,
    -0.07358301173242471,
    -0.16684613086443378,
    0.9567099581908297,
    2.6465189273632332,
    0.34604467765388386,
    0.12881505192152426,
    -0.8119483093181311,
    0.9984521804766763,
    0.07044137630564354,
    0.4872246778736085,
    1.3652680313988448,
    0.5105681884314488,
    0.024410085761360445,
    -0.7649004211326165,
    -0.8934271433688851,
    -1.2017677745611484,
    2.0136989311602966,
    2.249786878203281,
    0.9360193714851579,
    -0.560892618930984,
    -1.0521542057090882,
    0.1149827656106038,
    0.4292596524093253,
    -1.0388204505068692,
    -0.2830449511876631,
    -0.39196782448874645,
    -1.799584804357334,
    -1.4734135502709256,
    -0.9248588258541606,
    -1.2778495331925057,
    1.50377098366668,
    2.228980298198762,
    -1.0095225823368215,
    -0.47845792863953546,
    0.17866883980654047,
    0.009092560776921277,
    1.0485061850114943,
    -2.0804492786091338,
    0.044863076628076023,
    1.9756282417393207,
    0.5166579646570898,
    1.15325364857615,
    0.9938756652537047,
    1.8364788386981599,
    -2.1312150238049883,
    -0.8196412396533806,
    -1.3639021014658361,
    -0.5029157346443107,
    -1.0977637784790522,
    -1.589681543477726,
    1.0384487725122762,
    0.8154308418311177,
    -0.553557952352016,
    -2.4867570182716783,
    1.8729278953617712,
    -0.055994287717091695,
    1.3222365549891064,
    -0.9256480178878963,
    0.5079977578649805,
    -0.5617989375251525,
    -1.7997497664592728,
    -1.9238562581159568,
    -0.9443750366389616,
    -0.018535522582259125,
    0.1959970276226543,
    1.5978841107833341,
    0.8896053641266297,
    0.09873023472623882,
    -0.4070287017016039,
    0.33359284863785654,
    1.311479843002006,
    -1.4386001400781046,
    -0.19882876590084045,
    -0.4173605627526712,
    0.12616225063302544,
    -2.814242672654433,
    -1.1578650454080197,
    1.0683052266063657,
    0.719096855558367,
    -0.9392190220282112,
    -0.3483886170319432,
    -0.18641467281964655,
    -1.0968646101343666,
    0.6178752613439238,
    -2.11476137805257,
    -1.892629761054896,
    2.361550206932464,
    0.09067720419749281,
    -0.314947054703808,
    0.3434084980374987,
    -0.511039932215969,
    -0.1176689065458037,
    -0.19995944890527825,
    2.3779665221469823,
    -2.280785153287893,
    -0.12111775393241653,
    0.2443253441495441,
    0.39949306009843094,
    0.08474856546197979,
    1.2802672347297257,
    -0.09691815134622048,
    -0.4286758249879592,
    -1.2430543933627964,
    0.032905279113924546,
    -1.8132641412094832,
    0.2655253749721174,
    -0.5291727941603129,
    0.9583428494876614,
    1.292007845093815,
    1.4643220398414387,
    -0.0733469463606105,
    1.604169683056235,
    -0.04577630296715046,
    -0.7992121300025977,
    0.4726430484079819,
    1.231934836882966,
    -1.1957860192240557,
    0.5246805113323181,
    -2.6279043006908402,
    1.632748983773399,
    0.3278877277069784,
    0.7626445770800973,
    1.1850440588918123,
    0.5168904118930663,
    -0.3736829838749681,
    -0.468973348757664,
    -0.8410177590861107,
    0.12513495460101765,
    0.8558915375321747,
    0.4383281709998183,
    0.1230642572271756,
    0.2997599646965591,
    0.3652167337137218,
    1.4140091469098075,
    1.5977374425214803,
    -0.2802147529391651,
    0.6610498437565908,
    1.192352173544231,
    0.1539051523201748,
    0.26099880413479004,
    0.589647888411422,
    -0.020178858438790862,
    1.7587468422924428,
    1.7914046462949687,
    -0.08807487516531776,
    0.03197582719471942,
    -0.38381649589015354,
    2.0011727227748923,
    -0.44487415995176344,
    0.9498774804775133,
    -0.6051260415883597,
    0.31312551619565043,
    -0.6626322147142529,
    0.6349635191919774,
    -0.6981189676448003,
    -0.633109536128754,
    1.9127992473490214,
    -0.4745069196886011,
    1.5350047297440996,
    0.5218816431114679,
    -0.9107430519992195,
    -0.9516721312677814,
    -0.24872893168624782,
    -0.13701861640541219,
    -0.3693353578148506,
    -0.026649780108214075,
    1.1887898860389938,
    0.44882788941136076,
    0.5343482102670256,
    -0.8497027221003052,
    -1.509839298635145,
    0.6021942577389167,
    0.1659398499827992,
    -1.894327870044151,
    0.7538444637420768,
    0.4162170100812532,
    -0.7305610378352779,
    -0.9985860650137862,
    2.2822126569763594,
    -1.0634311379447405,
    -0.9528825927218363,
    -0.7179528900653219,
    0.20845695107375067,
    1.2360332801643978,
    -0.16338250959923764,
    -0.8537538864257751,
    1.3878743432746745,
    0.010209417447427566,
    -0.395080549902941,
    1.2461500543954134,
    0.3188042422282571,
    -0.09797400583141405,
    0.8410243067734975,
    -0.9960283660233672,
    0.49961203399944604,
    -1.5036367395263373,
    0.5013986176176439,
    1.5606088168001042,
    -0.5527841912044285,
    1.5130795383661046,
    1.6574295196647826,
    -0.06112229447429898,
    1.114831656970366,
    0.5630387730341361,
    -0.2971642085194182,
    0.4202825408546733,
    0.29507162176538976,
    -0.453054691578637,
    -1.0178717258178687,
    -0.2338764578839664,
    0.9897740528826384,
    0.5424842008751848,
    0.37074164427970996,
    1.2594167177897944,
    -0.1053333663988299,
    -2.8429608447046455,
    -0.26848036034364303,
    2.073768223232696,
    0.8051899015786469,
    0.8215101566789712,
    2.283946709637405,
    -0.8974350132998495,
    0.8018456869472121,
    -1.4525570025272887,
    0.32114838118688877,
    0.8644561392718695,
    -0.27209518699425744,
    -0.11228368303347736,
    0.5297503520812044,
    0.25129533224441764,
    1.778671005255192,
    -0.7743578914398352,
    0.8513465547095943,
    0.5637171380905343,
    -1.1750395141357497,
    1.1669842831679949,
    1.424122103786876,
    0.09401159705325463,
    -1.320869862938284,
    0.7272967456696626,
    0.31828330113184594,
    0.002949933544371619,
    -0.09720470470923709,
    0.8987537482666029,
    0.17373556250748878,
    -1.424165236156182,
    -2.190459410661135,
    -0.6799695495899045,
    1.138507968737647,
    0.0930231306937897,
    -0.27290525276331773,
    0.11685229192589047,
    -0.4729614412960653,
    0.7594845323923105,
    1.7342378702165737,
    0.6181682534453519,
    -0.10246997982945576,
    -0.15575146351303565,
    1.1078993720536832,
    0.266580482936693,
    0.11912918911072454,
    1.5396430059822663,
    -0.5489765933413979,
    -1.5365786044383558,
    0.4239207631537043,
    0.03949484195667574,
    -0.6633418136194664,
    -0.8412160518841929,
    1.173283690647979,
    0.778302029726295,
    -1.3877942294019205,
    0.8774480832230568,
    -0.6878698692201998,
    1.5872725233883642,
    0.4538595602030864,
    -0.1186176463798908,
    -0.056859142327453524,
    0.9080953868280892,
    0.44756766982564994,
    0.8004818147121472,
    0.02432932478171068,
    0.9385971635033065,
    -2.0547535850339953,
    0.9401535646033716,
    -0.3674405020306693,
    0.29373119971379924,
    1.1271208941848618,
    -0.7503535550108774,
    -1.4936161683082834,
    -0.6398136194591431,
    -0.6420142492665319,
    -0.2656048669863349,
    -2.292047846618131,
    0.9044075630600048,
    0.0919488609890966,
    0.46021116824189545,
    -0.02351994801240655,
    0.7228759231175697,
    -1.9370808162822495,
    2.357909978020447,
    0.49303337932719316,
    -1.9538072808464977,
    -1.6028236746934619,
    -0.8926465178360583,
    0.007092465055358099,
    0.19690422138116812,
    0.6728240212026589,
    2.176988903285216,
    0.31670176349871276,
    1.096669758087803,
    1.2907823514007064,
    1.3568923522742125,
    0.8446646558389087,
    -0.27492605971139744,
    -0.9095694421275898,
    -0.46215533803374476,
    0.40518837605034297,
    -0.14822541928013844,
    -1.3872330572973488,
    0.9649147543676102,
    -1.3420332025119102
  ],
  "best_ctrl_weights": [
    1.206035341196313,
    -0.30670160584372474,
    -0.8409852309719501,
    -0.7024405728271855,
    -0.7841218897236005,
    -0.9464741590558656,
    0.3906497634478069,
    0.24052163189319176,
    1.6099310204307145,
    -1.6410944463613213,
    -0.3277404711312298,
    -0.7907275910125334,
    -1.6070640852068927,
    -0.041695282793368156,
    -0.997784361715855,
    -0.583733963539854,
    0.615043461794767,
    0.3439569859732481,
    0.3730896545518886,
    -0.11990410193641118,
    -0.4018375855114803,
    -0.07449517209607573,
    1.6047508395027905,
    -0.9893919208844828,
    1.466109800206201,
    0.1463567456868653,
    0.5115371940434071,
    0.8687730846234004,
    1.7545680222071482,
    0.025264917723244514,
    0.03439883885171313,
    0.9167142502462238,
    0.6412316053894968,
    1.3316522306463385,
    0.004570676363003512,
    0.7574277489593798,
    -2.2430559952730262,
    0.23927620994917548,
    0.3173442891072748,
    0.31075036248867877,
    0.6956177344514654,
    -0.2245298209993517,
    0.03316176452434362,
    1.2667294222576997,
    0.4411903786486934,
    1.157295826664832,
    -0.5464392030647368,
    -0.30419092639235634,
    0.07101511137124406,
    -0.327715234255086,
    -0.25045915212015124,
    -0.09901387125316286,
    -0.8407307057693694,
    0.08030176836208738,
    -1.2930882748899282,
    -0.9596673501726612,
    0.5742836004630527,
    -0.1209329984745578,
    -1.4648134031633215,
    0.5207951137335189,
    -1.1933608803243547,
    -0.9417010569077917,
    0.8949371442732342,
    -0.6170045582783142,
    1.0203544404408769,
    0.2916946029634461,
    -0.6003413311657094,
    1.123783310303517,
    -2.244659248587676,
    -1.0063127872555824,
    0.12842445257618473,
    0.7953203253382157,
    0.46290112187845783,
    -0.8309074132121472,
    -0.8822727355233322,
    -0.8482412221970809,
    0.6711411867956779,
    -1.5119821808140235,
    1.0393230824820907,
    -2.506483287189279,
    1.2901890923407697,
    -0.2983965274516311,
    0.13718254512871203,
    -1.9937433747429376,
    -1.2360661218352549,
    0.6373027037488319,
    -0.4393301516481355,
    0.6360411853975544,
    -1.8633740328399617,
    0.44664272754089285,
    -0.23651454795539445,
    0.3739649899149623,
    -0.1404302654769401,
    0.4713963167054675,
    1.4440808205170463,
    -0.9216547990839635,
    0.8999036014000875,
    -0.5338608990735716,
    -0.12140324970436434,
    0.7061386906017915,
    0.5409245569111517,
    -0.017208316519760986,
    0.01711624387800635,
    1.0893646058251165,
    -1.090652065291241,
    0.3757807366717196,
    1.5388671890103334,
    -1.4438172917527878,
    0.6433217188660793,
    -0.4712697041006609,
    0.33678094816498094,
    -1.4595221404786602,
    -1.0387053984212924,
    0.08243278123057869,
    1.0320043791733087,
    -0.9860088155052403,
    0.11510117160405847,
    -0.20370136003827988,
    -0.7838417556742151,
    -0.5285901177830757,
    -1.2662028341736962,
    -2.1245478023841544,
    1.4384456500529903,
    0.29415750600032026,
    -1.0834117193839892,
    0.5315479683950004,
    -0.1485805961736104,
    -2.072272378206043,
    0.8946857416956091,
    -1.4988416949744843,
    -0.15880355254172746,
    -0.5870052902255221,
    0.4310795966519699,
    1.1066803470050752,
    -1.3931157936534915,
    -0.02370943156118488,
    0.5454266461669453,
    -0.9581887386261212,
    0.4373413488621175,
    0.4275657547942693,
    -2.03790948760244,
    0.5737218024119712,
    2.295097998186383,
    -0.3640649058922469,
    -0.7224125379637734,
    0.2193486776292053,
    -0.13177788230770182,
    0.8438710525482267,
    -0.34667602465840097,
    1.2843789205582155,
    -0.5808899090099795,
    0.3189998584047483,
    -0.614466798078733,
    -2.131986651313696,
    -2.077351971983878,
    -1.1902532347908328,
    -1.6715846135080699,
    0.33226856415214057,
    -1.3399142363918317,
    0.8965706271083772,
    -0.28677167667494663,
    1.4465137630161324,
    -1.0348365447678585,
    -0.16171688820983743,
    0.9576956242900814,
    -1.2533914955415597,
    0.5098806247811274,
    -0.5750527109318384,
    -0.2415009137979155,
    0.7845969063894005,
    -0.14200997856415623,
    0.37161433183792403,
    0.673202047087372,
    1.8272162212364256,
    -0.5535066196331496,
    0.7111427836722091,
    -0.4219575139657997,
    -1.3033082823372637,
    0.1796772390714169,
    -1.3729839812606026,
    -0.7021462816269002,
    1.1480392935110753,
    1.6110073390039554,
    -0.569355706443618,
    0.005751555941548803,
    2.5926281475308843,
    0.7611272602212914,
    0.19894225627071233,
    -0.5665304695354878,
    2.076687030568656,
    1.4895037415787205,
    -0.14265004331305292,
    -0.38581011199377996,
    -0.29637505405888076,
    0.03944357829294379,
    0.8321279619503041,
    -0.49670360499237154,
    -0.037499615781466544,
    0.17744372981055015,
    -0.25661067478070126,
    0.8227892859340906,
    0.7917801551539919,
    0.22689192084595838,
    0.2066888978119832,
    0.32898872337160207,
    -0.044110085643747514,
    -1.0887666967221317,
    -1.7951504805241627,
    0.38053734704995645,
    -1.6420892396968312,
    0.10191254071741371,
    -0.7452552661145888,
    -2.6902169843614026,
    -1.6742751704375178,
    0.5704081811265818,
    1.45565577137,
    -0.7615631819248965,
    0.38604287103492924,
    0.7043289147620039,
    -0.7953314484579371,
    1.9735415049363954,
    -0.9122550905487291,
    -2.1359863530549412,
    1.4824997815432694,
    -0.4623926553240431,
    -1.007488322272333,
    0.912744406408542,
    1.0214397529906891,
    -0.8397834525410075,
    -1.9171652564991706,
    0.851882576821911,
    -1.0416292205521605,
    -4.526508804592697,
    -1.0092477151845825,
    0.7060373307004236,
    -1.8308376630463883,
    -0.03392584857930886,
    1.5016294699889394,
    0.5467153636554246,
    -1.482098134233754,
    -0.05191131289150888,
    0.5392958864419076,
    -1.011949136362846,
    -0.7749036511856274,
    -0.06514784888656816,
    -1.044853156132475,
    0.6258129020754282,
    0.036587086510266764,
    -0.5071493495118389,
    0.17611235280179632,
    -0.4926267604484364,
    -1.2293053866982002,
    -1.2549237878914674,
    -0.7511741227105032,
    -0.5877994411567237,
    0.274537447970603,
    -0.06452294577401813,
    -0.31757129318903377,
    0.27789171202048235,
    -3.178594453105927,
    0.2325811717536933,
    0.7031800596791778,
    0.020257027610562917,
    -0.03706885639907071,
    -0.9761750522564945,
    0.30595492033615057,
    2.6408476283714384,
    -0.17165164578821318,
    -1.2738591963925237,
    0.4802070101614508,
    0.9142270255228184,
    1.7874296634927398,
    0.01458651174512643,
    0.750478747600104,
    1.041227211007505,
    -0.8847050420011268,
    0.6745633713283811,
    -2.4194960395791214,
    -1.399037701437843,
    -1.6610018210040132,
    -1.1070295871236286,
    0.07435570902605261,
    -0.5377433739011827,
    -0.2537900317562999,
    0.012802594122987598,
    0.6008091913245562,
    -0.6414092307457312,
    1.8654283013498305,
    0.2816793952284167,
    0.5688750046575519,
    1.1109012807344376,
    -0.7009356536679131,
    -0.3079004973971145,
    -0.15380463420591098,
    0.519142654969108,
    -0.08747830732742821,
    -0.16548493449096568,
    1.3863295469581662,
    -0.280761110807824,
    1.949698767745053,
    -0.10185693712671738,
    0.26291914742456923,
    0.061336008810627896,
    0.9102068758771906,
    -0.44636215910594107,
    0.16510188750179394,
    -0.9468175798126819,
    0.049703671880685044,
    -0.48900863841382336,
    -0.8072392533945291,
    -0.6006284924417781,
    -0.32079383480068757,
    1.223863418592661,
    -0.2646823065763029,
    -1.7017766252068307,
    -1.281638834021545,
    1.0391367176689925,
    -0.7781449696154277,
    -0.07807331642465543,
    0.08511391764173859,
    -0.7526492982616885,
    -0.7561640023103909,
    2.3993392238532025,
    -0.39801826999314077,
    0.02687752840729666,
    0.9227590379406523,
    0.19308099106108817,
    -0.14952954886632608,
    -0.961157956110505,
    0.553730390429175,
    1.7839454035497269,
    2.452278567246129,
    -0.017236996326601695,
    -2.0100534383019006,
    2.834056154964331,
    -1.5680934693176054,
    0.6072722294570797,
    -0.07808212002224092,
    0.9459754994848935,
    0.75343554446268,
    0.7205956907939192,
    -1.5017948543812556,
    -0.10671978834948564,
    -1.5505520416650933,
    0.24206710436829443,
    -1.924092190867984,
    1.4515325526450045,
    0.839704321145755,
    0.6126853671735838,
    -1.3903447469169674,
    1.5350032244149807,
    0.6499693609553467,
    -1.1623759353576262,
    -0.6686885616618236,
    0.1439435880776797,
    -3.3700119180517225,
    0.2517909060443214,
    -0.9645381844010578,
    1.405499207313454,
    -0.6339738998666363,
    1.3049067052092802,
    -1.2045328752860174,
    -0.23219377223569498,
    1.0119247410441843,
    0.7306616930385422,
    0.0703175840829304,
    -1.4390011426398606,
    1.0897308301540232,
    -0.49110166384219883,
    -3.207977692340013,
    1.305906865212207,
    1.5984783982685227,
    1.0810714246401238,
    0.9394176878207537,
    -0.08428967312235175,
    0.16457280736278618,
    1.0660455719570894,
    0.28218892779700794,
    0.745482567464074,
    0.5453451606418415,
    0.3207072330870794,
    -0.878269062217113,
    2.3238733639769245,
    -0.734670618923389,
    0.23288263635841402,
    1.0901939157340128,
    -1.0453520302424517,
    -0.3848168596575695,
    0.061936187953994304,
    -1.1638726716270196,
    0.2337296120644277,
    -0.36997925375404844,
    0.6520817589656003,
    -1.5868758207393558,
    -1.4089131282123344,
    1.1256315394372787,
    0.39598096639786634,
    2.0059627114666285,
    -0.021768526982857916,
    -1.1768409790993954,
    0.40171051768814703,
    -0.2541408399363691,
    1.2828189990554513,
    0.7857886579077216,
    0.05662206668405281,
    -1.3426295794474696,
    2.34846775810185,
    1.7255887808305692,
    -0.7576855113299903,
    -2.927958500109034,
    -0.5836284873623705,
    0.43867450281829007,
    1.128247150751236,
    2.3011832848323115,
    2.3427425075897634,
    0.6772037476965643,
    -0.7707255256617597,
    -2.0016524376188176,
    -1.0400185980022132
  ],
  "best_morphology": [
    [
      2,
      1,
      1,
      1,
      1,
      1,
      1,
      1
    ],
    [
      2,
      2,
      1,
      1,
      1,
      1,
      1,
      1
    ],
    [
      2,
      2,
      1,
      1,
      1,
      1,
      1,
      1
    ],
    [
      1,
      2,
      3,
      1,
      1,
      1,
      1,
      1
    ],
    [
      1,
      2,
      3,
      1,
      1,
      0,
      0,
      0
    ],
    [
      1,
      1,
      3,
      0,
      0,
      0,
      0,
      0
    ],
    [
      1,
      1,
      0,
      0,
      0,
      0,
      0,
      0
    ],
    [
      0,
      0,
      0,
      0,
      0,
      0,
      0,
      0
    ]
  ],
  "all_fitnesses": [
    1552.1341092729542,
    -101.18651479086094,
    977.0074106144834,
    520.2394216635184,
    530.5776365036115,
    99.33337453112046,
    188.62397678842598,
    51.304499451298454,
    158.48288191290243,
    1526.4342777644974,
    -240.87326968799897,
    796.185918343373,
    -47.83279518913963,
    -93.8809161777626,
    -106.32028988828657,
    361.18984631916766,
    -623.5092492528729,
    -18.716968890822017,
    -567.4834679180449,
    725.3371406160009
  ]
}