{
  "generation": 5,
  "best_fitness": 1447.6175935364024,
  "mean_fitness": 113.4714850461456,
  "best_morph_weights": [
    -2.2084711924625706,
    -0.3043544598836106,
    -1.051213972057994,
    0.28113587676819146,
    -2.290831654426555,
    1.6682341774284308,
    1.9539646087560827,
    -1.2944881531560148,
    -0.3211949819144553,
    -0.6311415140963591,
    -1.0763011069335713,
    -2.4497293688454875,
    -0.745933818010971,
    0.1159845087269983,
    0.24819496109870426,
    -0.9468154207196045,
    -0.4928977404894464,
    0.6326987168902266,
    2.9260190332408396,
    -2.0852702143194985,
    -0.9156753938350326,
    -1.762899589705203,
    -2.426595911055736,
    -0.3175843701094889,
    0.31251133258038916,
    0.24925972483266376,
    -1.1530873028159054,
    -0.20893107322567267,
    0.01579968612314356,
    -1.1817470976638715,
    -0.43643750957796906,
    1.1083391750538032,
    0.10472375667409084,
    -1.1023412887153925,
    -1.3578867358786673,
    1.481372656103584,
    -0.5023291276805023,
    1.5785047528669338,
    -0.5994613382518971,
    2.6645197517532537,
    -1.2367220065137186,
    -2.4260870332893267,
    -1.2094535275023215,
    -0.6201524976701784,
    -1.064906986543494,
    0.3895482711976833,
    1.310168952987073,
    -0.2005130999551507,
    -0.39830813145047467,
    0.49176043257325275,
    -0.3966365252687607,
    -0.33162904648148445,
    0.08873032750148889,
    -1.3876694184799068,
    0.46185139479775644,
    0.8340283962709139,
    0.5587258746389264,
    0.4058508816416799,
    -0.31122487345251526,
    0.4431001794529569,
    -2.1279142611569255,
    -1.6273554558568994,
    -0.2965093454805164,
    -1.9820853131905298,
    2.411573731455578,
    -1.0552026814448552,
    -0.3281882179552859,
    0.15254120670432708,
    -0.9407865570810475,
    0.03589970274636933,
    1.2330300940758172,
    0.9392449108566311,
    1.0054129326022536,
    0.28407737896229635,
    -0.2875289673770213,
    0.4542324185922659,
    0.8248801454652676,
    1.9957003694965074,
    0.4360709150463351,
    -1.0353351479678208,
    0.22411126265434733,
    -0.29980647155656137,
    1.1625099820736395,
    0.6824102720646004,
    -1.0365508984665415,
    -1.1728747943949445,
    0.8042783403306217,
    0.8447765956382197,
    -0.9798190448136317,
    -2.628906414047224,
    0.9781095680020493,
    0.9787264169113717,
    -0.8401114586620839,
    0.7657302733505859,
    -0.20445522361679713,
    0.6444928580612265,
    1.089050479275898,
    -0.10913200558057867,
    -0.9821145756761878,
    1.2190533022362742,
    -0.018492470564584584,
    1.0891480863749887,
    1.2377415298173418,
    -0.8094990593263507,
    0.04854970183902795,
    -1.3725089323072999,
    -1.0366709737720385,
    -0.6941041594391077,
    -1.179085378136595,
    1.0901323471753894,
    -0.8999379025120753,
    -0.25672600495587056,
    -0.4158150413712397,
    -1.3145616492801642,
    0.3284231219426278,
    -0.9431841256521204,
    -3.288117690538793,
    -1.2167667837484093,
    -0.2905741101138905,
    -1.2079168976181665,
    -1.8449582383600662,
    0.43035597743883136,
    -1.2640764085907668,
    1.2269844678718889,
    1.4485432219699903,
    1.4718995400764017,
    -1.097238650288304,
    0.24860593962883581,
    -0.5304285025289031,
    0.27227976469956416,
    0.448083566323563,
    -0.8655616599522596,
    0.3689348005859299,
    0.25080380759403775,
    1.5351712539038194,
    2.6465189273632332,
    0.2650342526399033,
    0.12881505192152426,
    -0.8119483093181311,
    0.9984521804766763,
    0.014808181542143672,
    0.4872246778736085,
    0.5221545323191678,
    0.5105681884314488,
    -0.18223202423311036,
    -0.6939676369196051,
    -0.8934271433688851,
    -1.2017677745611484,
    1.4537945711165186,
    1.3416189739879023,
    0.9360193714851579,
    -0.560892618930984,
    -1.0521542057090882,
    0.1149827656106038,
    0.4292596524093253,
    -1.0388204505068692,
    -0.2830449511876631,
    -0.39196782448874645,
    -2.152855999345432,
    -1.40428021798733,
    -0.9248588258541606,
    -1.1869831531371522,
    1.50377098366668,
    2.1099177404471283,
    -1.0095225823368215,
    -0.47845792863953546,
    0.17866883980654047,
    0.009092560776921277,
    1.0485061850114943,
    -1.3265885921053444,
    0.044863076628076023,
    1.9756282417393207,
    -0.7212242746110374,
    1.15325364857615,
    0.9938756652537047,
    1.8364788386981599,
    -1.7665624600207113,
    -0.645493257132799,
    -0.9383413872252409,
    -0.5029157346443107,
    -1.0977637784790522,
    -1.589681543477726,
    1.0384487725122762,
    0.8154308418311177,
    0.08756583433943321,
    -2.2673682354454145,
    1.8729278953617712,
    -0.055994287717091695,
    1.0379545338032583,
    -0.5208569259902176,
    0.5079977578649805,
    -0.5617989375251525,
    -1.7997497664592728,
    -1.9238562581159568,
    -0.9443750366389616,
    -0.018535522582259125,
    0.1959970276226543,
    1.5978841107833341,
    0.8896053641266297,
    -0.41557250577734306,
    -0.4070287017016039,
    0.33359284863785654,
    1.311479843002006,
    -1.4386001400781046,
    -0.2060954106643747,
    -0.29277494530260134,
    0.2624144022525491,
    -2.064824714839813,
    -1.1578650454080197,
    1.1496089605808073,
    0.719096855558367,
    -0.9392190220282112,
    -0.3483886170319432,
    -0.18641467281964655,
    -1.022999324651154,
    0.6178752613439238,
    -2.11476137805257,
    -1.892629761054896,
    1.5120704519027917,
    0.5738212654341418,
    -0.314947054703808,
    0.3434084980374987,
    -0.511039932215969,
    -0.1176689065458037,
    -0.19995944890527825,
    2.3779665221469823,
    -1.4279359291860678,
    -0.12111775393241653,
    -0.09858661532873532,
    0.39949306009843094,
    0.3784576894580812,
    1.1014273865534505,
    -0.09691815134622048,
    -0.9372505520794572,
    -1.3635078946669492,
    0.032905279113924546,
    -1.8132641412094832,
    0.2655253749721174,
    -1.4257603779062604,
    0.9583428494876614,
    1.292007845093815,
    1.4643220398414387,
    -0.0733469463606105,
    1.604169683056235,
    -0.3986044253722376,
    -0.7992121300025977,
    0.39407748095724476,
    -0.3145309935852227,
    -1.1957860192240557,
    0.5246805113323181,
    -2.6279043006908402,
    1.2262122845227619,
    0.5554367093781,
    0.7626445770800973,
    1.1850440588918123,
    1.0175086408631695,
    -0.3736829838749681,
    -0.468973348757664,
    -0.8410177590861107,
    0.12513495460101765,
    0.8558915375321747,
    0.4383281709998183,
    0.1230642572271756,
    0.2997599646965591,
    0.3652167337137218,
    1.2684326472841687,
    1.0808329223756294,
    -0.9689280515048804,
    0.6610498437565908,
    1.3441285606346574,
    0.1539051523201748,
    0.26099880413479004,
    1.194993855924345,
    -0.1503712190218344,
    1.3785300382412398,
    1.5032338746448886,
    0.7852890432260972,
    -1.283126592143631,
    -0.38381649589015354,
    2.754359705426266,
    0.4941954498840489,
    0.9498774804775133,
    -0.49346214798516125,
    0.31312551619565043,
    -0.045332721893539145,
    -0.035454647920273835,
    -0.1844151065393056,
    -0.6849027237940127,
    1.9127992473490214,
    -0.4745069196886011,
    1.9312841784538846,
    1.1730639177281181,
    0.9893124203193047,
    -0.8708752756599603,
    -0.24872893168624782,
    -0.3909763293026741,
    -1.3204342150697228,
    -0.026649780108214075,
    0.1693076481067115,
    0.44882788941136076,
    0.4746630613245194,
    -0.8497027221003052,
    -2.459278707521478,
    0.6021942577389167,
    1.0914716069031132,
    -2.027640546633485,
    0.41316989631254414,
    -0.10071781372042746,
    -1.2335550692957367,
    -0.4970608750007447,
    1.548281515288464,
    -1.0634311379447405,
    -0.370666604200158,
    -1.6476970937931021,
    0.7125226382591353,
    0.40914078387100866,
    -0.16338250959923764,
    -0.8537538864257751,
    0.7698600896105933,
    -0.1368853735008367,
    -0.47266572393185213,
    1.3224385696529128,
    1.0373297709803018,
    0.21756205625377376,
    0.8512135916082476,
    -0.928122544376362,
    0.07265472925070021,
    -1.5036367395263373,
    0.8906883284396013,
    1.5606088168001042,
    -1.8413886396568917,
    1.2034961332433562,
    1.6574295196647826,
    0.16207033395516712,
    1.114831656970366,
    0.5630387730341361,
    -0.2971642085194182,
    0.4233290288818641,
    -0.036688557625229434,
    0.05889175663225787,
    0.7890796439956705,
    -0.2338764578839664,
    0.47390099135731273,
    -0.11378901580881541,
    0.28513792516284125,
    0.6735242147672391,
    0.4680708800673025,
    -2.4593865319357735,
    -0.26848036034364303,
    1.036756610612086,
    0.24219478885076426,
    0.8215101566789712,
    1.9728720246029912,
    -2.6526875307794757,
    0.3314540827055455,
    -0.3272475355242868,
    0.32114838118688877,
    0.2906863507668101,
    -0.27209518699425744,
    -0.11228368303347736,
    0.22651509596054545,
    0.25129533224441764,
    1.778671005255192,
    -0.7743578914398352,
    0.8513465547095943,
    -0.14640870967179487,
    -1.347529481675559,
    1.0831340856901417,
    1.0057535189730478,
    0.784282346993174,
    -1.2237378065653426,
    1.3134252368724635,
    -0.8556668031386403,
    -0.4228445173091655,
    0.37196976107651963,
    1.2547786568061678,
    1.415456976781222,
    -1.424165236156182,
    -2.190459410661135,
    -0.6799695495899045,
    1.138507968737647,
    0.0930231306937897,
    -0.890640199204547,
    0.8743749888118874,
    -0.23182054714628847,
    0.24334194549360694,
    1.7342378702165737,
    0.13766100360473293,
    -0.10850215328570197,
    -0.15575146351303565,
    1.1078993720536832,
    0.6188412958114445,
    0.32548380057337023,
    -0.17619858443075698,
    0.13860018542231495,
    -0.09463112259165396,
    0.5926172050920245,
    -0.49337257314599753,
    -0.6633418136194664,
    -0.8412160518841929,
    1.173283690647979,
    0.4227120885277522,
    -1.3877942294019205,
    0.9157190477604943,
    -1.0570382143536343,
    1.5872725233883642,
    1.4408053125529523,
    0.9381220758536541,
    -0.056859142327453524,
    1.8264777931949212,
    0.44756766982564994,
    0.7174732106578814,
    0.006980405441565597,
    0.6280693548475673,
    -0.8884139889727694,
    1.177034059379022,
    -0.3476514922727415,
    0.29373119971379924,
    0.3601098274647212,
    -1.4008692364439752,
    -1.8023299965162745,
    -0.6539740893892461,
    -0.4678880757603474,
    0.15688585489765128,
    -2.4549930348488163,
    0.9528481651856268,
    -0.05591414298190378,
    0.13912957853955887,
    -0.02351994801240655,
    0.41475465663861955,
    -1.0479996089861414,
    2.357909978020447,
    0.49303337932719316,
    0.5719015186360779,
    -1.6028236746934619,
    -0.8216763959864097,
    0.3903297517074982,
    0.19690422138116812,
    0.20728515195005728,
    2.176988903285216,
    -0.06339090554295584,
    0.4426413652592786,
    1.3462013577281868,
    0.896510036055776,
    -0.5064473039440407,
    0.2620506920674322,
    -0.8070333632808696,
    -0.46215533803374476,
    0.5870907265273347,
    -0.7906419948696222,
    -0.7125969437164508,
    0.42029717981161824,
    -1.2548996645047683
  ],
  "best_ctrl_weights": [
    1.3278607477237003,
    -0.023471105711333796,
    -0.37723571260798716,
    -0.5367656833199279,
    -1.7392889944006844,
    -1.2698138334329736,
    -0.34740693965099656,
    1.0379077589794024,
    1.4647384064739086,
    0.7268786258719031,
    0.01084125323212727,
    -0.98052342109095,
    0.7450886127251438,
    0.14028564940405672,
    0.3622424577563622,
    -1.2328782764285995,
    -1.7639628762088275,
    1.6984036757643801,
    0.41772594380718786,
    -0.019734587270778786,
    0.2264223735858744,
    0.12002633600005669,
    0.016513911507925007,
    0.15066435101098855,
    -1.3238363260441972,
    0.27158948753549444,
    -2.1550222865547295,
    -0.7873602542828536,
    0.8047137898566353,
    -1.7734010108250167,
    0.9927566167473794,
    0.20354003989799185,
    1.0527469327135839,
    -0.3012471960306348,
    -0.2986092670190313,
    0.806913382503207,
    0.3960768909090579,
    0.9021947492674218,
    -0.5818239108173044,
    0.2917327929784449,
    0.1434796733544448,
    -2.661650923319164,
    -0.8601213285510562,
    -1.0119085108879333,
    -1.0760548275422794,
    -0.12626104106819824,
    0.8320690526489407,
    -0.6407992540590131,
    0.7008509976576964,
    1.6118261265872664,
    -0.4633037623541164,
    0.17820908344833467,
    -1.3172537830881652,
    1.8709699548020078,
    -0.5947410935383228,
    0.6517775718866831,
    0.695245522096233,
    0.482074958758667,
    -0.3215670131903732,
    -0.4392023816960422,
    1.1328667238204093,
    -1.147670268317127,
    0.8050159412129274,
    -0.6325754335493319,
    -0.2299112090385896,
    0.44835849124666566,
    -1.7562590275752212,
    1.7790612438177837,
    0.29278561492910266,
    -0.96649968620903,
    -0.16340297000625006,
    -0.9677620498879739,
    -0.6305781981230125,
    -0.0909102961476783,
    -0.7766666806663267,
    -0.5436387788937214,
    -0.9786081972066012,
    0.48512238843129984,
    0.6074570108278143,
    0.6791197340748119,
    -0.562624976702658,
    2.6223067040424692,
    1.0059858973201614,
    1.1033295332544348,
    -2.538386293753998,
    -0.3679292141338317,
    -0.2253953485689129,
    0.9738073450376381,
    -0.2178608820908192,
    0.7615886779150488,
    2.537084986064354,
    -0.27551672782936476,
    -0.16693453578020684,
    -1.6432246144096634,
    1.9667711330193403,
    2.461195448090606,
    0.1457154013921543,
    -0.41591439382545564,
    -1.3476154823372115,
    0.7457437652549213,
    0.5055611896737146,
    -1.2227037082104952,
    0.6042705320330305,
    -0.14499438566966125,
    0.7727679158237906,
    1.5013893801244094,
    -1.3884333663484512,
    2.1309830280390623,
    -0.2934728785877461,
    1.7089685605742266,
    -0.0020142859723251048,
    2.643868795595985,
    1.9505149246923001,
    -1.5518832558326,
    0.8455642330950662,
    0.03581690876776711,
    0.11471394460396757,
    0.21854152252283848,
    -0.24786394431324174,
    -1.084223202747722,
    -0.08493801592809247,
    0.9704533263450096,
    -0.45866154366157413,
    1.5593607216748988,
    -1.4285581465394275,
    -0.32110593843400725,
    -0.5368590946636552,
    -1.0770631113991262,
    -1.0548254195308844,
    -2.473293610810203,
    1.34048259691322,
    -1.0994706031427586,
    -0.6253308167065388,
    0.4187695990337468,
    -3.0918318285522104,
    0.24827734738953763,
    0.37511081507836563,
    0.6291964471142731,
    -1.2410629028150124,
    0.9225371461861887,
    -0.03917326126191013,
    -0.9948849032061011,
    -0.3597861670991603,
    0.30051200287350655,
    0.9503103581725219,
    -0.0318351963968154,
    -0.30217749548965517,
    0.8214156286821239,
    1.0077421644603397,
    -0.32278692434097533,
    -0.3125178256220264,
    -0.9713145619148571,
    1.632749350754269,
    0.7366601153545717,
    -0.9944885112885777,
    -0.38889384421084233,
    0.36719082635273925,
    -0.03129942980365394,
    -1.4314680932277608,
    -0.5871481005328155,
    -1.9589789691794268,
    -0.9960562832794501,
    -0.23173369798280455,
    0.3997463838334677,
    0.22042317256879412,
    -1.7459822702080563,
    -1.7625636652342633,
    0.41852794030505724,
    -0.38900677563078523,
    0.6463962983788669,
    2.2279426391315735,
    -0.02909996836467067,
    -2.591728513302147,
    -0.7176101682531295,
    2.3067972003870807,
    -0.21504635625220114,
    -1.0206014985829512,
    -0.12458507615591817,
    1.0061164118579835,
    0.13754224548280258,
    0.364167505822776,
    -0.6267816903894369,
    0.85892470719357,
    -0.36266471937748557,
    -0.44793587057215933,
    -1.3888378830066168,
    1.2344054738378014,
    0.2189195398705034,
    -2.340488238797581,
    -0.7135796855599368,
    -0.275409845102228,
    -0.23793057684820706,
    -0.8968111316202594,
    0.34132243638928794,
    -1.2778847533128848,
    1.7315894763030302,
    -0.045223196789117855,
    0.6697666644349614,
    0.9824694892128429,
    -0.8620240543634918,
    0.0644897156653218,
    0.07706177956753178,
    0.7100286152353197,
    -2.733536059075581,
    -0.7994782794580378,
    -0.4903107150657767,
    0.4099687311654962,
    -0.45229868355260894,
    0.5886084857361173,
    1.1676049310265966,
    -0.12167423036557498,
    -1.4169426940440843,
    0.6094435875293903,
    -0.8309087320389954,
    0.33248042510247433,
    -0.22019211948181,
    -0.7437569995793886,
    0.5087769219886071,
    -0.40554612313859373,
    -0.23990448506610496,
    -2.127886310374649,
    -1.233321826088328,
    1.1123375501511428,
    0.38481204950685743,
    0.16504152034962635,
    1.3528756814387641,
    2.4895310196311717,
    0.6813756346276265,
    0.6742073968543657,
    -0.5508562089887112,
    0.2720598568407108,
    -0.7375155566430974,
    0.6601033889865358,
    0.7538979720035195,
    -0.8985586036844299,
    -0.40722015066213035,
    -0.8644698340234271,
    -1.2507240137784,
    -0.5212301460724028,
    0.10245957018646257,
    -1.0058799294143743,
    0.7926399430641231,
    2.3032189081489154,
    -0.5849262191331436,
    -0.12963706935469868,
    -0.5875646619357345,
    1.2802786724852369,
    -0.700610326445206,
    0.7254660062827261,
    0.3585305922794784,
    -0.91278807024282,
    1.6063505278286418,
    0.6462192203750148,
    -1.1691517853688564,
    -1.0254095876795706,
    -0.5718221142568441,
    0.05437976261796424,
    0.3597454419575586,
    -0.19945810365909408,
    1.1767435618084265,
    -1.0009903614559152,
    -0.7681162061821991,
    0.5988725561467982,
    -1.0469653683219278,
    -1.88230671968487,
    0.30786493728029807,
    2.070152811909655,
    -0.17165164578821318,
    -1.2738591963925237,
    0.47784814058240094,
    0.5624863683683505,
    1.627063020727845,
    0.01458651174512643,
    0.750478747600104,
    1.6262460597922401,
    -0.8847050420011268,
    1.7818142401122454,
    -3.091024603962271,
    -1.2211324459770112,
    -2.2352039473338623,
    -1.705682876128989,
    -0.3258194764945129,
    -0.9300903780085823,
    0.28412956158525,
    0.012297627344322978,
    0.6008091913245562,
    -0.6414092307457312,
    1.187249391515738,
    1.1957824275606606,
    0.9228740340368109,
    0.05300551060406903,
    -0.21876730377798348,
    -0.22107407786574143,
    0.6682556841462084,
    0.6369490522606744,
    -0.08747830732742821,
    -0.11579195503047096,
    1.0043405577102185,
    -1.0618381289645873,
    1.949698767745053,
    -0.10185693712671738,
    0.34937845315587557,
    -0.8726744312346162,
    0.8147318097160586,
    -0.44636215910594107,
    0.5761146666797774,
    -1.358936236231413,
    -0.3564924726950513,
    -0.891204051204662,
    -0.4265072984478252,
    -0.9792486370582627,
    -0.5243727916123819,
    1.3506099712722175,
    -0.7433256907929051,
    -1.7017766252068307,
    -2.258618791541797,
    1.4307945311282955,
    -1.6514309093296704,
    -0.33408502975105014,
    -0.7419093342225364,
    -0.19314059726905328,
    -0.5486749689020892,
    1.3343550621317593,
    -0.6409819516847229,
    0.02687752840729666,
    1.5157043951054097,
    0.6174023675072575,
    -0.7686210043898555,
    -0.5280577346955115,
    0.553730390429175,
    1.1485902069170426,
    1.85225824953318,
    0.3097150725917261,
    -1.2943593122157564,
    2.720403328964854,
    -0.6731574758613613,
    0.5389765349254195,
    0.07607515269796174,
    1.3373889827334653,
    0.75343554446268,
    0.7205956907939192,
    -1.0348666808179336,
    0.2998418606010442,
    -2.2906535252221856,
    -0.3122195205786404,
    -2.0617642920669734,
    1.8725091890312588,
    0.839704321145755,
    0.6126853671735838,
    -1.5035321945749927,
    1.620419342654825,
    0.13027756799284723,
    -0.9343125057878314,
    -0.5895449677584211,
    1.5254373335974194,
    -2.0731714509008112,
    0.2517909060443214,
    -0.18794229653818345,
    1.405499207313454,
    -0.6339738998666363,
    -0.5320272417615988,
    -1.262863749758773,
    -0.20461705445461564,
    0.9892217236021148,
    1.1121130857687693,
    -0.6925820781731072,
    -1.380855465828547,
    0.9323117340168229,
    -0.4253018575428052,
    -3.3190875280666576,
    1.305906865212207,
    0.2508850543978368,
    1.0810714246401238,
    0.825928215479707,
    -0.45179441895350436,
    0.3104966200070318,
    1.0660455719570894,
    -0.18239020646486537,
    1.1280277163228838,
    0.5453451606418415,
    0.07474011973755984,
    1.1938742055819345,
    1.829086856960699,
    -1.3198510303354674,
    0.5815987536184541,
    1.48350013708085,
    -1.0453520302424517,
    0.5658071838884097,
    -1.109508202865691,
    0.7663704466271893,
    1.8823637888918066,
    1.7405685080180728,
    -1.0158798013197143,
    -0.4711532810264667,
    -1.4999550055294653,
    1.51933847386983,
    1.533364332973599,
    2.1386935264572475,
    -0.2205929901293489,
    -2.839602351651417,
    0.200002415786241,
    1.3431957846955762,
    1.061020702031426,
    0.38199154025029713,
    -1.028362607883987,
    2.0236694491926954,
    0.8905030403460539,
    -1.3132741172327427,
    -1.212060477457676,
    -0.6444938227278175,
    1.0323930166028477,
    0.5181319158219867,
    -0.2121723589344535,
    -0.8994972814157371,
    1.086688402198762,
    0.008491638816906533,
    0.3326893142823104,
    1.2765831151584943,
    -0.9093901081352231
  ],
  "best_morphology": [
    [
      3,
      3,
      3,
      2,
      2,
      2,
      2,
      2
    ],
    [
      3,
      3,
      3,
      2,
      2,
      2,
      2,
      2
    ],
    [
      4,
      3,
      3,
      2,
      2,
      2,
      2,
      1
    ],
    [
      4,
      4,
      1,
      2,
      2,
      2,
      2,
      0
    ],
    [
      2,
      1,
      1,
      1,
      4,
      2,
      3,
      0
    ],
    [
      2,
      2,
      1,
      1,
      0,
      0,
      0,
      0
    ],
    [
      2,
      2,
      1,
      0,
      0,
      0,
      0,
      0
    ],
    [
      0,
      0,
      0,
      0,
      0,
      0,
      0,
      0
    ]
  ],
  "all_fitnesses": [
    994.6375351609793,
    -845.896245493961,
    7.8366948126104035,
    11.856657549316026,
    426.2274618661855,
    -26.30555537056054,
    67.60924758160468,
    -7.698490748488268,
    179.7946023608514,
    381.116974306504,
    -529.2515509449927,
    -18.4381273870259,
    -26.409336063159373,
    -2.365224263947198,
    163.13180132705492,
    0.21008028084372654,
    1447.6175935364024,
    52.20060962107243,
    -0.051053783736335845,
    -6.393973424641331
  ]
}