{
  "generation": 3,
  "best_fitness": 349.09147597438783,
  "mean_fitness": 15.27242964341956,
  "best_morph_weights": [
    1.1579902790280043,
    0.016022493711725615,
    -0.4683443367207569,
    -0.5012042746190377,
    0.43388485830556206,
    0.2056298818256536,
    -0.08222670520249993,
    -0.708934747867979,
    0.9855546774965114,
    1.3937518593749483,
    -0.07768980554780497,
    -0.3237514805197676,
    0.31314459707526326,
    1.5113883776739756,
    1.714234645816544,
    0.9015499535274583,
    -1.0537515590279578,
    -1.8230371655867932,
    -0.22567929522896626,
    0.37360409727101446,
    -1.485977117642148,
    0.8881912849775997,
    -0.3373542797680303,
    -1.4136215384844903,
    -1.1874825213051117,
    0.31272457541738236,
    0.45212268752238066,
    -0.9433152513933449,
    -1.6027965272755609,
    0.4212083757222326,
    0.9085164929366777,
    0.8284572402387659,
    -0.90987138031566,
    -1.2354950170755175,
    2.2248170278367745,
    0.4969528000982489,
    -0.4590152765328731,
    3.0668845295281137,
    -1.3031898373580932,
    0.7174629712962406,
    -0.06803349713992757,
    -0.7758587511005024,
    -0.24141489818229347,
    -0.8851943985373801,
    1.1206150588627029,
    0.27019209490176405,
    -0.8564857706681064,
    1.3602122039305962,
    -0.2816237779823231,
    1.0332614660518478,
    1.9269575735171836,
    1.5716507557065529,
    0.6291930752411541,
    0.020672220177691294,
    0.2857420171739326,
    0.13682722267211658,
    1.1173979250177137,
    -0.5301725722853137,
    -0.4473967148545052,
    0.01583258655348608,
    -0.004119982675664251,
    -2.314441602465073,
    0.18534284196035897,
    0.5075933710704628,
    -0.4088036998180853,
    -0.4248986325503888,
    -0.09376207398483662,
    -1.6453856091309194,
    0.29123723948465485,
    0.9344426864661981,
    -0.756275162885797,
    0.859431956982053,
    0.4904009607228559,
    0.3590709653097527,
    -1.3066567750800944,
    1.6490277978628747,
    -1.1595859181034893,
    -0.3180791741358075,
    0.47259144686065785,
    0.7846095215715688,
    0.8598450357058959,
    -0.2350324901137291,
    1.038119870091696,
    -0.9360366058466391,
    -0.0884445972457149,
    1.7501956547780217,
    0.8132830711381238,
    -0.6515477180603984,
    0.11569002123148345,
    -0.1093273137930735,
    -0.9026995389588802,
    -0.1447295878396955,
    -0.46801516651652497,
    -0.7484391746993775,
    2.055755903516937,
    -0.7507468984703936,
    0.8819780771151781,
    1.142745809912157,
    1.0578786837415424,
    -0.2775475223187186,
    -0.5060608770474649,
    1.5961434002722719,
    2.9888726601233717,
    -0.46298083873663737,
    -0.2826349217361748,
    0.30864702517667714,
    0.6495740970685847,
    -1.5287729128337753,
    -0.5402517036469268,
    0.7999668950140209,
    -0.040147979106538445,
    -1.9579969204119072,
    -1.1065063138781288,
    0.01702575449207333,
    0.0019354903400084012,
    -1.7855308209127392,
    -0.5231966269133547,
    -1.0098162983326764,
    -1.3306846372302432,
    -0.12201028823131836,
    0.26869507942174375,
    1.1632790933449746,
    0.557199235564272,
    -0.34404374615841,
    0.3538122517275649,
    -1.5444333174132134,
    0.711812052776745,
    -1.8297905821925209,
    -0.7934943578992937,
    1.1315935362987362,
    -0.6071369374742112,
    0.8238478013817209,
    -1.3472291987066212,
    1.9389337898898464,
    -0.34011469215412127,
    -1.9667217504951764,
    -1.198161845277341,
    0.7343235088520401,
    -0.3576954646455352,
    -0.38587349971850676,
    0.9932049611189049,
    -2.6378905720257917,
    0.1638913633715518,
    -1.92656387461634,
    -1.2415686835040327,
    0.005028300161318168,
    1.6130394240227157,
    0.9264852415517512,
    0.8312700545504852,
    0.309922452764126,
    -0.36965238537168443,
    -0.564483225443428,
    -0.220883611220787,
    1.2230137008330035,
    -0.24312217420510385,
    -0.9162196893678196,
    -0.18469886012443926,
    -0.20828779818221455,
    0.1387614709723533,
    0.9400866083994566,
    -1.2471184854794977,
    1.311962445260457,
    0.5400349229804241,
    -0.9233089286782101,
    -0.6507699711507415,
    -1.122295349289897,
    0.18160980252549036,
    -1.9754733021798998,
    1.1486268452142356,
    0.5380500217056203,
    -0.37802993645947064,
    1.703142736232526,
    -0.2251059665855916,
    0.2561559387390732,
    -1.1317878762834088,
    0.42496371018844,
    0.7479464490569463,
    0.17265692920219194,
    0.1638000410909078,
    -0.7688074663893051,
    1.1313118359116452,
    -0.918599376139674,
    -1.6428167411480228,
    -0.581547481411107,
    0.3970174458240021,
    0.9274615592648865,
    3.0637013790669494,
    -0.36597378839879097,
    0.9441770226412475,
    -0.898938281774695,
    0.8814103684249601,
    -0.3162362305619173,
    0.08598689708707269,
    -1.1163209536960044,
    -1.2249000624639903,
    0.9536963762106793,
    -0.01966780300802152,
    1.6089048255911524,
    1.4983982169871912,
    -1.1298649136533283,
    -1.7866162862618695,
    1.0066222643091571,
    -0.8490704683852398,
    1.6157518568848461,
    1.0798997480983952,
    -1.0778202565836363,
    -0.3877829180252402,
    -0.011225796648891395,
    -0.5522187632352602,
    0.05026597809504259,
    -0.921113268420342,
    -0.44293724744344753,
    -0.5753662664593867,
    -0.09187737686863037,
    0.6303391376964906,
    -1.8185819751642724,
    -0.1147489182460814,
    -0.9395242659534309,
    0.6811763813012516,
    0.7825583101245521,
    1.2852623563004038,
    -0.7592116002737477,
    -1.0904370266796097,
    0.16887647634675523,
    0.8486630271847376,
    0.7511155538314555,
    0.10937571065902596,
    0.1429219375703755,
    0.5479002217115143,
    1.7106154922121715,
    1.1467105646992422,
    -1.0743578672085938,
    -0.4531176192812739,
    0.7184978588039792,
    -0.3138911657323219,
    0.38515351212210414,
    -0.5238803470952916,
    -0.850481190737029,
    -0.5314578319075127,
    -0.6297770567615945,
    1.6001204574345915,
    1.8017377228584353,
    0.7602193084471273,
    -0.14304441572442783,
    0.2057157517751089,
    0.9169552440029279,
    -0.2636446731579238,
    2.783266877990666,
    0.4051687275792471,
    0.5168022803222715,
    -0.8543570161838817,
    0.43949483845049714,
    0.3100948621687246,
    0.015877032103790607,
    0.16020751463498153,
    0.857888805868341,
    0.8290937872529782,
    -0.07522301168437201,
    0.7963162571009034,
    -0.8187808988088808,
    -0.9342862117655644,
    -1.1001211989557582,
    -1.449061315460845,
    0.3314815640939996,
    -0.5797932506423505,
    0.7214216807542942,
    -0.6523144051223185,
    -1.469012094051126,
    -1.6105626739111145,
    0.26275887466645365,
    -0.483187001090581,
    0.4362854853461849,
    -0.28493081437204465,
    -1.5298680347597906,
    -0.5340830679863571,
    1.6824744536542375,
    1.0082009376263852,
    -0.6882513203062055,
    0.148321535675541,
    1.1048847895669591,
    0.12120794168099606,
    1.5175295575171257,
    -2.1465510917420922,
    -1.9086336905881598,
    0.704966224947309,
    -0.49441892507956037,
    2.0370490225302427,
    -1.7865579888278786,
    0.5335258344325428,
    -1.281323800064519,
    -0.6908668222233646,
    -1.178537257038607,
    0.9546956221644609,
    -0.24620656059832052,
    -0.3376429342914571,
    1.4059642875273723,
    0.8698419815628124,
    -1.058275169922896,
    0.4891042163509226,
    0.4842817911289792,
    -0.42328185439404986,
    0.48362670105928823,
    -0.7232548853380876,
    0.8952027083548576,
    -0.1524210716164258,
    1.7020937513920285,
    1.0943213945214412,
    -1.6784711646296004,
    1.867818205418813,
    -0.9655354648990356,
    -0.44847730325127233,
    0.11730633918922845,
    0.48105271142402733,
    -1.338418844632306,
    -0.06256676321881884,
    1.1671725822067887,
    1.4673312215027208,
    1.553453739840296,
    -0.44448023625287886,
    1.4230935120952957,
    -0.5842447928905123,
    -1.0692160898425245,
    -0.7743088984165476,
    -0.015760428227935993,
    0.9321888122942672,
    0.7557794674231989,
    0.6484365499427085,
    -0.3840576525575953,
    0.11697232469993235,
    -0.26055240078827435,
    0.6844012589910573,
    -0.4397109508567981,
    1.0056300195706882,
    -0.8544623991482219,
    1.6435996000796518,
    1.366759014705476,
    -1.0393533549713783,
    0.7234984485764928,
    -1.6650211607649854,
    -1.6586903709754632,
    -1.1988201523241704,
    -0.7035334313968363,
    0.32502122916870857,
    -1.7052600323400269,
    1.1754476730467134,
    -1.9061597515617816,
    -1.8673700305299377,
    1.489863040708856,
    0.19276274352178946,
    -0.8222245325155619,
    1.1351414155883301,
    0.02378055723409891,
    0.6443460770259736,
    -0.3269434281113671,
    0.026130103989117408,
    0.4301899865174815,
    -0.1470642979166373,
    0.3311884411789172,
    -1.0029889118775972,
    0.7148156509088206,
    -1.0394585587578757,
    -0.02075012000426321,
    0.6244875481874863,
    0.6090200132898634,
    -0.6136183972317407,
    0.5342316589012379,
    0.9152345097616505,
    -0.11036545090813829,
    0.4286216460252856,
    -0.20447343744347346,
    -0.5103370242809616,
    -0.38608180706789064,
    0.03141675614105752,
    2.6739325082052003,
    -1.3227954993147484,
    0.5505627702870265,
    0.22736735753543885,
    -1.1710029289952903,
    1.1568860979389008,
    -0.05239872241022163,
    1.6239797798343643,
    0.0008411691659050422,
    0.1793804956988092,
    0.21749452122485832,
    0.26229140916869825,
    0.3702888362662402,
    -0.08305754735382147,
    1.3183846674534652,
    -0.06514560935427877,
    -1.726730107286627,
    -0.5559715303406229,
    -1.2842723458008953,
    -0.3451111117021333,
    -0.5510393602114774,
    0.39709116886617823,
    -0.7430297309366981,
    0.19240663880883682,
    -0.6971698325304883,
    -0.608966709628244,
    1.2045933281566175,
    0.35554533927108883,
    -0.08245123150362191,
    -0.8719044055386971,
    -1.1367137614903327,
    1.02439454372352,
    1.4889683839190508,
    -0.4092546154748003,
    0.4310576733780924,
    -0.7685299028204542,
    -0.7442724787350943,
    0.058847867441617845,
    0.8778101699226891,
    0.8104812323230948,
    -0.1773246573349694,
    1.472767738045694,
    -0.3528804146060482,
    1.2315038951941426,
    0.8017487218725285,
    0.4522775036412386,
    0.4247057215721596,
    -1.2206635217499613,
    0.26395922612018635,
    0.5201100467901965,
    0.7386404008869637,
    2.1436883204238386,
    0.11779579535490246,
    0.6891384234126107,
    0.29031667225537733,
    0.44599818398537,
    0.15518458691245912,
    -0.6287711579283652,
    1.5688962639558868,
    -0.548638243065275,
    0.306509541125647,
    1.0621388870144093,
    -1.449709374435694,
    -0.6221960417329848,
    -0.31441582346483693,
    0.5981031739932852,
    1.9294496611036496,
    0.3508136528169224,
    -1.7774306748773672,
    -1.0256645400619164,
    -1.9582323589731179,
    -0.8616988998302137,
    1.700672899413469,
    0.1941179888294145,
    0.5573377549788382,
    -0.9385802762071435,
    1.5933461334325119,
    1.2204409500186961,
    -1.753265811150066,
    -0.3232468711951282
  ],
  "best_ctrl_weights": [
    0.34893650940596593,
    2.168411046329868,
    0.9876335515033654,
    -1.0876747839583054,
    -0.2956055677922985,
    1.2414932419713298,
    -1.1455329106410754,
    -1.4758425190652458,
    0.25454107283692506,
    1.1320327709477673,
    1.354021378016668,
    0.9262113763401978,
    -0.7199340383387218,
    0.3569037011664746,
    -0.3101005646449879,
    0.8410905758189949,
    1.4243221890146223,
    -0.035306976745827945,
    -1.389216982686639,
    0.43457349393656375,
    -0.3404400487838896,
    0.6069591382950389,
    0.2304213089069668,
    -0.969833776047571,
    0.7759397129897365,
    -1.8304558801852253,
    -1.3376193287628038,
    -0.38558279586304306,
    1.5217016536191146,
    0.48557585746267,
    1.1574599808997714,
    -0.022146504903776672,
    0.37499585720234674,
    0.6153877610378027,
    -0.997217335565365,
    0.5479662549384356,
    0.2677805975243498,
    -0.4035957340869877,
    -0.14521979921244443,
    -0.8544869144773287,
    0.4343743245967173,
    0.314205121339524,
    0.7027401025006743,
    0.7861451214474643,
    -1.6736336482993786,
    -0.9677255403816716,
    -0.4812823201619744,
    0.4652024031585911,
    -1.5928159989379427,
    0.5297267167878632,
    1.3454657678301516,
    1.3842696915328667,
    0.2999809516213259,
    -1.001193753148283,
    -0.10717797878549803,
    -0.07947362235222959,
    0.5433516001090722,
    0.27617058006324463,
    -0.38876409174833987,
    -0.00273176057889785,
    -2.1253546397394762,
    0.3339961592918132,
    -2.2327070113778693,
    -0.3347913351271503,
    -0.3559023008426492,
    0.1277815389751774,
    -0.5585550170415515,
    -0.44494038421493814,
    0.5255464498294876,
    -1.550557010093708,
    -0.5082241103602709,
    -1.538479398218057,
    -0.8026872247274371,
    -0.23462686934055627,
    -0.8088002682320414,
    -0.15325587944989827,
    -0.04093324528049758,
    -0.38618316474155007,
    -0.04202867914216606,
    -0.9906651863713708,
    -1.1386337841701604,
    1.0498989514427073,
    0.9399585041481773,
    0.7251906991272365,
    0.18118360290878258,
    0.5862741173789643,
    0.481378593064412,
    -0.23401745650506817,
    0.6797766547309889,
    -0.07893451926504906,
    -0.3781979704397161,
    0.32513494540258653,
    2.4046149926903992,
    0.6681334581588053,
    1.4371070189510637,
    0.166118479030243,
    -1.4522143893562198,
    0.4460334413779426,
    -0.20850745028587,
    -1.274906967413838,
    -1.3482054971997686,
    -0.008115382151342783,
    -0.5563611600739619,
    0.7092577263917085,
    -1.4507043631230818,
    -0.4863462711831516,
    -1.415010579377968,
    -0.16342931360733204,
    1.7615286262198018,
    -0.747019977276327,
    0.44217467191054466,
    -1.4544823847090973,
    -0.07179662619894361,
    0.46572328671075164,
    0.20734976013554887,
    -0.1723038991639164,
    1.2798701751242807,
    0.8245484751452409,
    1.1638567876281194,
    -1.5135685003126318,
    0.594540751804055,
    1.2659812288192056,
    -0.1294805786352724,
    -0.8372672891695713,
    0.14607113796756221,
    -0.8594273219023539,
    -0.7574616036056399,
    -1.9934393257850136,
    0.1311127454562318,
    0.4793072779106678,
    -0.4208124074491188,
    0.23209045484776714,
    0.018498886858115713,
    1.3293841930637373,
    0.10929236668351888,
    1.0318551994464975,
    -1.2735878914307082,
    0.14959401491182509,
    0.9536726083107595,
    1.288398358480648,
    -1.2590083306075759,
    0.8665946938809418,
    -0.9743973162632682,
    0.8258095284606753,
    0.8960432647536781,
    0.9843005736674167,
    1.183706581030226,
    -0.6266014031305236,
    0.5143559695743437,
    0.45550636236097425,
    -1.044135671717407,
    0.8601025048167998,
    0.19693946144968036,
    -2.2585862954700064,
    0.7847622426067744,
    0.3937896613089443,
    -1.9720278329888323,
    0.8394571570220619,
    -0.9035028922225464,
    1.137290402163064,
    -0.10214562149512305,
    0.33112597910585423,
    0.21787893667224675,
    0.08021873704416618,
    -1.2338586194733243,
    0.16981369002420477,
    -0.060925698695028126,
    1.9048671993722261,
    1.3139031355388868,
    -0.5323648363707159,
    -1.1267663860077797,
    0.41323865358149514,
    0.3109036550590047,
    -0.015671959186051663,
    -0.9742594942652504,
    1.3027974875293429,
    -0.2013014015787978,
    0.6424020116533622,
    0.2937281823497416,
    -0.43739668745193705,
    -0.9053558044305585,
    1.1035904690502543,
    -0.06248033607772075,
    0.29434542583698,
    1.7885159827414008,
    -1.0039989385059058,
    0.257866024342395,
    0.3766840613310654,
    -0.31791658483462104,
    -1.3663846301847427,
    1.3371820086150148,
    -1.3644949889305595,
    0.10334779673025468,
    0.645860086350925,
    0.24612519153385937,
    0.8745458020711839,
    1.1681928198599703,
    -0.02609415877119789,
    -1.7149651233156844,
    1.0622422940065053,
    0.033401963577182885,
    2.66303598242445,
    0.8262092066288298,
    0.8082397337543039,
    0.4750886824985769,
    0.005745386665203291,
    0.6805670813950201,
    -0.28753724270330694,
    1.3262883992920338,
    -0.9093584254398133,
    -1.5072414556175515,
    0.3693582043589901,
    0.7582266595117254,
    -1.5063712873277377,
    -1.9424044343329239,
    -1.2776522814640046,
    0.08272505972916144,
    0.04637906183608065,
    -1.534976313486616,
    -1.0242257325679136,
    -1.78768169434998,
    0.15237176297350988,
    0.6970590403321711,
    -1.0044990578251183,
    -3.90178768434139,
    0.36181433248240125,
    -0.7050660235068981,
    -0.934362166033468,
    0.4259116006292095,
    -2.8738526207274036,
    -0.707396000750259,
    1.52426275656735,
    -1.9481444122038742,
    0.9188521647248991,
    1.2772912344948575,
    -1.6458885242943337,
    -0.4150396922879719,
    -0.6495956309797555,
    0.2713704672894432,
    0.6918552228835108,
    -1.3741519812596277,
    0.42082682053628834,
    0.9361559657775473,
    -0.8104166543024898,
    0.512870970234167,
    -0.09555130407074675,
    1.933759668810605,
    -0.07154480375153138,
    1.1541789908344768,
    -0.03662296133391718,
    -0.5511901714030624,
    0.22712425811107678,
    1.0116636954493479,
    -0.38098572456877056,
    -0.37477617849910216,
    1.2159771658553633,
    -0.39776024517626796,
    0.6465480540686468,
    0.24345799027058543,
    -1.564944599786548,
    0.864917009597059,
    0.918005137420628,
    -0.12905546865091821,
    -0.5371803539956371,
    0.8018886662589526,
    0.5655929413577349,
    -0.3810488025808327,
    1.2160793983978204,
    -0.1252415312955491,
    -0.265103396738324,
    -2.487922174208606,
    1.3191200824834557,
    -0.2426567994499945,
    1.6427233975387763,
    0.34973758245959574,
    0.45427683661704477,
    0.2521517283309179,
    -0.23211900449467923,
    0.7146111490461009,
    -1.9112815299497392,
    0.5088380436036041,
    0.3681567945115937,
    -3.3715294376600107,
    1.28835433213644,
    -0.2691873332721022,
    -0.6502120506695228,
    -2.7478713128701022,
    -0.3715539849115063,
    -0.6232556737269751,
    -0.49235320747168465,
    -0.631944404084864,
    -0.2938954036338285,
    0.5826094797333211,
    1.4535776552616342,
    0.43769640692210054,
    0.06124966398829051,
    0.026744026919410413,
    -0.7831274105928977,
    1.407137719093825,
    2.0459935128598246,
    -0.22615927496832547,
    1.2065480733041618,
    0.4090885734104362,
    0.38432948611527845,
    -1.391599171937791,
    0.11760023326885784,
    0.946632811737996,
    -0.7576290723401516,
    -1.1901266679732274,
    0.29943574072420237,
    -0.7391203406813616,
    -0.12092829257206349,
    0.5196825380747379,
    2.3780036713683113,
    0.7247233608124188,
    0.1248519958214018,
    -0.8883245178661384,
    -0.38546017177399,
    -0.4288984307225761,
    2.6602292946973085,
    0.04597635629782141,
    1.3404675824801482,
    0.5613911788215298,
    0.07463773365614493,
    -0.1929230487234235,
    -1.4647050190339987,
    0.6747406629826718,
    0.3009000470856224,
    -0.24568221996450818,
    -0.920541666779635,
    0.5461987999712767,
    1.1056856038232583,
    -1.081621641981415,
    -3.211638245769127,
    2.0990319376266005,
    0.5408407671269635,
    -0.812228118836833,
    -1.008640457435753,
    -0.9805480939536483,
    0.5799845701847423,
    0.48589270842181365,
    -0.08911810219087121,
    -0.29366749605397885,
    -1.7706603595246377,
    -1.047615770443566,
    1.0054603285703327,
    1.4390993580296119,
    0.11361320313493219,
    -0.6146101334548768,
    -0.47066911503494874,
    0.21976910361150392,
    0.596327489757784,
    -1.7626018777490209,
    -1.1272456393125034,
    1.194929224202264,
    -1.3742953661959616,
    -0.9284822120299043,
    1.2405577061735686,
    -1.7131460319073968,
    0.7271379664035527,
    -0.6565188350276101,
    1.0210637016149338,
    -0.5069760082976319,
    0.5028521010984159,
    -2.4764354162901685,
    -0.2386334745118378,
    -0.011939381228227249,
    0.05469240454361589,
    0.11545726105090891,
    -0.40719455762247975,
    -0.34609804174517034,
    1.3021851768118256,
    -0.5995664683743684,
    0.7303109726373372,
    -1.442777474801364,
    -0.9475457301539444,
    -1.1954463005338356,
    -0.2175357387028423,
    -0.2648019510868512,
    0.8109285108521201,
    -0.2578151145591397,
    0.17040047441979672,
    -0.5318713346271567,
    -0.6447566891357108,
    -1.897938724056221,
    0.16880498937661076,
    -1.3792120441552804,
    0.09642676212802276,
    0.7543636617941677,
    -0.7929259231531222,
    -0.12747346714465677,
    0.4976200523178309,
    -1.1675104364846662,
    1.4325272005189187,
    -1.2972512045163789,
    -0.7182607381186974,
    1.0866892826411974,
    0.27955692197374116,
    -1.3384460915429701,
    1.0113151555160445,
    -1.9448576534148843,
    -0.6562089543521605,
    1.2271555071082816,
    -0.005834928479469899,
    -0.31763781835637267,
    0.07465328067839215,
    1.2179802628257979,
    0.5888699088287963,
    0.09699725915409337,
    -0.12775712608634723,
    1.3231917483370004,
    2.356135994839245,
    0.9005316597176661,
    0.7767185231283645,
    1.848684893551176,
    0.4760540825757594,
    -1.0984364729049862,
    0.8102677014756386,
    0.3574696421639988
  ],
  "best_morphology": [
    [
      2,
      2,
      2,
      2,
      2,
      2,
      2,
      2
    ],
    [
      2,
      2,
      2,
      2,
      2,
      2,
      2,
      2
    ],
    [
      2,
      2,
      2,
      2,
      2,
      2,
      2,
      2
    ],
    [
      2,
      2,
      2,
      2,
      2,
      2,
      0,
      0
    ],
    [
      2,
      2,
      2,
      2,
      2,
      0,
      0,
      0
    ],
    [
      2,
      2,
      2,
      2,
      2,
      2,
      0,
      0
    ],
    [
      3,
      3,
      3,
      3,
      0,
      0,
      0,
      0
    ],
    [
      3,
      0,
      0,
      0,
      0,
      0,
      0,
      0
    ]
  ],
  "all_fitnesses": [
    349.09147597438783,
    19.05430583466091,
    242.15291498790373,
    -0.20571915137043106,
    2.5445534645587884,
    26.431883496274338,
    -112.83562491619799,
    -0.5369467641024812,
    0.14971994347001782,
    0.21597738387640675,
    7.245698346102074,
    -90.14261824321468,
    120.44891515632139,
    -0.01202216332177386,
    0.47415114553047033,
    -77.19297000406542,
    3.7764556109149794,
    -148.88145127284758,
    68.86247916299004,
    -105.1925851234796
  ]
}