{
  "generation": 4,
  "best_fitness": 476.56622966633955,
  "mean_fitness": 33.579146478510566,
  "best_morph_weights": [
    2.0008949853320757,
    1.8601134355205617,
    -1.198895619142674,
    0.6133436219264008,
    0.11687186313815626,
    -0.7762031461325022,
    1.9377345522608738,
    -2.172353482183833,
    1.6726989273143367,
    1.5598384470304667,
    2.089572089733027,
    0.3512129425920157,
    1.3004045986083594,
    -0.1271430986306885,
    -1.2988850146506887,
    0.8430663573689164,
    -1.161896585050204,
    -0.49327840687843116,
    -0.13895791491816759,
    -0.566768508514313,
    0.9269136934973193,
    -1.1110388708020884,
    -0.6222715126413894,
    -0.9241714028582549,
    -2.4436381367438513,
    0.6480189759325171,
    0.6199995860815481,
    0.2695255108576188,
    1.060815920681666,
    0.33086247781758243,
    -0.3070282383843375,
    -1.3135685312943954,
    0.6935178163043603,
    -0.7190551249154704,
    -0.17470062787222596,
    0.3195026126242419,
    -0.6982181498962603,
    -0.10054837089607335,
    -2.5256802029824352,
    0.1646554019543617,
    0.7370919791822271,
    0.7849316895985261,
    0.6663561150674594,
    0.9483449855329297,
    -1.935838019017802,
    -0.4169362031003448,
    -0.7719290600895874,
    -0.8400634066180542,
    -2.6477648280952018,
    -0.12896511035270464,
    2.52889948136357,
    0.6169402717558687,
    0.33666117359599373,
    -0.35662978575085724,
    -0.4075178522400588,
    -1.365778597539655,
    0.7966066641709081,
    -0.7752766287830493,
    -1.4694429561783289,
    -0.035207674616696265,
    0.9136133115786303,
    0.49742124739274296,
    -0.9454883193590997,
    -0.4430997313006023,
    0.301371287791885,
    0.5771907020961157,
    0.330649757654967,
    -0.7696161939843659,
    -0.952112327312591,
    -0.8126401258174302,
    -0.4395281395933495,
    -0.15221152131582724,
    0.35517946437314224,
    -0.5700252792721028,
    -0.1873331779181081,
    0.3657957528617692,
    0.5210568391908745,
    -0.1048425232294477,
    0.7551901977460903,
    0.5219028555451378,
    -0.43163844106494315,
    1.0072423328733615,
    0.2582462152411854,
    -0.011110848758523882,
    1.2233149225183597,
    -0.6662019499967399,
    0.13464816938342578,
    -1.5463584980306857,
    0.43914733097290065,
    -2.0016868776797745,
    1.1785353388339723,
    -4.0288860766340076,
    0.1729895349231401,
    -0.23759162592081,
    0.5005531861760355,
    -0.4669547308299597,
    -0.2701253025999405,
    -1.3056950291632867,
    1.1956513039762695,
    -0.09003325342934868,
    -0.4459166883700604,
    -1.0337252111278494,
    -1.1504198108732804,
    1.154463410910739,
    -2.1314959173156445,
    1.1994942349800026,
    0.7230297537832416,
    0.18361525826199215,
    1.8464072118943406,
    -1.4003545372060204,
    0.09035894347150138,
    1.0650793772827658,
    -0.9657234976764834,
    -0.5924960430753923,
    -0.425171970955924,
    0.4791810094576578,
    1.7254588351807136,
    0.5489520359243455,
    1.0861200057891507,
    0.3774303376449085,
    -0.5964748215063355,
    0.07689677779640103,
    1.284153017988949,
    0.4866089751642953,
    0.322741177235276,
    0.37381390703741124,
    -1.638997663750331,
    -0.4504394334058881,
    -0.34179096401670694,
    -0.05343613650021636,
    0.08047463183499583,
    0.009503152589229671,
    1.9370194427060947,
    0.24609916922435193,
    0.2877544845209279,
    -0.034216765462551854,
    -1.0485493236160242,
    1.4647485161221707,
    -0.948655972330435,
    -0.499210866893959,
    0.2558897279219532,
    0.8263483795255833,
    1.633779187276633,
    -0.09196718124763499,
    1.4256183249508831,
    -0.8659034857728808,
    0.9210958701200723,
    1.076874333550106,
    0.31569052021726396,
    0.4582117704135637,
    -0.1710298327371096,
    -1.1975903562935304,
    -1.999484604537006,
    1.439074850391998,
    -0.13861623000846826,
    -0.6359460897093894,
    -0.5663728315660813,
    -0.1340900882609477,
    0.5875775575382893,
    -0.3105358352203201,
    -0.8130729759497209,
    0.9447787850371389,
    -0.359143835500806,
    1.2422954132442756,
    -2.3018756568471876,
    0.21149074357897618,
    -0.006038351685779819,
    0.7631462097642397,
    0.9967025274758773,
    0.3885077231516202,
    -0.034808360143744825,
    1.325143582309721,
    -0.020629240354289105,
    -0.033649599682606765,
    -0.9064130241467614,
    -0.6226790406357893,
    -0.6756007440906849,
    1.8713145923918166,
    0.27846668431007354,
    0.7976792414170006,
    -0.962664749370717,
    1.1166306959741845,
    1.2194098558820237,
    -1.5048751984371838,
    0.4279456555788155,
    -0.5061278816306058,
    0.3792773786172997,
    1.4625553306149555,
    -1.4646879350672586,
    0.2593374481488826,
    -0.44077942676349774,
    1.1896312315039497,
    1.3903185579536665,
    0.10930565421776917,
    0.9083936212513993,
    0.5475431789196729,
    -0.004889475839210514,
    0.459070064192584,
    1.6314365138850606,
    -1.6766714728581305,
    -1.1608431936670267,
    -0.09906437001251817,
    -0.0391010995949009,
    1.4804125941307884,
    -0.45115639060834023,
    -1.2510716559172597,
    -0.9185807193317825,
    -1.0840695290199933,
    -0.36904970424970235,
    0.15775997922947735,
    0.572912393486939,
    -0.2541222716218346,
    -0.6596710598345176,
    -0.9803784767760375,
    0.4594343428694858,
    -0.29182061967409745,
    -0.13780183319109118,
    2.737992339162587,
    1.0709066514183574,
    0.26917087729547895,
    0.4547941914228568,
    -0.6936229469900459,
    -0.3418814496136921,
    -0.34362841019065765,
    -1.1289127727963455,
    -0.8527284763496737,
    -0.7018580252077041,
    -1.0667135825307057,
    -2.3390952073968996,
    1.024977343511404,
    -1.8423040427023052,
    -1.1069063271434154,
    0.17965926622460235,
    0.3902371434897844,
    -0.47847700603800936,
    1.3088625574460933,
    1.6177007268976649,
    -0.8787302919863397,
    0.15907605731357796,
    1.9909632153072898,
    0.32285866594384527,
    -0.3477941146866114,
    -1.345770897264196,
    0.9024290899487956,
    -0.5487239629553944,
    0.16029991766550844,
    0.7823565991048819,
    -0.18029076830094717,
    0.004338173935024294,
    -1.1023389322999886,
    -0.22882676703896201,
    1.4468414304396622,
    -0.6408926249472807,
    -1.0651408318530462,
    1.2555140728528644,
    -0.4044840069577017,
    0.011294816103694863,
    0.28922119901215787,
    0.9060946054414896,
    -1.3600044171287136,
    1.0345241826966995,
    -1.2031279958485048,
    -2.123611538440888,
    -0.9361766777157644,
    2.197512194142218,
    -0.942042046391679,
    2.0821854896091097,
    0.05073115896779438,
    1.2566543124027105,
    -0.6257779448333008,
    1.107131619831614,
    0.47765860376477814,
    0.5762110104828216,
    0.6476011433838822,
    -0.37492753164935044,
    0.8756569579133231,
    0.03978894146267467,
    -1.1544554790873405,
    0.2511897066186949,
    1.2027720466178493,
    0.23221237583492005,
    -1.4144246450544844,
    -0.6845930302611171,
    -2.0779327212147014,
    0.30230183014133644,
    -2.002000373938679,
    -1.1860653216167942,
    -1.2134737014760668,
    -0.05086867729067635,
    0.38348659378666855,
    2.598748585811861,
    -0.24385288179070655,
    2.374101258460869,
    0.6964027215134696,
    -2.0935276091481305,
    -1.5699095563709702,
    0.9832340861183153,
    0.3056423597780794,
    -0.16674176180490533,
    0.7586497932080717,
    -0.254951717017069,
    0.35658858481777356,
    2.076229353786827,
    0.41410335500213,
    -0.9583717679616964,
    -0.7308418031502916,
    0.049194018206396004,
    -0.6422141325125533,
    -0.2589835137491934,
    -0.8709268498153133,
    0.56050204824173,
    1.0986741044467212,
    0.4799127102649278,
    0.5062484017613647,
    0.7463444562192897,
    2.115052636286025,
    -0.7048076433175345,
    -0.4006649403692654,
    2.232806205447166,
    1.0762359697904214,
    -0.06851685437374473,
    1.0574341701024461,
    0.24007682502556696,
    0.017130139454696474,
    -1.8286214551550843,
    1.4215584395685976,
    -1.4208740851896857,
    -1.4583362804898239,
    0.7257231482718998,
    0.8198190839695177,
    1.6363386881386839,
    1.3407488821427411,
    -0.4707925593603093,
    -0.2031500831447529,
    -0.441507553417021,
    -0.431801456240573,
    -0.5839458141198727,
    0.051691459988715216,
    -0.7485257783763837,
    -0.5665211723550538,
    -0.5256650558494705,
    0.47966985494706854,
    -1.4452765672165986,
    1.1915206342034443,
    1.0603747026976391,
    0.9990691378379342,
    -1.0264775127256602,
    -1.20794084607559,
    1.0087215298727712,
    -0.788328889852347,
    1.5291093419658255,
    -0.7021248644109173,
    0.3874565322538102,
    -1.7202756766171436,
    -1.0507111320185265,
    1.4670004441756044,
    0.9263140017910263,
    0.8100329327685885,
    -1.2222301141217673,
    -0.06497414260892498,
    0.295521651950363,
    1.3932318987974674,
    0.52256773916495,
    -0.8672221920017209,
    -0.5928643517610074,
    0.6265725321679431,
    -0.42809036506351217,
    -1.2674219648884688,
    -0.08302388465336796,
    -0.7143841855420252,
    -0.4233536881850016,
    -0.28276136955602854,
    -1.4702647605235803,
    -0.14472939925432168,
    -0.9844973768218348,
    -0.8955572018717709,
    0.8106391859374515,
    -0.3036103481071542,
    -0.4227908973686323,
    0.9394883358581944,
    0.6462611548489382,
    -0.0611902259436521,
    -1.44433277001463,
    0.5754597054398984,
    -0.3454774579301824,
    -1.1240871962147698,
    1.8715454219500292,
    -0.4458763008338138,
    0.14700788983798316,
    -1.024189677028906,
    2.4212210434950663,
    -0.1032319095692438,
    0.45249131758778505,
    0.6518313236384576,
    -0.9895820233473642,
    -0.16708511939404122,
    0.1943831147693623,
    0.8337629521530527,
    -2.6377043932862443,
    0.3712494538177753,
    1.420793009181141,
    1.4994120259078993,
    -1.750025310562087,
    1.4391499988290224,
    -1.3925495595926816,
    0.1640141832683483,
    0.6747033432105375,
    -0.8444857469827163,
    -1.370000206872968,
    0.6309244217885949,
    -0.8532203382884921,
    -0.09939505329569726,
    1.0381487333351385,
    -2.1563978785260915,
    -0.7119658935070059,
    -0.37955580431546126,
    -0.4595620682698814,
    1.3314721825228002,
    -0.1815293659128862,
    0.2883435391551671,
    -0.09604673360303262,
    -1.2888615028691237,
    0.5619815657719522,
    0.7210874025810788,
    -1.9299362917805531,
    -0.7298293299486924,
    0.8391563401180329,
    1.5513470939925047,
    -0.6115575440500848,
    1.4223057643010786,
    1.0313584254139199,
    -0.314159161984073,
    -0.28940067568397465,
    0.9562159307619416,
    -3.311082519411813,
    3.0436881740667965,
    0.7874277342947484,
    -0.08785555333149973,
    -0.3135397335522614,
    -1.4969168879143167,
    -2.272084983743245,
    -2.148430067992477,
    -1.6445964122006016,
    0.2936289778018528,
    0.8095525706517821,
    1.345725316386137,
    1.597442242267087,
    -0.07253518705066414,
    1.3268316815848105,
    -0.6319362954700269,
    1.2970403110730508,
    0.9397629836735828,
    -0.9198690544004647
  ],
  "best_ctrl_weights": [
    0.3104823334607,
    0.668429383810983,
    0.036241387328995144,
    -0.4168693155496395,
    1.214586793143141,
    0.46727399618530036,
    0.07715411819101119,
    -0.9519271184051384,
    -0.16196997139184674,
    -0.50848227567333,
    0.4420107666242527,
    1.6113302598716417,
    -1.4988695777642538,
    0.10104117366341056,
    -0.3186969883163892,
    0.9816107244451271,
    0.12958707916309334,
    2.0418812307052336,
    0.319405485124209,
    -0.5527913817375122,
    0.9276283678064496,
    -0.7147416926646452,
    -0.5829494018913103,
    -1.1173422801481758,
    -0.9920436641431806,
    -0.909870238295549,
    -1.6779381936153785,
    0.11759954612458069,
    0.5352855961641435,
    0.5551081375889136,
    -0.11028667197449936,
    -0.7623998102170169,
    0.17165576656390488,
    -1.6042519387639411,
    0.046242602671503985,
    -0.4550463031340953,
    0.44992700469420016,
    -0.3597271828869116,
    0.22909555547681368,
    -0.34511384840275455,
    -1.6413563628217915,
    1.1306965712491377,
    -0.17288090236677262,
    1.4413143947988662,
    -0.5806782485779857,
    0.8156531404027496,
    1.6548664335495968,
    -0.624196461437238,
    1.830532981296843,
    -1.3542701409950866,
    -0.8862274548020568,
    1.2132955739803837,
    -2.0626358270346548,
    -0.16299763873119538,
    2.280708257093211,
    -0.7606401761453466,
    -0.13106167224592136,
    -0.18993536032904884,
    -0.4800588384714962,
    0.17116930011697185,
    -0.6623949072063395,
    1.051045256295361,
    -0.04572446473694036,
    -0.07604152940115777,
    -1.1583722215944081,
    -1.2337087846802048,
    -0.27039327975601735,
    -0.25099637236854544,
    0.7542818303202149,
    -0.2496334982416144,
    0.12931935160208788,
    0.34737785851604247,
    -1.1358845175405847,
    -1.4733514999548047,
    -0.18276608092854765,
    0.6325152812351369,
    -1.2245093482860667,
    -1.151750705311515,
    1.1880220845962914,
    0.15182290006811805,
    1.5184755982626408,
    2.0169571309750665,
    0.4890030271757194,
    0.041956450515006065,
    -1.7961992856215139,
    -0.022207429938901364,
    0.18553430113035305,
    0.15339867076350022,
    0.07029458770589803,
    -0.46649219949524107,
    -1.278308421336061,
    -1.085524570401929,
    1.1386259982149434,
    1.311898850860923,
    -1.523250479184597,
    -0.3736255550174259,
    -0.7023472852468907,
    -2.1316645268089296,
    1.838442565176296,
    0.14146169672849265,
    -0.5620689805754281,
    -0.9197039743225909,
    -0.6410276131769029,
    -1.2158411108163907,
    1.2801245473467815,
    1.5798644249110567,
    -0.29697396634971823,
    0.3043302501144878,
    0.1749516582337569,
    1.1967195427223325,
    -1.12439277507105,
    -0.33496608756129687,
    -1.397085211192245,
    0.5393294231876558,
    1.4701730922196257,
    -0.0991122061410103,
    -0.10988598987550874,
    1.448035109485018,
    0.6495499929664479,
    1.4252092116031938,
    -0.1633391225140816,
    0.6303062576289011,
    -0.12619594512572294,
    1.1450197056785933,
    -0.15978797054496827,
    -1.7347974476151233,
    0.8028488541553405,
    2.1174273329152027,
    -0.8234708450244818,
    0.3877526490763325,
    -1.8202303018048782,
    0.7475979169734415,
    1.2146470061152745,
    1.015276519612567,
    1.299838153563698,
    0.8333983127264895,
    0.13179479015999,
    -0.029099969128238826,
    0.12336613050449903,
    -0.33714011108885356,
    0.09450292497455874,
    0.5691379825981926,
    -0.18018619698336852,
    0.9119688823702183,
    -0.19451432235002164,
    -0.07359700272751397,
    -1.1624194779582369,
    -1.8493829921011489,
    2.4482412454085836,
    1.4286583580254757,
    1.6322953945151206,
    -2.1940420226675994,
    1.4232126403659455,
    -0.1594775501667977,
    1.4880084049759577,
    -0.8326370383546744,
    1.4532628523517772,
    0.04776728104122152,
    -1.3026921769449065,
    1.4397954448331882,
    0.877655471910881,
    0.6810550810223946,
    0.24814017815322306,
    -0.1990731272307702,
    1.0069314012675619,
    0.37133864674181977,
    -0.6847350087381329,
    -0.16704742863307212,
    0.40336505357093394,
    1.3768722980922505,
    -0.010295140470840871,
    -0.1644299816307569,
    0.5591789439613427,
    -1.4500631294180324,
    1.057487709019607,
    -0.9649400730471309,
    2.630888224656012,
    -0.9350365254359109,
    -0.06818664528050107,
    -0.7244602453289272,
    -0.07933434107133125,
    -1.7620977859805884,
    -0.29172234297720034,
    -2.0344566932070896,
    -0.1790332684788707,
    0.2785006475932882,
    -0.931830364974463,
    1.3970070679416733,
    -1.4657770282949671,
    -0.8945490527428335,
    -0.13630143623955637,
    -1.798428861569676,
    1.9267220240866247,
    0.6617595205793413,
    -1.0527467180724102,
    0.18208479354175564,
    -0.9728904649938039,
    0.1519889758280797,
    -1.173052752133124,
    -0.80751655197419,
    0.053773264974435624,
    0.9427402131657427,
    -0.4695290768041647,
    -0.1631644511653149,
    1.4147428697452649,
    -0.7528737803399721,
    -0.3249259500781933,
    0.21346186529229488,
    1.2048768183953367,
    -1.1797279853361575,
    0.8893212741495159,
    0.7660278861390823,
    0.25277994971498136,
    -1.4867254197004063,
    -0.11279502263734517,
    0.678511808381464,
    0.6507708916165241,
    -1.934992397518829,
    -0.25665543360488563,
    0.10578757895829044,
    -1.1891573175936456,
    2.8213950521251157,
    -0.6988253009297118,
    -1.039213120889337,
    -0.9158875968283899,
    -0.04868612319963341,
    -0.12070400833625289,
    -0.29897033791319105,
    -0.7927785588039762,
    0.2399680685558983,
    -0.057645904933658114,
    -0.14043746133168514,
    1.11751442704829,
    0.7378886596523392,
    -0.578577672237635,
    -1.019699226741797,
    -0.6304523479930847,
    1.7281800685946056,
    -0.13952207852870113,
    -1.7620695827624697,
    1.976467429837971,
    -0.7310895403219194,
    -1.6884619146158748,
    1.4675654991554092,
    -0.5983282050606744,
    -0.6699319752811926,
    0.6134152551397581,
    -0.6846826619555757,
    0.09477204339020866,
    0.38250545893250054,
    1.4537776303200374,
    -0.11142902181246116,
    1.715581633516307,
    -0.10798801865584286,
    -0.3416911841247472,
    0.9343863439866296,
    -2.5459529161330012,
    1.353811264929178,
    0.6870262194665617,
    0.04102776057737386,
    0.10852692241369383,
    0.44737995910703354,
    -0.9087377502981858,
    2.2716741356428174,
    -1.0450203900307813,
    -0.6667561161302877,
    0.027084058895668964,
    -1.5781986372264838,
    0.34741890795065034,
    -0.5709846280785529,
    0.8731285470963728,
    -2.1168513032654417,
    0.8140674581391208,
    -1.009956843552439,
    -1.3643417127024124,
    -1.47807250722353,
    -1.809266065985048,
    1.2451711453001202,
    -0.38738396083029586,
    1.4917265428700073,
    -0.8747862379185212,
    0.2859342183940477,
    0.6241288059002759,
    0.5226497324351421,
    -0.911823032215502,
    0.3226542581331677,
    -1.18699192464144,
    1.33248551751781,
    -1.2836806019652172,
    0.5482356718122019,
    -1.3722981797391196,
    -1.0154654649229098,
    0.799670621232255,
    1.4411072351146352,
    -0.9389185590023392,
    -0.6941408537897354,
    1.5657542904991737,
    -1.695276848372243,
    -0.2657191757315209,
    -0.10123639223764855,
    -1.8743370813209597,
    0.04890577090813912,
    -0.04823625051063111,
    0.5260557401766167,
    0.10239136565734952,
    0.36455445317864765,
    -0.14146764203566445,
    -0.7714640502879666,
    0.7472478123646623,
    0.22734009081448076,
    -0.9222157290288113,
    -0.7369651094988611,
    2.6107057128823374,
    -1.244320721559688,
    -1.8923708681379194,
    0.29171655033569577,
    0.4635210596893131,
    0.7619805226636005,
    -1.39051112428805,
    0.6529367269589731,
    -0.6095520954413441,
    0.6073743912481075,
    -1.0396851133777216,
    0.6120425315870909,
    0.16620049467594,
    0.4526230441573056,
    2.2350530440507774,
    -0.21069570792567283,
    -2.5105592118682836,
    -1.3953678223624066,
    2.020159620507182,
    0.8891205382086943,
    0.1786880797154207,
    1.0268529069015981,
    -1.3712611460129154,
    0.5356762430712835,
    -0.8832522148985946,
    -1.350452490106993,
    0.2066592599744461,
    1.672085497510182,
    -1.0720468525674465,
    2.037939899849663,
    1.2914760552520093,
    1.164382008501951,
    -0.461086863898936,
    -2.242530394940836,
    0.6008269121453932,
    -0.6154173051773337,
    0.7348192956233581,
    0.5238356286237378,
    0.3860992631447141,
    -0.5586167948978126,
    0.9408912098839488,
    -1.154438727517711,
    -0.5981400295890534,
    0.38612696825909903,
    0.7187030798882372,
    -0.07100828603844311,
    0.0004257149464948858,
    -0.049754240432728865,
    -1.1106501615178803,
    0.5416343135359561,
    -0.006758854843124424,
    -0.8324754930458026,
    -0.27292062367115344,
    1.4446557665180086,
    -0.5756782070180785,
    1.7827104386559651,
    0.9918101037147862,
    -0.6071527289369871,
    0.593420295831592,
    -0.3239517228897113,
    -0.3501508761089899,
    -0.7913997792518378,
    -0.09376707981361508,
    0.5831512910397422,
    0.079272652208703,
    -0.5630181883349943,
    0.5732505723523175,
    -0.9058326899002562,
    -1.3066865900919074,
    -0.992253100769823,
    -0.07024086340416326,
    -0.5823085164142264,
    -0.3401406541170911,
    -0.2524398822466418,
    0.8505109852807256,
    -0.7167091359419551,
    0.057697000130780114,
    -0.32084533519288855,
    0.4376241041036106,
    0.24462100280350707,
    0.4120613691115613,
    -0.6793101197051448,
    0.907154745097965,
    0.7978498196248285,
    -3.0863888896004377,
    0.6271859806998592,
    0.7290676027791444,
    -1.0723092136133134,
    1.5124954527620829,
    -0.1699976762112675,
    -0.43291305507593947,
    -0.807796590344472,
    0.7477742409998537,
    0.31521670615348535,
    -0.7177022923735354,
    0.17975359107316008,
    -1.3982017424743076,
    0.5539971957179638,
    0.10812534285242335,
    -2.8079764429423673,
    2.0723407042532993,
    0.19438084544333126,
    -0.1896108610674489,
    -0.13059547095917715,
    -0.05149247377351533,
    0.09106927112001925,
    -0.9023817264385181
  ],
  "best_morphology": [
    [
      1,
      1,
      1,
      1,
      0,
      0,
      0,
      0
    ],
    [
      1,
      1,
      1,
      1,
      1,
      1,
      0,
      0
    ],
    [
      1,
      4,
      4,
      1,
      1,
      1,
      0,
      0
    ],
    [
      2,
      4,
      4,
      1,
      1,
      1,
      0,
      0
    ],
    [
      2,
      2,
      2,
      1,
      1,
      1,
      0,
      0
    ],
    [
      1,
      2,
      1,
      1,
      1,
      1,
      1,
      1
    ],
    [
      1,
      1,
      1,
      1,
      1,
      1,
      1,
      1
    ],
    [
      1,
      1,
      1,
      1,
      1,
      1,
      1,
      1
    ]
  ],
  "all_fitnesses": [
    376.7428443178415,
    -18.580560206798566,
    355.831373290966,
    -2.271222768692809,
    21.7270424125806,
    15.300467017397466,
    -11.150835249110571,
    -61.03538968753122,
    0.12174251707403982,
    -0.151366144653025,
    407.8336400587208,
    476.56622966633955,
    -1173.9196355105246,
    193.304631602153,
    -119.25014096458233,
    11.751249867413208,
    3.6749613698841586,
    59.31694316106643,
    136.8656463291502,
    -1.0946915084825832
  ]
}