{
  "generation": 14,
  "best_fitness": 971.7104061711993,
  "mean_fitness": 280.3101094277523,
  "best_morph_weights": [
    -1.8978913605440606,
    0.9237048943952615,
    0.5631936680959307,
    0.7195822994870039,
    1.8437573220433834,
    -0.33095551847938454,
    0.5608681384296368,
    0.9955767470891013,
    -1.2271974050892132,
    0.46142345070367013,
    -1.976250894291606,
    1.7556078299027416,
    -0.5451000654306178,
    -1.635437913474885,
    -0.09293273463443874,
    -0.9516841728349393,
    -2.5077742331784907,
    0.3915727667984653,
    1.7865464501783062,
    -0.010872189713095892,
    -0.03421107004217485,
    2.375327715116383,
    0.6014595101647333,
    -1.9225409508516351,
    1.6321131574794778,
    1.2511865595626654,
    0.9775866923529541,
    0.007627788082000597,
    -1.466831259510718,
    -1.9905839018503295,
    0.5323119777953284,
    -0.9511567430959448,
    -1.6668891321475614,
    0.1751746228320748,
    1.4431344827734207,
    0.18347280561391774,
    -0.618989545673517,
    -0.13281149195625375,
    -0.14575565222108766,
    1.6878944963200357,
    1.3154150200153858,
    1.2520976147107037,
    0.956618501709752,
    1.1266852899070074,
    -0.9611877974012505,
    0.306530772371353,
    2.5015150787594815,
    -0.8752751896713127,
    -0.8208940706727694,
    0.9948816343198668,
    -0.28617879468353047,
    0.8381666753546121,
    0.9184852883987686,
    1.9426036521456203,
    -1.587566511836741,
    -1.5478144783261596,
    1.0551916299269875,
    0.36456904159485004,
    1.0327987661116573,
    -1.1723794468059539,
    1.4633816149824261,
    -0.29150013641366734,
    -2.417563423324339,
    1.92289374209207,
    0.15574855154066786,
    0.396519710235076,
    0.9017851865704031,
    -0.8812341582937107,
    -0.952112327312591,
    -0.8126401258174302,
    -0.4395281395933495,
    0.4832471091062347,
    0.35517946437314224,
    -1.386666486597801,
    -0.6353201604624245,
    0.3657957528617692,
    1.201356098878513,
    -0.1048425232294477,
    0.7551901977460903,
    -0.8639286248169108,
    -0.43163844106494315,
    1.279279093274639,
    0.11820269845197481,
    -0.20531963763734706,
    1.2233149225183597,
    -0.6662019499967399,
    0.6989591409919371,
    -2.116740052653454,
    0.0007694841117023565,
    -1.6112002015775926,
    1.1785353388339723,
    -2.754496763626754,
    0.3037654182675156,
    -0.3230153674387624,
    0.5005531861760355,
    0.16095451177387504,
    -0.2701253025999405,
    -2.128922236958617,
    1.4273703470529606,
    -0.04618529986027637,
    0.898135166111389,
    -0.7677199774031986,
    -1.3021661250703735,
    1.3870566830516233,
    -2.1314959173156445,
    1.1994942349800026,
    1.0529387478367143,
    0.46906178308064034,
    2.7755914631904597,
    -1.4003545372060204,
    0.3775880763558688,
    0.7968581193671938,
    -0.5122440533908061,
    0.07977331667014148,
    -0.425171970955924,
    0.10576017453664921,
    1.7254588351807136,
    0.4266816762171011,
    0.787295878739925,
    -1.1845441587127805,
    -0.1453278354559865,
    -0.5208910568454073,
    1.5682558238529796,
    0.7752276493161729,
    1.3226118796615953,
    0.37381390703741124,
    -2.742998053271286,
    0.3360580729577865,
    -0.22620890606671634,
    0.706446163136235,
    0.17320718641438568,
    -0.7613943933347564,
    2.651075682271075,
    0.8996939242211751,
    -0.16366530122198752,
    -0.034216765462551854,
    -1.2128730511622594,
    0.6763553809424938,
    -1.0775679572268855,
    -1.1836000918247953,
    1.3645862690883206,
    0.13763043036544026,
    1.7363336038385295,
    -0.006799797654877407,
    1.323581723276352,
    -0.8659034857728808,
    -0.24304302674465783,
    0.3003909760125027,
    -0.42205217380747423,
    0.16176711835024343,
    -0.7209736766568129,
    -0.6658948520200972,
    -2.423759826448495,
    1.7592748341637752,
    0.4239675630765478,
    -1.083175070408634,
    -0.5663728315660813,
    -0.1340900882609477,
    0.24805932293887367,
    -0.3105358352203201,
    -1.0477693342689256,
    1.1217600206726734,
    -0.359143835500806,
    0.7180263581570586,
    -2.659901745184826,
    -0.014613244825009919,
    0.7913689368947661,
    1.0309008836524791,
    0.9967025274758773,
    0.8344548081180556,
    -0.034808360143744825,
    1.325143582309721,
    -0.24591183503336406,
    -0.033649599682606765,
    -1.1884324411696185,
    -0.5897065175617817,
    -0.6756007440906849,
    1.8713145923918166,
    0.2537292542563493,
    0.7976792414170006,
    -0.9807474916494111,
    0.7487594072303702,
    0.9955656428808572,
    -0.6038470117733458,
    -0.5496378412874442,
    -0.5061278816306058,
    0.31265522012330826,
    0.7884131176915885,
    -1.4646879350672586,
    0.2593374481488826,
    -0.44077942676349774,
    0.8759137707566372,
    1.3903185579536665,
    0.10930565421776917,
    0.9083936212513993,
    -0.6103498367225234,
    0.2015691200947832,
    0.3116399648071315,
    1.0722410784752594,
    -1.6766714728581305,
    -1.3751957584156527,
    -0.09906437001251817,
    -0.0391010995949009,
    1.19777728786744,
    -0.45115639060834023,
    -1.2510716559172597,
    -0.9185807193317825,
    -0.8247594208618882,
    0.42044088862323664,
    0.2833318843291856,
    0.572912393486939,
    -0.415974698614094,
    -0.8314070031936948,
    -0.8429269882769436,
    0.4594343428694858,
    0.12186943310949779,
    -0.20197139872765105,
    2.737992339162587,
    1.0709066514183574,
    0.26917087729547895,
    0.4547941914228568,
    -0.5374041204342768,
    -0.3418814496136921,
    -0.34362841019065765,
    -0.4892238523655853,
    -1.1663715281908371,
    -0.8129272987730347,
    -1.0667135825307057,
    -2.3390952073968996,
    1.4505554601164308,
    -2.2116081327341814,
    -0.27561450312423585,
    0.17965926622460235,
    0.3902371434897844,
    -0.47847700603800936,
    1.0729241518033978,
    1.6177007268976649,
    -0.8787302919863397,
    0.5716812496672418,
    1.3817905688947498,
    -0.5673429101501889,
    -0.3214103489544775,
    -1.730767525309427,
    0.32940050905600293,
    -1.123467565460154,
    0.16029991766550844,
    1.4851146998844742,
    -0.18029076830094717,
    0.004338173935024294,
    -1.0459365027072438,
    -0.22882676703896201,
    1.4468414304396622,
    -0.6408926249472807,
    -1.0651408318530462,
    1.2555140728528644,
    -0.08236467052632163,
    -1.2134826232919285,
    -0.7488841459370483,
    1.3815857138831664,
    -1.3600044171287136,
    1.0345241826966995,
    -2.452420547266938,
    -2.123611538440888,
    -0.9361766777157644,
    1.75506711814739,
    -0.7009385371230128,
    1.0686960898332158,
    -0.3290352357908091,
    2.096059429643211,
    -0.7674158513916693,
    1.7633354793393745,
    0.47765860376477814,
    0.5762110104828216,
    0.6476011433838822,
    -0.29302391634122693,
    -0.03801697122181466,
    0.4287522106142154,
    -1.1544554790873405,
    0.2511897066186949,
    1.8663110866010642,
    0.23221237583492005,
    -1.4144246450544844,
    -0.5744572468261027,
    -2.082549805701989,
    0.5469819762135075,
    -2.002000373938679,
    -1.4331195607449276,
    -0.9422382970045028,
    -0.05086867729067635,
    0.403487594818583,
    1.5216213659922273,
    -0.5999440142437238,
    2.374101258460869,
    0.2635342549897901,
    -2.0935276091481305,
    -1.5699095563709702,
    1.0940755551818733,
    0.3056423597780794,
    0.0806533859615797,
    0.7586497932080717,
    -0.2460717111483551,
    0.35658858481777356,
    0.9971140655165118,
    0.41410335500213,
    -0.9583717679616964,
    -0.446273375745352,
    0.049194018206396004,
    -0.6422141325125533,
    -0.2623200001134156,
    -0.8709268498153133,
    -0.036646315485883596,
    1.0986741044467212,
    0.4799127102649278,
    0.2815303043310252,
    0.7463444562192897,
    2.761155319368874,
    -0.7048076433175345,
    -0.4006649403692654,
    1.7802487370627962,
    1.2184008072718535,
    -0.06851685437374473,
    1.0574341701024461,
    0.18108830806485424,
    0.017130139454696474,
    -1.0777992443099944,
    1.4215584395685976,
    -1.4208740851896857,
    -1.6100701334372056,
    0.7257231482718998,
    1.0979805380851573,
    0.7074652056092424,
    1.3407488821427411,
    0.5589730216153326,
    -0.2031500831447529,
    -0.441507553417021,
    -0.1803746770201831,
    -0.5839458141198727,
    -0.06902833191010377,
    -0.8485535967810212,
    -0.5505493710940462,
    -0.9330897926004686,
    1.266401085941492,
    -1.4829074925665737,
    1.1915206342034443,
    0.178336995330002,
    0.9990691378379342,
    -0.5217394286617955,
    -0.9682554135461648,
    1.162119079328197,
    -0.2224659962659557,
    1.5291093419658255,
    -0.5487202518150283,
    0.3874565322538102,
    -1.7202756766171436,
    -1.0507111320185265,
    1.286188125416782,
    0.9993647789956649,
    -0.2920773715200121,
    -1.2222301141217673,
    -1.0207268919464312,
    0.295521651950363,
    0.4144635591051219,
    0.12338498823696266,
    -0.8672221920017209,
    -1.7364167775065367,
    0.6265725321679431,
    -0.42809036506351217,
    -1.35389277064127,
    1.8790803566944185,
    -0.3862650637030807,
    -1.0689523075626441,
    -0.9540561029477397,
    -1.4702647605235803,
    -0.14472939925432168,
    -0.9844973768218348,
    -0.7841599845012206,
    0.10112477545173659,
    -0.3036103481071542,
    -0.4227908973686323,
    0.9394883358581944,
    0.31079955843905516,
    0.48041315772439086,
    -0.8213309921200177,
    0.5754597054398984,
    -0.3454774579301824,
    -1.1240871962147698,
    1.8754340321126242,
    -0.4458763008338138,
    0.14700788983798316,
    0.5127316275843116,
    2.4212210434950663,
    0.34105911242413134,
    -0.5585299394727398,
    0.961729541350292,
    -0.9895820233473642,
    -0.16708511939404122,
    0.3774174257901374,
    0.8337629521530527,
    -3.1837726709765186,
    0.3712494538177753,
    1.6426315286376216,
    1.4994120259078993,
    -1.750025310562087,
    2.2427409646337764,
    -1.3925495595926816,
    0.1640141832683483,
    0.2524831486455019,
    -1.6383404312552956,
    -1.370000206872968,
    0.3330809505601211,
    -0.012731404675670927,
    0.021643136024560958,
    1.3223514416671038,
    -1.4252742843509096,
    -1.0917247149234552,
    -0.37955580431546126,
    -0.4595620682698814,
    0.900547665850925,
    -0.4379224080478087,
    0.2883435391551671,
    0.7827936937238925,
    -0.9574647755386525,
    0.4022837198401694,
    0.7210874025810788,
    -2.64054709360477,
    -0.1466249522245265,
    0.6140128307511007,
    1.5513470939925047,
    -0.5835810678427211,
    1.3121301055195838,
    1.0313584254139199,
    -0.6851237122370504,
    -0.28940067568397465,
    0.6964568184268357,
    -2.578639958105571,
    3.0436881740667965,
    0.10166565342245698,
    -0.08785555333149973,
    0.4886623429278577,
    -1.4969168879143167,
    -1.3477377374838488,
    -2.148430067992477,
    -1.6749246530261757,
    1.9089451094077812,
    0.25347915455564957,
    1.345725316386137,
    1.597442242267087,
    0.460987873402585,
    1.9974199455369783,
    -0.05733911155865022,
    1.2970403110730508,
    0.9397629836735828,
    -0.9198690544004647
  ],
  "best_ctrl_weights": [
    0.3104823334607,
    0.668429383810983,
    -0.45916535557612453,
    -0.7206839564494812,
    1.214586793143141,
    0.46727399618530036,
    0.07715411819101119,
    -0.4804925126674759,
    -0.16196997139184674,
    -0.8027001482305809,
    0.4420107666242527,
    1.6113302598716417,
    -1.4988695777642538,
    -1.089490911756376,
    0.3388769372076548,
    1.1487926993103244,
    -0.5484955822719917,
    2.653145267876651,
    0.3554284771752318,
    -0.2727873218342165,
    0.9794884175817803,
    -0.7147416926646452,
    -0.5829494018913103,
    0.1466829064979709,
    -0.9920436641431806,
    -0.909870238295549,
    -1.7554058151318626,
    0.17351187616747726,
    0.4733280085184827,
    0.15656363789075087,
    0.11676851573872289,
    0.710926428591932,
    0.17165576656390488,
    -1.150667093448519,
    1.4162245088383658,
    -1.2332757883796466,
    0.44992700469420016,
    -0.3597271828869116,
    0.8568944331119467,
    -0.34511384840275455,
    -2.7521337791847924,
    0.7543245588616656,
    0.33371704567069477,
    1.4875832656204149,
    -0.5806782485779857,
    0.8156531404027496,
    1.6548664335495968,
    0.04095809988320687,
    2.153499293129889,
    -1.3542701409950866,
    0.042392307622385994,
    1.486416977741516,
    -2.0626358270346548,
    -0.16299763873119538,
    2.280708257093211,
    -0.7606401761453466,
    0.35175797097974626,
    -1.0382403405661238,
    -0.7012990055809997,
    0.17116930011697185,
    -0.1800267305168366,
    1.0869980677956572,
    -0.4740076133932636,
    -0.07604152940115777,
    -1.6010016361472126,
    -1.2337087846802048,
    -0.27039327975601735,
    -0.25099637236854544,
    0.07245308105783417,
    0.911419821669437,
    0.3242142667180339,
    -0.19174700625523217,
    -1.1358845175405847,
    -1.0306721103705532,
    -0.18276608092854765,
    0.6325152812351369,
    -0.402808622909689,
    -0.03318079270477603,
    1.1880220845962914,
    -0.38819019116090925,
    1.5184755982626408,
    2.3861610938693723,
    0.3476211452468406,
    0.9510348410920945,
    -1.7961992856215139,
    -0.022207429938901364,
    0.5999124304485708,
    0.15339867076350022,
    2.645205588147561,
    -0.8146980379293491,
    -1.278308421336061,
    -1.085524570401929,
    1.1386259982149434,
    0.9888335843883818,
    -1.2413095289034928,
    -2.22732110220273,
    -0.06264943372398266,
    -1.624636725652097,
    0.7047951453042516,
    -0.4692409387343516,
    -1.844621626357406,
    -0.9197039743225909,
    -0.6410276131769029,
    -1.2158411108163907,
    1.2801245473467815,
    1.559233484735229,
    -0.4384176831554912,
    0.722225992668629,
    0.1749516582337569,
    1.2064550288492246,
    -0.11612710267845851,
    -0.008761867945599161,
    -1.397085211192245,
    0.5393294231876558,
    1.4667269295647236,
    -0.0991122061410103,
    -0.10988598987550874,
    1.8183207520214832,
    0.6495499929664479,
    1.4252092116031938,
    -0.1633391225140816,
    0.6303062576289011,
    -0.12619594512572294,
    1.1450197056785933,
    -0.47255422317240003,
    -1.7347974476151233,
    0.8028488541553405,
    1.8501245682490286,
    -0.8234708450244818,
    0.3877526490763325,
    -1.8202303018048782,
    0.8025440225825493,
    1.7014211615196952,
    1.8464858171697096,
    1.299838153563698,
    0.8333983127264895,
    0.27216014328289845,
    -0.6663343726220177,
    -0.12262717381626316,
    -0.86328709439009,
    0.09450292497455874,
    0.5691379825981926,
    -0.18018619698336852,
    0.21871509934782182,
    -0.19451432235002164,
    0.7036253161915009,
    -1.1624194779582369,
    -1.9380436202382723,
    1.8891482061425207,
    2.133015115797445,
    1.7834306575520493,
    -1.602076902835126,
    1.4232126403659455,
    -0.22918821122442118,
    0.5351792456132337,
    -0.12780877597889367,
    1.4532628523517772,
    1.092909378079659,
    -2.329412073075481,
    0.803031944051401,
    0.7389114899786224,
    -1.0129307747945036,
    0.6662537306518471,
    -0.9279425336853695,
    -0.14234710888369864,
    -0.6098763808776491,
    1.0290517603158742,
    -1.502913539473796,
    1.786916712488323,
    0.5247603543849753,
    -0.814963917184485,
    -1.733928479886167,
    -0.03281653400922546,
    0.021495662951028293,
    2.349096430252438,
    0.072480491746358,
    -0.07659192086929956,
    0.9419368455791297,
    -0.32737329484981154,
    -0.14593487013973694,
    0.40964653886677016,
    0.6446793750197108,
    -0.9736314964729837,
    1.830457643520018,
    0.06499256725594255,
    0.7460945258568235,
    -1.3601154351239093,
    0.3651488142796311,
    -2.399429298885434,
    -0.41443801603879693,
    0.3306221941414837,
    -0.29529616951805593,
    0.551023790769234,
    0.4957603515604363,
    -0.2606125437213234,
    -0.936833476392595,
    2.295747174261907,
    0.10654351489970552,
    0.7124925049000421,
    -2.1393526023300327,
    0.21295700998731795,
    -0.33577956377458196,
    0.606294554721545,
    1.422436802159778,
    0.04592086520982227,
    1.015968919525141,
    0.5977429200178057,
    -0.974446375734086,
    -1.8597360158878327,
    -0.16445577048406312,
    0.951702180539587,
    -0.7737499621850079,
    1.0064911830917147,
    -0.3108999048444758,
    1.2268406348318137,
    1.5860492916663977,
    -1.3772410156282826,
    0.18724396390859685,
    -1.533761068051516,
    0.43866782399266474,
    -0.1049972906667937,
    1.2841991305858904,
    -0.33298779930423383,
    -0.4204363834131691,
    -0.13545545575850607,
    0.17976129927444096,
    0.07269749153334407,
    2.5668590562743834,
    0.5624687398981106,
    -1.0014845269374275,
    1.0779982920427733,
    -0.11618411066527107,
    -0.3119132489505061,
    0.16554363506217804,
    0.4813957846618505,
    0.49415168909360463,
    -0.08760795040357744,
    1.604146031530827,
    0.5240566849754895,
    -1.5042295226064188,
    0.8476179329083268,
    -0.2057670099419744,
    0.7333710817136245,
    0.16974507082512186,
    -0.48565464684064874,
    -1.299313907049817,
    0.6890666232686891,
    -1.3230073628222536,
    2.103567020785239,
    -0.19448564595078183,
    1.2391564107442816,
    0.8815955846418414,
    -0.3573617577739081,
    -0.4783512990161993,
    -0.6562740555282478,
    0.8056818472980575,
    0.49203119120451533,
    -0.9290464883892813,
    -1.6058037081428922,
    0.03322869282417156,
    0.04925175717826797,
    -1.4735130007972155,
    0.9453088575073043,
    0.20448533181489098,
    0.5747859622747898,
    0.8602143391859159,
    -0.05128413400029572,
    -1.4433171908190092,
    0.34741890795065034,
    -0.8094792107902709,
    0.7088403726424591,
    -1.4983837440289298,
    0.8140674581391208,
    -1.009956843552439,
    -1.3643417127024124,
    -1.4627200076368378,
    -2.324050483234325,
    1.2451711453001202,
    -0.17670232127628288,
    1.6261482330631425,
    -0.8747862379185212,
    0.2859342183940477,
    1.57163503866269,
    0.5226497324351421,
    -1.2665414481601551,
    -0.1794979936086536,
    -0.4336091966820357,
    0.8972222914207405,
    -1.400704505873356,
    0.5482356718122019,
    -0.9836310247109727,
    -1.0154654649229098,
    1.1750638297985052,
    1.4411072351146352,
    -0.9703076065321912,
    -0.6941408537897354,
    1.2757787459034928,
    -2.0344183429656195,
    -0.2657191757315209,
    -1.2992592287739961,
    -1.8743370813209597,
    0.04890577090813912,
    -0.6333163736608318,
    -0.1732243382305486,
    0.9705456541022733,
    0.39034083502760986,
    -0.24892487057594115,
    0.6362472548791906,
    2.7548283418633517,
    0.22734009081448076,
    -0.9222157290288113,
    -0.7369651094988611,
    1.870613561926766,
    -1.244320721559688,
    -1.5133032407241187,
    0.29171655033569577,
    0.4635210596893131,
    0.0869883187124113,
    -1.39051112428805,
    0.6529367269589731,
    -0.6095520954413441,
    0.23602769772631518,
    -1.0396851133777216,
    0.883360637652473,
    0.16620049467594,
    -0.3488968742127063,
    1.089546489690692,
    -0.13518940415199493,
    -2.2945523160976733,
    -1.3953678223624066,
    2.0802604140432126,
    0.8891205382086943,
    -0.4010961080794941,
    0.44942623523055064,
    -0.36060530027818777,
    0.5356762430712835,
    -0.3087796026189608,
    -2.5446800175556397,
    0.2066592599744461,
    1.672085497510182,
    -0.8158302836041351,
    2.037939899849663,
    1.7174642803903972,
    0.6981449280027672,
    -0.461086863898936,
    -2.242530394940836,
    0.6008269121453932,
    -0.7972460643213153,
    0.7348192956233581,
    0.5238356286237378,
    0.3860992631447141,
    -0.5586167948978126,
    0.9408912098839488,
    -1.154438727517711,
    -0.5981400295890534,
    0.5030538914698378,
    -0.2153534284782176,
    -0.07100828603844311,
    0.0004257149464948858,
    -0.049754240432728865,
    -0.980293545090092,
    0.5416343135359561,
    -0.47772672262564286,
    -0.8324754930458026,
    -0.022744626122697287,
    -0.013830875281654054,
    -1.0241606789302256,
    1.7827104386559651,
    0.9961717602471076,
    -0.6071527289369871,
    0.3726624401743358,
    -0.3239517228897113,
    -0.3050701261881246,
    -1.079571154246897,
    -1.0386325459313905,
    0.5831512910397422,
    0.079272652208703,
    0.6267843947579357,
    0.5732505723523175,
    -1.43506332268864,
    -1.3066865900919074,
    -0.992253100769823,
    0.06393327290502225,
    -0.5823085164142264,
    -0.3401406541170911,
    0.7634980782964709,
    0.2633114315241194,
    -0.7772152322759837,
    0.057697000130780114,
    -0.32084533519288855,
    0.06353813176111284,
    0.24462100280350707,
    -0.1344997380020989,
    -0.6340280751440668,
    0.907154745097965,
    0.7978498196248285,
    -3.191170275070958,
    0.6271859806998592,
    0.7889141260393926,
    -0.29993464174527973,
    1.2610514707436025,
    -1.4167240401787726,
    -0.6148076803546341,
    -0.807796590344472,
    0.3090028014951756,
    -0.23255153405006884,
    -0.302397350363729,
    0.17975359107316008,
    -0.8026743644662014,
    0.973604139315078,
    0.10812534285242335,
    -1.0424147998171454,
    2.1106954244151512,
    0.19438084544333126,
    -0.1896108610674489,
    -0.13059547095917715,
    -0.05149247377351533,
    0.09106927112001925,
    -1.2380028884093668
  ],
  "best_morphology": [
    [
      2,
      2,
      2,
      1,
      1,
      1,
      1,
      1
    ],
    [
      2,
      2,
      1,
      1,
      1,
      1,
      1,
      1
    ],
    [
      1,
      1,
      1,
      1,
      1,
      1,
      1,
      1
    ],
    [
      1,
      1,
      1,
      1,
      1,
      1,
      1,
      1
    ],
    [
      1,
      1,
      1,
      1,
      1,
      1,
      1,
      1
    ],
    [
      1,
      1,
      1,
      1,
      1,
      1,
      1,
      1
    ],
    [
      1,
      1,
      1,
      1,
      1,
      1,
      1,
      1
    ],
    [
      1,
      1,
      1,
      1,
      1,
      1,
      1,
      1
    ]
  ],
  "all_fitnesses": [
    869.0366884889377,
    446.06822767868056,
    417.2290860421658,
    251.05459143263795,
    98.64243152224526,
    122.82518479627288,
    971.7104061711993,
    321.19977851677146,
    192.0023121918859,
    -3.4779175207036133,
    920.342848971472,
    40.47389789603278,
    486.53559213899337,
    -174.14564852251195,
    93.94454732044912,
    25.594927812474623,
    188.48273973866986,
    -124.90710471621503,
    191.58434872294094,
    272.0052498726474
  ]
}