{
  "generation": 10,
  "best_fitness": 326.41632393601424,
  "mean_fitness": 22.966413160397472,
  "best_morph_weights": [
    1.097647099223731,
    0.08727968536891755,
    -0.5305136621492992,
    -1.8461741877513533,
    1.1022129106773397,
    -0.3509789682103573,
    0.4393859491050853,
    0.141299666286698,
    -0.5151749078873811,
    -1.1930355376479025,
    -0.42727225509257394,
    0.020889160796524142,
    -0.5876474580044956,
    -0.003016614419473318,
    0.9477393865451305,
    -0.22073198230302493,
    -0.4690578799646601,
    0.39408796342846,
    -0.750287520394111,
    0.2773891354099481,
    -1.0510408459939664,
    0.08912226441291193,
    1.5460989079472465,
    0.053699212132650914,
    -0.42383723036048415,
    0.22102811778866333,
    -0.4969836767116357,
    0.02637401330262449,
    -1.0396353079646579,
    -1.2000486000485058,
    1.5116096700548707,
    0.10742663437060435,
    1.113505805017696,
    -2.4769673052494485,
    -0.3368303143375586,
    1.5434383468270847,
    1.0369000645414936,
    -2.1069966450180213,
    -0.7078582147013408,
    -0.9495233164387394,
    0.5301189914629671,
    -1.3112143478413911,
    0.08399743521013919,
    1.9696336889879913,
    1.4058413742446898,
    0.04697684204845326,
    0.6242041571471552,
    0.12265125176784944,
    -0.8788681481615263,
    -1.1336157831411167,
    0.35868028163324833,
    -0.8233857509677497,
    0.9507561876714269,
    -1.8312490581466165,
    1.1049153339641022,
    1.0778933334408594,
    3.0969220422788646,
    -0.23695122878596253,
    0.9788056020717074,
    0.47773173781011036,
    -0.3248218450738961,
    -0.12394543533850322,
    -0.22587771516314814,
    -1.018741218632619,
    0.3857554628705185,
    -0.4743994522207823,
    0.7924683716099877,
    -2.1328614282852683,
    0.1737262304226602,
    -0.1312449542746305,
    1.9032923496602696,
    0.2523390193284207,
    -1.3700516605606803,
    0.462304986463381,
    0.1247830382807141,
    0.44303266168695377,
    -0.2992358636144847,
    1.578186016014676,
    -0.7285701032480455,
    -0.8670081168975672,
    1.7191618063639746,
    0.2954315298965878,
    0.9223491717960584,
    0.8404280913918336,
    -0.4451128865185662,
    0.4693961343230396,
    0.2071177357263178,
    0.5502361591463453,
    -0.9575168339404143,
    0.7493971804284993,
    1.4303619930927987,
    -1.1601754325980316,
    -0.5221309786916604,
    -0.9682877404605122,
    -0.941032281820431,
    -0.16281323960047397,
    0.4572115144231196,
    0.6167224768479858,
    -0.9610298891560737,
    1.3476777594908325,
    -0.29145919315508534,
    -0.7930786190969388,
    1.0379217194956232,
    -0.4245427933825371,
    -1.3077786944622287,
    1.1753838742667195,
    0.6115986389175146,
    1.8032387174112892,
    0.48059705530613933,
    1.230877147054241,
    1.7585406325592077,
    0.31709582732020547,
    0.3573843496154686,
    -2.6068513397879207,
    -0.4641203694810248,
    0.23034418284823585,
    1.9336686017236462,
    0.542961512376681,
    0.5782382552623745,
    -2.649300187111499,
    -1.038415983464823,
    0.8994481666194557,
    1.1636680843482767,
    -0.051798861451499846,
    1.632171366924545,
    0.9755356366953468,
    1.060959546882235,
    -0.14715409435476223,
    -0.7759459131093961,
    -1.003297206129882,
    -0.9333972997204373,
    1.1637737832091102,
    1.0681532736072397,
    0.8576570974219987,
    -2.603506867059254,
    -0.348217097166374,
    0.5820749400831162,
    -1.5044571397133886,
    -0.4918707310963638,
    0.45859215751351234,
    -0.7786767218318634,
    1.2282115222024688,
    -1.714706581988426,
    -0.8061397851840559,
    0.02913214134241311,
    1.8092219807814816,
    0.19675889549119327,
    -0.1308360762326934,
    -0.8230639673784165,
    1.9244725725079175,
    1.3511928480245503,
    -0.29841677539599787,
    0.7571447887217734,
    -0.46023560372123307,
    0.0629476894185071,
    0.5990381236555955,
    -1.0861151997783813,
    1.5846201916703626,
    1.5311179491210738,
    1.4586331185416588,
    0.7248469016461325,
    -1.7557841543226256,
    -0.9784610730772796,
    0.5336158712669965,
    -2.7356272171521345,
    0.8298134152284244,
    -0.7082404053198628,
    -0.24528079050260526,
    -0.22673644529206932,
    2.418818211532373,
    1.656206609379984,
    -0.3219169493870436,
    1.7193285710639792,
    0.19004020580694522,
    0.14592709611008384,
    -1.2865914494542625,
    0.3441463633432263,
    0.27250573206855594,
    0.834011829989298,
    2.378533746779209,
    0.11038677816784627,
    -0.10067949475150366,
    2.2994280131594347,
    -1.909806397314771,
    0.4208792755396894,
    0.6585144487311214,
    -0.9705634388049784,
    -0.8240570022075248,
    1.8274795879734482,
    1.2154944741554081,
    1.2017024812181436,
    -0.31028920843600194,
    -0.7432113240281881,
    -0.9133690288581321,
    -0.40728149591622465,
    -0.17838447043710437,
    -0.27760417974312296,
    0.8743658678997202,
    0.5586924073612901,
    3.0331388127267407,
    -1.6084753548269513,
    1.4436680028911424,
    -0.42326228953856104,
    -1.7773925777451496,
    -0.8218257034755155,
    0.4564640448490478,
    -0.6230830126035299,
    1.4727477390983938,
    -1.4376023183553641,
    -0.9646665437703121,
    -0.4335898782949701,
    1.6101251430431058,
    1.0023158191617032,
    0.4060972022371905,
    0.35067852120908316,
    -0.144992714453805,
    -0.4229095199751988,
    1.3238985687189149,
    0.6032349220680937,
    -0.08637441118680436,
    0.6070958023753348,
    -1.0333582444995437,
    -0.06814712121303691,
    -1.0056248188076269,
    -0.8588467864085988,
    0.30121872948148776,
    -0.4802520559956783,
    -1.2686632212923554,
    0.9450264129143002,
    1.2478627026576543,
    -0.47105455668603546,
    -0.5993921116303965,
    -0.23531060451752583,
    0.5326461826321652,
    -0.16435733332832575,
    0.7411322849211344,
    0.4522391038062727,
    -1.4537490771216606,
    -0.42605942008596825,
    -1.2842158145345417,
    0.09781271216264066,
    0.9458465662764411,
    1.4093418631297032,
    -0.40012735557609025,
    -0.3373920679966817,
    2.682344697433525,
    -0.868083739163669,
    -0.1495939296371266,
    -0.2709944372143002,
    -0.6219421536848779,
    0.4416862524284423,
    -0.6873236842568435,
    -0.38767118527531047,
    -0.9456849559636105,
    0.6487880021170164,
    -0.5688444206278997,
    -0.9978863405247759,
    0.3490402013631793,
    0.6624748129065129,
    0.42680688751486134,
    1.4374659850655027,
    0.46111810133182135,
    0.21776678244618627,
    1.191619046976451,
    -0.6110842030645729,
    -0.0234521498575527,
    -0.47701672333468725,
    -1.609197390036419,
    -0.056408770067162696,
    0.7439599405102175,
    -0.7661163092547996,
    -2.443101417139109,
    -1.5845480240282694,
    0.545962705685626,
    0.7488622331451911,
    -1.2284670216139395,
    -0.302208777166645,
    0.6091274416301302,
    0.6153351764707817,
    0.06639236396166193,
    0.33308801886574485,
    -0.8282505862024561,
    1.8287816105064674,
    1.3187679328033863,
    -1.7563255563281723,
    0.8602321905015201,
    2.2404026986207866,
    0.7650423757708983,
    2.021468792125047,
    0.3618808041163725,
    -0.26779260917447734,
    -1.1509246190371365,
    0.4704549276821312,
    1.0983948235400898,
    -1.3791556894635189,
    0.8343501344873433,
    -1.94010935465011,
    0.5557391795595166,
    1.03441215068175,
    -0.6394571054332782,
    1.928681484553511,
    1.7292565135273341,
    0.1163878785348741,
    -1.3010105259404163,
    2.485163745767283,
    1.2164589761848634,
    1.0756261574827077,
    -1.340282464374142,
    0.14865295521469057,
    0.003419057717004102,
    -0.1901269957443181,
    -1.099765254544558,
    -0.16382588911544393,
    1.8548140178297396,
    1.6064874160695835,
    -1.9620646374122737,
    -0.13141781374553899,
    -0.5250854699937185,
    -0.1062815080350537,
    -0.3330334247463149,
    0.34679379301936886,
    -2.4124026925274427,
    0.914166999685796,
    -0.42910787181099563,
    0.9995703994243034,
    -0.8071351006069626,
    1.6531785397969734,
    0.0224494260715081,
    0.9209168994990786,
    -1.986100127061965,
    -1.089626254009075,
    1.956441538753095,
    1.4409313997563702,
    -0.07860548394509062,
    0.5197568950895731,
    1.929151343887054,
    -1.4273957691449264,
    0.48271345034957336,
    -0.8376276766242021,
    1.2635751632437722,
    -1.4387575809442446,
    -1.2043201502462977,
    1.2569746630006053,
    -1.178286493931534,
    -0.5132088025400176,
    0.6952854659239044,
    0.5026308679825452,
    0.591659423964413,
    -0.7180259255718148,
    0.04378149100195722,
    -0.4465573291004414,
    -1.1633264498408622,
    -1.2799853609379026,
    -0.02852408187624006,
    -1.5456832662424644,
    -0.6214380327064286,
    0.0508421586312939,
    1.4584200551287114,
    0.46600844790899104,
    -2.044866350605586,
    1.2179687934145882,
    -0.07544263501205772,
    1.5165038945714746,
    0.014575097628973476,
    1.073275989873852,
    -0.767101691130975,
    0.5304815373842202,
    -1.491164688679436,
    0.1576392885402508,
    -0.1424950561547134,
    -0.5792060243480212,
    1.1534817483331647,
    0.7026375171664927,
    0.17136645632216208,
    0.6178989698362733,
    -0.6311723161626894,
    -0.6040451993444979,
    2.535955012126648,
    0.04521362841928511,
    -0.862187945830523,
    -0.45486019784209925,
    -0.2547106864291301,
    1.8151500739733586,
    0.7010342206629929,
    1.315101350543607,
    0.2281689372896728,
    0.4979355104713927,
    0.4877560459790456,
    -1.0391351851227288,
    -0.9033250016035985,
    -2.3173027583340926,
    -0.9270496698464331,
    1.3440221338713807,
    1.6783609781333835,
    1.3626043617937382,
    -2.784315622506105,
    -1.062997331716458,
    0.7214034284245686,
    -0.007442861085203395,
    -0.33616905364251637,
    -2.594906107977995,
    0.9385472072553956,
    -0.04824187058240043,
    0.15453985057207273,
    -2.1171072661604176,
    -0.471899069322289,
    -0.259000294482254,
    0.3452302698358625,
    0.5348105414655966,
    -0.40660576331075854,
    1.1540155683984774,
    1.976002976590745,
    1.8923543014924753,
    -1.0184370683166848,
    -1.4209055399725496,
    -0.7016275434446027,
    1.2504043413302437,
    -1.6548212289373394,
    -1.9065519446932337,
    1.4213516673604039,
    0.8582156262873567,
    -1.8246229702891754,
    -0.27344512414790223,
    0.320934528783635,
    -2.394692597680467,
    0.6828962458583514,
    -0.3529461048409056,
    0.4806521941751065,
    0.6792239835014064,
    -2.5470011855741617,
    -0.5516331068485429,
    -1.9793324937774446,
    -0.43945261488372417,
    0.38786968276123224,
    1.7598915712055756,
    -0.5204037907352439,
    0.31309287335046865,
    -2.3682997972106237,
    0.08542725494615311,
    2.306339111762477,
    -1.7011007786285428,
    0.6559702805454309,
    -2.07377052022518,
    0.23540050941581792,
    -0.01755502698061605,
    0.3980891289798693,
    -1.8891268698473715,
    1.112053681513697,
    -0.24178587538085755,
    0.2055368006663448,
    -0.015072242459067157,
    -2.389652597144358,
    -0.1697583018927765,
    -0.0966018033708979,
    1.2417266062351837,
    -0.6550811112352267,
    -1.4858107498050932,
    0.027807777564899494,
    1.599747343769759,
    0.3796605728001972,
    -0.08639952358324118,
    -0.25740739702676585,
    0.8635427731759948,
    -0.5005890095499984,
    1.4392486094735313,
    0.18367726459178335,
    1.7881262302849188,
    0.521361142546229,
    1.0287688903572263,
    0.19726446673696457,
    -0.849997373192279,
    0.27784268478465607,
    -0.7321453949847748,
    0.6491274926998637,
    2.163816145351829,
    0.9942254511169522,
    -0.02721270465514753,
    0.7099924139644382,
    -0.5874620160872113,
    -0.6432179865719272,
    2.065350209068269,
    -0.14715216872897563,
    1.5576059093409544,
    -0.44813760609087755,
    0.45033091948057524
  ],
  "best_ctrl_weights": [
    0.4228202839063623,
    -0.7895397861289619,
    0.6063779900989472,
    1.5781636892419186,
    0.9626183468318043,
    -1.2115248255045317,
    0.01796719021735671,
    0.31344330604783227,
    -0.6572536163612015,
    0.17345885813041434,
    1.3551875920349215,
    0.6043778801056853,
    0.18061598020543762,
    1.12227276335145,
    1.4459113000232202,
    -0.8859680878811597,
    -1.1197892504355818,
    0.8439794565765876,
    -2.6624667523554826,
    1.2661058436619825,
    -1.8843684804282514,
    1.8164214320733112,
    0.45423171134365514,
    1.9833783516211398,
    0.8686696217177255,
    -0.04213117738580025,
    -0.8282471368160138,
    1.2295511028446298,
    1.6078550922690682,
    -0.031929581192644094,
    0.9274645594884772,
    0.01670623798102758,
    0.17928878633137385,
    0.1293206811932359,
    -1.776124024938842,
    -1.4237794398880486,
    -1.3193338901964053,
    -0.6873572385046699,
    0.59770360070726,
    1.1358864194780671,
    -0.5632731054382792,
    -1.4587335745081447,
    -0.07276558622063312,
    -1.5646024351563859,
    1.1659506790358527,
    1.3303649779157536,
    -1.4844033612911944,
    0.9473774520946356,
    1.0119611443606717,
    1.1493894056854732,
    0.35660888386821205,
    -0.09964425940110916,
    -0.5681875144084931,
    -1.8427450193530834,
    0.5954301486196829,
    -1.1035400651838925,
    -0.04379554666865748,
    0.4131954560352898,
    -0.8355576561548278,
    0.5580024489685237,
    -0.6362776905929104,
    -0.9653214591746531,
    1.943198424841819,
    -0.5514583668374518,
    -0.6817888139974627,
    0.011742713835416762,
    1.0310586983542824,
    0.0586855411508288,
    -0.00974541761522644,
    0.3246407630454075,
    0.8547438250384962,
    1.8509373851368225,
    0.577951649014571,
    -1.6891292467620311,
    0.769376471513286,
    -0.36647798002838106,
    0.4597548490164951,
    -0.6970122356585391,
    0.817575056543616,
    0.6829207607397224,
    0.3227322244764905,
    1.649113128049077,
    -0.4481757671637636,
    -1.2361562104223152,
    -0.8143740971752306,
    -1.7819499517258381,
    0.7764398388203935,
    -0.9065266413188017,
    0.4090726543154163,
    0.9984709678915691,
    0.4415493832215437,
    0.29678362653698664,
    0.23706861448017544,
    -1.1550147138797175,
    -1.0331052199961503,
    0.5789550867360967,
    -0.6742393630615577,
    -0.6466651534718553,
    0.10389918679267651,
    1.5770310611495575,
    0.32848695782521553,
    0.035391333744931475,
    -0.9009479182017711,
    -1.5304615652787719,
    0.03552057421651175,
    -0.24853245547499134,
    0.3497887770074239,
    0.6875365884393674,
    0.3743117944943583,
    1.3133271926628278,
    1.2016388817145538,
    -1.1852082723146014,
    0.3391099826896171,
    0.39953821800440237,
    -2.5886691659954244,
    -0.3350899417187341,
    -0.4705234797917813,
    0.011007918128698906,
    1.1475659809676917,
    1.0008775008742372,
    1.3445833221727028,
    -0.17870308808776414,
    -0.3208857879839401,
    0.6723735443112686,
    0.3825742582777142,
    -0.32019629389436066,
    -0.14775041497977878,
    -0.5455760100852579,
    -0.7332674757474553,
    -1.05828239742089,
    1.115568770008508,
    0.5018518511431205,
    0.8586917791872751,
    0.39754298581237224,
    -0.6199298882145857,
    1.2135750762405222,
    1.689816537205592,
    0.24271009247410094,
    -0.5614785504568803,
    -0.18380626749056098,
    -0.3107741579672768,
    -0.28140442940831817,
    -0.4377465911905772,
    -0.004874967553264953,
    -1.9972834033280478,
    1.1914963767848983,
    -0.9487398343866632,
    0.48181861866479897,
    0.7047279231045309,
    -0.015396929096943568,
    0.9512829912975947,
    0.2535086379976524,
    1.5533709260915254,
    -1.8011377494211307,
    1.3385526344057792,
    1.841044888236341,
    0.759424903305772,
    -0.39211218634661926,
    0.9280489002761914,
    0.43629972656956145,
    -1.2623631505845403,
    -2.558305028165059,
    0.8061860825671198,
    -1.5999126097567953,
    0.323067498573873,
    -0.22294521983799476,
    0.06589857140878116,
    -0.7663714551923447,
    0.21471461443406592,
    -0.47559633550037506,
    -0.5097516339942739,
    -0.33219662307421505,
    0.3063323967133072,
    -0.17573977729800083,
    -1.035515168668375,
    0.9848082769307911,
    -0.2078304390985378,
    0.2278244372223336,
    -1.135927226353429,
    -0.19611671679863985,
    0.10531063584026296,
    0.007437030705628345,
    1.567861419944387,
    -0.23584704292443714,
    0.5859771592803589,
    -0.7677056010448379,
    0.18312411160605235,
    -1.141309593894755,
    1.0954861213669924,
    -2.195396067067737,
    -1.3663533338539413,
    -1.8561135457277047,
    0.20010856265323726,
    0.8001569510161382,
    -0.8773083265262362,
    -1.314688359115617,
    1.6608610185841306,
    0.5298195084249893,
    -0.8402802526802896,
    0.5415232958291291,
    -0.9389546107818126,
    0.02286295970535778,
    -1.1994472183851517,
    -0.7888166269576568,
    1.6587498383761412,
    1.5993712070318435,
    0.313304344102476,
    0.3047399445034965,
    2.957985265020304,
    -1.2669028182708448,
    0.1942229679214761,
    -0.7868724035960958,
    -0.4694279161592805,
    0.7304625664758176,
    0.09457415836387406,
    0.5888964458263084,
    0.29759951901483755,
    -0.1203680562578594,
    0.3733597388285614,
    1.7750709116999446,
    0.2747051147988937,
    -0.564157120627314,
    -0.4958582490606259,
    -0.970791844424799,
    1.2103760487954303,
    0.11154667280358782,
    1.533237340484365,
    0.17090012357790152,
    -0.5846485235265962,
    0.08596577013389242,
    -0.24161493967325787,
    0.8290054177692583,
    1.6066663862247166,
    0.8975863271209582,
    -0.7673764066641213,
    -0.41521624706547133,
    0.7759041095779621,
    0.42857570897972563,
    -0.26520178714922293,
    -1.656952963243896,
    -1.3898186502952825,
    0.5294930867325296,
    -0.8070870890641333,
    0.386544630585285,
    -2.042865605178994,
    0.999697624182462,
    -0.7067600724163424,
    1.7213257099947383,
    -0.4639088245171409,
    0.25765204652117313,
    1.0233240208806718,
    1.2337843923042904,
    -2.0555406795279842,
    0.07690782320195144,
    -0.4701200550030863,
    -0.6752819539128063,
    -1.30349519355958,
    0.9312361691388911,
    -0.0021826598083810322,
    -0.7860398888032804,
    0.9304542966455019,
    -0.06689371561207405,
    0.6081021800444119,
    -0.1399598712927263,
    0.9848137691776967,
    -0.8489590674929444,
    0.8764635617498001,
    -0.27039598526359476,
    0.4311696400404372,
    0.023827076727019038,
    -0.7583831787376857,
    1.6837269443150324,
    1.1345791039850825,
    0.24806198452180533,
    -0.47981443498099396,
    -1.5803252160511323,
    0.4914508361115331,
    -0.48652749722517263,
    2.0394914034076073,
    -0.8707960931800892,
    -1.733990138792994,
    -0.2869879833407837,
    0.8720022495270155,
    2.1438727865474685,
    0.8614543897651263,
    0.07402863626061745,
    -0.28049774056104787,
    -0.4203571889681347,
    -0.5525182500200787,
    -0.16751187788882568,
    -0.35883614726930296,
    0.20409213159547213,
    -0.7503844556737691,
    -0.19633890939750476,
    0.41050374940657963,
    0.7863966245004648,
    0.29910115201701865,
    0.30149639124372085,
    -1.6619545899884,
    -0.06574029487980382,
    0.574852427373586,
    1.2292268001525728,
    -0.2684687916890067,
    1.1569277018713886,
    0.5046023547076897,
    1.090651773824454,
    0.7449125477883467,
    0.2751388862529791,
    0.4114041568166747,
    -0.2387412985641993,
    0.1057307806795663,
    -1.5384163660238328,
    0.44549222819870843,
    -1.2969120012966935,
    0.24372021072588507,
    -2.081664674845041,
    -0.45700224727264427,
    1.0744519896032474,
    -0.5221117066245703,
    0.5135565708538403,
    0.4012978466383985,
    -0.40701981300150947,
    -0.972900041849022,
    1.4137608942839752,
    0.05513758585683033,
    -0.6747566075045416,
    -0.8684729846051108,
    0.9921350531665637,
    -1.1480848348456254,
    0.5798534212946918,
    0.33834031018813204,
    -1.0806824477639352,
    2.008510234385788,
    0.7154165627650544,
    -1.199730175346709,
    2.9556174490880496,
    0.27439226103475645,
    -1.4398588873756504,
    0.17783876206922042,
    -0.5024554472935684,
    -1.1315952385441943,
    0.3993900733460358,
    -0.841033091780419,
    0.6036141753022304,
    -0.6296168113185827,
    2.1148836031613776,
    -0.17315912180500942,
    0.8269188193906267,
    0.3972582706075085,
    0.2252892266913075,
    0.6566998254927149,
    -1.286969949241402,
    1.6825183739515193,
    -0.4393013158468669,
    -0.31327372436606543,
    -1.3561273613170903,
    1.1031674141263017,
    -1.3681902420691805,
    1.9380791737533278,
    0.4941919594130515,
    -2.0020560373923058,
    -0.5354693339933673,
    1.1849175784112196,
    -0.97006415635141,
    -0.34952794527908737,
    -0.5811175900192633,
    0.8333025637677619,
    1.7407110214226207,
    1.0958953536164942,
    -1.1494059916290487,
    -1.7130325608048622,
    -1.434591779791906,
    -0.8340541735474246,
    2.036337580478938,
    0.034298017691745286,
    0.2690743548315857,
    -0.4532042222335721,
    -0.08036387439792932,
    -0.2146423142305127,
    -1.4799205316585213,
    -1.890246496899453,
    1.4161501535354244,
    1.169462257725299,
    -0.05067054145286599,
    -1.6927757622615316,
    -1.26843245413518,
    -1.2315196784403446,
    0.05490762409603944,
    1.8577977615546168,
    -1.6814330513610602,
    -1.179002082457003,
    -1.304979430974266,
    -3.0222314617685275,
    -0.32165524640559534,
    -0.41973680242622946,
    0.8555535345053288,
    -1.9688598981421603,
    -0.7078059255366459,
    0.10450580149001559,
    1.5952337936630507,
    1.3564782291474065,
    -0.6313333243046482,
    -0.5076002333480889,
    0.18670217001549985,
    -1.3370891050205271,
    0.7476071055406048,
    0.04704458711990178,
    0.6996189588299574,
    -0.3826290121073912,
    0.12513197737586165,
    1.6456306608684488,
    -2.064531166552345,
    0.8049817784210036,
    0.43345549604167183,
    -0.30184810156646036,
    0.2335783542052281,
    1.6766411308751814,
    1.2056378839743103,
    -1.2844828660761205,
    0.8994135602679926,
    -1.1634898773345834,
    -0.29763663183134903,
    0.709669651518344,
    -2.4136072396304997,
    1.5955435964847622,
    -0.6068604907711613,
    0.2816672302216113,
    1.285578294073179,
    -2.4166992738711057,
    2.2496172948932784,
    0.04327512849549331,
    0.7903520315485887,
    1.4288516937503886,
    0.7918746636006263,
    -1.2419270112392526,
    -0.8442395971126504,
    1.1293413604544231,
    1.2100632889947984,
    -1.4298153379188376,
    1.9295862675486546,
    2.435329078960727,
    -1.2181068410453089,
    -1.0719405035755531,
    -1.0692561356053227,
    1.8092957148400293,
    -0.7142796163466036,
    -0.00313361885741994,
    -0.13033670966237731,
    1.626176082067647,
    -0.8933134332365125,
    0.19338046506327597,
    1.8596163326283135,
    -0.05349763208908282,
    0.3575447793125147,
    -1.0874078387253654,
    0.4224560675656375,
    0.758733548432303,
    -0.3536527333380207,
    -0.19622653246362676,
    -0.7160786210909911,
    -0.5984892818486092,
    0.5338506205820807,
    0.20971432039037707,
    -0.5944357012704353,
    -0.7001967239532184,
    0.36258588036228423,
    -1.1016350174713938,
    0.36157356580840233
  ],
  "best_morphology": [
    [
      4,
      4,
      4,
      4,
      2,
      2,
      2,
      2
    ],
    [
      4,
      4,
      4,
      2,
      2,
      2,
      2,
      2
    ],
    [
      2,
      2,
      2,
      1,
      1,
      0,
      0,
      0
    ],
    [
      2,
      2,
      4,
      1,
      0,
      0,
      0,
      0
    ],
    [
      0,
      0,
      0,
      0,
      0,
      0,
      0,
      0
    ],
    [
      0,
      0,
      0,
      0,
      0,
      0,
      0,
      0
    ],
    [
      0,
      0,
      0,
      0,
      0,
      0,
      0,
      0
    ],
    [
      0,
      0,
      0,
      0,
      0,
      0,
      0,
      0
    ]
  ],
  "all_fitnesses": [
    326.41632393601424,
    3.1474192544157518,
    26.98032213754078,
    -1.1964426630382263,
    -22.967667302189426,
    -80.53096916142616,
    14.77909106430343,
    -59.27297741985129,
    155.44668958175362,
    -1.1879711219909268,
    -26.256175117275745,
    94.85640275142953,
    138.4896385278915,
    112.76414186560976,
    -152.95860308138919,
    -104.46072722193964,
    -1.9717482957254333,
    137.53186792732032,
    -109.62711436302848,
    9.3467619095249
  ]
}