{
  "generation": 19,
  "best_fitness": 728.3845634346188,
  "mean_fitness": 95.08024510139089,
  "best_morph_weights": [
    1.1235666877614268,
    0.08727968536891755,
    -0.5305136621492992,
    -1.8461741877513533,
    0.5741194245176214,
    -0.32817265332587237,
    0.4393859491050853,
    -0.04555865674010845,
    -0.5151749078873811,
    -0.9051765404458378,
    -0.44956230204804476,
    -0.3351713612677972,
    -0.5876474580044956,
    -0.003016614419473318,
    0.5767524775912454,
    -0.22073198230302493,
    -0.5985071582727827,
    0.6246050264987586,
    -0.750287520394111,
    0.2773891354099481,
    -1.0510408459939664,
    0.08912226441291193,
    2.4824029133548944,
    0.2935931405227662,
    -0.42383723036048415,
    0.22102811778866333,
    -0.4969836767116357,
    0.09579563942878502,
    -1.0396353079646579,
    -0.8975725231681433,
    1.0487203325782368,
    0.10742663437060435,
    1.5392972016930666,
    -3.386969180607067,
    -0.48760106371523354,
    1.5434383468270847,
    1.0369000645414936,
    -2.822132512694748,
    -0.7078582147013408,
    -0.9495233164387394,
    0.5301189914629671,
    -1.4524612643882362,
    0.08399743521013919,
    2.0050873336506956,
    2.277724002660978,
    0.04697684204845326,
    0.668939474029906,
    0.12265125176784944,
    -0.8788681481615263,
    -1.1336157831411167,
    0.35868028163324833,
    -0.8233857509677497,
    0.9507561876714269,
    -1.7635410529694093,
    1.1049153339641022,
    -0.19834263916430717,
    3.535836529143068,
    -0.23695122878596253,
    1.1376158285265652,
    0.47773173781011036,
    -0.20467584408130254,
    -0.12394543533850322,
    -0.22587771516314814,
    -1.018741218632619,
    0.3857554628705185,
    0.032664405111926476,
    0.7924683716099877,
    -2.0331628703783546,
    0.1737262304226602,
    -0.1312449542746305,
    1.9032923496602696,
    0.2523390193284207,
    -1.3700516605606803,
    0.462304986463381,
    0.1247830382807141,
    0.573113595568978,
    -0.2992358636144847,
    1.30374772032281,
    -0.7285701032480455,
    -0.17769459120089787,
    1.7191618063639746,
    -0.031963469863337646,
    1.4982092363035946,
    1.891935994830132,
    -0.45943165228869887,
    0.4693961343230396,
    0.2071177357263178,
    0.8773001336230137,
    -0.5802187255851693,
    0.8227325647974787,
    1.4261655143858585,
    -1.1601754325980316,
    -0.5221309786916604,
    -0.9682877404605122,
    -0.941032281820431,
    -0.16281323960047397,
    0.4572115144231196,
    1.0018496971650361,
    -1.0491437108020325,
    1.3476777594908325,
    0.4160655595583364,
    -0.7930786190969388,
    1.0379217194956232,
    -0.4245427933825371,
    -1.3077786944622287,
    1.1753838742667195,
    0.6115986389175146,
    1.8032387174112892,
    0.48059705530613933,
    1.3095496682746488,
    1.915129393546656,
    0.31709582732020547,
    0.38214550078506077,
    -2.9331085918234727,
    -0.10370694310461359,
    -0.0880129456113112,
    1.9336686017236462,
    0.3946236814118036,
    0.63767631275874,
    -2.649300187111499,
    -1.038415983464823,
    0.8994481666194557,
    1.1636680843482767,
    -0.051798861451499846,
    1.1534272986474796,
    1.7734528258910158,
    1.060959546882235,
    -0.4418146288603366,
    -1.226980724651254,
    -1.003297206129882,
    -0.9333972997204373,
    1.1364918369736907,
    1.7412661236252005,
    0.8800261926466931,
    -3.606675274299902,
    -0.348217097166374,
    0.7390090159558131,
    -1.5044571397133886,
    -0.8303952444391018,
    -0.16329648130886298,
    -0.7557553445900309,
    1.2282115222024688,
    -1.982380648116025,
    -0.8061397851840559,
    0.02913214134241311,
    1.6226909853415543,
    -0.6728935948430259,
    -0.1308360762326934,
    -2.290998996221694,
    1.9244725725079175,
    1.3511928480245503,
    -0.1939772701434666,
    0.7571447887217734,
    -0.06340443266594131,
    0.0629476894185071,
    0.5990381236555955,
    -1.0861151997783813,
    2.491280569419113,
    1.5311179491210738,
    1.4586331185416588,
    0.7248469016461325,
    -1.7557841543226256,
    -1.6285317001819717,
    0.5336158712669965,
    -2.172314482325308,
    0.9213839925554888,
    -0.7082404053198628,
    0.16407926860917066,
    -0.22673644529206932,
    2.3489976802160406,
    1.656206609379984,
    -0.3219169493870436,
    1.7193285710639792,
    0.08626838928973248,
    0.14592709611008384,
    -1.2865914494542625,
    0.3441463633432263,
    0.27250573206855594,
    0.834011829989298,
    3.0987503873711306,
    0.11038677816784627,
    -0.058224446371337474,
    2.2994280131594347,
    -2.163561019620473,
    0.25006101980037304,
    0.11003326037586492,
    -0.9705634388049784,
    -0.7241764873280152,
    1.8274795879734482,
    1.2154944741554081,
    1.2017024812181436,
    -0.31028920843600194,
    -0.7432113240281881,
    -0.9133690288581321,
    -0.40728149591622465,
    -0.17838447043710437,
    -0.27760417974312296,
    0.5064531835686552,
    0.5586924073612901,
    2.544293069138499,
    -1.3008836034026305,
    1.4436680028911424,
    -0.42326228953856104,
    -1.7773925777451496,
    -0.8218257034755155,
    0.4564640448490478,
    -0.6230830126035299,
    1.4727477390983938,
    -1.4376023183553641,
    -1.8773281532153245,
    -1.2076810671276763,
    1.6101251430431058,
    2.740730828712778,
    0.4060972022371905,
    0.35067852120908316,
    -0.144992714453805,
    -0.4229095199751988,
    1.3238985687189149,
    0.6032349220680937,
    -0.08637441118680436,
    1.2185357926753415,
    -1.0333582444995437,
    -0.06814712121303691,
    -1.0056248188076269,
    -1.2486188349818692,
    0.060582143738830835,
    1.0039108979922757,
    -0.9996066315028961,
    0.9450264129143002,
    1.2478627026576543,
    -0.47105455668603546,
    -0.9420087255027301,
    -0.23531060451752583,
    0.5326461826321652,
    -0.16435733332832575,
    0.7411322849211344,
    0.8314465441879756,
    -2.1430936896619848,
    -0.42605942008596825,
    -1.2842158145345417,
    0.09781271216264066,
    0.4291133090764566,
    1.4093418631297032,
    -0.9113461306141505,
    -0.581938941326638,
    2.938079010504639,
    -1.2360987537343429,
    -0.1495939296371266,
    -0.2709944372143002,
    -1.366644840340827,
    0.4416862524284423,
    -0.6873236842568435,
    0.08860320085082096,
    -0.558642318984039,
    0.5306555380899252,
    -0.5688444206278997,
    -0.13179159539259777,
    0.3490402013631793,
    0.6624748129065129,
    0.42680688751486134,
    0.9462265564142793,
    0.46111810133182135,
    0.21776678244618627,
    1.191619046976451,
    -0.6110842030645729,
    -0.0234521498575527,
    -0.47701672333468725,
    -1.609197390036419,
    -0.056408770067162696,
    1.5737623162721912,
    -0.3794432157750802,
    -2.2311883223255773,
    -1.5845480240282694,
    0.8703382311542573,
    0.7488622331451911,
    -0.637569679283663,
    0.27256580388547436,
    0.6091274416301302,
    0.8384705558195583,
    0.06639236396166193,
    0.33308801886574485,
    -0.2956133629304678,
    1.8287816105064674,
    0.6907303846100477,
    -1.7563255563281723,
    0.8602321905015201,
    2.2404026986207866,
    0.7650423757708983,
    2.021468792125047,
    0.3618808041163725,
    -0.26779260917447734,
    -1.1509246190371365,
    0.9370723051836851,
    1.956367089326322,
    -0.6461455282370558,
    0.88619115336585,
    -1.94010935465011,
    0.5557391795595166,
    1.3393205193600646,
    -0.3890433716371549,
    1.928681484553511,
    1.7292565135273341,
    0.1163878785348741,
    -1.3010105259404163,
    2.485163745767283,
    1.2164589761848634,
    1.0756261574827077,
    -1.340282464374142,
    0.14865295521469057,
    0.003419057717004102,
    -0.1901269957443181,
    -0.3846578209314628,
    -0.42165272031160145,
    1.750263353099352,
    1.7402227010881526,
    -2.311700994391126,
    -0.041420764452815326,
    -1.3557030987152643,
    -0.1062815080350537,
    -0.3330334247463149,
    0.359469364131984,
    -3.043960465006875,
    0.914166999685796,
    -0.9696227606669948,
    0.9995703994243034,
    0.006698534811096946,
    1.6531785397969734,
    0.0224494260715081,
    0.9209168994990786,
    -1.986100127061965,
    -1.5014348640930104,
    2.212453301305497,
    1.4409313997563702,
    -0.07860548394509062,
    0.5197568950895731,
    1.929151343887054,
    -1.4089117825329742,
    0.48271345034957336,
    -0.8376276766242021,
    1.2635751632437722,
    -1.428696801916335,
    -1.1074681303174179,
    1.2569746630006053,
    -1.178286493931534,
    -0.5132088025400176,
    0.6952854659239044,
    0.5026308679825452,
    1.1799747746784905,
    -0.7180259255718148,
    0.04378149100195722,
    -0.4465573291004414,
    -1.1633264498408622,
    -1.2799853609379026,
    -1.1484105122868187,
    -0.9440643849631957,
    -0.6214380327064286,
    0.0508421586312939,
    1.4584200551287114,
    0.46600844790899104,
    -2.044866350605586,
    1.2179687934145882,
    -0.07544263501205772,
    2.4126198735278934,
    0.014575097628973476,
    0.32894147549957264,
    -0.767101691130975,
    0.5304815373842202,
    -1.491164688679436,
    0.8236021005839201,
    -1.3616481485850052,
    -0.5998448575390364,
    1.1534817483331647,
    0.7026375171664927,
    0.17136645632216208,
    0.6178989698362733,
    -0.009233640890748518,
    -0.6040451993444979,
    2.535955012126648,
    0.04521362841928511,
    -0.862187945830523,
    -0.3984862890369574,
    -0.2547106864291301,
    1.8151500739733586,
    0.7010342206629929,
    1.315101350543607,
    -0.16383017317418508,
    0.4979355104713927,
    1.0503455169419633,
    -0.22954185532115945,
    -0.9033250016035985,
    -2.3173027583340926,
    -0.8066472852715698,
    1.3440221338713807,
    2.1089715068372965,
    1.3626043617937382,
    -2.784315622506105,
    -1.660898869801291,
    0.8817126432475666,
    0.24820105298046716,
    -0.33616905364251637,
    -3.0286317338821247,
    0.9385472072553956,
    -0.04824187058240043,
    0.15453985057207273,
    -2.1171072661604176,
    0.4950466990127071,
    -0.259000294482254,
    0.7125266914142534,
    0.5348105414655966,
    -0.7740252641105078,
    1.1540155683984774,
    1.976002976590745,
    1.8923543014924753,
    -1.3233629639543565,
    -1.4209055399725496,
    -1.696954211963343,
    2.036199897897,
    -1.6548212289373394,
    -1.9065519446932337,
    1.4213516673604039,
    0.8582156262873567,
    -1.8246229702891754,
    -0.27344512414790223,
    0.320934528783635,
    -1.262036205844211,
    0.6828962458583514,
    -0.3529461048409056,
    0.4806521941751065,
    0.866793871440771,
    -2.5470011855741617,
    -0.5516331068485429,
    -1.9793324937774446,
    -0.43945261488372417,
    0.38786968276123224,
    1.7598915712055756,
    -0.5204037907352439,
    0.31309287335046865,
    -2.3682997972106237,
    0.08542725494615311,
    2.306339111762477,
    -1.3315321494761745,
    0.6559702805454309,
    -1.5480550308630467,
    0.07456925026179767,
    -0.01755502698061605,
    0.3980891289798693,
    -1.567732292286127,
    1.112053681513697,
    -0.24178587538085755,
    0.2055368006663448,
    -0.015072242459067157,
    -2.389652597144358,
    -0.1697583018927765,
    -0.0966018033708979,
    0.7649061140613156,
    -0.6550811112352267,
    -1.3566766277458033,
    -0.11790524182792389,
    1.599747343769759,
    0.3796605728001972,
    -0.08639952358324118,
    -0.25740739702676585,
    0.45888406213599203,
    -0.5005890095499984,
    1.4392486094735313,
    0.18367726459178335,
    1.7881262302849188,
    0.521361142546229,
    1.0287688903572263,
    -0.14042722928309243,
    -0.849997373192279,
    0.27784268478465607,
    -0.7321453949847748,
    0.6491274926998637,
    2.163816145351829,
    0.9942254511169522,
    -0.02721270465514753,
    0.7099924139644382,
    -0.5874620160872113,
    -0.6432179865719272,
    2.4338835148289033,
    -0.14715216872897563,
    1.5576059093409544,
    -0.44813760609087755,
    0.4226598671416314
  ],
  "best_ctrl_weights": [
    0.4228202839063623,
    -0.5891406286598445,
    0.6063779900989472,
    1.5781636892419186,
    1.4989601988662846,
    -1.2115248255045317,
    0.01796719021735671,
    0.31344330604783227,
    -0.6572536163612015,
    -0.8484542524972352,
    1.3551875920349215,
    0.4743306472908134,
    0.18061598020543762,
    1.12227276335145,
    1.4459113000232202,
    -0.8859680878811597,
    -1.1197892504355818,
    1.1227512292513988,
    -3.369865253379058,
    1.2326583816469006,
    -1.8843684804282514,
    1.8164214320733112,
    0.45423171134365514,
    1.9833783516211398,
    0.8686696217177255,
    -0.04213117738580025,
    -0.8282471368160138,
    1.2295511028446298,
    1.4744307279767919,
    0.45058842032328594,
    0.9274645594884772,
    0.01670623798102758,
    0.17928878633137385,
    0.1293206811932359,
    -0.5618705507417898,
    -1.4237794398880486,
    -1.3193338901964053,
    -0.759253361995578,
    1.2867063594334485,
    0.8769834052581591,
    0.13559729399446235,
    -1.3852580618828045,
    0.21608528727202808,
    -1.5646024351563859,
    1.1659506790358527,
    1.3303649779157536,
    -1.6079333022047562,
    0.9473774520946356,
    0.2365433124903613,
    1.1493894056854732,
    0.35660888386821205,
    -0.09964425940110916,
    -0.5681875144084931,
    -1.8427450193530834,
    0.9022545904676004,
    -1.1035400651838925,
    0.7984157313236455,
    0.4131954560352898,
    -0.46910323888474376,
    0.5580024489685237,
    -1.0884694651994604,
    -0.3721693043270933,
    1.943198424841819,
    -0.5514583668374518,
    -0.9689856940851113,
    0.011742713835416762,
    1.4117236654173393,
    0.0586855411508288,
    -0.5126149416838764,
    0.3246407630454075,
    0.9627951186870716,
    1.8509373851368225,
    0.577951649014571,
    -1.6891292467620311,
    0.769376471513286,
    -0.36647798002838106,
    0.4597548490164951,
    -0.6970122356585391,
    0.817575056543616,
    1.0582978799926464,
    0.3227322244764905,
    1.649113128049077,
    -0.4481757671637636,
    -1.4716073639341065,
    -0.8143740971752306,
    -1.7819499517258381,
    0.6810914088945703,
    -0.177908092823717,
    0.4090726543154163,
    0.9984709678915691,
    0.4415493832215437,
    0.29678362653698664,
    0.23706861448017544,
    -1.1550147138797175,
    -1.0331052199961503,
    0.5789550867360967,
    -0.6742393630615577,
    -0.6466651534718553,
    0.10389918679267651,
    1.5770310611495575,
    0.32848695782521553,
    -0.24264444588159634,
    -0.6876136316292147,
    -1.5304615652787719,
    0.03552057421651175,
    -0.24853245547499134,
    0.3497887770074239,
    0.6875365884393674,
    -0.274439435883107,
    1.3133271926628278,
    1.2016388817145538,
    -1.1852082723146014,
    0.3391099826896171,
    0.4651942635982322,
    -2.5886691659954244,
    -0.738174257386585,
    -0.5431422765263334,
    0.011007918128698906,
    1.6412813473056966,
    1.0008775008742372,
    1.3445833221727028,
    0.9946732375811785,
    -0.3208857879839401,
    0.6723735443112686,
    -0.15406803388835366,
    -0.32019629389436066,
    -0.14775041497977878,
    -0.5455760100852579,
    -1.2387000007681515,
    -1.05828239742089,
    1.1785137378967483,
    0.5018518511431205,
    0.8586917791872751,
    0.2772299745413732,
    -0.6199298882145857,
    1.2135750762405222,
    1.689816537205592,
    0.24271009247410094,
    -0.9499224266285393,
    -0.18380626749056098,
    -0.3107741579672768,
    -0.28140442940831817,
    -0.4377465911905772,
    -0.004874967553264953,
    -1.9972834033280478,
    1.1914963767848983,
    -1.5237835143914975,
    1.2951468337246375,
    0.7047279231045309,
    -0.015396929096943568,
    0.9512829912975947,
    0.2744103422759703,
    1.5533709260915254,
    -1.8011377494211307,
    1.3385526344057792,
    1.841044888236341,
    1.5760894584549594,
    -0.39211218634661926,
    0.9280489002761914,
    0.43629972656956145,
    -1.2623631505845403,
    -2.558305028165059,
    0.8061860825671198,
    -1.4863823605515603,
    0.323067498573873,
    -0.22294521983799476,
    0.06589857140878116,
    -0.7663714551923447,
    0.09490158406833549,
    -0.47559633550037506,
    -0.5097516339942739,
    -0.33219662307421505,
    0.3063323967133072,
    -0.17573977729800083,
    -1.1663056664799873,
    0.9848082769307911,
    -0.2078304390985378,
    0.2278244372223336,
    -1.135927226353429,
    0.15125848534985542,
    0.10531063584026296,
    -0.4520978404676117,
    1.567861419944387,
    -0.23584704292443714,
    0.6819892666501042,
    -0.7677056010448379,
    0.4079131096648452,
    -1.141309593894755,
    1.0954861213669924,
    -1.9722804433548826,
    -0.0067308408758979255,
    -1.8561135457277047,
    0.20010856265323726,
    0.8001569510161382,
    -0.5377080589066265,
    -1.314688359115617,
    1.6608610185841306,
    -0.03974432878911471,
    -0.8402802526802896,
    0.5415232958291291,
    -0.9389546107818126,
    0.09922261645260397,
    -0.3233020215844835,
    -1.7020319504369907,
    1.6587498383761412,
    1.5993712070318435,
    0.4854577795674282,
    0.3047399445034965,
    3.9708768549280595,
    -1.2669028182708448,
    0.1942229679214761,
    -0.7868724035960958,
    -0.30196829993050334,
    0.7304625664758176,
    0.09457415836387406,
    0.5888964458263084,
    0.29759951901483755,
    0.787762524638697,
    0.3733597388285614,
    1.7750709116999446,
    0.2747051147988937,
    -0.564157120627314,
    0.6029985523532492,
    -0.970791844424799,
    1.4534761945248247,
    0.11154667280358782,
    1.533237340484365,
    0.17090012357790152,
    -0.5846485235265962,
    -0.21725871420657336,
    -0.24161493967325787,
    0.8290054177692583,
    1.3356547309406976,
    0.8975863271209582,
    -0.6861773018200863,
    -0.41521624706547133,
    0.9505922333787062,
    0.42857570897972563,
    -0.26520178714922293,
    -1.656952963243896,
    -1.3898186502952825,
    0.5294930867325296,
    -0.568927065710948,
    0.386544630585285,
    -2.042865605178994,
    0.999697624182462,
    0.16453294954330525,
    2.221833662611739,
    -0.4639088245171409,
    0.25765204652117313,
    1.0092735437226625,
    1.3805683024823074,
    -2.0555406795279842,
    -0.9894764514211758,
    -0.4701200550030863,
    -0.5060069899989185,
    -0.2572705037866101,
    0.9312361691388911,
    -0.0021826598083810322,
    -0.7860398888032804,
    0.9304542966455019,
    0.22204192670495812,
    -0.00018682704745576206,
    0.3116587557999676,
    0.9848137691776967,
    -0.8489590674929444,
    0.8764635617498001,
    -0.27039598526359476,
    0.7170891817848385,
    0.2766817180534008,
    -0.7583831787376857,
    1.6837269443150324,
    1.1345791039850825,
    0.8611216082095936,
    -0.14598148045644688,
    -1.5220433069986115,
    0.11503579936087133,
    0.3966630622425643,
    2.0394914034076073,
    -1.4963471506437922,
    -1.733990138792994,
    0.03799454192239046,
    1.315588806897091,
    2.1438727865474685,
    0.23854108326688228,
    0.4045325340186121,
    -0.28049774056104787,
    -0.4203571889681347,
    -0.5525182500200787,
    -0.16751187788882568,
    -0.35883614726930296,
    0.20409213159547213,
    -0.7503844556737691,
    -0.19633890939750476,
    0.41050374940657963,
    0.9638600295173787,
    0.29910115201701865,
    0.30149639124372085,
    -1.5068065183815962,
    -0.06574029487980382,
    0.574852427373586,
    1.2292268001525728,
    -0.2684687916890067,
    1.1569277018713886,
    0.5447680293356024,
    0.752313391955608,
    0.7449125477883467,
    0.2751388862529791,
    0.4114041568166747,
    -0.2387412985641993,
    0.1057307806795663,
    -1.7051307416191503,
    0.44549222819870843,
    -1.2969120012966935,
    0.24372021072588507,
    -2.081664674845041,
    -0.45700224727264427,
    1.2548603640628406,
    -0.5221117066245703,
    1.2405902275104759,
    0.4012978466383985,
    -0.40701981300150947,
    -0.972900041849022,
    1.4137608942839752,
    -0.5549188832797936,
    -1.4233846861499653,
    -0.8684729846051108,
    0.9921350531665637,
    -1.1480848348456254,
    0.5798534212946918,
    0.33834031018813204,
    -1.7301800071813143,
    2.008510234385788,
    0.7154165627650544,
    -1.199730175346709,
    2.9556174490880496,
    0.27439226103475645,
    -1.3929581596941354,
    0.17783876206922042,
    -0.5024554472935684,
    -1.7834066481859838,
    0.3993900733460358,
    -0.841033091780419,
    0.6036141753022304,
    -0.9400098477621299,
    2.648815426360225,
    -0.17315912180500942,
    0.8269188193906267,
    0.3972582706075085,
    0.2252892266913075,
    0.6566998254927149,
    -1.8606079159513709,
    1.2901048330350415,
    -0.5885742427102951,
    -0.31327372436606543,
    -1.3561273613170903,
    1.1031674141263017,
    -1.3681902420691805,
    1.9380791737533278,
    0.4941919594130515,
    -2.0020560373923058,
    -0.5354693339933673,
    1.1849175784112196,
    -0.97006415635141,
    0.31119059650688363,
    -0.5811175900192633,
    0.8333025637677619,
    1.536459720794432,
    1.0958953536164942,
    -1.1494059916290487,
    -1.7130325608048622,
    -0.6644826230327957,
    -0.8340541735474246,
    2.036337580478938,
    0.034298017691745286,
    0.2690743548315857,
    -0.4532042222335721,
    -0.08036387439792932,
    -0.24136677242997664,
    -1.8251853833211014,
    -2.937785954111672,
    1.4161501535354244,
    1.169462257725299,
    -0.05067054145286599,
    -1.6927757622615316,
    -1.26843245413518,
    -1.2315196784403446,
    0.05490762409603944,
    1.6301859392024043,
    -1.6814330513610602,
    -1.179002082457003,
    -1.304979430974266,
    -3.0222314617685275,
    -0.32165524640559534,
    -0.588223467225061,
    0.8555535345053288,
    -2.2292183172716964,
    -0.923922145782922,
    0.10450580149001559,
    1.5952337936630507,
    1.9829799178144465,
    -0.6313333243046482,
    -0.5076002333480889,
    0.18670217001549985,
    -1.1948656549634875,
    0.7476071055406048,
    0.04704458711990178,
    0.8270994212341668,
    -0.3826290121073912,
    0.12513197737586165,
    1.6456306608684488,
    -2.064531166552345,
    -0.046425114662654754,
    0.43345549604167183,
    -0.30184810156646036,
    0.5888375945360168,
    1.6766411308751814,
    1.2056378839743103,
    -1.2089855472857436,
    1.1674147177657543,
    -1.1634898773345834,
    -0.29763663183134903,
    0.5420057187980495,
    -3.283461973063005,
    1.5955435964847622,
    -0.6068604907711613,
    0.2816672302216113,
    1.285578294073179,
    -2.4166992738711057,
    2.2496172948932784,
    0.04327512849549331,
    0.7903520315485887,
    1.1266507795259364,
    0.7918746636006263,
    -1.2419270112392526,
    -0.8442395971126504,
    1.1293413604544231,
    0.8071402067941358,
    -2.171209356953465,
    1.9295862675486546,
    2.435329078960727,
    -1.2181068410453089,
    -1.0719405035755531,
    -1.0692561356053227,
    1.8092957148400293,
    -0.7142796163466036,
    -0.00313361885741994,
    -0.13033670966237731,
    1.6747089420044787,
    -0.8933134332365125,
    0.5258823622957761,
    2.021616060321166,
    -0.05349763208908282,
    0.3575447793125147,
    -1.0874078387253654,
    0.4224560675656375,
    1.3137771836900127,
    -0.3536527333380207,
    0.9182161431223876,
    -0.7160786210909911,
    -0.5984892818486092,
    0.5338506205820807,
    0.20971432039037707,
    -0.5944357012704353,
    -0.7001967239532184,
    -0.14264640845078147,
    -1.1016350174713938,
    0.36157356580840233
  ],
  "best_morphology": [
    [
      2,
      2,
      2,
      4,
      2,
      2,
      2,
      2
    ],
    [
      2,
      2,
      2,
      2,
      2,
      2,
      2,
      2
    ],
    [
      2,
      2,
      2,
      2,
      2,
      0,
      0,
      0
    ],
    [
      2,
      2,
      4,
      2,
      2,
      0,
      0,
      0
    ],
    [
      0,
      0,
      0,
      0,
      0,
      0,
      0,
      0
    ],
    [
      0,
      0,
      0,
      0,
      0,
      0,
      0,
      0
    ],
    [
      0,
      0,
      0,
      0,
      0,
      0,
      0,
      0
    ],
    [
      0,
      0,
      0,
      0,
      0,
      0,
      0,
      0
    ]
  ],
  "all_fitnesses": [
    728.3845634346188,
    87.24236613808824,
    -17.723543310303654,
    -22.757981320012135,
    -33.3797098612645,
    42.191310511950746,
    42.3642999597688,
    28.94268497135363,
    314.64302344156846,
    96.40413777885118,
    71.37008448616518,
    138.79920287418707,
    61.18251245450898,
    10.762038969516993,
    19.44881741517912,
    -38.88998044290301,
    129.57921333183688,
    215.569594970158,
    4.072547016641636,
    23.39971920790748
  ]
}