{
  "generation": 4,
  "best_fitness": 231.72751896577142,
  "mean_fitness": 5.807954090066278,
  "best_morph_weights": [
    1.097647099223731,
    0.08727968536891755,
    -0.9212994756167704,
    -1.8461741877513533,
    1.1022129106773397,
    -0.3509789682103573,
    0.33283815780077414,
    -0.354156835451224,
    -0.5151749078873811,
    -1.0013304614874343,
    -0.42727225509257394,
    -0.28941945649642986,
    -0.5993961446702197,
    0.005019686316533156,
    1.7368978613035673,
    0.6006137560679395,
    -0.4690578799646601,
    1.4006076793049662,
    -0.3630185295065359,
    0.2773891354099481,
    -1.0510408459939664,
    0.08912226441291193,
    0.2458824330036632,
    0.053699212132650914,
    -0.42383723036048415,
    0.41276503590188446,
    -0.39875314968568926,
    0.02637401330262449,
    -1.0396353079646579,
    -1.2000486000485058,
    1.5116096700548707,
    0.47617880864852924,
    1.113505805017696,
    -2.4769673052494485,
    0.34348568816609115,
    1.3391694870810122,
    1.0369000645414936,
    -2.2301948269408007,
    0.429814528927266,
    -0.5551765528215126,
    -0.4881957055241104,
    -1.3112143478413911,
    0.08399743521013919,
    1.9696336889879913,
    1.4058413742446898,
    0.3022613761862165,
    0.48655596565327097,
    0.22827026325303496,
    -0.33636997104600797,
    -0.4563279968010693,
    0.2739765922190432,
    -0.8233857509677497,
    0.95447599511812,
    -1.4881062190257364,
    1.1049153339641022,
    1.0778933334408594,
    2.0766866781920728,
    -0.3926567341669161,
    0.9670474285175942,
    0.47773173781011036,
    -0.3248218450738961,
    0.7375034228759517,
    -0.22587771516314814,
    -0.4306775550915769,
    0.3967669199858913,
    -0.6495609242610689,
    0.7924683716099877,
    -2.062079909098797,
    0.1737262304226602,
    -0.3869264654461768,
    1.9032923496602696,
    0.2523390193284207,
    -1.3700516605606803,
    0.013683834191996173,
    0.3294505986632385,
    0.44303266168695377,
    -0.2992358636144847,
    1.578186016014676,
    -0.7285701032480455,
    -0.8670081168975672,
    1.8577888996701948,
    0.2095099628014801,
    0.9223491717960584,
    0.8404280913918336,
    0.6952704913946871,
    0.6132529793979021,
    0.5076120840713628,
    0.5753255068794848,
    -1.1147522981302957,
    0.39480640444569615,
    1.4303619930927987,
    -1.1601754325980316,
    -0.8504913161430235,
    -0.034279531413286324,
    -0.941032281820431,
    0.20698305693567978,
    0.18655774715942547,
    0.6167224768479858,
    -1.258671993383813,
    0.21090708325035243,
    -0.36866221107440755,
    -0.18890985350651673,
    1.0379217194956232,
    -0.3491043739714396,
    -0.24061440518670904,
    0.829795388684091,
    0.6115986389175146,
    1.4497494752512345,
    0.48059705530613933,
    0.9218025734236367,
    1.7585406325592077,
    -0.05795016623076896,
    1.1051741132849284,
    -2.6068513397879207,
    0.1584174430721796,
    0.23034418284823585,
    0.9321947684755598,
    0.7211896167223417,
    0.10407911347566562,
    -2.0768669351228715,
    -1.038415983464823,
    0.9390794622509568,
    1.1636680843482767,
    -0.051798861451499846,
    1.632171366924545,
    0.9755356366953468,
    1.4434347809252464,
    -0.8448331539028856,
    -1.2975756483683814,
    -1.003297206129882,
    -0.9333972997204373,
    0.9267786717209617,
    1.0681532736072397,
    0.7967251313390054,
    -2.603506867059254,
    1.0880259049880163,
    0.5820749400831162,
    -1.5044571397133886,
    -0.026337214929554705,
    0.45859215751351234,
    -0.7786767218318634,
    1.2282115222024688,
    -1.725355622241663,
    -0.2737075280721922,
    0.02913214134241311,
    1.5563086116903513,
    0.19675889549119327,
    0.1868797823300385,
    -0.043488251018416135,
    1.8117029463763374,
    1.3261098108589384,
    -0.45573671941614113,
    0.7571447887217734,
    0.07585590375955795,
    0.0629476894185071,
    0.39966947036501616,
    -0.5588449715863422,
    0.7438641009827645,
    1.5311179491210738,
    1.4586331185416588,
    0.04347313136003743,
    -0.9172560380117305,
    -0.9784610730772796,
    1.2920410087689793,
    -2.0997934052161558,
    1.9297096704656262,
    0.4160101549370065,
    0.13631428057396178,
    -0.22673644529206932,
    2.418818211532373,
    1.656206609379984,
    -0.3297214041365959,
    1.0677382949270038,
    0.18193844354404293,
    0.36259240700724177,
    -1.2865914494542625,
    0.3425410344499186,
    -0.46560501322029696,
    0.6609929138021574,
    2.378533746779209,
    0.11038677816784627,
    -0.10067949475150366,
    2.2994280131594347,
    -1.8399636311596281,
    0.6222510027071341,
    1.1437808584209816,
    -1.0890300748623407,
    -0.8240570022075248,
    1.637769401035599,
    0.9275400183623299,
    1.2017024812181436,
    0.6298671321269951,
    -0.7432113240281881,
    -0.9133690288581321,
    0.21450542221199634,
    0.4440040458087526,
    0.05653184363512093,
    0.8743658678997202,
    0.5586924073612901,
    0.39594738811393426,
    -1.6084753548269513,
    1.4436680028911424,
    -0.5305811153892687,
    -1.528913947929824,
    -1.6985568896347212,
    0.5450559903410713,
    0.11355255226228766,
    2.47319679615338,
    -0.7743061666662352,
    -0.030501534538737385,
    -0.4335898782949701,
    0.5141674922838201,
    0.9292192641690721,
    1.1032405743711455,
    0.35067852120908316,
    -0.144992714453805,
    -0.4229095199751988,
    1.8752655097655109,
    -0.27374517911378377,
    -0.08637441118680436,
    0.7398998066360767,
    -0.7167193454277738,
    -0.06814712121303691,
    -1.6697956077906668,
    -0.8588467864085988,
    0.30121872948148776,
    -0.4802520559956783,
    -1.2686632212923554,
    0.9450264129143002,
    1.9463203111144578,
    -0.4674097283017531,
    0.13233919924219653,
    -1.0760805327436507,
    0.6239377225243984,
    -0.40691208836659865,
    0.7411322849211344,
    -0.6744929555506313,
    -1.4537490771216606,
    -0.30638319281652476,
    -1.2842158145345417,
    0.09781271216264066,
    0.9458465662764411,
    1.4093418631297032,
    -0.6457583959307823,
    -0.3373920679966817,
    1.8948047587279857,
    -0.868083739163669,
    -0.6536474217775904,
    0.11238960747549495,
    -0.6657385246996042,
    1.0764195671766958,
    -1.2917586427298553,
    -0.38767118527531047,
    -0.12506980510415255,
    0.6487880021170164,
    -1.7489768360482942,
    -0.9978863405247759,
    -0.2839473426139248,
    0.8157994762417782,
    0.5055404897693269,
    1.129866219276423,
    0.1694345900158732,
    0.21776678244618627,
    2.1856363285592355,
    0.6266631299777722,
    0.1627949671540764,
    -0.47701672333468725,
    -1.609197390036419,
    -0.056408770067162696,
    1.0274038542555661,
    -0.21508813617017158,
    -2.443101417139109,
    -1.3471934136079122,
    1.157829975049342,
    0.7488622331451911,
    -1.318229110503029,
    -0.5785839656375054,
    0.6091274416301302,
    1.202764075284323,
    -0.26021376478823544,
    0.33308801886574485,
    -0.06413923423221082,
    1.5292732526432868,
    1.3187679328033863,
    -1.4504417300601864,
    0.8602321905015201,
    2.2404026986207866,
    0.2857825220438578,
    1.475465787377999,
    0.7412939113606272,
    -0.26779260917447734,
    -0.9001501989835524,
    0.4704549276821312,
    1.0983948235400898,
    -1.3791556894635189,
    0.8343501344873433,
    -1.94010935465011,
    0.5557391795595166,
    -0.2769083110250231,
    -0.6394571054332782,
    1.777722421520537,
    1.451364419233169,
    0.1163878785348741,
    -1.3010105259404163,
    1.967474727272527,
    0.7816406009280199,
    1.0756261574827077,
    -0.26147092925480026,
    0.14865295521469057,
    0.003419057717004102,
    -0.1901269957443181,
    -0.9221219387546049,
    -0.738641014029953,
    1.6919211897307507,
    1.1498670729034974,
    -1.618213404605978,
    -0.13141781374553899,
    -1.1711963619629115,
    0.03409751549637257,
    -0.3330334247463149,
    0.34679379301936886,
    -3.5920545152313696,
    0.44847398119000337,
    -1.042657561096801,
    0.9995703994243034,
    -0.8071351006069626,
    1.548510968185215,
    0.25255409481902596,
    0.4568149672690121,
    -1.3465257019705554,
    -0.8156608307989889,
    0.8420004228765715,
    2.427018035244807,
    0.3885244899139821,
    0.4646665425614164,
    1.929151343887054,
    -1.4273957691449264,
    1.2592424759470253,
    -1.3134610798445712,
    0.5238843430551706,
    -1.4387575809442446,
    -1.4288688919549666,
    1.2569746630006053,
    -1.3348840205533614,
    -0.9734000634369935,
    0.6952854659239044,
    -0.4893203642918658,
    0.5119944184108997,
    -0.7581465969692364,
    -0.3416896503902262,
    -0.4465573291004414,
    -1.1633264498408622,
    -1.2799853609379026,
    -0.5655784067306028,
    -1.2706511061773458,
    -0.6214380327064286,
    0.0508421586312939,
    1.4584200551287114,
    0.46600844790899104,
    -2.044866350605586,
    1.2179687934145882,
    0.3239838196402716,
    1.1414630634878833,
    -0.082429095699797,
    1.2811870969380525,
    -0.767101691130975,
    1.3739602082584825,
    -1.1310166208867813,
    0.1576392885402508,
    -0.1424950561547134,
    -1.1029306970484256,
    1.1534817483331647,
    0.5632273122639457,
    0.5503472232478318,
    0.6178989698362733,
    -0.6311723161626894,
    -0.09115078358124165,
    2.535955012126648,
    -0.8727798441907806,
    -0.7644008355249224,
    -0.45486019784209925,
    -0.2547106864291301,
    1.2569460062193074,
    0.7010342206629929,
    1.315101350543607,
    0.2181022376292251,
    0.4979355104713927,
    0.4877560459790456,
    -1.0391351851227288,
    -0.9033250016035985,
    -2.3173027583340926,
    -0.9270496698464331,
    0.8093351182139142,
    2.1197432398714287,
    1.3626043617937382,
    -1.845208783090576,
    -1.062997331716458,
    0.7214034284245686,
    -0.23642810442421713,
    -0.17784541538958587,
    -1.3662342273192458,
    1.1926315746408573,
    -0.04824187058240043,
    0.15453985057207273,
    -1.7129864954804819,
    -0.38895579205732445,
    -0.259000294482254,
    0.3452302698358625,
    0.5348105414655966,
    0.2965830308552175,
    1.1540155683984774,
    1.9208841610115328,
    1.8923543014924753,
    -1.0184370683166848,
    -1.5649540020719073,
    -0.7016275434446027,
    0.5937846174176444,
    -1.116674110615975,
    -1.9065519446932337,
    1.4213516673604039,
    0.1274406341235518,
    -1.8246229702891754,
    -0.27344512414790223,
    0.320934528783635,
    -2.394692597680467,
    0.6828962458583514,
    -0.3529461048409056,
    0.4806521941751065,
    0.6792239835014064,
    -2.4263674164525777,
    -0.5516331068485429,
    -1.9793324937774446,
    -0.43945261488372417,
    0.3958278746007999,
    1.7598915712055756,
    -0.5204037907352439,
    0.31309287335046865,
    -2.3220852032986867,
    0.42160923498845604,
    2.306339111762477,
    -1.7011007786285428,
    0.6559702805454309,
    -2.07377052022518,
    0.23540050941581792,
    -0.01755502698061605,
    -0.26487514215909075,
    -1.2825971007257468,
    1.2793092170079219,
    -0.24178587538085755,
    0.2055368006663448,
    -0.015072242459067157,
    -1.3008626879085423,
    -0.1697583018927765,
    -0.1695875144329589,
    1.2417266062351837,
    -0.19697174586946034,
    -0.9543040038669934,
    0.027807777564899494,
    1.599747343769759,
    0.3796605728001972,
    -0.08639952358324118,
    0.22607941856364047,
    1.4755324716820397,
    -0.5005890095499984,
    1.4392486094735313,
    -0.01137137221576332,
    1.8913641337376157,
    0.23127796518212332,
    0.42748923774626063,
    -0.05344466650896158,
    -0.849997373192279,
    0.27784268478465607,
    -0.514111778818518,
    0.6491274926998637,
    2.1533759569893833,
    0.4381416580386962,
    -0.02721270465514753,
    1.1041194236184315,
    -0.5874620160872113,
    -0.6432179865719272,
    2.065350209068269,
    -0.5638303353203553,
    1.5576059093409544,
    -0.44813760609087755,
    0.45033091948057524
  ],
  "best_ctrl_weights": [
    0.4228202839063623,
    -0.9721393133074665,
    0.345325181910299,
    1.5781636892419186,
    0.9626183468318043,
    -0.8136337812968478,
    -0.8516247373470127,
    0.31344330604783227,
    -0.6572536163612015,
    0.07939021547900717,
    0.6900884511283595,
    0.6043778801056853,
    0.5403773165923018,
    1.12227276335145,
    1.4459113000232202,
    -0.6489434731019781,
    0.06019332223912737,
    0.8439794565765876,
    -1.5879737051875649,
    1.2661058436619825,
    -1.8843684804282514,
    1.8164214320733112,
    0.45423171134365514,
    1.5052166525630335,
    0.8686696217177255,
    -0.04213117738580025,
    -0.3576083378018432,
    1.2295511028446298,
    1.6078550922690682,
    0.01016083779676651,
    0.9274645594884772,
    0.01670623798102758,
    0.3158544391793533,
    1.6369246122896788,
    1.1615304757452416,
    -1.8428574960217976,
    -0.4947500650802803,
    -2.000234520721011,
    0.6194235794478703,
    0.7268411282735835,
    -1.5533035629378582,
    -0.9834888159542436,
    -0.8624499987813249,
    -1.5646024351563859,
    1.4062740222637493,
    0.9474000030835869,
    -1.1199804096318642,
    0.8524583479571458,
    1.0119611443606717,
    0.6747568330904624,
    0.35660888386821205,
    -0.09964425940110916,
    -0.5681875144084931,
    -1.758129145735839,
    0.5954301486196829,
    -0.48825814799214284,
    -1.2721204884236876,
    -0.5018711775404208,
    -0.8355576561548278,
    0.5580024489685237,
    -1.0735537564109559,
    -0.9653214591746531,
    1.943198424841819,
    -0.8257481242727844,
    -0.3773989755954094,
    0.011742713835416762,
    1.0310586983542824,
    0.08758699617301491,
    0.1527130938837375,
    0.3246407630454075,
    0.8547438250384962,
    1.8054640027408075,
    0.577951649014571,
    -1.547593008991121,
    0.4877018314597253,
    -0.36647798002838106,
    0.6869551780308643,
    -0.6970122356585391,
    0.15490449870699574,
    0.9356399882087296,
    0.3227322244764905,
    1.4319086510248682,
    -0.4481757671637636,
    -1.2361562104223152,
    0.7874353020971747,
    -1.9685109572680233,
    0.7764398388203935,
    -0.9065266413188017,
    0.00586276950297203,
    0.9984709678915691,
    -0.09069892262759743,
    0.29678362653698664,
    0.23706861448017544,
    -1.3328053484651143,
    -1.0331052199961503,
    0.7324542347416432,
    -0.6742393630615577,
    -0.6466651534718553,
    -0.7185136703932182,
    1.5770310611495575,
    0.32848695782521553,
    -0.299666508979419,
    -0.9009479182017711,
    -1.5304615652787719,
    0.03552057421651175,
    -0.05694053812977187,
    0.43636441907165674,
    0.6922343048646284,
    0.3743117944943583,
    1.4589049662985163,
    1.3782331960206393,
    -1.1492534195302553,
    0.15082834710173942,
    0.39953821800440237,
    -2.6926690496442407,
    -0.3350899417187341,
    -0.699254880565693,
    0.011007918128698906,
    1.0008780326876296,
    0.6332611008259975,
    -0.05442178729081065,
    -0.17870308808776414,
    -0.256619398556001,
    0.625439259745703,
    0.18521744613188776,
    -0.32019629389436066,
    -0.3443590037936201,
    -0.2684397495691149,
    -0.7332674757474553,
    -2.115459815669694,
    1.3249991715810403,
    0.5018518511431205,
    0.8586917791872751,
    0.8092194696650116,
    -0.6199298882145857,
    1.2135750762405222,
    1.2403975127528362,
    0.24271009247410094,
    -0.5614785504568803,
    -0.18380626749056098,
    -0.3107741579672768,
    -0.28140442940831817,
    -0.4377465911905772,
    -0.004874967553264953,
    -1.585771919215318,
    1.1914963767848983,
    -1.8792603372403769,
    0.48181861866479897,
    0.7047279231045309,
    -1.556118873235902,
    0.9512829912975947,
    -0.951339224919478,
    2.40937299972361,
    -1.8011377494211307,
    1.3385526344057792,
    1.841044888236341,
    0.7968780372164442,
    -0.39211218634661926,
    0.9280489002761914,
    0.43629972656956145,
    -1.2623631505845403,
    -2.558305028165059,
    -0.8271869000981261,
    -0.8610024429079627,
    0.05210722606157751,
    -0.8559906640008977,
    0.5126348193277035,
    0.3231440150879164,
    0.6117845788538068,
    1.016616660369591,
    0.01526510476225923,
    0.7729419698291486,
    -0.9503727898644825,
    0.009064301357423385,
    -0.00717184957198038,
    0.7101298021441742,
    0.13686516911197838,
    1.361639362315404,
    0.03210452616081023,
    -0.38414252358510026,
    0.5535625002548452,
    -1.7959415421894551,
    0.05291288119151636,
    -2.595855461891961,
    1.3572968547474822,
    0.0043753640102066095,
    -0.1253954516236688,
    -0.44903238059727335,
    1.0051939422653553,
    -0.06988395567304545,
    0.5876320439513483,
    -1.4161030923839515,
    -0.07559795622362094,
    0.37900003078498984,
    -1.2926421986570897,
    0.13224362647926696,
    2.028693931305703,
    -1.4856487672008378,
    1.346791760700219,
    -0.2771445789451206,
    0.1232967008254342,
    0.8081953128328486,
    0.9377154003821504,
    0.8919132146933543,
    -1.7815723990488141,
    -0.48133938109814317,
    -0.2623078623635221,
    -0.14176046466974435,
    0.6437631818338367,
    1.192492663291103,
    0.2038496779512246,
    -0.8532004219115735,
    -0.03132173120036841,
    0.678944916869353,
    1.3953174412804061,
    0.038325411304654604,
    0.4462743433519869,
    -0.5772684457539395,
    -1.5057782891450922,
    -1.2123616923329628,
    1.8252920051890142,
    -0.27265163457218844,
    0.20234050837599465,
    -1.3995943640960968,
    -0.1938047064479146,
    -1.69455714677306,
    1.618216161928438,
    -0.24272100137011665,
    0.9045452866090462,
    -0.29390594588340213,
    -0.03672474990430262,
    -0.7411171525553221,
    0.5966817044880355,
    -1.0437670597482476,
    1.7636096436831326,
    0.4128113270731558,
    1.5814283849579711,
    0.3392106573835966,
    -0.6931599705587383,
    0.4617217873032242,
    0.6952090629506769,
    -0.2385978742472008,
    -0.48559701407824263,
    -2.4280447912798637,
    -1.6180228139708577,
    1.689944338044607,
    -0.5715712732648307,
    2.089269739194725,
    -1.0358964534713513,
    1.8297276097960649,
    -1.5774639181056294,
    0.22759850262079173,
    -1.2238532250479346,
    -1.5690018187717079,
    -0.20540777194318946,
    -0.9309283770510782,
    -1.5066032390268322,
    0.34037257537294807,
    3.0588547163125672,
    0.0748622764890364,
    -2.0559656655299103,
    -0.9066695441387088,
    1.3062837442995439,
    -0.06282874216194279,
    0.18990290014474195,
    -1.5655700152065464,
    1.61534570614304,
    -1.4035554118711149,
    0.8452034637465707,
    1.4451390734690577,
    0.3967781228765969,
    0.8909695485111644,
    -0.8882856691115655,
    -0.6285136004988195,
    -0.1362021388850625,
    0.8573766051725682,
    1.5296006145454228,
    0.29889844638044666,
    0.627941004334419,
    0.7747615249826678,
    -0.07446184890454242,
    -0.5567429260108294,
    -1.5743461233454108,
    -0.3101891644488536,
    -2.2562984407128814,
    0.048745824021967143,
    -0.5065337305923366,
    0.045796081279679296,
    -0.38334927012566417,
    -0.6252701664915877,
    -0.5566705710726931,
    0.13489053299619708,
    -0.27247992946884514,
    0.5825548050955709,
    -1.2267511975271215,
    -2.164974514142678,
    0.09401460022745552,
    1.2800650963221512,
    2.338942351764863,
    -1.6767220631755388,
    1.5056305447828933,
    1.4626635900430331,
    0.8595709376451437,
    0.15454319699918223,
    -1.3296664361206154,
    -1.2302382565594459,
    1.7970289052833677,
    0.6336942161509025,
    0.5726364150019363,
    -0.7758992659723296,
    1.1459901265896761,
    -0.6916895659773797,
    -0.735671348171534,
    -1.6344950646306302,
    -1.9867047802202227,
    -1.5032663568895932,
    -0.055118543956641675,
    0.4755422547215005,
    0.08513683491737445,
    0.041665762901897906,
    -0.4736066606216862,
    0.5571707859473135,
    2.0309787109830895,
    1.620047863108482,
    -0.34202459034554256,
    -1.91523225648851,
    0.22237781335928397,
    -0.24266415500019345,
    -1.1999354399510564,
    0.5258804398627136,
    -0.2465168889094943,
    0.1970615186609164,
    0.05602049603444143,
    0.20983081787736138,
    -1.1532851447941816,
    -0.43631913617768825,
    0.4478332248017537,
    -0.653339676752064,
    -0.6663444039857832,
    0.13872423188148678,
    -0.7950029703209474,
    0.414670560609652,
    -0.10683419619838183,
    -0.7919623157303533,
    0.5935232009335455,
    -0.43474743627309886,
    0.04564824047757671,
    -1.1223139957637416,
    1.2981068195073033,
    0.9949818344431746,
    0.12980633414740828,
    0.03737797516166356,
    0.22594637981324955,
    1.8276817067754418,
    -1.319344284392663,
    0.13960200639164436,
    -2.052527630498486,
    -1.116515768194014,
    1.2197791064944548,
    0.13418151337108558,
    -0.2029923023993724,
    1.452736366792224,
    -0.641868647833023,
    -0.6379411764508985,
    -0.8335998927645654,
    -0.2109006580334088,
    1.2046430675431605,
    1.2907021378052181,
    0.04473561749819904,
    2.2312227886243936,
    -0.38003988760960167,
    0.36045914561494646,
    -0.7268932582021794,
    1.1158280055923693,
    -0.29265915988266156,
    0.6467825230183086,
    0.4560472732089676,
    0.20520848490685353,
    1.6464689740732212,
    -0.09203472951949898,
    -0.11966240211200357,
    -2.1835206378249707,
    -0.20180156393576007,
    -0.7745583774749512,
    -1.378983275457375,
    1.2861205726740308,
    0.6829319223446069,
    0.8333086277608018,
    -0.7959656239245364,
    0.428243116104757,
    0.5277203858208525,
    0.15956514813707437,
    0.22083650162475402,
    0.04141987840696941,
    -0.10200049403034131,
    -0.4047523915162282,
    -0.1460686625921711,
    0.7575109066924431,
    1.0509490945819753,
    -0.1618598382686849,
    1.65396449670277,
    0.03474999950581689,
    0.7526031266235549,
    0.009039809296119422,
    -0.3969163212167182,
    -1.4173505196465448,
    1.6304298119731118,
    -0.4384404346101555,
    0.11857632941811629,
    -0.12388190300227546,
    -0.299854936956395,
    1.1893930453693942,
    0.5139886233708457,
    -0.2097718822358397,
    -0.08083284251828039,
    2.0914692775441925,
    1.3604481884650306,
    -0.5062061821723538,
    -1.2754611524637178,
    -0.3762125578514914,
    -0.8554429687197856,
    1.2463343677817276,
    0.9929120619498868,
    0.20768862532528118,
    -0.5631983021063299,
    -2.2087630424960616,
    -1.3373137264212716,
    -0.24702172540668826,
    -0.6782792524374379,
    0.2368164274872513,
    -0.41029270755509445,
    -1.9979091867505117,
    -1.0685482919264477,
    -1.153080149688517,
    0.15973001571364326,
    -1.462703352600914,
    -0.581235954361465,
    2.0554654407694226,
    1.0964807586464025,
    -0.6959260681756313,
    -0.42477925803250244,
    -0.05949364904569162,
    0.6745073647639913,
    0.7595447694245211,
    1.0733236146092546,
    -1.364868044445,
    -0.9536031273364157,
    -0.9912637279698407,
    -0.5146194732638202,
    -1.5234753044443814,
    -0.2624150995246594,
    0.23760915546350717,
    -3.226901515673582,
    -1.960712562575656,
    0.9014586933129307,
    0.285699436172551,
    -0.649645432180134,
    1.4864228744640007,
    -1.3390514383255658,
    -1.4574536875877366,
    -0.42618381763966545,
    -0.9311779149246796,
    -0.8900337768439959,
    0.534692185191647,
    0.8886897255921797,
    -0.06084901366855806,
    0.9560271156428631,
    -0.23201529943153387
  ],
  "best_morphology": [
    [
      2,
      2,
      2,
      1,
      1,
      1,
      1,
      1
    ],
    [
      2,
      2,
      2,
      1,
      1,
      1,
      1,
      1
    ],
    [
      2,
      2,
      2,
      1,
      1,
      1,
      1,
      1
    ],
    [
      4,
      2,
      0,
      2,
      1,
      1,
      1,
      1
    ],
    [
      0,
      2,
      0,
      0,
      1,
      0,
      0,
      0
    ],
    [
      0,
      0,
      0,
      0,
      1,
      0,
      0,
      0
    ],
    [
      0,
      0,
      0,
      3,
      1,
      1,
      0,
      0
    ],
    [
      0,
      0,
      0,
      3,
      1,
      1,
      0,
      0
    ]
  ],
  "all_fitnesses": [
    230.49899090516726,
    0.5950283191370431,
    -456.1935852282468,
    42.67201730191488,
    -7.1956532678996155e-06,
    13.903108026110772,
    231.72751896577142,
    -79.50171661485984,
    -14.41116969977972,
    -59.28978155261623,
    0.9703350539505209,
    -4.366297121121676,
    0.24730519959823027,
    -3.994618932680737,
    -4.817573109445391,
    -11.259781003276203,
    -8.632086841185014,
    52.38188307146885,
    102.10276813955147,
    83.52674411751997
  ]
}