{
  "generation": 19,
  "best_fitness": 1655.1061473323687,
  "mean_fitness": 256.81776990843076,
  "best_morph_weights": [
    -2.391503229781239,
    -0.3043544598836106,
    -0.44119819338960564,
    0.31714204455525774,
    -2.290831654426555,
    1.3986086233140487,
    1.680420368824306,
    -1.2944881531560148,
    -0.3211949819144553,
    -0.6311415140963591,
    -1.0763011069335713,
    -2.4497293688454875,
    -0.745933818010971,
    -0.19685821827354488,
    0.24819496109870426,
    -1.1723103071659255,
    -0.4928977404894464,
    0.7254179198143816,
    3.597392955985722,
    -2.0852702143194985,
    -0.9156753938350326,
    -1.762899589705203,
    -1.757863086168637,
    -0.5037900220010842,
    1.3174289360167537,
    -0.014229709870236168,
    -1.1530873028159054,
    -0.20893107322567267,
    0.01579968612314356,
    -1.242559663947573,
    -0.43643750957796906,
    1.187735391732525,
    -0.6489920241715056,
    -1.1023412887153925,
    -1.567829732454119,
    1.6279238896837247,
    0.6697368185203362,
    1.9794272595992672,
    -1.230028176014234,
    2.6645197517532537,
    -1.2367220065137186,
    -3.1373118909123514,
    -1.2094535275023215,
    -0.48071063874277303,
    -0.511211813020378,
    0.3895482711976833,
    1.310168952987073,
    -0.052652764486933734,
    0.0539096044455154,
    0.49176043257325275,
    -0.12366869130529812,
    0.14999016572123142,
    -0.1769335728272004,
    -1.3876694184799068,
    0.46185139479775644,
    0.8340283962709139,
    0.6978970574192205,
    0.4058508816416799,
    -0.31122487345251526,
    -0.2914402793603421,
    -1.2982082949905471,
    -1.6273554558568994,
    -0.2965093454805164,
    -1.9820853131905298,
    2.411573731455578,
    -1.0552026814448552,
    -0.3281882179552859,
    0.15254120670432708,
    -0.9407865570810475,
    0.03589970274636933,
    1.2330300940758172,
    0.9392449108566311,
    0.5913940538888791,
    0.28407737896229635,
    -0.2875289673770213,
    0.4542324185922659,
    0.8248801454652676,
    1.9957003694965074,
    0.4360709150463351,
    -1.0353351479678208,
    0.22411126265434733,
    -0.29980647155656137,
    1.1625099820736395,
    0.4351443129708676,
    -1.0365508984665415,
    -1.0046369995145101,
    -0.9908401403655335,
    0.8447765956382197,
    -0.7971807185158565,
    -2.628906414047224,
    0.9781095680020493,
    0.9787264169113717,
    -0.8401114586620839,
    0.7869302514780954,
    -0.6500585616188852,
    0.6444928580612265,
    1.089050479275898,
    0.38566757726036316,
    -0.4939373190359142,
    0.6986394456883736,
    0.8087378154646309,
    1.5887624131494225,
    1.2377415298173418,
    -0.23718478237707374,
    -0.0650317593228949,
    -1.4322731878482649,
    -0.4694453497297194,
    -0.6941041594391077,
    -0.9484041446525695,
    1.2297222069172624,
    -0.14380086357485056,
    -0.25350709611487504,
    -0.5566196447311587,
    -1.7790000674873492,
    -0.2839378775656358,
    -0.9431841256521204,
    -3.288117690538793,
    -1.0126089626039716,
    -0.2905741101138905,
    -1.81361725910496,
    -1.8449582383600662,
    0.43035597743883136,
    -0.24433350761386952,
    2.8544458748634307,
    -0.1866816845409962,
    1.4718995400764017,
    -1.1815293027526617,
    0.03815969060342164,
    -1.3172394050222902,
    0.27227976469956416,
    0.448083566323563,
    -0.8655616599522596,
    0.3689348005859299,
    -1.8580437799865455,
    1.5351712539038194,
    2.6465189273632332,
    0.6856904305194278,
    0.7502586539709746,
    -0.8119483093181311,
    0.8475870733177088,
    0.014808181542143672,
    0.4872246778736085,
    1.2230815488872402,
    0.3816747291845006,
    -0.07818816877205956,
    -1.2278747044045208,
    -0.8934271433688851,
    -1.2217863830515199,
    1.9959284459360789,
    1.645076644201843,
    0.9165302372014283,
    -2.021556374416461,
    -1.2958725410245875,
    0.1149827656106038,
    0.4292596524093253,
    -1.4893225820693905,
    -0.2830449511876631,
    -0.39196782448874645,
    -3.8096762953146976,
    -1.40428021798733,
    -0.9248588258541606,
    -1.1869831531371522,
    1.50377098366668,
    2.1099177404471283,
    -1.0095225823368215,
    -0.5197940187507977,
    0.17866883980654047,
    0.4973362328422959,
    1.0485061850114943,
    -1.6131149451807842,
    0.044863076628076023,
    1.9756282417393207,
    -0.7212242746110374,
    1.15325364857615,
    0.9938756652537047,
    2.7580868576064543,
    -1.7665624600207113,
    -0.645493257132799,
    -0.513388420399522,
    -0.5029157346443107,
    -0.9103390225555921,
    -2.995667837506791,
    0.017470215615489115,
    0.8154308418311177,
    0.08756583433943321,
    -1.5168801778493175,
    1.8729278953617712,
    0.03768872172318573,
    0.3505208923841546,
    -0.5208569259902176,
    0.5079977578649805,
    -0.7711659052062542,
    -1.309431397747173,
    -1.5995449363473608,
    -0.6839610081454836,
    -0.018535522582259125,
    -0.5344807721458437,
    2.1064547934164124,
    -1.0160637097234662,
    -0.41557250577734306,
    -1.6154033626306434,
    0.33359284863785654,
    -0.3249474187882657,
    -0.8859427367525298,
    -0.7082047092742914,
    -0.2831222662894759,
    0.5049666539937601,
    -2.064824714839813,
    -1.1578650454080197,
    1.0597497138927046,
    0.719096855558367,
    -1.8879919677358687,
    0.6638508766576379,
    -0.4112571982638825,
    -0.9656578638787758,
    0.6178752613439238,
    -2.2462298520938826,
    -1.892629761054896,
    1.5074372204402333,
    1.8600214146515248,
    -0.6076308869355833,
    0.3434084980374987,
    -0.511039932215969,
    0.5409533579039556,
    0.17858902638464533,
    2.2260425594262063,
    -0.21392619223574105,
    0.9884058590989456,
    -0.08734545164179842,
    0.4624556648405721,
    0.3784576894580812,
    1.1014273865534505,
    0.2223541129238116,
    -0.9372505520794572,
    -1.038545041894943,
    -0.5676119938665076,
    -0.7968269641205271,
    0.2655253749721174,
    -0.337979595029406,
    1.4661841099779278,
    1.292007845093815,
    1.6582542737355157,
    -0.0733469463606105,
    2.550350833987503,
    -0.6255293551120661,
    -0.7992121300025977,
    0.39407748095724476,
    -0.0917487754518233,
    -1.0602329816080203,
    0.6365673174616646,
    -2.1169792176405213,
    1.2641715242642348,
    0.5554367093781,
    0.7626445770800973,
    1.1850440588918123,
    1.0175086408631695,
    -0.3736829838749681,
    -0.34095391934367647,
    -0.8410177590861107,
    -0.3174193142127607,
    2.03892287667577,
    0.32175834944859183,
    -0.12792230467059004,
    0.41642186434940237,
    0.20995875226908609,
    2.155927790554986,
    1.0808329223756294,
    -0.48143990040446805,
    0.4711767052142185,
    1.9135278059132066,
    0.712633184226686,
    1.2063929339028663,
    1.194993855924345,
    -0.657370897934562,
    1.5769724604641915,
    0.8717275423242904,
    0.7852890432260972,
    -1.283126592143631,
    -0.38381649589015354,
    2.057704036409005,
    0.7801149457811382,
    0.9498774804775133,
    0.33170147474249884,
    0.31312551619565043,
    0.07475398199093553,
    -0.035454647920273835,
    -0.1844151065393056,
    -0.6849027237940127,
    1.9127992473490214,
    -0.4745069196886011,
    1.9312841784538846,
    0.2917119867150594,
    0.9893124203193047,
    -0.8708752756599603,
    -1.300048374595464,
    -0.7807294916250616,
    -0.8620550067456435,
    -0.026649780108214075,
    0.8363012341744116,
    0.4504410969480848,
    0.4746630613245194,
    -0.8497027221003052,
    -2.8584150863011524,
    2.2070949557456774,
    1.0914716069031132,
    -2.341057530245871,
    0.34040374333128365,
    -0.16432204420395585,
    -1.2335550692957367,
    -0.4970608750007447,
    1.548281515288464,
    -1.0790677060643372,
    -0.5298543734727899,
    -1.6476970937931021,
    0.7125226382591353,
    -0.6816047161094599,
    -0.16338250959923764,
    -1.551884578618449,
    1.328039529888766,
    -0.1368853735008367,
    -0.47266572393185213,
    1.263509578148516,
    1.0373297709803018,
    0.004646350940038818,
    0.43134670128923913,
    -1.2371419814353115,
    0.07265472925070021,
    -1.5158189495308596,
    1.0435570611467886,
    1.5606088168001042,
    -2.207766117989981,
    1.2034961332433562,
    1.008316594559986,
    0.16207033395516712,
    1.114831656970366,
    0.5630387730341361,
    -0.2971642085194182,
    -0.10624726871895779,
    -0.036688557625229434,
    -0.37973218250987506,
    1.1585563250188549,
    -0.07705686109443668,
    0.4457446485664204,
    -0.2574409182378463,
    0.28513792516284125,
    -0.3372653977701874,
    0.4680708800673025,
    -2.220312013424696,
    -0.6319901705936992,
    1.036756610612086,
    0.236206211792094,
    0.8215101566789712,
    1.6909866924378703,
    -3.7101727047802626,
    0.3314540827055455,
    -0.08175440453930155,
    0.32114838118688877,
    0.9591584167169547,
    -0.27209518699425744,
    -0.11228368303347736,
    1.136107464845627,
    1.0597152044539075,
    1.778671005255192,
    -0.7743578914398352,
    0.8513465547095943,
    0.6299801672529771,
    -1.347529481675559,
    1.0831340856901417,
    0.2587338218508569,
    0.2656258204003198,
    -0.6299323466291386,
    1.3134252368724635,
    -0.8556668031386403,
    -0.4228445173091655,
    0.3207500211409057,
    1.2547786568061678,
    1.415456976781222,
    -1.424165236156182,
    -2.190459410661135,
    -0.6799695495899045,
    1.530352731444655,
    0.3503729276622404,
    -0.9275167448126754,
    0.8743749888118874,
    -0.23182054714628847,
    0.8659322535556875,
    1.7342378702165737,
    -1.239183353214102,
    0.5729314297423572,
    -0.15575146351303565,
    1.7077964783471242,
    0.6188412958114445,
    0.32548380057337023,
    -0.33736798246386085,
    0.13860018542231495,
    -0.09463112259165396,
    1.2880256970279622,
    -1.4327471922908939,
    -0.6633418136194664,
    -0.8412160518841929,
    1.4452938117681136,
    1.0436335811060191,
    -1.3877942294019205,
    0.9157190477604943,
    -1.0570382143536343,
    1.5872725233883642,
    1.4408053125529523,
    1.8229277820407326,
    0.3071896414632234,
    3.822977917054889,
    0.8427225613658718,
    0.8895937731338233,
    0.006980405441565597,
    -0.3484733751181315,
    -0.9273043445353765,
    1.177034059379022,
    -0.3476514922727415,
    0.4741585951833799,
    -0.04117292090455782,
    -1.4008692364439752,
    -1.8023299965162745,
    -0.6539740893892461,
    0.3867758284113183,
    0.15688585489765128,
    -2.4681332165534293,
    0.9528481651856268,
    0.5606068411065375,
    0.13912957853955887,
    1.1209962035184713,
    -0.3392124216098351,
    -0.29389274246521385,
    2.357909978020447,
    0.7413705465634941,
    0.5719015186360779,
    -1.6028236746934619,
    -0.8216763959864097,
    0.3903297517074982,
    0.19690422138116812,
    -0.8166957757301628,
    2.176988903285216,
    -0.5071920299407566,
    0.4426413652592786,
    1.3462013577281868,
    1.198966769636504,
    -0.5064473039440407,
    0.2620506920674322,
    -0.8070333632808696,
    -0.46215533803374476,
    0.7098517156600893,
    -1.2165805391490394,
    -0.7125969437164508,
    0.6993946348507377,
    -3.070446268529538
  ],
  "best_ctrl_weights": [
    0.9338793863243762,
    -0.2186215755283478,
    0.22699916527059838,
    -0.7912364125509159,
    -1.7392889944006844,
    -0.9515217697277449,
    -0.1196399829115885,
    1.0379077589794024,
    0.9077476595883527,
    0.26255402180501347,
    -0.3277404711312298,
    -0.7907275910125334,
    -1.6070640852068927,
    -0.041695282793368156,
    -0.997784361715855,
    -0.583733963539854,
    0.615043461794767,
    -0.15478970396404795,
    0.3730896545518886,
    -0.11990410193641118,
    -0.7389078265590703,
    -0.07449517209607573,
    1.6047508395027905,
    -0.9893919208844828,
    1.466109800206201,
    0.1463567456868653,
    0.5115371940434071,
    0.8687730846234004,
    0.9823461108277973,
    1.0490550878125733,
    0.03439883885171313,
    0.8774491172036388,
    0.6412316053894968,
    1.3316522306463385,
    0.19454716496721636,
    0.3079776580554641,
    -2.2430559952730262,
    -0.0950939727285075,
    -0.03994586705160019,
    0.31075036248867877,
    0.6956177344514654,
    -0.2245298209993517,
    0.531713970412829,
    1.361179114091148,
    0.4411903786486934,
    0.5870278016406569,
    -0.5464392030647368,
    -0.30419092639235634,
    0.07101511137124406,
    -0.09895632736468557,
    -0.25045915212015124,
    -0.7117369425052388,
    -0.8407307057693694,
    0.08030176836208738,
    -1.2930882748899282,
    -0.15529721622557713,
    0.5742836004630527,
    -0.21416202723847577,
    -1.4648134031633215,
    0.5207951137335189,
    -1.1933608803243547,
    -0.9417010569077917,
    0.8949371442732342,
    -0.6170045582783142,
    0.2806206152998756,
    0.01806713546665928,
    -0.6003413311657094,
    1.0382403709369763,
    -1.7486001913864466,
    -1.0063127872555824,
    0.12842445257618473,
    0.7953203253382157,
    0.46290112187845783,
    -0.8309074132121472,
    -0.8822727355233322,
    -0.6934033014026554,
    0.6711411867956779,
    -1.8147533301066523,
    1.0393230824820907,
    -2.506483287189279,
    1.2901890923407697,
    -0.2983965274516311,
    0.13718254512871203,
    -2.0815603240292946,
    -1.2360661218352549,
    0.6373027037488319,
    -0.4393301516481355,
    0.6360411853975544,
    -1.8633740328399617,
    0.44664272754089285,
    -0.23651454795539445,
    0.3739649899149623,
    -0.1404302654769401,
    0.4713963167054675,
    1.715080335532859,
    -1.1310539191919546,
    0.8999036014000875,
    0.07963372115027312,
    -0.12140324970436434,
    0.7061386906017915,
    0.5409245569111517,
    -0.017208316519760986,
    0.01711624387800635,
    1.0893646058251165,
    -1.090652065291241,
    0.3757807366717196,
    1.5388671890103334,
    -1.4560118489801612,
    0.6433217188660793,
    -0.4712697041006609,
    0.33678094816498094,
    -1.4595221404786602,
    -1.0387053984212924,
    0.08243278123057869,
    1.0320043791733087,
    -0.4510683678227203,
    0.11510117160405847,
    0.2657872368359519,
    -0.7838417556742151,
    -0.5285901177830757,
    -1.697401828506033,
    -2.1245478023841544,
    1.4384456500529903,
    0.29415750600032026,
    -1.0834117193839892,
    0.5315479683950004,
    -0.1485805961736104,
    -1.7871620586923314,
    0.8946857416956091,
    -1.5252798542898267,
    -0.7008938887601333,
    -0.5870052902255221,
    0.4310795966519699,
    1.1066803470050752,
    -1.3931157936534915,
    -0.17793594035122764,
    0.5454266461669453,
    -0.22636045451274311,
    0.4373413488621175,
    0.4275657547942693,
    -2.03790948760244,
    0.5737218024119712,
    2.0103262332532443,
    -0.3640649058922469,
    -0.1735129217826583,
    0.2193486776292053,
    -0.13177788230770182,
    0.8438710525482267,
    -0.34667602465840097,
    1.2843789205582155,
    -0.5808899090099795,
    0.3189998584047483,
    -0.614466798078733,
    -2.131986651313696,
    -2.077351971983878,
    -1.1902532347908328,
    -1.6715846135080699,
    0.33226856415214057,
    -1.3399142363918317,
    0.8965706271083772,
    -0.1539499090495527,
    0.6248841043125726,
    -1.0348365447678585,
    -0.2632893942468573,
    0.9576956242900814,
    -1.2533914955415597,
    0.5098806247811274,
    -1.103882729984035,
    -0.2415009137979155,
    0.5982761774175672,
    -0.14200997856415623,
    0.37161433183792403,
    0.673202047087372,
    1.8272162212364256,
    -0.5535066196331496,
    0.7111427836722091,
    -0.4219575139657997,
    -1.3033082823372637,
    0.1796772390714169,
    -1.3729839812606026,
    -0.48148292542812265,
    1.1480392935110753,
    1.6453126553538138,
    -0.569355706443618,
    0.005751555941548803,
    2.5926281475308843,
    0.7611272602212914,
    0.19894225627071233,
    -0.5665304695354878,
    2.076687030568656,
    1.4895037415787205,
    -0.37717333795822866,
    -0.38581011199377996,
    -0.13538309048958488,
    0.03944357829294379,
    0.8321279619503041,
    -0.49670360499237154,
    -0.037499615781466544,
    0.17744372981055015,
    0.3135609462706283,
    0.8227892859340906,
    0.7329184310503114,
    0.22689192084595838,
    0.2066888978119832,
    0.534751224734488,
    -0.044110085643747514,
    -1.0887666967221317,
    -1.7951504805241627,
    0.38053734704995645,
    -1.6420892396968312,
    0.10191254071741371,
    -0.7452552661145888,
    -2.7837535753503797,
    -1.6742751704375178,
    0.5704081811265818,
    1.45565577137,
    -1.1497762811675492,
    0.38604287103492924,
    0.7043289147620039,
    -0.7953314484579371,
    1.619843160711448,
    -0.9122550905487291,
    -2.1359863530549412,
    1.4824997815432694,
    -0.4623926553240431,
    -1.007488322272333,
    0.912744406408542,
    1.0214397529906891,
    -0.8397834525410075,
    -2.2618230129004004,
    0.2766669370582212,
    -1.0416292205521605,
    -4.526508804592697,
    -1.0092477151845825,
    0.7060373307004236,
    -1.8308376630463883,
    -0.03392584857930886,
    1.5016294699889394,
    0.5467153636554246,
    -1.2645351548268513,
    -0.05191131289150888,
    0.5392958864419076,
    -2.2590475340725082,
    -0.7749036511856274,
    -0.06514784888656816,
    -1.044853156132475,
    0.6258129020754282,
    0.036587086510266764,
    -0.5071493495118389,
    0.17611235280179632,
    -0.4926267604484364,
    -1.2293053866982002,
    -1.8605112658727396,
    -0.7511741227105032,
    -0.5877994411567237,
    0.274537447970603,
    0.4362117613809901,
    -0.31757129318903377,
    0.27789171202048235,
    -3.178594453105927,
    0.5978164513168271,
    1.4751902057442812,
    1.0479058859583807,
    -0.22985502267190627,
    -0.9761750522564945,
    0.30595492033615057,
    3.2878209251241493,
    -0.17165164578821318,
    -1.2738591963925237,
    0.4802070101614508,
    0.9142270255228184,
    1.7874296634927398,
    0.01458651174512643,
    0.750478747600104,
    1.041227211007505,
    -0.8847050420011268,
    0.6745633713283811,
    -2.5715618237381994,
    -1.399037701437843,
    -1.6414114901149524,
    -1.1070295871236286,
    0.05369095118196733,
    -0.5377433739011827,
    -0.2537900317562999,
    0.012802594122987598,
    0.5492180728632141,
    -0.6414092307457312,
    1.8654283013498305,
    0.2816793952284167,
    0.8409790961921774,
    1.1109012807344376,
    -0.7009356536679131,
    -0.3079004973971145,
    -0.0918216449026246,
    0.519142654969108,
    -0.08747830732742821,
    -0.16548493449096568,
    1.3863295469581662,
    -0.280761110807824,
    1.949698767745053,
    -0.10185693712671738,
    0.26291914742456923,
    0.061336008810627896,
    0.9102068758771906,
    -0.44636215910594107,
    0.16510188750179394,
    -0.9468175798126819,
    0.049703671880685044,
    -0.6237649120649221,
    -0.8072392533945291,
    -0.6006284924417781,
    -0.5996275579673807,
    1.223863418592661,
    -0.2646823065763029,
    -1.9316249100592489,
    -1.281638834021545,
    0.5848868729429904,
    -0.7781449696154277,
    -0.07807331642465543,
    0.13644173166227228,
    -0.5047439746297864,
    -0.7561640023103909,
    2.3993392238532025,
    -0.39801826999314077,
    0.02687752840729666,
    0.6488627016761956,
    0.19308099106108817,
    -0.5579061450118257,
    -0.961157956110505,
    0.7357835683410322,
    1.7839454035497269,
    2.0067094139224038,
    0.4211562752252659,
    -1.9835059238609087,
    2.834056154964331,
    -1.5406364900112401,
    0.6072722294570797,
    0.15408842285940927,
    0.8507882082512566,
    0.75343554446268,
    0.1801406550604835,
    -1.5017948543812556,
    -0.030009334306298444,
    -1.5505520416650933,
    0.24206710436829443,
    -1.924092190867984,
    1.4515325526450045,
    0.9510842167333377,
    0.6126853671735838,
    -1.3903447469169674,
    1.0243845649184138,
    0.6499693609553467,
    -1.0220608013727386,
    -0.6686885616618236,
    0.9166112282721917,
    -3.861232422561825,
    0.2517909060443214,
    -0.9645381844010578,
    1.405499207313454,
    -0.6339738998666363,
    1.8721769875767853,
    -1.2045328752860174,
    -0.11442057933979738,
    1.0119247410441843,
    0.57196696364281,
    0.0703175840829304,
    -2.257236024917639,
    1.0897308301540232,
    -0.49110166384219883,
    -2.500426285664134,
    1.305906865212207,
    1.5984783982685227,
    1.0810714246401238,
    0.9394176878207537,
    -0.08428967312235175,
    0.16457280736278618,
    1.1727875219800878,
    0.28218892779700794,
    0.745482567464074,
    0.5453451606418415,
    0.3207072330870794,
    -1.5446820757386317,
    2.5287659115102112,
    -0.734670618923389,
    0.23288263635841402,
    1.0901939157340128,
    -1.0453520302424517,
    -0.3848168596575695,
    0.061936187953994304,
    -1.1638726716270196,
    0.2337296120644277,
    -0.36997925375404844,
    0.6520817589656003,
    -1.5868758207393558,
    -1.4089131282123344,
    1.586995284883195,
    0.77448682125778,
    2.263628710793099,
    -0.021768526982857916,
    -2.155674081748244,
    0.40171051768814703,
    -1.6964996233652847,
    1.2828189990554513,
    1.1084556954982272,
    -0.32691724582883086,
    -1.3426295794474696,
    2.34846775810185,
    1.7255887808305692,
    -0.9895438717021763,
    -2.927958500109034,
    -0.5836284873623705,
    0.43867450281829007,
    1.128247150751236,
    2.3011832848323115,
    1.023020703100665,
    0.6772037476965643,
    -0.4377314338257132,
    -2.0016524376188176,
    -1.3354425515613795
  ],
  "best_morphology": [
    [
      2,
      2,
      2,
      3,
      3,
      1,
      2,
      2
    ],
    [
      2,
      2,
      3,
      3,
      1,
      1,
      2,
      2
    ],
    [
      2,
      2,
      2,
      2,
      3,
      2,
      2,
      3
    ],
    [
      2,
      2,
      2,
      3,
      3,
      3,
      1,
      1
    ],
    [
      1,
      1,
      1,
      1,
      1,
      3,
      0,
      0
    ],
    [
      3,
      1,
      1,
      1,
      0,
      0,
      0,
      0
    ],
    [
      0,
      0,
      0,
      0,
      0,
      0,
      0,
      0
    ],
    [
      0,
      0,
      0,
      0,
      0,
      0,
      0,
      0
    ]
  ],
  "all_fitnesses": [
    1655.1061473323687,
    -57.08487881101337,
    -493.73059593212065,
    594.7210017231992,
    -442.1443245822272,
    329.183075340248,
    -26.886103484795967,
    -13.511945671078024,
    68.31499988817097,
    -31.8751706506919,
    435.2249867354194,
    35.05807100214321,
    293.7426559117245,
    870.1315507545493,
    483.1652183418547,
    7.979017033342529,
    267.77995563651206,
    840.576239633712,
    56.42208812277494,
    264.1834098445233
  ]
}