{
  "generation": 4,
  "best_fitness": 994.6375351609793,
  "mean_fitness": 87.9761996473128,
  "best_morph_weights": [
    -2.5266533066914034,
    -0.3043544598836106,
    -1.051213972057994,
    0.28113587676819146,
    -2.290831654426555,
    1.6682341774284308,
    1.9539646087560827,
    -0.43440448565732825,
    0.6622650850743782,
    1.0545684203158279,
    -1.0763011069335713,
    -2.026552733277762,
    -0.745933818010971,
    0.1159845087269983,
    1.409361752547476,
    -0.9468154207196045,
    -0.4928977404894464,
    0.6326987168902266,
    2.9452094102967936,
    -1.964868182078228,
    -0.20191839019467114,
    -1.762899589705203,
    -2.426595911055736,
    -0.3175843701094889,
    0.31251133258038916,
    0.5429395340045102,
    -1.1530873028159054,
    -0.4838327551519218,
    0.01579968612314356,
    -1.0254601987064482,
    -0.43643750957796906,
    1.1083391750538032,
    0.10472375667409084,
    -1.1023412887153925,
    -1.6403906031150783,
    1.2223295341115596,
    -0.5023291276805023,
    1.5785047528669338,
    -1.121174728126782,
    2.6682837941276354,
    -0.9089072198748857,
    -3.3942046550787586,
    -1.2094535275023215,
    -0.6201524976701784,
    -1.064906986543494,
    0.3895482711976833,
    1.310168952987073,
    -0.2005130999551507,
    -0.004085437561308969,
    0.49176043257325275,
    0.29501315181801835,
    -0.33162904648148445,
    0.08873032750148889,
    -0.7576550979336093,
    0.46185139479775644,
    0.8340283962709139,
    0.6846919934146954,
    0.4058508816416799,
    -0.31122487345251526,
    0.4431001794529569,
    -2.1279142611569255,
    -1.8336532375934194,
    -0.2965093454805164,
    -1.3496004213590505,
    2.552232247135795,
    -1.5112631039389315,
    -0.5028365000311047,
    0.15254120670432708,
    -0.9407865570810475,
    0.03589970274636933,
    1.2330300940758172,
    0.8985756848727885,
    1.0141815039952857,
    -0.9024896171416426,
    -0.2875289673770213,
    0.4542324185922659,
    0.8248801454652676,
    1.9957003694965074,
    0.4360709150463351,
    -1.0353351479678208,
    1.2550270006320805,
    0.24072046193348862,
    0.5263270392658076,
    0.25460840932930967,
    -1.2462436719772712,
    -1.1728747943949445,
    0.8042783403306217,
    0.8447765956382197,
    -1.7528289939113337,
    -2.628906414047224,
    0.18429230594643398,
    0.9787264169113717,
    -0.6910115444437684,
    0.7657302733505859,
    0.1544136568524307,
    0.6444928580612265,
    1.089050479275898,
    -0.10913200558057867,
    -0.14973666209137132,
    1.2190533022362742,
    0.5718155579448467,
    1.0891480863749887,
    1.2377415298173418,
    -0.8094990593263507,
    0.04854970183902795,
    -0.8539135234526719,
    -1.0366709737720385,
    -0.9137337405969015,
    -1.3111195126384756,
    1.0901323471753894,
    -0.48732791466020847,
    -1.3826293774743903,
    -0.6543576080672698,
    -0.4629161038354954,
    0.3284231219426278,
    -0.9233361370451171,
    -1.6873843829032136,
    -1.2167667837484093,
    -0.2905741101138905,
    -1.2079168976181665,
    -1.8449582383600662,
    0.9854946871981025,
    -1.0214992041366537,
    1.2269844678718889,
    1.2622044007027988,
    1.4718995400764017,
    -1.097238650288304,
    0.24860593962883581,
    -0.1651062659516622,
    0.27227976469956416,
    1.0486121418359655,
    -0.8655616599522596,
    0.3976071312348853,
    -0.41808337076823754,
    1.5351712539038194,
    2.7066726763886555,
    0.2650342526399033,
    -0.03393955969770085,
    -0.8119483093181311,
    0.9984521804766763,
    -0.3502887064189749,
    1.7157085715579385,
    0.3314334909526712,
    0.5767109292381088,
    -0.6923582058188188,
    -0.6939676369196051,
    -1.0616395111580625,
    -1.2017677745611484,
    1.4537945711165186,
    1.3416189739879023,
    0.9360193714851579,
    -0.6785872478750226,
    -1.246875625197374,
    0.1149827656106038,
    0.4292596524093253,
    -1.0388204505068692,
    -0.2830449511876631,
    0.4538133289853906,
    -2.152855999345432,
    -1.3391904906409808,
    -0.9248588258541606,
    -1.1422701901550056,
    1.50377098366668,
    1.979961225134629,
    -1.0095225823368215,
    -0.47845792863953546,
    0.17866883980654047,
    0.009092560776921277,
    1.945328927414431,
    -0.7043607936142698,
    0.044863076628076023,
    1.9756282417393207,
    -0.7212242746110374,
    0.21468433888633986,
    0.7092537339510383,
    1.588713460479624,
    -1.7665624600207113,
    -0.645493257132799,
    -0.9383413872252409,
    -0.18633334410870184,
    -1.0977637784790522,
    -1.589681543477726,
    1.0384487725122762,
    0.8154308418311177,
    0.08756583433943321,
    -2.2673682354454145,
    1.8729278953617712,
    -0.50342740900691,
    1.0195325475699653,
    -0.5208569259902176,
    -0.10047314981486644,
    -0.5617989375251525,
    -1.7997497664592728,
    -1.9238562581159568,
    -0.8430566799663255,
    -0.018535522582259125,
    0.1959970276226543,
    0.17695801032983738,
    0.8896053641266297,
    -0.14507807045641283,
    -0.4070287017016039,
    -0.33271644690191116,
    1.5630460442445142,
    -1.5917480660573267,
    -0.2060954106643747,
    -0.29277494530260134,
    0.2624144022525491,
    -2.022770336389597,
    -1.1578650454080197,
    1.2270097548052705,
    0.719096855558367,
    -0.9392190220282112,
    -0.3483886170319432,
    -0.18641467281964655,
    -1.022999324651154,
    0.6178752613439238,
    -2.11476137805257,
    -1.892629761054896,
    1.2451217996413841,
    0.5738212654341418,
    -0.8255583882515012,
    0.32868591135724645,
    -0.511039932215969,
    -0.1176689065458037,
    -0.19995944890527825,
    0.6922860219257054,
    -2.111910527015654,
    -0.3019825089735188,
    -0.09858661532873532,
    -0.7679042887444447,
    0.3784576894580812,
    1.1014273865534505,
    0.23610612063604985,
    -0.9372505520794572,
    -0.8648375774880597,
    0.032905279113924546,
    -1.8132641412094832,
    0.2655253749721174,
    -0.8544566774879732,
    0.9583428494876614,
    0.5466907625858236,
    0.9946432690058247,
    -0.0733469463606105,
    0.5134279179901486,
    -0.2611429567305258,
    -0.7992121300025977,
    0.39407748095724476,
    -0.534395388677692,
    -1.4200450626176544,
    0.5246805113323181,
    -2.6279043006908402,
    1.6125290387245328,
    0.5554367093781,
    0.7626445770800973,
    1.2975007808760903,
    1.0175086408631695,
    -0.37791151165121634,
    0.37928454371531334,
    -0.5863950220537857,
    0.5478612658834113,
    0.8558915375321747,
    0.43220783351410696,
    0.1230642572271756,
    0.3698903963754733,
    0.6980698707277981,
    0.8773215054322379,
    0.21443292558902383,
    -1.2532347842141762,
    0.6610498437565908,
    0.895716958113874,
    0.1539051523201748,
    0.26099880413479004,
    1.194993855924345,
    -0.1693336261901665,
    1.3785300382412398,
    1.9697753981309694,
    0.7852890432260972,
    -1.283126592143631,
    -0.38381649589015354,
    1.8609731359284076,
    -0.44487415995176344,
    0.9498774804775133,
    -0.49346214798516125,
    0.31312551619565043,
    -0.045332721893539145,
    -0.035454647920273835,
    -0.48018707963664903,
    -0.6849027237940127,
    1.9127992473490214,
    -0.9452652423050558,
    1.845632451743219,
    1.1730639177281181,
    0.47755968704046864,
    -0.8708752756599603,
    -0.24872893168624782,
    0.32198129948144116,
    -1.3204342150697228,
    -0.4799256286992644,
    0.1693076481067115,
    0.44882788941136076,
    0.4746630613245194,
    -0.8497027221003052,
    -2.2273668851332835,
    0.6021942577389167,
    1.0914716069031132,
    -2.027640546633485,
    0.3327913918607908,
    -0.10071781372042746,
    -1.279155071935364,
    -0.803135116216459,
    1.548281515288464,
    -1.0634311379447405,
    -0.370666604200158,
    -1.6476970937931021,
    0.34599746854497,
    0.40914078387100866,
    -0.11780661834878009,
    -0.8537538864257751,
    0.7698600896105933,
    -0.1368853735008367,
    -0.430172946806125,
    1.9579657141782216,
    0.8701821133495926,
    0.21756205625377376,
    0.8512135916082476,
    -0.9960283660233672,
    0.1703948760553038,
    -1.5036367395263373,
    1.3472179993880837,
    1.5606088168001042,
    -1.8413886396568917,
    1.5130795383661046,
    1.6574295196647826,
    0.16207033395516712,
    1.114831656970366,
    0.5630387730341361,
    -0.2971642085194182,
    0.4233290288818641,
    0.29507162176538976,
    0.05889175663225787,
    0.7890796439956705,
    -0.3683180609485308,
    0.27167648340760175,
    -0.7422023808795535,
    -0.18658542858923893,
    0.6735242147672391,
    0.4680708800673025,
    -2.4593865319357735,
    -0.26848036034364303,
    1.036756610612086,
    0.24219478885076426,
    0.8215101566789712,
    1.9728720246029912,
    -2.6526875307794757,
    0.3314540827055455,
    -0.3952416168885995,
    0.32114838118688877,
    0.2906863507668101,
    -0.27209518699425744,
    -0.11228368303347736,
    0.30840200903878506,
    0.25129533224441764,
    1.778671005255192,
    -0.6699305930262316,
    0.8513465547095943,
    -0.5153435250802527,
    -1.347529481675559,
    1.0831340856901417,
    1.0057535189730478,
    0.4938151076698761,
    -1.164306331279932,
    1.3134252368724635,
    0.31828330113184594,
    -0.4228445173091655,
    0.37196976107651963,
    0.8925908352152346,
    -1.9426527489917158,
    -0.1328956024002574,
    0.4991969025884454,
    -0.7355345535326693,
    -0.32399268841823126,
    -1.228229598424499,
    -1.6356204902232145,
    1.1469897880056095,
    -0.011337811247972366,
    -0.1292228095966014,
    -1.000734660934624,
    -2.0575310386824093,
    1.1853095652119303,
    -1.7480666790008497,
    0.21273795394315542,
    -1.0505532493414091,
    -2.0803628273621944,
    0.9078765440634935,
    -1.5028984234054792,
    -2.681766910480506,
    2.1962815201164085,
    1.2576625769439151,
    -0.10082207356732148,
    0.5268686282877023,
    -0.3711258510512978,
    0.024167549018752576,
    0.024947423951303626,
    -0.19597860847540893,
    -0.19110548406389932,
    2.1498034225665843,
    -1.264466010652805,
    -1.8561922438224812,
    -0.8245511563681215,
    -0.5053367382578505,
    -1.7262654749567652,
    -0.38004419608082685,
    -0.19905159744716286,
    0.7244093344505175,
    -0.02775319319134311,
    1.5321182287812327,
    -1.1204106467412411,
    -0.26855538928510814,
    -0.017592476734876364,
    0.6737738757707447,
    1.2568406849645348,
    -0.9635603282584635,
    0.10330716248365401,
    -2.861690651326731,
    0.3133708568789939,
    0.5309505742538494,
    -1.0542184527377292,
    0.7199058316061238,
    -1.0867674173718687,
    -2.4744720543945142,
    1.1272506221989969,
    -0.5971769193484759,
    -0.023872632654003745,
    1.3945308091384174,
    -0.5803942748878754,
    -0.7724556599541659,
    -1.0747666895798011,
    -0.47205995261049816,
    -0.4704155132258355,
    -1.5630348602265602,
    -0.9762066932282588,
    -0.09314267315237634,
    -0.3190703824191573,
    -1.2049049708585624,
    -0.6818420420493018,
    -0.1610583453818999,
    -0.1710421182266673,
    -1.436088249135157,
    0.6149312137903796,
    -0.4401157712350461,
    -0.7482900271797296,
    1.091771441213014,
    0.309341752994866
  ],
  "best_ctrl_weights": [
    3.2432035190399597,
    0.8746496486616092,
    -0.7191574988660437,
    -1.288812796836923,
    -0.3610100768992969,
    0.4639283885606598,
    -1.1769477385784448,
    -0.7874576893003276,
    0.6146881297090427,
    0.06911150258068637,
    -1.5773117957730909,
    -0.6031040976214869,
    0.7550070560648862,
    -1.7628136934213257,
    -0.5987534922793842,
    0.0706608602124949,
    1.1876928142887306,
    0.0028684300839553127,
    -1.4100840716138079,
    -0.820810436690211,
    -0.5729862282212858,
    0.2504315465735102,
    0.1550048267684853,
    1.1959732920286936,
    0.3601627964645709,
    0.3343592555022762,
    0.5115371940434071,
    0.19494657487518505,
    1.7545680222071482,
    0.025264917723244514,
    -1.1686673345517786,
    0.9167142502462238,
    0.6870132412628803,
    1.5031181157933295,
    0.004570676363003512,
    0.7574277489593798,
    -2.0649545461131984,
    0.23927620994917548,
    0.3173442891072748,
    -0.36382007121413823,
    -0.10209865592736196,
    -1.1862382209229367,
    0.12769998828544551,
    1.2667294222576997,
    0.4411903786486934,
    1.0454489928213517,
    -0.5464392030647368,
    -0.5134533541506813,
    0.07101511137124406,
    -0.327715234255086,
    -0.25045915212015124,
    0.516322532116364,
    -0.8407307057693694,
    0.08030176836208738,
    -1.2930882748899282,
    -0.13344415655312583,
    0.06577484979509633,
    0.24428615770046558,
    -1.4648134031633215,
    0.5207951137335189,
    -1.1933608803243547,
    -0.9417010569077917,
    0.8949371442732342,
    -0.6170045582783142,
    -0.05641649958253591,
    -0.4351453646743398,
    -0.32925589769372093,
    1.678953092907729,
    -2.244659248587676,
    -0.47522390904089795,
    0.12842445257618473,
    0.5820774652233887,
    0.46290112187845783,
    -0.8309074132121472,
    -0.8822727355233322,
    -0.8482412221970809,
    0.6711411867956779,
    -1.0579097166059543,
    1.1575995207134713,
    -1.3742011827379088,
    1.2901890923407697,
    -0.10989681184219911,
    0.13718254512871203,
    -1.9937433747429376,
    -1.085469033081715,
    0.6373027037488319,
    -0.4393301516481355,
    1.1259622543546095,
    -2.0200890820789987,
    0.44664272754089285,
    -0.5208864244498473,
    0.9195740794494526,
    0.2472577310009264,
    0.4713963167054675,
    1.4057398398732879,
    -0.9216547990839635,
    0.8999036014000875,
    -0.16854056654224348,
    -1.0375853970467814,
    0.7061386906017915,
    0.5409245569111517,
    0.08645268141713526,
    0.01711624387800635,
    0.4303281436249351,
    -1.090652065291241,
    0.3757807366717196,
    1.5388671890103334,
    -1.0896152208530325,
    0.6433217188660793,
    -0.4712697041006609,
    0.33678094816498094,
    -1.2269859014461284,
    -1.0387053984212924,
    0.08243278123057869,
    1.0320043791733087,
    -1.0166532278793006,
    0.11510117160405847,
    -0.20370136003827988,
    -0.7838417556742151,
    -0.5285901177830757,
    -1.388709056404121,
    -1.385069263297236,
    1.4384456500529903,
    -0.12067228316100015,
    -1.066610152236864,
    -0.199480835715234,
    -0.14231019773068468,
    -2.072272378206043,
    0.8946857416956091,
    -1.4524699197280686,
    -0.2582813823750016,
    -0.6052600540195952,
    0.4310795966519699,
    1.738985994349988,
    -0.9845541153750628,
    0.41928408269253087,
    0.2830554892555356,
    -0.9581887386261212,
    0.4373413488621175,
    0.4275657547942693,
    -2.03790948760244,
    0.5737218024119712,
    1.0345656286695943,
    -0.3640649058922469,
    -0.7224125379637734,
    0.8089824721404241,
    -0.13177788230770182,
    0.8438710525482267,
    -0.6513274270155843,
    0.7047658426881407,
    -0.5749840149966589,
    0.3189998584047483,
    -0.8955224503591891,
    -2.487895285954419,
    -2.115323590744287,
    -0.38134220460968765,
    -1.6715846135080699,
    -0.10698396018016133,
    0.04871446794875413,
    0.8965706271083772,
    0.02179372622099199,
    1.099986872679107,
    -0.8901111650133919,
    -0.16171688820983743,
    0.9576956242900814,
    -0.5449136098449036,
    0.5098806247811274,
    -0.5750527109318384,
    -0.2415009137979155,
    0.7845969063894005,
    0.07915086817577938,
    0.37161433183792403,
    0.785906753465355,
    1.2376123565406176,
    -0.17289781183687336,
    0.5119186362245666,
    -0.4219575139657997,
    -0.276065446223652,
    0.1796772390714169,
    -0.8331867583716507,
    -0.9005630021543828,
    0.837836961230687,
    1.6110073390039554,
    -0.5340471909052183,
    -0.2934515285407192,
    1.5082109166927942,
    0.7611272602212914,
    0.19894225627071233,
    -0.5665304695354878,
    1.4678823117345436,
    1.714961630277363,
    -0.14265004331305292,
    -0.41080566676896846,
    0.32890171019743264,
    0.03944357829294379,
    -0.24246043917219498,
    -0.14262642930662756,
    -0.6467325796451424,
    0.17744372981055015,
    -0.25661067478070126,
    1.2864872751870156,
    0.7917801551539919,
    0.0246265844765766,
    0.2290511679410567,
    0.32898872337160207,
    -0.044110085643747514,
    -0.5206565942577985,
    -2.0355120880370885,
    -0.04827900157117655,
    -2.0603981000768887,
    0.10191254071741371,
    -1.0830965469078289,
    -2.1521438451069796,
    -1.6742751704375178,
    -0.09089716343031441,
    2.3373822508947804,
    -0.27375116556852963,
    0.38604287103492924,
    0.7043289147620039,
    -0.7953314484579371,
    1.2586326882982641,
    -0.8204256405777949,
    -1.5787606594762096,
    1.553022118837058,
    -0.4623926553240431,
    -1.007488322272333,
    0.912744406408542,
    0.45825092588993793,
    -0.8397834525410075,
    -1.1961686704663839,
    0.851882576821911,
    -1.0416292205521605,
    -4.068838015307133,
    -1.0092477151845825,
    0.00371396384138608,
    -1.2105992443456575,
    -0.03392584857930886,
    1.5016294699889394,
    0.7294190452808625,
    -1.482098134233754,
    -0.05191131289150888,
    0.5392958864419076,
    -1.011949136362846,
    -0.7749036511856274,
    0.19157690574479802,
    -1.044853156132475,
    0.6258129020754282,
    0.036587086510266764,
    -0.5071493495118389,
    0.17611235280179632,
    -0.2161364811067226,
    -1.2293053866982002,
    -1.2549237878914674,
    0.9270676041376102,
    -0.6775275940085893,
    0.274537447970603,
    -0.06452294577401813,
    -0.7909984141037606,
    0.27789171202048235,
    -3.178594453105927,
    0.40944270996999355,
    0.7031800596791778,
    0.23449690866236084,
    -0.03706885639907071,
    -1.88230671968487,
    0.8899372717722237,
    2.3046019034083196,
    -0.17165164578821318,
    -1.2738591963925237,
    0.47784814058240094,
    0.9142270255228184,
    1.7874296634927398,
    0.01458651174512643,
    0.750478747600104,
    0.705506193968781,
    -0.8847050420011268,
    1.234706440869437,
    -2.4194960395791214,
    -1.399037701437843,
    -1.9777537472354398,
    -1.705682876128989,
    0.07435570902605261,
    -0.9231650081052363,
    -0.2537900317562999,
    0.012297627344322978,
    0.6008091913245562,
    -0.6414092307457312,
    1.9139558139548032,
    1.1957824275606606,
    0.9228740340368109,
    0.05300551060406903,
    -0.7009356536679131,
    -0.22107407786574143,
    -0.15380463420591098,
    0.9101596340978948,
    -0.08747830732742821,
    -0.49072768010930407,
    1.3863295469581662,
    -1.1860947506636064,
    1.949698767745053,
    -0.10185693712671738,
    0.34937845315587557,
    -0.4541046339531983,
    0.9102068758771906,
    -0.44636215910594107,
    0.17613512511413731,
    -0.9468175798126819,
    -0.037374645219207414,
    -0.6675786167454553,
    -0.22571209283797344,
    -0.9792486370582627,
    -0.7935951360520695,
    0.7009298797589341,
    -0.2646823065763029,
    -1.7017766252068307,
    -1.8768147047865196,
    1.6166459667280975,
    -1.6514309093296704,
    0.11345002796635928,
    -0.7975340247436672,
    -0.19314059726905328,
    -0.4558176423467358,
    1.3343550621317593,
    -0.39801826999314077,
    0.02687752840729666,
    0.9227590379406523,
    0.19308099106108817,
    -0.7686210043898555,
    -0.5280577346955115,
    0.553730390429175,
    1.1485902069170426,
    2.452278567246129,
    0.3097150725917261,
    -1.2943593122157564,
    2.834056154964331,
    -1.6184273338955406,
    0.6072722294570797,
    -0.07808212002224092,
    1.3373889827334653,
    0.75343554446268,
    0.7205956907939192,
    -1.5017948543812556,
    0.2246202709029339,
    -1.5505520416650933,
    -0.3122195205786404,
    -2.0617642920669734,
    1.4515325526450045,
    0.839704321145755,
    0.6126853671735838,
    -1.5984128203768002,
    1.620419342654825,
    0.6499693609553467,
    -0.9343125057878314,
    -0.5895449677584211,
    0.9195418431757817,
    -2.0731714509008112,
    0.2517909060443214,
    0.08165712604397989,
    1.405499207313454,
    -0.6339738998666363,
    0.2355199238740253,
    -1.0614340324949623,
    -0.20461705445461564,
    1.2167241536908042,
    0.09098021402866392,
    0.0703175840829304,
    -1.5197472631766267,
    0.9323117340168229,
    -0.49110166384219883,
    -3.207977692340013,
    1.305906865212207,
    0.2508850543978368,
    1.0810714246401238,
    0.825928215479707,
    -0.45179441895350436,
    0.16457280736278618,
    1.0660455719570894,
    -0.18239020646486537,
    1.340436164479946,
    0.5453451606418415,
    0.07474011973755984,
    0.07756056796835335,
    1.8660170886456087,
    -0.9426916720786321,
    0.23288263635841402,
    1.48350013708085,
    -1.0453520302424517,
    0.5658071838884097,
    -1.109508202865691,
    0.7663704466271893,
    1.8823637888918066,
    -0.29416729155472676,
    -1.6343733498128878,
    -0.04630749260161743,
    -1.4999550055294653,
    0.48400209559249807,
    1.3326108918215003,
    2.1386935264572475,
    -0.2205929901293489,
    -2.6104981548472947,
    1.263702361159937,
    0.9802054263219546,
    1.0683272447738297,
    0.38199154025029713,
    -1.4467363743700132,
    1.3082498126176423,
    0.3774483329665543,
    -1.422313136101362,
    -1.212060477457676,
    -0.6444938227278175,
    1.0323930166028477,
    0.5181319158219867,
    0.4379955347685599,
    -1.4644893504876344,
    0.37264465178003503,
    0.008491638816906533,
    0.3326893142823104,
    1.2765831151584943,
    -1.2469959428442094
  ],
  "best_morphology": [
    [
      4,
      4,
      4,
      4,
      4,
      1,
      1,
      1
    ],
    [
      4,
      4,
      4,
      4,
      4,
      4,
      4,
      1
    ],
    [
      1,
      4,
      4,
      4,
      4,
      4,
      4,
      1
    ],
    [
      1,
      1,
      1,
      1,
      1,
      1,
      4,
      1
    ],
    [
      3,
      1,
      1,
      1,
      1,
      0,
      0,
      0
    ],
    [
      3,
      1,
      1,
      0,
      0,
      0,
      0,
      0
    ],
    [
      3,
      0,
      0,
      0,
      0,
      0,
      0,
      0
    ],
    [
      0,
      0,
      0,
      0,
      0,
      0,
      0,
      0
    ]
  ],
  "all_fitnesses": [
    385.7364828118593,
    -11.781528450303597,
    37.50364479268353,
    1.9743463354583923,
    309.0360057694589,
    16.419175307123055,
    0.41780752563931856,
    -1360.5203456170968,
    2.2293333920561054,
    18.85758095202334,
    11.554234142972632,
    96.4837426776088,
    994.6375351609793,
    0.2954857804945732,
    -625.2352944310694,
    823.723902241587,
    256.5357181842519,
    199.72789200712373,
    582.2476761265827,
    19.68059823682313
  ]
}