{
  "generation": 2,
  "best_fitness": 240.75094833421582,
  "mean_fitness": -4.299396110521775,
  "best_morph_weights": [
    -2.5266533066914034,
    -0.3043544598836106,
    -1.051213972057994,
    0.28113587676819146,
    -2.290831654426555,
    1.6682341774284308,
    1.9539646087560827,
    -1.2944881531560148,
    -0.3211949819144553,
    1.0545684203158279,
    -1.0763011069335713,
    -2.026552733277762,
    -0.745933818010971,
    0.1159845087269983,
    0.24819496109870426,
    -0.9468154207196045,
    -0.4928977404894464,
    0.6326987168902266,
    2.8232605948713134,
    -1.964868182078228,
    -0.20191839019467114,
    -1.762899589705203,
    -2.426595911055736,
    -0.3175843701094889,
    0.31251133258038916,
    0.24925972483266376,
    -1.1530873028159054,
    -0.4838327551519218,
    0.01579968612314356,
    -1.0254601987064482,
    -0.43643750957796906,
    1.1083391750538032,
    0.10472375667409084,
    -1.1023412887153925,
    -1.6403906031150783,
    1.2223295341115596,
    -0.5023291276805023,
    1.5785047528669338,
    -1.121174728126782,
    2.6682837941276354,
    -0.9089072198748857,
    -2.4260870332893267,
    -1.2094535275023215,
    -0.6201524976701784,
    -1.064906986543494,
    0.3895482711976833,
    1.310168952987073,
    -0.2005130999551507,
    -0.39830813145047467,
    0.49176043257325275,
    0.29501315181801835,
    -0.33162904648148445,
    0.08873032750148889,
    -0.7576550979336093,
    0.46185139479775644,
    0.8340283962709139,
    0.6846919934146954,
    0.4058508816416799,
    -0.31122487345251526,
    0.4431001794529569,
    -2.1279142611569255,
    -1.8336532375934194,
    -0.2965093454805164,
    -1.3496004213590505,
    2.411573731455578,
    -1.5112631039389315,
    -0.5028365000311047,
    0.15254120670432708,
    -0.9407865570810475,
    0.03589970274636933,
    1.2330300940758172,
    0.8985756848727885,
    1.0054129326022536,
    -0.9024896171416426,
    -0.2875289673770213,
    0.4542324185922659,
    0.8248801454652676,
    1.9957003694965074,
    0.4360709150463351,
    -1.0353351479678208,
    1.2550270006320805,
    0.24072046193348862,
    0.5263270392658076,
    0.25460840932930967,
    -1.2462436719772712,
    -1.1728747943949445,
    0.8042783403306217,
    0.8447765956382197,
    -1.7528289939113337,
    -2.628906414047224,
    0.18429230594643398,
    0.9787264169113717,
    -0.8401114586620839,
    0.7657302733505859,
    0.1544136568524307,
    0.6444928580612265,
    1.089050479275898,
    -0.10913200558057867,
    -0.14973666209137132,
    1.2190533022362742,
    0.5718155579448467,
    1.0891480863749887,
    1.2377415298173418,
    -0.8094990593263507,
    0.04854970183902795,
    -1.3725089323072999,
    -1.0366709737720385,
    -0.6941041594391077,
    -1.179085378136595,
    1.0901323471753894,
    -0.8999379025120753,
    -0.25672600495587056,
    -0.6543576080672698,
    -0.4629161038354954,
    0.3284231219426278,
    -0.9233361370451171,
    -1.8448779023222146,
    -1.2167667837484093,
    -0.2905741101138905,
    -1.2079168976181665,
    -1.8449582383600662,
    1.04886444835821,
    -1.0214992041366537,
    1.2269844678718889,
    1.4485432219699903,
    1.4718995400764017,
    -1.097238650288304,
    0.24860593962883581,
    -0.2480759563742364,
    0.27227976469956416,
    0.448083566323563,
    -0.8655616599522596,
    0.3976071312348853,
    0.25080380759403775,
    1.5351712539038194,
    2.6465189273632332,
    0.2650342526399033,
    0.12881505192152426,
    -0.8119483093181311,
    0.9984521804766763,
    0.014808181542143672,
    0.4872246778736085,
    0.5221545323191678,
    0.5105681884314488,
    -0.6923582058188188,
    -0.6939676369196051,
    -1.0616395111580625,
    -1.2017677745611484,
    1.4537945711165186,
    1.3416189739879023,
    0.9360193714851579,
    -0.6785872478750226,
    -1.246875625197374,
    0.1149827656106038,
    0.4292596524093253,
    -1.0388204505068692,
    -0.2830449511876631,
    -0.39196782448874645,
    -2.152855999345432,
    -1.3391904906409808,
    -0.9248588258541606,
    -1.1422701901550056,
    1.50377098366668,
    1.979961225134629,
    -1.0095225823368215,
    -0.47845792863953546,
    0.17866883980654047,
    0.009092560776921277,
    1.945328927414431,
    -0.7043607936142698,
    0.044863076628076023,
    1.9756282417393207,
    -0.7212242746110374,
    0.21468433888633986,
    0.7092537339510383,
    1.8364788386981599,
    -1.7665624600207113,
    -0.645493257132799,
    -0.9383413872252409,
    -0.5029157346443107,
    -1.0977637784790522,
    -1.589681543477726,
    1.0384487725122762,
    0.8154308418311177,
    0.08756583433943321,
    -2.2673682354454145,
    1.8729278953617712,
    -0.7511235750101245,
    1.0195325475699653,
    -0.5208569259902176,
    0.5079977578649805,
    -0.5617989375251525,
    -1.7997497664592728,
    -1.9238562581159568,
    -0.8430566799663255,
    -0.018535522582259125,
    0.1959970276226543,
    0.7019713237923197,
    0.8896053641266297,
    -0.14507807045641283,
    -0.4070287017016039,
    -0.33271644690191116,
    1.5630460442445142,
    -1.5917480660573267,
    -0.2060954106643747,
    -0.29277494530260134,
    0.2624144022525491,
    -2.022770336389597,
    -1.1578650454080197,
    0.6877186872498164,
    0.719096855558367,
    -0.9392190220282112,
    -0.3483886170319432,
    -0.18641467281964655,
    -1.022999324651154,
    0.6178752613439238,
    -2.11476137805257,
    -1.892629761054896,
    1.5120704519027917,
    0.5738212654341418,
    -0.8255583882515012,
    0.32868591135724645,
    -0.511039932215969,
    -0.1176689065458037,
    -0.19995944890527825,
    1.0039853625642527,
    -2.111910527015654,
    -0.3019825089735188,
    -0.09858661532873532,
    -0.17476941851062805,
    0.3784576894580812,
    1.1014273865534505,
    -0.09691815134622048,
    -0.9372505520794572,
    -0.8648375774880597,
    0.032905279113924546,
    -1.8132641412094832,
    0.2655253749721174,
    -1.4257603779062604,
    0.9583428494876614,
    0.5466907625858236,
    0.9946432690058247,
    -0.0733469463606105,
    0.5134279179901486,
    -0.2611429567305258,
    -0.7992121300025977,
    0.39407748095724476,
    -0.534395388677692,
    -1.4200450626176544,
    0.5246805113323181,
    -2.6279043006908402,
    1.2676681002654673,
    0.5554367093781,
    0.7626445770800973,
    1.0415255681070268,
    1.0175086408631695,
    -0.3736829838749681,
    0.37928454371531334,
    -0.8410177590861107,
    0.5478612658834113,
    0.8558915375321747,
    0.43220783351410696,
    0.1230642572271756,
    0.3698903963754733,
    0.6980698707277981,
    0.8773215054322379,
    1.0808329223756294,
    -1.2532347842141762,
    0.6610498437565908,
    1.3441285606346574,
    0.1539051523201748,
    0.26099880413479004,
    1.194993855924345,
    -0.020178858438790862,
    1.3785300382412398,
    1.5032338746448886,
    0.7852890432260972,
    -1.283126592143631,
    -0.38381649589015354,
    1.1143314492186827,
    -0.44487415995176344,
    0.9498774804775133,
    -0.49346214798516125,
    0.31312551619565043,
    -0.045332721893539145,
    -0.035454647920273835,
    -0.1844151065393056,
    -0.6849027237940127,
    1.9127992473490214,
    -0.4745069196886011,
    1.845632451743219,
    1.1730639177281181,
    0.47755968704046864,
    -0.8708752756599603,
    -0.24872893168624782,
    -0.3909763293026741,
    -1.3204342150697228,
    -0.026649780108214075,
    0.1693076481067115,
    0.44882788941136076,
    0.4746630613245194,
    -0.8497027221003052,
    -2.2273668851332835,
    0.6021942577389167,
    1.0914716069031132,
    -2.027640546633485,
    0.41316989631254414,
    -0.10071781372042746,
    -1.2335550692957367,
    -0.9985860650137862,
    1.548281515288464,
    -1.0634311379447405,
    -0.370666604200158,
    -1.6476970937931021,
    0.34599746854497,
    0.40914078387100866,
    -0.16338250959923764,
    -0.8537538864257751,
    0.7698600896105933,
    -0.1368853735008367,
    -0.47266572393185213,
    1.3224385696529128,
    0.8701821133495926,
    0.21756205625377376,
    0.8512135916082476,
    -0.9960283660233672,
    0.1703948760553038,
    -1.5036367395263373,
    0.7302339851663024,
    1.5606088168001042,
    -1.8413886396568917,
    1.5130795383661046,
    1.6574295196647826,
    0.16207033395516712,
    1.114831656970366,
    0.5630387730341361,
    -0.2971642085194182,
    0.4233290288818641,
    0.29507162176538976,
    0.05889175663225787,
    0.7890796439956705,
    -0.2338764578839664,
    0.47390099135731273,
    0.005283703154658056,
    0.28513792516284125,
    0.6735242147672391,
    0.4680708800673025,
    -2.4593865319357735,
    -0.26848036034364303,
    1.036756610612086,
    0.24219478885076426,
    0.8215101566789712,
    1.9728720246029912,
    -2.6526875307794757,
    0.3314540827055455,
    -0.20265638208086711,
    0.32114838118688877,
    0.2906863507668101,
    -0.27209518699425744,
    -0.11228368303347736,
    0.30840200903878506,
    0.25129533224441764,
    1.778671005255192,
    -0.7743578914398352,
    0.8513465547095943,
    -0.14640870967179487,
    -1.347529481675559,
    1.0831340856901417,
    1.0057535189730478,
    0.4938151076698761,
    -1.164306331279932,
    1.3134252368724635,
    0.31828330113184594,
    -0.4228445173091655,
    0.37196976107651963,
    1.2547786568061678,
    1.415456976781222,
    -1.424165236156182,
    -2.190459410661135,
    -0.6799695495899045,
    1.138507968737647,
    0.0930231306937897,
    -0.998065092007307,
    0.8743749888118874,
    -0.23182054714628847,
    0.24334194549360694,
    1.7342378702165737,
    0.13766100360473293,
    -0.10850215328570197,
    -0.15575146351303565,
    1.1078993720536832,
    0.6188412958114445,
    0.32548380057337023,
    0.6732464420844244,
    -0.4114654381016362,
    -0.5745280879968226,
    0.5926172050920245,
    0.033030364576953374,
    -0.6633418136194664,
    -0.8412160518841929,
    1.173283690647979,
    0.4227120885277522,
    -1.3877942294019205,
    0.9157190477604943,
    -1.0570382143536343,
    1.5872725233883642,
    1.4408053125529523,
    0.9568607059270048,
    -0.056859142327453524,
    0.48241774150816724,
    0.44756766982564994,
    0.7174732106578814,
    0.006980405441565597,
    0.5832361584316971,
    -0.8884139889727694,
    1.177034059379022,
    -0.6489932086571317,
    0.29373119971379924,
    0.3601098274647212,
    -0.7503535550108774,
    -1.4774251296396321,
    -0.6539740893892461,
    -0.4678880757603474,
    0.5700987298562424,
    -1.7527868774417847,
    0.9528481651856268,
    0.8046621416229172,
    0.46021116824189545,
    -0.02351994801240655,
    0.41475465663861955,
    -1.4000195678634306,
    2.357909978020447,
    0.49303337932719316,
    0.06043545618528351,
    -1.6028236746934619,
    -0.8216763959864097,
    -0.06397641257455797,
    0.19690422138116812,
    0.2008832972838779,
    2.176988903285216,
    0.31670176349871276,
    0.6607239697701432,
    1.3462013577281868,
    0.896510036055776,
    -0.3081819009076328,
    0.2620506920674322,
    -0.8070333632808696,
    -0.46215533803374476,
    0.5870907265273347,
    -0.7906419948696222,
    -0.7125969437164508,
    0.42029717981161824,
    -1.2548996645047683
  ],
  "best_ctrl_weights": [
    1.206035341196313,
    -0.023471105711333796,
    -0.37723571260798716,
    -0.7024405728271855,
    -1.7992201639037961,
    -1.2698138334329736,
    0.3906497634478069,
    1.171994553976215,
    1.4647384064739086,
    -0.0298332684965692,
    0.01084125323212727,
    -0.98052342109095,
    0.7450886127251438,
    0.14028564940405672,
    0.3622424577563622,
    -1.2328782764285995,
    -1.7639628762088275,
    1.6984036757643801,
    0.41772594380718786,
    -0.019734587270778786,
    0.2264223735858744,
    0.12002633600005669,
    0.016513911507925007,
    0.3542363384747106,
    -1.3238363260441972,
    0.27158948753549444,
    -2.1550222865547295,
    -0.7873602542828536,
    0.8047137898566353,
    -1.4248810136419687,
    0.9927566167473794,
    0.8542713924964117,
    1.0527469327135839,
    -0.3012471960306348,
    -0.2986092670190313,
    0.806913382503207,
    0.3960768909090579,
    0.9021947492674218,
    -0.5818239108173044,
    0.2917327929784449,
    0.1434796733544448,
    -1.373521039627547,
    -0.8601213285510562,
    -1.0119085108879333,
    -1.0760548275422794,
    -0.12626104106819824,
    0.8320690526489407,
    -0.6407992540590131,
    0.7008509976576964,
    1.6118261265872664,
    -0.4633037623541164,
    0.17820908344833467,
    -1.3172537830881652,
    2.694826521697794,
    -0.5947410935383228,
    0.6517775718866831,
    -0.48549279392910866,
    0.482074958758667,
    -0.23162690763519203,
    -0.4392023816960422,
    1.425394619589015,
    -1.147670268317127,
    0.1600729895478704,
    -0.6325754335493319,
    -0.2299112090385896,
    0.44835849124666566,
    -1.7562590275752212,
    1.7790612438177837,
    0.29278561492910266,
    -0.96649968620903,
    -0.16340297000625006,
    -0.9677620498879739,
    -0.6305781981230125,
    -0.0909102961476783,
    -0.5983765158287078,
    -0.5436387788937214,
    -0.9786081972066012,
    0.48512238843129984,
    0.6074570108278143,
    0.6791197340748119,
    -0.562624976702658,
    2.2108921760513134,
    1.0059858973201614,
    1.2587892882336977,
    -2.538386293753998,
    -0.3679292141338317,
    -0.2253953485689129,
    1.297002248703416,
    -0.2178608820908192,
    0.7615886779150488,
    2.537084986064354,
    0.18728500766534686,
    -0.16693453578020684,
    -1.6432246144096634,
    1.9667711330193403,
    2.461195448090606,
    0.1457154013921543,
    0.014760730208994282,
    -0.7995848805995414,
    0.7457437652549213,
    0.5055611896737146,
    -1.2227037082104952,
    0.6042705320330305,
    -0.14499438566966125,
    0.7727679158237906,
    1.5013893801244094,
    -1.3884333663484512,
    1.3134766573508574,
    -0.2934728785877461,
    0.9955449953948442,
    -0.0020142859723251048,
    2.643868795595985,
    1.9505149246923001,
    -1.5518832558326,
    0.8455642330950662,
    0.03581690876776711,
    0.11471394460396757,
    0.21854152252283848,
    -0.24786394431324174,
    -1.084223202747722,
    0.5002041775432927,
    0.9704533263450096,
    -0.45866154366157413,
    1.5593607216748988,
    -1.4285581465394275,
    -0.32110593843400725,
    -0.5368590946636552,
    -1.0403744640037387,
    -1.0548254195308844,
    -2.473293610810203,
    1.4793953826143174,
    -0.4853612916992403,
    -0.6548888218437011,
    -0.20936163273220243,
    -3.0918318285522104,
    0.24827734738953763,
    0.37511081507836563,
    0.27717147724252916,
    -1.2410629028150124,
    0.9225371461861887,
    -0.07762045731057275,
    -0.9948849032061011,
    -0.3597861670991603,
    -0.3455112377205043,
    0.9503103581725219,
    -0.0318351963968154,
    -0.26884925562844225,
    0.8214156286821239,
    1.0077421644603397,
    -0.32278692434097533,
    0.4844700029966335,
    -0.8248794033083595,
    1.632749350754269,
    0.7366601153545717,
    -0.851501863712654,
    -0.6526779773995764,
    0.36719082635273925,
    -0.03129942980365394,
    -1.4314680932277608,
    -0.5871481005328155,
    -1.4218637202854854,
    -0.9960562832794501,
    -0.23173369798280455,
    0.3997463838334677,
    0.22042317256879412,
    -1.940965105644567,
    -1.4434977429898188,
    0.41852794030505724,
    -0.38900677563078523,
    0.6463962983788669,
    2.2279426391315735,
    -0.02909996836467067,
    -2.6500473670822022,
    -0.9972639433461817,
    2.3067972003870807,
    -0.21504635625220114,
    -1.0206014985829512,
    -0.12458507615591817,
    1.0061164118579835,
    0.13754224548280258,
    0.364167505822776,
    -0.6267816903894369,
    0.85892470719357,
    0.5074116009561088,
    -0.44793587057215933,
    -1.3888378830066168,
    1.2344054738378014,
    -0.6611573103506153,
    -2.340488238797581,
    -0.7135796855599368,
    -0.275409845102228,
    -0.762647204222471,
    -1.0487220046120578,
    -0.40752090909688643,
    -1.2778847533128848,
    1.7315894763030302,
    -0.045223196789117855,
    0.6697666644349614,
    0.9824694892128429,
    -0.8620240543634918,
    0.0644897156653218,
    0.07706177956753178,
    0.7100286152353197,
    -2.1705413775984903,
    -0.7994782794580378,
    -0.4903107150657767,
    0.4099687311654962,
    -0.45229868355260894,
    0.5886084857361173,
    1.1676049310265966,
    -0.12167423036557498,
    -1.4169426940440843,
    0.6094435875293903,
    -0.9813005598322841,
    0.999278055139098,
    -0.22019211948181,
    -0.7437569995793886,
    0.5087769219886071,
    -0.40554612313859373,
    0.08561545409741977,
    -2.127886310374649,
    -0.7035651736897247,
    1.777513769705236,
    0.38481204950685743,
    0.16504152034962635,
    1.3528756814387641,
    3.4716736432451962,
    0.014394663524880537,
    0.6742073968543657,
    -0.8608979387155222,
    0.2720598568407108,
    -0.7375155566430974,
    0.6601033889865358,
    0.7538979720035195,
    -0.4514994393979793,
    -1.2043569633007492,
    -0.8644698340234271,
    -1.2507240137784,
    -0.4784482872423962,
    0.3295226956471411,
    -1.0058799294143743,
    0.7926399430641231,
    1.6282161962796764,
    -0.5849262191331436,
    -0.12963706935469868,
    -0.5875646619357345,
    0.947534309936622,
    -1.0166933718547178,
    0.7254660062827261,
    0.28768103306863096,
    -0.91278807024282,
    1.6063505278286418,
    0.6462192203750148,
    -1.1691517853688564,
    -1.0254095876795706,
    -0.5718221142568441,
    0.05437976261796424,
    0.3597454419575586,
    -0.19945810365909408,
    1.1767435618084265,
    -0.7927021260659702,
    -0.7681162061821991,
    0.5988725561467982,
    -1.0469653683219278,
    -1.88230671968487,
    0.8899372717722237,
    2.3046019034083196,
    -0.17165164578821318,
    -1.2738591963925237,
    0.47784814058240094,
    0.9142270255228184,
    1.7874296634927398,
    0.01458651174512643,
    0.750478747600104,
    0.705506193968781,
    -0.8847050420011268,
    1.234706440869437,
    -2.4194960395791214,
    -1.399037701437843,
    -1.9777537472354398,
    -1.705682876128989,
    0.07435570902605261,
    -1.2434582390133522,
    -0.08364479590202271,
    0.012297627344322978,
    0.6008091913245562,
    -0.6414092307457312,
    1.187249391515738,
    1.1957824275606606,
    0.9228740340368109,
    0.05300551060406903,
    -0.7009356536679131,
    -0.22107407786574143,
    -0.15380463420591098,
    0.6369490522606744,
    -0.08747830732742821,
    -0.49072768010930407,
    0.9867439861666768,
    -1.1860947506636064,
    1.949698767745053,
    -0.10185693712671738,
    0.34937845315587557,
    -0.4541046339531983,
    0.9102068758771906,
    -0.44636215910594107,
    0.17613512511413731,
    -0.9468175798126819,
    -1.086615448284216,
    -0.6675786167454553,
    -0.4265072984478252,
    -0.9792486370582627,
    -0.7935951360520695,
    0.7009298797589341,
    -0.8995446855903922,
    -1.7017766252068307,
    -1.8768147047865196,
    1.4307945311282955,
    -1.6514309093296704,
    0.11345002796635928,
    -0.7419093342225364,
    -0.19314059726905328,
    -0.4558176423467358,
    1.3343550621317593,
    -0.0950196783305639,
    0.02687752840729666,
    1.5157043951054097,
    0.19308099106108817,
    -0.7686210043898555,
    -0.5280577346955115,
    0.553730390429175,
    1.1485902069170426,
    1.85225824953318,
    0.3097150725917261,
    -1.2943593122157564,
    2.834056154964331,
    -0.6731574758613613,
    0.6072722294570797,
    0.07607515269796174,
    1.3373889827334653,
    0.75343554446268,
    0.7205956907939192,
    -1.5017948543812556,
    0.2998418606010442,
    -1.5505520416650933,
    -0.3122195205786404,
    -2.0617642920669734,
    1.4515325526450045,
    0.839704321145755,
    0.6126853671735838,
    -1.5984128203768002,
    1.620419342654825,
    0.6499693609553467,
    -0.9343125057878314,
    -0.5895449677584211,
    0.8459058539263431,
    -2.0731714509008112,
    0.2517909060443214,
    0.08165712604397989,
    1.405499207313454,
    -0.6339738998666363,
    0.2355199238740253,
    -1.0614340324949623,
    -0.20461705445461564,
    1.2167241536908042,
    0.09098021402866392,
    0.0703175840829304,
    -1.380855465828547,
    0.9323117340168229,
    -0.49110166384219883,
    -3.207977692340013,
    1.305906865212207,
    0.2508850543978368,
    1.0810714246401238,
    0.825928215479707,
    -0.45179441895350436,
    0.16457280736278618,
    1.0660455719570894,
    -0.18239020646486537,
    1.1280277163228838,
    0.5453451606418415,
    0.07474011973755984,
    0.07756056796835335,
    1.829086856960699,
    -0.9426916720786321,
    0.23288263635841402,
    1.48350013708085,
    -1.0453520302424517,
    0.5658071838884097,
    -1.109508202865691,
    0.7663704466271893,
    1.8823637888918066,
    0.697676720989796,
    -1.6343733498128878,
    -0.4711532810264667,
    -1.4999550055294653,
    0.48400209559249807,
    1.3326108918215003,
    2.1386935264572475,
    -0.2205929901293489,
    -2.6104981548472947,
    0.200002415786241,
    0.9802054263219546,
    1.061020702031426,
    0.38199154025029713,
    -1.028362607883987,
    1.3082498126176423,
    0.3774483329665543,
    -1.3132741172327427,
    -1.212060477457676,
    -0.6444938227278175,
    1.0323930166028477,
    0.5181319158219867,
    0.4379955347685599,
    -1.4644893504876344,
    0.4117221504744084,
    0.008491638816906533,
    0.3326893142823104,
    1.2765831151584943,
    -1.2469959428442094
  ],
  "best_morphology": [
    [
      3,
      3,
      3,
      3,
      3,
      3,
      3,
      3
    ],
    [
      3,
      3,
      3,
      3,
      3,
      3,
      3,
      3
    ],
    [
      3,
      3,
      3,
      3,
      3,
      3,
      3,
      3
    ],
    [
      3,
      3,
      3,
      3,
      3,
      2,
      1,
      0
    ],
    [
      1,
      1,
      1,
      1,
      1,
      2,
      1,
      0
    ],
    [
      4,
      1,
      1,
      1,
      1,
      1,
      1,
      1
    ],
    [
      2,
      4,
      1,
      1,
      0,
      0,
      0,
      0
    ],
    [
      4,
      4,
      1,
      0,
      0,
      0,
      0,
      0
    ]
  ],
  "all_fitnesses": [
    135.95286618846637,
    0.6110856715494606,
    0.9467240287000322,
    -11.49729487263474,
    62.97874160876978,
    -1.9859819939172212,
    1.8689581451343997,
    0.5454878017255851,
    -0.5420776841757231,
    -235.44638309447646,
    -31.435457817583085,
    -0.014230128618521576,
    -17.40434653389815,
    104.59443097808827,
    -338.81794106696714,
    4.809036196649288,
    240.75094833421582,
    -0.301767130513781,
    -2.7095944271792405,
    1.1088735862295493
  ]
}