{
  "generation": 38,
  "best_fitness": 2247.9431109401808,
  "mean_fitness": 274.6183973190835,
  "best_morph_weights": [
    -2.391503229781239,
    -0.3043544598836106,
    0.37716269674446185,
    -0.9253349442606172,
    -2.0587696217880542,
    0.3842727607980639,
    2.29293099144123,
    -1.1728617840260804,
    -0.8861499534006774,
    -0.11703067289571656,
    -2.343401325785259,
    -2.9091327122884563,
    -2.425343637481134,
    -0.19685821827354488,
    -0.1900179513565466,
    -0.7601470436485096,
    -1.3867860453253082,
    0.5212129664403302,
    3.50668258397809,
    -1.7928395620604918,
    -0.45477440993613794,
    -1.81822284886721,
    -2.8381028615974895,
    -0.40390699469727986,
    0.34976753487085355,
    -0.2663247673004301,
    -1.061063837882425,
    0.29566680645636145,
    -0.610444486488977,
    -1.242559663947573,
    -1.4684996252853335,
    1.5454104868035325,
    -0.803739051437766,
    -1.6833882686447312,
    -1.322863781797212,
    1.175732557356741,
    0.9308384406031663,
    2.232819527034286,
    0.14365172422058464,
    2.6645197517532537,
    -1.4244590039536553,
    -3.1373118909123514,
    -1.3518959839434217,
    -0.48071063874277303,
    -0.7560501366020917,
    -0.20397750342587,
    1.310168952987073,
    -0.18697975141319595,
    0.0539096044455154,
    0.49176043257325275,
    0.710064652886934,
    -0.8077548451869987,
    -0.1769335728272004,
    -0.5022860822172664,
    -1.2990819638446989,
    1.1328094844482095,
    0.06511778970032722,
    0.4058508816416799,
    -0.2867827757631533,
    -0.6632044131413017,
    -0.6506994381703042,
    -1.6273554558568994,
    0.17589161826692606,
    -2.6652300787646896,
    2.9927983621051255,
    -1.0552026814448552,
    -0.3281882179552859,
    -0.02320757771071008,
    -0.061747806364159885,
    0.03589970274636933,
    1.2330300940758172,
    -0.0538210978919611,
    0.5913940538888791,
    0.647454541111202,
    -0.8403884022771861,
    0.36427709314296497,
    0.8248801454652676,
    1.9957003694965074,
    0.4360709150463351,
    -1.752403611467981,
    0.27374523009532725,
    1.960672395577709,
    1.1625099820736395,
    0.722678470309773,
    -0.5157085897659303,
    -1.00761410024779,
    -1.3431975161596852,
    1.3609932420018849,
    -0.941644672678037,
    -2.628906414047224,
    0.3165363944876094,
    0.9542482258036694,
    -0.8401114586620839,
    1.2258298033269766,
    -2.015808440231177,
    0.003101979401187477,
    1.2828019482524011,
    0.6768648317966557,
    0.4189192383310437,
    -0.14735705073947164,
    1.6485156941813335,
    1.5887624131494225,
    3.0789537320743534,
    -0.23718478237707374,
    0.7155151128844743,
    -1.4208992180467244,
    0.44384343433175766,
    -0.23317247502479654,
    -1.0440795478738845,
    1.9949651618148114,
    0.2871050323210211,
    -0.25350709611487504,
    -0.5566196447311587,
    -1.9736944205940086,
    -0.2839378775656358,
    -0.9431841256521204,
    -3.288117690538793,
    -1.0126089626039716,
    -0.2905741101138905,
    -2.1210316978491743,
    -2.138046952308268,
    0.7640444989184204,
    0.4128940899768142,
    2.8544458748634307,
    -0.1866816845409962,
    1.4718995400764017,
    -1.1815293027526617,
    0.03815969060342164,
    -1.3172394050222902,
    0.27227976469956416,
    0.167184015512551,
    -0.8655616599522596,
    0.17979039576057232,
    -2.4010295545272764,
    2.15086903270031,
    2.6465189273632332,
    1.5536073398495136,
    0.7502586539709746,
    -0.8119483093181311,
    1.2916008083407453,
    0.014808181542143672,
    0.4872246778736085,
    1.3956480991620561,
    0.3816747291845006,
    -0.07818816877205956,
    -1.2278747044045208,
    -0.8934271433688851,
    -1.2217863830515199,
    1.9959284459360789,
    1.645076644201843,
    0.9214554966907905,
    -2.021556374416461,
    -1.2958725410245875,
    0.1149827656106038,
    0.4292596524093253,
    -1.3402920132370701,
    -0.2830449511876631,
    -0.39196782448874645,
    -3.9862041001579964,
    -0.9501084252663178,
    -0.9248588258541606,
    -0.7555906305342871,
    0.8414609493601499,
    2.812197362673811,
    -1.0095225823368215,
    -0.5197940187507977,
    0.17866883980654047,
    0.4973362328422959,
    1.0485061850114943,
    -1.7378655476212728,
    0.6698163310947198,
    2.7850357050497636,
    -0.09646505193176957,
    1.3082806422405524,
    0.9938756652537047,
    2.7580868576064543,
    -1.7665624600207113,
    -0.645493257132799,
    0.5264089356326278,
    -0.5029157346443107,
    -0.9103390225555921,
    -2.995667837506791,
    0.017470215615489115,
    0.8154308418311177,
    -0.09924372136969922,
    -1.5168801778493175,
    1.8729278953617712,
    0.03768872172318573,
    0.49439051350169577,
    -0.22765294224996735,
    0.5079977578649805,
    -0.5713669234566426,
    -1.309431397747173,
    -1.5995449363473608,
    -0.6839610081454836,
    -0.018535522582259125,
    -0.5344807721458437,
    2.1064547934164124,
    -1.0160637097234662,
    -1.096593895314303,
    -1.6154033626306434,
    -0.31039965820582327,
    -0.3249474187882657,
    -0.9642355333622541,
    -0.7082047092742914,
    -0.27794927150104126,
    0.5049666539937601,
    -2.3656684864235,
    -1.1578650454080197,
    1.0597497138927046,
    0.719096855558367,
    -1.8879919677358687,
    1.3150784383670795,
    -1.4790286846518885,
    -0.9656578638787758,
    1.3489052148215963,
    -2.2462298520938826,
    -1.9254602644540437,
    1.5074372204402333,
    1.8600214146515248,
    -0.6076308869355833,
    0.3434084980374987,
    0.10243815185348004,
    0.5409533579039556,
    0.17858902638464533,
    2.2260425594262063,
    -0.21392619223574105,
    0.9884058590989456,
    0.22343953352818124,
    0.07936740045330654,
    0.6113654016998485,
    1.1014273865534505,
    0.2223541129238116,
    -0.9372505520794572,
    -1.038545041894943,
    -0.5676119938665076,
    -0.7968269641205271,
    0.8358717247841159,
    -0.7088885853335187,
    1.4661841099779278,
    1.712610964004793,
    1.6582542737355157,
    0.39098548507724495,
    2.550350833987503,
    -0.6255293551120661,
    -0.7992121300025977,
    -0.28775103612442127,
    -0.0998535952836811,
    -1.0602329816080203,
    0.6365673174616646,
    -2.1169792176405213,
    1.1546544832362151,
    -0.2790070990797424,
    0.7626445770800973,
    1.1850440588918123,
    1.0175086408631695,
    -0.6001152070399619,
    -0.34095391934367647,
    -1.3413717230312616,
    -0.3174193142127607,
    2.03892287667577,
    0.32175834944859183,
    -0.12792230467059004,
    0.5925139082001921,
    0.6932124145026886,
    2.2646531548406537,
    1.0808329223756294,
    -0.48143990040446805,
    0.4711767052142185,
    1.9135278059132066,
    0.5266102455025357,
    1.2063929339028663,
    1.194993855924345,
    -0.657370897934562,
    1.8192970920062195,
    1.6727216213624434,
    0.7852890432260972,
    -1.283126592143631,
    -0.38381649589015354,
    2.354728207321825,
    0.7801149457811382,
    0.9498774804775133,
    0.945255414503563,
    0.31312551619565043,
    0.07475398199093553,
    -0.035454647920273835,
    -0.1844151065393056,
    -0.6849027237940127,
    1.9127992473490214,
    -0.4745069196886011,
    1.9312841784538846,
    0.2917119867150594,
    0.9893124203193047,
    -0.8708752756599603,
    -1.3942000445460665,
    -1.4140407299322049,
    -0.8620550067456435,
    -0.026649780108214075,
    0.8363012341744116,
    0.4504410969480848,
    0.4746630613245194,
    -1.2682361020381818,
    -2.433846882254313,
    2.2070949557456774,
    0.538173063487405,
    -2.341057530245871,
    0.34040374333128365,
    0.05002317641230988,
    -1.2175747848686083,
    -0.4970608750007447,
    1.548281515288464,
    -1.0790677060643372,
    -0.5298543734727899,
    -1.3151446350789409,
    0.7125226382591353,
    -0.6816047161094599,
    -0.2196260664366625,
    -1.551884578618449,
    1.328039529888766,
    -0.17976993145354866,
    -0.7923843264340573,
    1.263509578148516,
    1.0373297709803018,
    0.024619578418387054,
    -0.5803267674365895,
    -1.3162887744694458,
    0.07265472925070021,
    -1.5158189495308596,
    1.0435570611467886,
    1.5606088168001042,
    -1.4275327184674018,
    1.2034961332433562,
    1.008316594559986,
    0.16207033395516712,
    1.114831656970366,
    0.5630387730341361,
    -0.2971642085194182,
    0.39042968160965724,
    -0.036688557625229434,
    -0.37973218250987506,
    1.1585563250188549,
    -0.07705686109443668,
    0.4457446485664204,
    -0.2574409182378463,
    0.9547247493577113,
    -0.3372653977701874,
    0.4680708800673025,
    -2.220312013424696,
    -0.6319901705936992,
    1.036756610612086,
    0.236206211792094,
    -0.047155239402682514,
    1.6909866924378703,
    -3.7101727047802626,
    1.6878828642820634,
    -0.08175440453930155,
    0.32114838118688877,
    0.9591584167169547,
    -0.27209518699425744,
    -0.11228368303347736,
    1.1260309036257738,
    1.0597152044539075,
    1.778671005255192,
    -0.7743578914398352,
    0.8513465547095943,
    0.22073713485523072,
    -1.404185818760775,
    1.0831340856901417,
    0.2587338218508569,
    1.1113191859840228,
    -0.6299323466291386,
    1.3134252368724635,
    -0.8556668031386403,
    -0.5201015937923945,
    0.3207500211409057,
    1.882114499716005,
    1.415456976781222,
    -1.424165236156182,
    -2.190459410661135,
    -0.6799695495899045,
    1.530352731444655,
    0.290687800309464,
    -0.9275167448126754,
    1.7369585996262145,
    -0.23182054714628847,
    0.8659322535556875,
    1.8967199102365917,
    -1.239183353214102,
    0.5729314297423572,
    -0.15575146351303565,
    1.7077964783471242,
    0.6188412958114445,
    0.32548380057337023,
    -0.33736798246386085,
    -0.02215348057468497,
    -0.079269663306543,
    1.2880256970279622,
    -1.5678703175887454,
    -1.2412480546334492,
    -1.7273515514574869,
    1.4452938117681136,
    1.0436335811060191,
    -1.3013873020845985,
    3.014368139825998,
    -1.0570382143536343,
    0.6862881237054271,
    0.6079091793517175,
    1.8229277820407326,
    -0.28069204533761,
    3.8177041047520563,
    0.8427225613658718,
    1.2784089369024145,
    1.9012410858379098,
    -0.3484733751181315,
    -0.9273043445353765,
    1.556856648344878,
    1.1604451511931675,
    0.8044541493533592,
    0.23508305902428406,
    -0.9796565062722674,
    -0.8991447296332186,
    -0.6539740893892461,
    -0.038219701267540374,
    -0.8713054635560656,
    -2.4681332165534293,
    0.3173697715638891,
    0.5606068411065375,
    -0.23994918551796468,
    1.2248178663921023,
    -0.3968242565254928,
    -0.37655972633719326,
    2.357909978020447,
    2.0503132366586243,
    0.5719015186360779,
    -1.1780617106639317,
    -0.8216763959864097,
    0.7270140471395062,
    0.07467545385375081,
    -0.6507564059733986,
    2.6270234415670606,
    -0.40000875008184694,
    -0.008738971316000765,
    1.6437971529533686,
    0.9730841033942287,
    -0.6087267107504172,
    0.3206583035814372,
    -0.8070333632808696,
    -0.5570488459204129,
    1.3906376352667151,
    -1.9006007767706359,
    -0.6129596815556224,
    -0.20401911197219563,
    -2.724899536474394
  ],
  "best_ctrl_weights": [
    0.7869362327338776,
    0.18111946448111751,
    0.22699916527059838,
    -0.4038899048240102,
    -1.7392889944006844,
    -0.3973256217732738,
    -0.06402599448600782,
    2.218705055189163,
    0.9077476595883527,
    0.26255402180501347,
    -0.3277404711312298,
    -0.7907275910125334,
    -1.6070640852068927,
    0.008473250028506026,
    -0.997784361715855,
    -1.2054615178734824,
    0.2322396945455008,
    -1.1703482802477678,
    0.3730896545518886,
    -0.3891785131262367,
    -0.7131068133523809,
    -0.7905707344164803,
    1.6047508395027905,
    -1.1592397458757047,
    0.6910019200477007,
    0.022632357117549143,
    0.5115371940434071,
    0.6312057567553137,
    1.1670648033476525,
    1.3929098869233472,
    0.03439883885171313,
    0.5732624772199311,
    0.4378833553871744,
    1.716038381416452,
    0.19454716496721636,
    0.3079776580554641,
    -2.2430559952730262,
    0.616331199177671,
    -0.03994586705160019,
    0.31075036248867877,
    0.6956177344514654,
    -0.2245298209993517,
    0.531713970412829,
    1.361179114091148,
    0.2500177659088102,
    0.5870278016406569,
    -0.5464392030647368,
    0.06164301769664016,
    0.07101511137124406,
    -0.09895632736468557,
    -0.2679429186096673,
    -0.7117369425052388,
    -0.8407307057693694,
    0.018692492597337525,
    -0.672721118241868,
    -0.15529721622557713,
    0.5742836004630527,
    -0.21416202723847577,
    -2.7881047243255503,
    0.5207951137335189,
    -1.5351663959691186,
    -0.9417010569077917,
    0.8949371442732342,
    -0.7835000856217658,
    0.2806206152998756,
    0.01806713546665928,
    -0.6003413311657094,
    1.0382403709369763,
    -1.7486001913864466,
    -1.0063127872555824,
    0.5491169050178284,
    0.7953203253382157,
    0.46290112187845783,
    -0.8309074132121472,
    0.25457947671990744,
    -0.3212375811309374,
    0.9214712546502484,
    -1.8479393907450612,
    1.0916513487921453,
    -2.506483287189279,
    1.2901890923407697,
    -0.2983965274516311,
    0.13718254512871203,
    -2.0815603240292946,
    -1.0920447318574094,
    0.759039615423645,
    -0.4393301516481355,
    0.7605993314972118,
    -2.5362099766506336,
    0.44664272754089285,
    -0.20549281734433508,
    0.09893715244258833,
    -0.30592544537856775,
    0.049755434976441915,
    1.715080335532859,
    -1.1310539191919546,
    0.8999036014000875,
    0.4620756345134848,
    -0.12140324970436434,
    0.8574612441358539,
    0.5409245569111517,
    -0.017208316519760986,
    0.01711624387800635,
    0.10545724680328394,
    -1.2654600821290336,
    0.6182957815492229,
    1.5388671890103334,
    -1.0825729509369195,
    0.9775910154571517,
    -0.4712697041006609,
    0.33678094816498094,
    -2.5906423109836108,
    -1.0387053984212924,
    0.08243278123057869,
    1.444370640262084,
    -0.4510683678227203,
    0.11510117160405847,
    -0.11351546741778057,
    -0.7838417556742151,
    -0.17902481686937477,
    -1.697401828506033,
    -2.1245478023841544,
    1.769094876109106,
    0.29415750600032026,
    -1.0834117193839892,
    0.5315479683950004,
    -0.1485805961736104,
    -1.7871620586923314,
    0.8946857416956091,
    -1.5252798542898267,
    -0.27508018017700747,
    -0.5870052902255221,
    0.4310795966519699,
    1.1066803470050752,
    -1.3931157936534915,
    -0.17793594035122764,
    0.5454266461669453,
    -2.1307108751889983,
    0.2791228958873095,
    0.4275657547942693,
    -1.9380040870245405,
    0.5737218024119712,
    2.0103262332532443,
    -0.3640649058922469,
    -0.819557630622892,
    0.2193486776292053,
    -0.0745187343312862,
    0.6246235495906596,
    -0.5936468275271756,
    1.1677355162189038,
    -0.5808899090099795,
    0.3189998584047483,
    -2.3939225112495803,
    -2.131986651313696,
    -2.077351971983878,
    -1.1902532347908328,
    -1.6715846135080699,
    0.16524827639437142,
    -0.5918008051281993,
    0.8965706271083772,
    -0.1539499090495527,
    0.6248841043125726,
    -1.0348365447678585,
    0.35976818986675224,
    1.1211551556246397,
    -1.2533914955415597,
    0.5098806247811274,
    -1.103882729984035,
    -0.2415009137979155,
    0.5982761774175672,
    0.2644835887651047,
    0.37161433183792403,
    0.673202047087372,
    1.8272162212364256,
    -0.5535066196331496,
    0.2073169832884717,
    0.034350695672495046,
    -1.1487779766616641,
    0.1796772390714169,
    -1.3729839812606026,
    -0.4603678708315457,
    1.079663342365829,
    1.6453126553538138,
    -1.6441657805261438,
    0.005751555941548803,
    2.2625391962215766,
    0.6389091840034128,
    0.4395233487048316,
    -1.9183872518388976,
    1.5460938858176614,
    1.4895037415787205,
    -0.33972717415480597,
    -0.38581011199377996,
    0.7987090841166793,
    0.7577744135089256,
    0.8321279619503041,
    -0.6366471552574272,
    -0.037499615781466544,
    0.17744372981055015,
    0.3135609462706283,
    0.49262629154544335,
    0.7329184310503114,
    -0.3238258134477877,
    0.2066888978119832,
    0.17313295959168562,
    -0.2864213210076543,
    -1.0887666967221317,
    -2.200914434601186,
    0.38053734704995645,
    -1.631250938598118,
    0.10191254071741371,
    -0.7452552661145888,
    -2.6472091384110157,
    -1.6775280883324655,
    0.5704081811265818,
    1.45565577137,
    -1.498504454632855,
    0.38604287103492924,
    0.7043289147620039,
    -0.7953314484579371,
    1.5196183052454102,
    -0.9122550905487291,
    -2.1692703674944083,
    1.4824997815432694,
    -0.6907575202147217,
    -1.007488322272333,
    0.912744406408542,
    1.4788103863921056,
    -0.8397834525410075,
    -2.045435621159584,
    0.2766669370582212,
    -1.4320796593835687,
    -4.526508804592697,
    -1.0092477151845825,
    0.7060373307004236,
    -1.445394742374269,
    -0.03392584857930886,
    1.5016294699889394,
    0.5467153636554246,
    -1.2645351548268513,
    0.815700571344535,
    0.5392958864419076,
    -2.2590475340725082,
    -1.360484290168419,
    -0.06514784888656816,
    -0.6343152114229522,
    1.2339063263504788,
    0.9224672843837044,
    -0.33307735203457034,
    0.17611235280179632,
    -0.4926267604484364,
    -0.6820079989397739,
    -1.8605112658727396,
    -0.7511741227105032,
    -0.5877994411567237,
    0.274537447970603,
    0.09694239700324753,
    -0.31757129318903377,
    0.27789171202048235,
    -2.7248875275952917,
    0.5978164513168271,
    1.4751902057442812,
    1.0479058859583807,
    -0.6662170856791219,
    -0.9761750522564945,
    0.30595492033615057,
    3.2878209251241493,
    -0.17165164578821318,
    -1.2738591963925237,
    -1.164465175373905,
    0.22382904245456536,
    1.7874296634927398,
    0.01458651174512643,
    0.750478747600104,
    1.041227211007505,
    -0.5781274717462745,
    0.6745633713283811,
    -2.786495458612947,
    -1.399037701437843,
    -1.6414114901149524,
    -1.1070295871236286,
    0.05369095118196733,
    -0.5377433739011827,
    -0.08585310191088061,
    -0.13790148975087596,
    0.5492180728632141,
    -0.6414092307457312,
    1.8654283013498305,
    -0.8598219122005899,
    0.8409790961921774,
    1.335202134826424,
    -0.7009356536679131,
    -0.3079004973971145,
    -0.0918216449026246,
    0.519142654969108,
    -0.08747830732742821,
    -0.16548493449096568,
    2.294179705032927,
    -0.280761110807824,
    1.949698767745053,
    0.5186486194335563,
    0.26291914742456923,
    0.061336008810627896,
    0.56207572590711,
    -0.2556447399761532,
    0.16510188750179394,
    -0.9468175798126819,
    -0.8471580411606309,
    -0.6237649120649221,
    -0.8072392533945291,
    -0.6006284924417781,
    -1.3353677181915669,
    1.3727509276260683,
    -1.8344587784923587,
    -1.3155557246312344,
    -0.9669233352633284,
    0.24536573694966984,
    -0.7781449696154277,
    -0.07807331642465543,
    0.13644173166227228,
    -0.5047439746297864,
    1.5931947765319312,
    2.3048782844647207,
    0.039945932161222754,
    0.9761158376190239,
    0.6488627016761956,
    0.4638405812624932,
    -0.5579061450118257,
    -1.1608552273473212,
    0.027149584664585724,
    1.7839454035497269,
    1.8758840927886355,
    0.4211562752252659,
    -1.9145380993776706,
    3.5640052367301935,
    -1.1421277665861358,
    0.977204315517141,
    -0.32196753352985386,
    2.2207339361090983,
    1.053261447317579,
    0.1801406550604835,
    -2.442148231362758,
    0.10441757835028094,
    -1.5505520416650933,
    0.24206710436829443,
    -2.186271226754984,
    1.4515325526450045,
    0.9094088466545858,
    -0.03997693314673112,
    -1.3903447469169674,
    1.0243845649184138,
    0.9158628539161173,
    -1.22113256800427,
    -0.6686885616618236,
    1.031911900583426,
    -4.715424199813294,
    0.23189431704598687,
    -0.9645381844010578,
    1.405499207313454,
    -0.6339738998666363,
    1.8721769875767853,
    -1.0267291197989008,
    -0.05366525948493428,
    0.33955776012920924,
    -0.2916016093864121,
    0.0703175840829304,
    -2.25767698250195,
    1.3688538795442255,
    -0.5569482207102081,
    -2.2598683998276194,
    1.305906865212207,
    1.5984783982685227,
    1.0810714246401238,
    0.9394176878207537,
    0.5333420106597464,
    0.281540527574471,
    0.6857457601094431,
    0.10327780849048991,
    0.7761080060841585,
    0.5841364164659987,
    0.741009071520468,
    -1.0037508694535566,
    2.398467603538367,
    -0.734670618923389,
    0.5975146324132674,
    1.0901939157340128,
    -0.7979081196549092,
    -0.3848168596575695,
    0.061936187953994304,
    -1.1638726716270196,
    0.2337296120644277,
    -0.20356920632674214,
    1.6049462676649477,
    -2.410899219104774,
    -1.551599239061455,
    1.586995284883195,
    0.77448682125778,
    2.7560971927517994,
    -0.6479947338443509,
    -1.421173342365523,
    0.15316913645017027,
    -2.036117312729988,
    1.2828189990554513,
    2.0660706763447227,
    -0.552611194798246,
    -1.3426295794474696,
    2.34846775810185,
    1.2873446344573254,
    -0.9895438717021763,
    -2.1611840320661915,
    -0.574654123577262,
    0.15538889004352363,
    1.823635524757545,
    2.3011832848323115,
    0.68984210756338,
    0.537544387657579,
    -0.4377314338257132,
    -1.835577989875356,
    -1.591574704227597
  ],
  "best_morphology": [
    [
      1,
      1,
      2,
      2,
      2,
      1,
      1,
      1
    ],
    [
      4,
      2,
      2,
      1,
      1,
      1,
      1,
      1
    ],
    [
      2,
      1,
      1,
      1,
      1,
      1,
      1,
      1
    ],
    [
      2,
      1,
      1,
      1,
      1,
      2,
      0,
      0
    ],
    [
      1,
      2,
      2,
      1,
      1,
      0,
      0,
      0
    ],
    [
      3,
      4,
      2,
      1,
      0,
      0,
      0,
      0
    ],
    [
      2,
      2,
      0,
      0,
      0,
      0,
      0,
      0
    ],
    [
      0,
      3,
      0,
      0,
      0,
      0,
      0,
      0
    ]
  ],
  "all_fitnesses": [
    2247.9431109401808,
    -595.8764173731522,
    224.40616285219528,
    101.48960289996757,
    39.61739447675035,
    1064.8492977738376,
    685.2669306752796,
    77.87104483093731,
    -328.8961062958208,
    594.4256723245799,
    87.51959229880578,
    588.3626291403391,
    -561.0727568941828,
    76.60247600957325,
    -143.58891392407062,
    -227.47565164329723,
    211.09751103628707,
    39.84171208598298,
    300.8751610127631,
    1009.1094941547137
  ]
}