{
  "generation": 3,
  "best_fitness": 124.84871386260602,
  "mean_fitness": -33.287042914429456,
  "best_morph_weights": [
    0.24637541776953784,
    -0.4241651993736047,
    0.37465851704323505,
    1.343062540567628,
    0.5553183636985576,
    -1.0687560756890417,
    1.4426898192070348,
    -0.3312132447338196,
    -1.216864762640121,
    -0.47422421008705745,
    1.166241116180554,
    -1.5995053083320732,
    1.283873355086203,
    1.1154848651497837,
    0.055044069139426596,
    -1.4206536223810646,
    -1.7712163174242557,
    -1.8870457700747556,
    0.15689623915213063,
    -1.602937451894171,
    -0.7619220470151835,
    0.8649201896597623,
    -0.0646827678985939,
    -1.1961535356426305,
    -0.4463890477684461,
    1.8050077311220378,
    -0.39384624156256665,
    0.7564302057562229,
    2.683397079273477,
    0.8987196229040373,
    0.10566537834613703,
    0.7957356397128617,
    -2.45584067557913,
    1.4795928120125417,
    0.31396205600812727,
    0.39836074264980476,
    2.8311617371255045,
    -0.23534061401152204,
    -0.8343144401882395,
    1.5905482196253227,
    1.1612824056754416,
    -0.24044472929630936,
    0.9689132113517889,
    1.8023923978576224,
    -0.6393903073026628,
    -0.5964644658399484,
    1.2092425474515036,
    -0.039492474593429173,
    1.8553267017215647,
    0.36542365194054305,
    -0.013029421645209835,
    1.0854848604905818,
    0.8683752932547983,
    -0.7985381613095862,
    2.399348392054323,
    -0.6918200769978899,
    1.9983535909596317,
    -0.20455611565257964,
    -0.22253841652533884,
    -0.2383709986456543,
    0.7976527964073334,
    -1.8934921514757697,
    0.06713557834328378,
    0.2020270177811412,
    -0.8332718862715749,
    0.04575622763130974,
    1.1859158560518919,
    -0.1483069310620664,
    -0.7653068876972148,
    -0.3028145197531306,
    0.5529078753310703,
    -0.17408494141592382,
    -0.6803363170501792,
    0.23921780093088688,
    -0.20402969976089,
    0.6851328660476491,
    0.7926446847026383,
    -1.0126507745886306,
    -0.7669960311563826,
    0.20265525682772614,
    -2.4286020066596,
    -1.0171267048838275,
    -0.1257396015447123,
    -1.211652076555103,
    0.2239444909277611,
    -1.7144108159100968,
    2.114231040659397,
    -0.0895764670708698,
    -0.9109373738255114,
    -0.011817287953992754,
    0.17261912511039282,
    0.857553257823579,
    -0.0718408446119318,
    -1.292934393627695,
    -1.5474836294075143,
    -1.1630015200591535,
    -0.20975775940466826,
    0.9081867144286331,
    -0.17237948223810426,
    -1.4836888463158397,
    -0.06909835999519923,
    0.9968735111837457,
    -1.0796142808779834,
    -0.12988467029866257,
    -0.10744483526934001,
    0.7554515156348924,
    1.0433262030449906,
    0.33890600539389165,
    -0.0990717287013878,
    -0.608420883146065,
    -0.07526639978148841,
    -1.0702297535485663,
    -1.6029575388583637,
    -0.43063242293307363,
    -2.1262905894474677,
    1.589589161631645,
    0.5045612664769931,
    0.019945779650282706,
    -1.0062445810741691,
    -1.0945093193579263,
    -1.413809772413486,
    -1.8593511130721556,
    -1.9552132156965965,
    1.2628628488914173,
    0.62830024703292,
    -0.9772523161874215,
    -1.2288912937796879,
    1.8876988850698768,
    -0.9295823114779085,
    1.6755956551956923,
    0.5085597926268748,
    0.7428386142118375,
    0.4630693378001412,
    -0.05313313388807431,
    -0.865624456981688,
    0.8120286213829097,
    -0.17778367645241497,
    0.4607218244272659,
    1.3024830564264436,
    1.0354271057151458,
    -1.0257869371991428,
    -0.03121225355935987,
    -0.7210257172098147,
    -0.2840793526792875,
    -1.7363415370380697,
    0.5309430341130299,
    0.18665934385336963,
    1.2143356734061914,
    -0.29027266425855425,
    0.1616655664330006,
    -0.5028476122878134,
    0.9486927077207441,
    1.2318254441918,
    -1.3673584316721585,
    -1.507206868467142,
    2.462982976013138,
    1.0621432105830797,
    -0.09494920801712331,
    -0.07731771709454655,
    -0.8258995094317154,
    -0.4199365268024554,
    -0.3427847817465322,
    -1.7954324013242284,
    1.0500321295166755,
    -0.7742150688659314,
    -1.4701557656248405,
    0.38709861791980876,
    0.569218236164395,
    -0.13395787515110696,
    -0.9505687533529066,
    -0.06691461706608123,
    -2.0284504465358504,
    -0.7325960898813114,
    1.8669979696398622,
    -0.5265042001498172,
    2.4864499658616586,
    0.12229089448906028,
    1.5837891564289466,
    2.5791873531055547,
    0.8565281430850578,
    -0.2937911993620114,
    0.38941268489274816,
    1.0132353935920686,
    1.4964163249892175,
    0.4478511104991879,
    0.5748839150571013,
    0.14946941914560855,
    -0.44563109711969734,
    -0.1254160496043833,
    0.9115735020001765,
    -0.26993093533598045,
    1.4584576224476546,
    0.20334916658824229,
    0.6312536420853674,
    0.04169931213127636,
    -0.30584307709596853,
    0.0695992108703283,
    0.12436554255293178,
    1.2546630017968123,
    0.4608236992462983,
    -0.2611188629818114,
    1.5385127428952516,
    -0.5803800513734493,
    0.8286543168229246,
    -1.0328416095572286,
    -1.2147117135570524,
    -1.1262865028607494,
    -0.8350254557146521,
    -0.47490606005329383,
    -1.2326263658959418,
    0.3558484044805847,
    -2.6754359548149007,
    -0.45757525889368156,
    -0.19892335684280227,
    -0.6462633311012237,
    1.6798776294524929,
    -0.9507541592617282,
    0.11277105867861718,
    0.39857187853283355,
    -1.0088886947872013,
    -1.2419882622194445,
    -0.43997605492144587,
    2.562631546456888,
    -1.2453019958053446,
    0.6040767448475738,
    0.8129992221424973,
    -1.0899417124715414,
    -0.05328011498837295,
    0.6682948037582165,
    2.4595246929690697,
    -1.0074968272895992,
    -1.0743120057541726,
    -2.385481888820661,
    0.8285555982081633,
    0.1951462592474324,
    -1.061833669523312,
    0.8272193523083925,
    -0.1720736890422865,
    -0.0020258763336697076,
    -0.042371340732165044,
    -0.047925552826108136,
    -0.8833032346375685,
    0.8735157178227312,
    0.4262090437243341,
    -1.0419289665777207,
    -0.21635670301894006,
    -0.8477285266370996,
    -0.17697972076334054,
    -0.03574439062520661,
    -0.5984035848468857,
    2.583552633180676,
    -0.22648636162853814,
    -0.8838326153621487,
    1.267328720895394,
    1.2159398413312867,
    -2.1483727718654486,
    0.45079900719627375,
    1.811088805842741,
    0.6044114681168448,
    1.028152876046865,
    -0.3371315343555988,
    -0.46183178041665385,
    -0.5422171938821274,
    -2.0447353823127172,
    -2.0081550958717447,
    -0.17327827153656067,
    -0.05042476185427181,
    -0.3564952756672035,
    0.07173351609726189,
    -1.4979195421845928,
    -1.2992203401636586,
    0.2117681541738792,
    0.9091590184354644,
    1.1820584721663407,
    -0.41917429781052074,
    -1.0283817173265297,
    2.3359487720042273,
    -1.156091407900808,
    0.45430989754083906,
    1.6912372700311125,
    0.1644559255710972,
    -1.4675098493903713,
    -0.5124631441379427,
    -0.2891337111264335,
    1.1674977390131491,
    0.4161755814782492,
    -0.16782846533724888,
    -0.9173855001907086,
    0.49605176246955457,
    1.7966708196907764,
    -0.31258121548124884,
    0.35300767231692237,
    -0.5084951840435928,
    -1.5383822749646219,
    -1.0434653953791544,
    0.4869900321617391,
    0.32256051140174474,
    0.9724006574815436,
    0.1318050960267292,
    -1.0993310235505471,
    1.2994022459901637,
    0.5064912792044896,
    -0.11796347887655675,
    0.4295691316250254,
    -0.10436870930425654,
    2.234215175180128,
    -0.28072976507213826,
    -0.37037208183618175,
    -0.8338055746711605,
    0.25204701230378335,
    -0.2967412128742886,
    -0.24612588650405004,
    1.4300598363989205,
    -1.3013869694169464,
    -0.6510372212416187,
    -0.8478103084506189,
    0.6671598631411306,
    2.1611862049921577,
    -0.5739262128994633,
    1.3316363941503508,
    -1.1726328682985512,
    0.7300607267469326,
    0.04921655423282285,
    -0.25920379203295646,
    0.018880417181692484,
    -0.40469050330689854,
    1.3234944746783732,
    -1.2173084057066084,
    0.4058506499535228,
    1.0379709894462885,
    -0.21721410865326596,
    0.5520821368565308,
    0.26524441667231985,
    -0.3660220284051282,
    0.9586696308058382,
    1.4572812085470723,
    1.3723650777332776,
    0.5432061257728709,
    0.2695614087080042,
    0.5863614235176381,
    -0.04693128180538373,
    0.8828444606805793,
    1.4491257011930299,
    -0.5728585335599912,
    -0.7245552462155904,
    -0.5467395015865155,
    0.22655997328001584,
    0.7552924125900276,
    0.7356382945165554,
    -0.8746495807034325,
    0.017202479607814517,
    1.460168264387139,
    1.4367886252629007,
    0.957148107865077,
    -0.25628769871895607,
    -2.1492117624222105,
    -1.3318599677831362,
    0.19182767547852003,
    -0.5814940301069426,
    -1.3268538469879012,
    -0.8256027110469721,
    1.6034114600608427,
    -0.610195470101758,
    0.28220032350333946,
    0.22681494674572408,
    -0.7246776115560168,
    0.7784074236580057,
    -0.0638377015792338,
    1.1695901506504305,
    -2.034264754832475,
    -1.2475529038053104,
    0.4232322748905243,
    1.9129296331622223,
    0.16962555866652534,
    -2.022006923873385,
    -0.35271347787076324,
    -1.8851951854375633,
    1.7532176268159387,
    0.5864308338790604,
    0.45303319069835135,
    0.7242172468788279,
    -0.09925082561565977,
    0.9308093155631784,
    0.15285136520971368,
    0.33904288455212556,
    1.1042974045651253,
    0.6023018818059775,
    0.2982563094264894,
    0.1396111770176418,
    -1.1822898929404293,
    -0.8697782317225606,
    0.8265609960767657,
    -1.8438911765902541,
    1.8619359346355724,
    0.12721774259587562,
    0.5005869017982828,
    0.3612423342806528,
    0.9667791581425644,
    1.4667433345940757,
    0.8359912590917082,
    -2.292150273116091,
    0.7252254471692856,
    0.33653302734456925,
    -0.29142849689604744,
    1.0119125211600295,
    0.5484719622727515,
    -1.060980112782024,
    2.2106710118924164,
    0.3946779760428495,
    0.3809303741534001,
    1.4335757576692334,
    1.3539444404120278,
    -1.811132508948208,
    1.1308137608470321,
    -1.3883090532509716,
    0.4642078272174718,
    0.11114269720379227,
    -0.5890099352336595,
    1.9578439354527089,
    1.5933122394452035,
    0.5973951866105282,
    -0.13563961434366784,
    -1.061451618072895,
    -0.3986835871446493,
    -0.38086295678396914,
    -0.8484265597748312,
    -2.1736483923536887,
    -0.08890900390027714,
    -1.0716451091002739,
    -0.07889086983365208,
    -0.8792250112447756,
    -1.2324788876391106,
    -0.5538553228863725,
    1.5605431222068722,
    -3.439934738457474,
    -0.7822209682639372,
    0.6553692080549236,
    -0.4031346661881327,
    -1.2820994634738876,
    -0.4234512856872104,
    -0.8486901671456034,
    0.6240582536517193,
    0.8158661896225138,
    0.917907274055326,
    1.1340574703305546,
    0.4272193757932051,
    0.42988324865352967,
    -0.9791433514038682,
    -1.6776037626865155,
    -0.831205774116841,
    -1.4029119794175857,
    -1.7295726974242773,
    -0.6686917615379183,
    0.006048641486292264,
    1.656647572930191,
    -1.5113675415030343,
    -1.7743060445228838,
    0.6704817900439232,
    -1.4452180640025658,
    -0.0470301340926101,
    0.5239417959845758,
    -0.9462011825823118,
    0.02343393534465739,
    1.2151308266319507,
    0.4937011713236471,
    0.7085846828952611,
    -0.12628925544902744,
    -0.8420040399278919,
    2.1859977108648265,
    -1.485516682225146,
    0.5577462603052332,
    1.1146419455387375,
    0.7035404334572612,
    -1.2408783154816163,
    1.1287479067451622,
    1.1475144953781262,
    0.14440627085890692,
    -0.5750594950658063,
    0.13519298793150059,
    0.8627918711442181,
    0.446092959418647,
    -0.01648470514569377,
    0.2245631285468142,
    -1.2289712163528042,
    -0.6899073914493653
  ],
  "best_ctrl_weights": [
    0.454395086072082,
    -0.6636402286419052,
    1.737206859495008,
    0.7837989342031014,
    -1.8153412393081274,
    -0.6348728179949433,
    -0.7259309231395177,
    -0.1368586991125645,
    -1.2545611543061383,
    -1.3236182827675933,
    0.05348798704120638,
    -0.15189267348117297,
    -0.7680502057596458,
    -1.0694402013040651,
    -1.0395382868487766,
    0.012332895243203773,
    -0.18242492059599355,
    0.08494222484959503,
    0.6986271768432264,
    -0.09061355801672544,
    0.7770782265260023,
    0.6627703879633873,
    0.7109903495319423,
    -1.6967965330986885,
    0.661993086832754,
    -0.1905845288265249,
    -0.25699582755637523,
    2.060539750321247,
    -0.9292287604682271,
    1.0801594456149413,
    -0.5654486943920028,
    -0.8271693073000039,
    1.0158906470172884,
    0.019354238752145182,
    -0.44565727074189554,
    0.4111324387642655,
    0.8510964422341718,
    -1.7472317223413998,
    -1.531821653066642,
    -0.4837170200022847,
    -1.674053753099602,
    -0.769536485322254,
    0.2712146222133935,
    -0.25554682291817205,
    0.7091150394446357,
    -2.284112984543246,
    -0.5818174667354465,
    -0.964003453190779,
    0.08161663836571163,
    -0.18827333934981746,
    0.09750027014893242,
    1.9991336810365763,
    -0.6948843067559184,
    0.5510444731731412,
    -0.6634045048346098,
    -0.06661090328590735,
    0.6818455416307854,
    -0.5219825351445952,
    0.3950213443837445,
    -0.08604664867732811,
    0.2843539516853182,
    0.7185563853741432,
    0.8156875921754506,
    0.6973016731096155,
    0.21868078474046776,
    0.4933672849746553,
    0.6681099661025608,
    -0.634683316341567,
    0.009255322220667859,
    1.8387897266005073,
    -1.0271039558582742,
    0.057689004606967464,
    0.030703836510421478,
    -0.011443875171149613,
    0.5171929153809646,
    0.615322061926107,
    -0.8091291019731984,
    0.9923650082862617,
    0.5041829352962905,
    2.713542489244121,
    -0.07733946716656388,
    0.2752291035844615,
    -0.41656118783553775,
    0.5010460343755186,
    1.1439816783059502,
    0.8284903567427249,
    -0.6002647101926234,
    0.19154889485937113,
    -1.3706947526980735,
    1.4246599517791088,
    0.9359407195272889,
    0.3652695203265028,
    -1.0938645281212929,
    -1.1611580631976584,
    -1.1167489973208802,
    0.44432781025817036,
    0.6462162294540823,
    1.9142709440349372,
    0.841147860021685,
    -0.597026976157553,
    -1.7850064318910583,
    -1.3601874933061915,
    0.34756844061584136,
    -1.1412863086472353,
    0.7978407458610269,
    1.0482986257634725,
    0.0501740115835656,
    -1.1377315270908648,
    -1.337593143327839,
    0.4379792134575057,
    0.809801288943507,
    0.5332486321878854,
    -0.37176783642472494,
    1.018480412230047,
    0.6909519566904113,
    1.2314916304472856,
    0.8923877253727367,
    0.2704053373849935,
    0.29890839157420973,
    0.5711227555468881,
    -1.1718558510601411,
    0.045602887304627956,
    -0.014784046675748704,
    1.0402217173141923,
    -0.14410302476951387,
    -0.537519362417811,
    -0.9021919380114306,
    0.37612384679990907,
    0.002001734453662062,
    0.2609722748608008,
    -0.6212803258243298,
    0.6497702361494273,
    -0.741857454802421,
    -0.6811051158760252,
    0.18366543684725206,
    1.7300014304063887,
    -1.7718102908502604,
    0.034261623757808585,
    1.3591131319878305,
    -0.6812256967756508,
    -1.24538138085669,
    -0.5029064990006895,
    -0.48143906619347376,
    -0.879178940610164,
    -1.1130994769399334,
    -0.6974700308729262,
    -2.946982323781957,
    -1.729285737105153,
    0.8304859613794411,
    -0.5162298992086032,
    -0.0661169045025833,
    1.4189796773281556,
    0.44983293208698766,
    0.3896490178606012,
    -1.6118633398486173,
    0.14524476235499598,
    -0.24789964118649893,
    -0.05222766993476108,
    0.5590058510848126,
    1.4546073354905378,
    2.5720417761322216,
    0.7629738978970916,
    0.08239682961880998,
    -0.1961257339085705,
    0.6059947591740399,
    1.9381669202010494,
    -0.17117275280116215,
    0.12922476408191758,
    0.17096467267358667,
    -0.06935930294503391,
    0.7914286643792594,
    -1.2761807988812968,
    -0.4982821012753131,
    -0.11950534051205768,
    0.39192438949661607,
    -0.6473011418889739,
    0.3661102414375626,
    1.4419054592746738,
    0.8259112547050382,
    -0.4720417068262913,
    -0.9536281408812386,
    -1.1753021778629065,
    0.5375267126841113,
    -0.4318756655362424,
    -0.7462286505503077,
    -0.18135411209949057,
    1.2675139486929343,
    -1.5224973911890436,
    1.9326391370872644,
    0.19650351290525944,
    0.6593830039956473,
    0.18485498661076188,
    0.40676404706791,
    -0.8868518548978358,
    0.3968377348947401,
    -0.566111997537569,
    -0.562694222185228,
    1.1175560971466054,
    0.5016560467308715,
    -0.017108563661730965,
    -0.7539162901430575,
    0.48291539389243143,
    -0.8991609475658993,
    2.1156920037926676,
    -0.8030140007062563,
    -0.0645414528481009,
    -0.05465715285838414,
    0.841326832811727,
    -0.31004322495962716,
    -0.6928109399938676,
    -0.031550468346737436,
    -0.5298494046523963,
    0.0531854585985493,
    -0.2192430311382798,
    0.04658966194084871,
    0.2938701023060012,
    0.8977610049491436,
    -1.8790711569319622,
    0.034730826257258124,
    -1.0590952678342882,
    0.9391813206830445,
    1.9220666440280831,
    0.9886153681951427,
    -0.7909381453103298,
    0.054723425701705894,
    -2.246276954726128,
    -2.4495933179114235,
    0.890397054804954,
    -0.36568400189979755,
    -2.710031590439652,
    0.27568914980338094,
    -0.841282275083567,
    1.0475440251502315,
    -0.02891637629178867,
    0.11621673329028866,
    -1.720650015922986,
    0.017616499242445106,
    -0.8913004988356965,
    -0.029048385741672133,
    -0.05317157233144103,
    -0.2749143614093413,
    1.154580649128085,
    0.933003168734995,
    0.22255580633008423,
    -0.33210809977055783,
    1.50552957068706,
    -1.2256570197690833,
    -0.9340510308400525,
    -0.05252259071094767,
    2.083955458456937,
    0.5457860033557651,
    0.9487151001521315,
    1.37378115878202,
    -0.4806540322204381,
    -1.24175751653467,
    0.1525698530244309,
    1.33458947983402,
    -0.7210025710728084,
    -0.9320928638570627,
    0.269756576499418,
    1.5368184728582504,
    -0.47968610744540596,
    1.3098126336450393,
    -0.7487908369010481,
    0.08687920337294502,
    0.8684194347052029,
    1.7966129640005664,
    0.0004251881156267976,
    -0.5151605919241192,
    -0.9317091994845896,
    0.023020078081086442,
    -0.09104088739742769,
    -1.3032686745514934,
    0.30224490620399175,
    -1.0503437927938057,
    -0.5501230553262665,
    0.518718314248738,
    0.8888800404382712,
    0.8046773986536535,
    -0.056285838080634025,
    0.5351109479704099,
    1.0433952760662601,
    -0.20861465604166318,
    -0.45043942698298534,
    0.9386561685411099,
    -1.4557315201556265,
    -0.661801010373377,
    -1.7057887724437846,
    -0.1697204200878852,
    1.3653881573712061,
    0.8352645902286377,
    0.17093064882774286,
    0.07234610664549888,
    -0.4889103529245208,
    0.1360543885207403,
    -2.0486756685611436,
    -0.040486662791020825,
    -0.8009467771654017,
    0.20859346293555892,
    0.6716296669662692,
    0.11325748729534202,
    -1.299962780543105,
    1.044940270649848,
    -2.0276538927072165,
    -1.7701002354428248,
    -0.5924820442822527,
    0.5224059695728241,
    -0.3543755016744007,
    0.8637205643811903,
    0.13559450785368674,
    -0.025146607669462584,
    -0.06748470790994981,
    0.2074093099245452,
    0.2246078474802563,
    -0.45953302340684,
    -1.158811516181388,
    1.5112844071414548,
    0.2623014203523173,
    0.4198222561635183,
    1.1521119217875864,
    0.20105320962164214,
    -0.43745494031050597,
    -0.9956994619798624,
    0.3774852412691978,
    0.6578670455087429,
    -0.08714030224857379,
    -0.16187855137639431,
    -0.13936214192958082,
    1.6772336587337295,
    0.5271485525356838,
    -0.6374489180848211,
    -0.7819244279747101,
    -3.0742444754179306,
    0.5292967633721756,
    -1.9124400950041847,
    2.447579095351988,
    1.1789150376452993,
    0.2246592675847575,
    -0.7704608349240474,
    -0.8293595034500095,
    -1.2508981536179815,
    0.3715070247388502,
    1.0755688703381792,
    -0.4096504912852534,
    0.1724227172591843,
    -0.6400732660128379,
    0.15314974788243202,
    0.9796748560635422,
    -0.8271529636569884,
    -0.8580538874518704,
    -1.6583173881784463,
    -0.1354982080003551,
    -0.3777639899337288,
    0.15670341629796933,
    0.14364907163228713,
    0.17302784532506088,
    0.7114041349874416,
    -1.5733966868407478,
    -0.9147807341833777,
    -0.5919335625349442,
    -0.9024287787665062,
    -0.7213822837315574,
    -0.5677670111857906,
    0.9068227979717999,
    0.329749876649598,
    -0.6873163329535115,
    0.6579127206295081,
    -1.4828797883557092,
    -1.0212789187208757,
    -0.15128418055500356,
    -0.15786293652703232,
    0.5509274659053421,
    1.3464243027519625,
    -2.118363803218084,
    0.7564345177559574,
    0.17724691329611864,
    0.5815925111906832,
    0.34140689199309066,
    -0.766615563013692,
    -1.8173388806657251,
    1.0308944389205708,
    0.41443323520477016,
    -0.34113018077857543,
    -0.08830730363611321,
    0.9093180622447593,
    0.7641716473848653,
    -0.8684855125404666,
    -0.3848811196516053,
    1.0053854316380653,
    -1.1773890542712628,
    -0.9550426873086395,
    1.7504910327560992,
    0.15657354731076012,
    -1.6708983456741497,
    0.5344541776080156,
    -1.7838974326831367,
    1.6571943530080673,
    -1.521363195877949,
    -2.352050134474137,
    1.1542287597344347,
    0.05038748852178642,
    -0.3134773089922614,
    0.6166282045471716,
    -0.7786963781797269,
    -0.5059350389582644,
    -0.9798128492269808,
    -1.8132016927243835,
    -1.3903383493862063,
    1.2493913544707953,
    -0.7499223655258289,
    -1.527305691848522,
    2.2942084338234854,
    0.5253526039397984,
    0.08860218104460668,
    0.2122960579817977,
    1.6386688802306826,
    -0.11215915565408441,
    0.8228285263405495,
    0.34061809871926135,
    -0.7922121730298688,
    0.09185459039777225,
    0.898486772062632,
    -1.3484596902330133,
    1.0158788189579073,
    2.582319147645831,
    -0.5849244831298208,
    -0.7268207761090596,
    1.0745307476900405,
    0.613619518079179,
    0.6702302200468018,
    0.4977422408134358,
    -1.6502735730744937,
    1.3513177670209202,
    1.5212118412075544,
    2.246839620644443,
    -1.253973542232101,
    -1.8884109703551264,
    -0.6353526314438133,
    -1.4356918254553346,
    -0.9714262319856625,
    0.8593187212248204,
    -1.0382225290848093,
    1.3791764657307866,
    1.8736845167287295,
    -1.0390362465501404,
    -0.8845132969155997,
    -1.0802718671756095,
    -0.7846661645891925,
    -1.504657895256046,
    0.6251654464349697,
    0.6619052168926125,
    0.34207063584988606,
    0.5694647560486226,
    0.35082480820022255,
    -1.8379111442782468,
    0.9380346343484843,
    -0.6901961918763496,
    1.1335931434847157,
    -0.062472833431212564,
    1.3610571760603114,
    1.024694947656829,
    -0.9635189236192867,
    1.2845797885193908,
    0.7032158763080743,
    1.1785733079265819,
    -1.4053013599773794,
    -1.01722683236564,
    -0.04362822013957299
  ],
  "best_morphology": [
    [
      0,
      0,
      0,
      0,
      0,
      0,
      0,
      0
    ],
    [
      0,
      0,
      0,
      0,
      0,
      0,
      0,
      0
    ],
    [
      0,
      0,
      0,
      0,
      0,
      0,
      0,
      0
    ],
    [
      0,
      0,
      0,
      0,
      0,
      0,
      0,
      0
    ],
    [
      3,
      3,
      3,
      3,
      2,
      0,
      0,
      0
    ],
    [
      3,
      3,
      3,
      3,
      2,
      1,
      1,
      0
    ],
    [
      3,
      3,
      3,
      1,
      1,
      1,
      1,
      1
    ],
    [
      3,
      3,
      1,
      1,
      1,
      1,
      1,
      1
    ]
  ],
  "all_fitnesses": [
    124.84871386260602,
    -12.355913112757094,
    14.820018498427402,
    -40.203024505215694,
    -18.048593912974752,
    -113.29560963120241,
    1.0031863950805473,
    22.146292679891985,
    -3.3758669464806985,
    -736.1314921539133,
    -1.8985024211428367,
    15.58762737370705,
    -75.36701347969108,
    118.25163046987737,
    1.9118364751381591,
    2.750769939354086,
    -34.22782409263678,
    17.23192146384247,
    -6.192889735994839,
    56.803874545495376
  ]
}