{
  "generation": 5,
  "best_fitness": 451.7105584013588,
  "mean_fitness": -36.56030613806483,
  "best_morph_weights": [
    -0.7354606084834578,
    -0.3661831846684165,
    -0.4525190879886596,
    0.7885934943785711,
    -0.04549412988461814,
    -0.448025236658638,
    -1.6496051428816014,
    0.12054098356322147,
    -0.15541423267509236,
    0.03242081098312095,
    -0.6701941850626731,
    0.3066555198591977,
    0.27514285289262214,
    -0.5228387015482691,
    0.25833304347931607,
    0.19395752602394375,
    -0.35113026519422147,
    -3.284208176275483,
    -3.0976467285132077,
    -0.014203616217470462,
    -1.393594923662125,
    -0.5558637322266775,
    2.0608338025676183,
    0.645545059442748,
    -0.0924724017743178,
    -1.2160884962541343,
    -2.5415106762848367,
    0.6026463349938543,
    1.0878732638939286,
    -1.988532188505605,
    -0.24132089058924,
    -0.6815505489935787,
    -0.798686632980416,
    0.32634160179157307,
    -1.1165694529204016,
    -1.4404548772784027,
    -1.324676751131678,
    0.7472552214480079,
    -1.768538905211907,
    -0.21248546126929765,
    -0.6839380400105387,
    0.9681425666800801,
    -0.19075064859600704,
    -0.6865979071941158,
    0.261420609868854,
    0.8590777209576264,
    0.27892588033924487,
    -0.011872713716933256,
    1.0645399246025447,
    -1.3521984421215598,
    1.2067654293246992,
    -1.207535750823388,
    1.542046326544548,
    0.44281488611387687,
    -0.040532497131392585,
    0.11166610621911677,
    -0.38531186783909654,
    -1.4494375581013677,
    1.3338880091083998,
    0.9808761634399781,
    -0.8956016374836184,
    -1.1308385222110469,
    1.492301308536189,
    -0.06565284122576756,
    -0.6508472242623905,
    0.3759281373629935,
    -0.07656907750726061,
    -1.3250722621652624,
    1.4133642018993,
    -0.18809381921298132,
    -0.571011942026358,
    -0.9438359423321917,
    1.3070614100120397,
    -0.2996827832443079,
    -0.4733807139406174,
    -0.3489996359558647,
    0.25007598833852124,
    -0.7201599335357035,
    -0.33105756533721964,
    0.8394611097712498,
    0.28313809545815427,
    -1.540498096737568,
    -0.10200991509875025,
    0.46796749378999747,
    0.5696933031248397,
    -0.08753308725267019,
    0.6760328964469028,
    1.3259246501608786,
    1.3296466658501083,
    -0.2909061017133301,
    0.2143106513221018,
    0.7254065378301933,
    2.0770662960109947,
    -1.7284672358008821,
    -1.0148975566614655,
    0.6099236567745097,
    2.116693339891821,
    1.3232390422718643,
    0.6466801782255507,
    -1.1986683779742777,
    -0.26334185986926834,
    -1.1842731909920823,
    1.037364040943787,
    0.16843842899517353,
    0.760317026586785,
    0.5401712911033913,
    0.04930451702800118,
    -1.2378142399863914,
    -0.030807478998335,
    1.1940028240578988,
    0.8244547998310824,
    -2.149392666238153,
    1.7957649480756845,
    1.1980009501705118,
    0.24900716302965614,
    -1.7489209843655145,
    0.48103729333756845,
    1.0754115813962402,
    1.6241638677086767,
    1.4662687487223462,
    0.4547879074452176,
    -1.0751466107240257,
    0.7386968251775408,
    -0.5073018707633761,
    -0.9968509660301353,
    -0.3859185422532943,
    -0.34067873289208733,
    -1.349548995427895,
    -0.6644204910796724,
    -1.2458144800088433,
    -1.7663150371154472,
    -0.3168013290769443,
    -0.8505044978498995,
    0.22973892719520245,
    -1.9763074453418743,
    1.2017525065685193,
    0.07903516933698838,
    -0.27547749525700393,
    -1.1505342455852356,
    -0.061332856524627576,
    0.47447375739332437,
    -0.7579902521280836,
    -1.881028589008722,
    -0.3403693275341146,
    0.22295816218363293,
    0.7721487639844863,
    0.6511831320262123,
    0.20150860335121007,
    -0.23201146463892855,
    0.27700416947881235,
    0.7706308573165261,
    -2.7180295310299996,
    0.7171959175701741,
    -0.9189855543314934,
    0.8259911513974235,
    1.1140519248299288,
    -3.0411896295288043,
    0.7175011516542518,
    -0.1031179563362308,
    -1.5141323234596238,
    0.8282313202008853,
    -1.3430140468297447,
    -0.9247322624823326,
    -1.4520419227035384,
    -1.087154968322461,
    0.7129809249937911,
    -0.9233585760510008,
    -0.5999721989875321,
    0.03648569415467359,
    -0.2732534597944526,
    -0.650047327437101,
    0.8893635798928965,
    1.9243450441125332,
    -1.3747329181891397,
    0.551680768165557,
    -1.8566575719681797,
    -0.4684560759952375,
    0.39640122902958136,
    2.826455478405533,
    0.45407939971975836,
    -1.265572822633253,
    0.9970416352480629,
    0.43386239898506235,
    -0.7046903729759784,
    0.5077357841067404,
    -1.3348409871701388,
    2.1937494970780445,
    0.666853950141304,
    -0.177126034970059,
    0.2079424917382737,
    -0.6246314419495806,
    0.3443145984677321,
    -0.6480421681221656,
    -2.2848514415010936,
    -0.6340193404989556,
    -0.7200882756821296,
    -0.1547973167966285,
    1.2500613785491106,
    -0.37371410052146364,
    1.5586270062520944,
    -0.17889298742433665,
    0.7016777369628988,
    1.1678889616416734,
    -0.3102857053725688,
    -1.4549610288427381,
    -0.5546984311548968,
    1.1597994565646008,
    0.4665182486764234,
    1.2116130046570859,
    0.9472424909554017,
    -0.14530429720727564,
    0.5038829392734567,
    1.3092762477636968,
    1.441514541826922,
    -0.594272848668348,
    -0.6215217853589988,
    0.03761950062539639,
    -0.33570115545828544,
    -0.8279345099554546,
    1.1700912075053724,
    -1.1959930021161989,
    -0.9111948684252884,
    -1.99111216009201,
    -0.610800588993027,
    0.5179609636001204,
    1.2125499702338849,
    -1.120800851543271,
    0.017698393745319785,
    0.7527924376410294,
    -0.11031749047680452,
    -0.09574026019916586,
    -2.2571860564733695,
    -0.05347897317222189,
    -2.3841346617316934,
    -0.9257200856137928,
    -0.26917107605027946,
    -1.5631727439327197,
    1.7185226193405454,
    0.2998275610207271,
    -1.3742705528012829,
    0.04661709012636738,
    2.1917883587016553,
    -0.20638898261195285,
    0.49824328812963325,
    -1.1668138999437123,
    0.20332615831675804,
    -0.08263697493544239,
    2.086687601167732,
    0.652988986379994,
    1.8809227235940458,
    1.1460535907341376,
    0.4417810549897869,
    1.7488811866296672,
    -0.969643835769969,
    1.013521609073015,
    -1.5092439726282756,
    -0.9939871941703956,
    -1.2577221116264306,
    0.5039433342262583,
    -1.8710313759462267,
    -1.5565266592042806,
    1.4865069307712038,
    -0.5135510101134666,
    -0.48964255371663995,
    -1.8483868310537683,
    -0.2626518810559908,
    -1.133276569643509,
    0.18195368962334074,
    0.7986850638000469,
    0.5438752370370957,
    0.38224970218345383,
    1.9242753124136116,
    -0.9727227299847889,
    0.025484499649010974,
    0.5300419950805295,
    -0.6869239337271067,
    -1.9680610284498834,
    -0.3633572818769397,
    -0.2539530868647595,
    -0.08372265607397852,
    0.30971380171436375,
    2.6292477372627654,
    0.42334105914324816,
    0.12362226833658807,
    0.31382315569022146,
    -0.5487157776033207,
    -0.21201471762183546,
    -0.019607495215128896,
    -0.2586202893562308,
    -0.45864364122079154,
    -0.654401946216064,
    -0.7840374768596027,
    -0.6190349062307808,
    -1.0096378678163662,
    -0.7125715538690711,
    1.0743333805109194,
    1.8093701391893429,
    0.7487453427036356,
    -0.8766831295693659,
    0.2074204136022409,
    2.8632196730331594,
    -0.8236188459649849,
    0.04842751311021642,
    0.4568063383485416,
    -2.3348561742033898,
    -1.4229317714574832,
    -1.1923631051829637,
    -0.6507531734407889,
    0.46638705261949087,
    -0.6579805308327289,
    0.2576771499101652,
    1.1294543230361596,
    0.5014575008633939,
    0.15724855721076966,
    -0.8058870349960767,
    0.3233788235101597,
    -1.605704210177927,
    -1.4190780742709501,
    -0.07621785250735245,
    0.7733815537345782,
    -0.6684884597968026,
    0.5119964838364752,
    -0.40233237019941914,
    0.8384119800092327,
    0.15086402589150916,
    -0.40469050330689854,
    1.3234944746783732,
    -1.2173084057066084,
    0.4058506499535228,
    1.0379709894462885,
    -0.21721410865326596,
    0.03796499959080135,
    0.26524441667231985,
    -0.41953378638901506,
    0.9586696308058382,
    1.4572812085470723,
    1.3723650777332776,
    0.5025660305127552,
    0.2695614087080042,
    0.5863614235176381,
    -0.04693128180538373,
    0.8828444606805793,
    1.4491257011930299,
    -0.5728585335599912,
    -0.7245552462155904,
    -1.3058922150774055,
    0.22655997328001584,
    0.7108207893106904,
    0.9201859046952758,
    -0.8746495807034325,
    0.017202479607814517,
    1.460168264387139,
    1.4367886252629007,
    0.957148107865077,
    -0.25628769871895607,
    -2.3763433529377513,
    -1.3318599677831362,
    0.19182767547852003,
    -0.5814940301069426,
    -1.3268538469879012,
    -0.8256027110469721,
    1.6034114600608427,
    -1.3398400969025848,
    -0.4198894116500864,
    0.22681494674572408,
    -0.7246776115560168,
    2.0748304091912493,
    -0.7446452899022235,
    1.1695901506504305,
    -1.5034908779015823,
    -1.2475529038053104,
    0.4232322748905243,
    1.9129296331622223,
    0.16962555866652534,
    -2.022006923873385,
    -0.9196219856418295,
    -1.8851951854375633,
    1.7532176268159387,
    0.5093300150017203,
    -0.14092413612856522,
    0.7242172468788279,
    -0.09925082561565977,
    0.9308093155631784,
    0.18715720579215545,
    0.5736970815522051,
    1.1042974045651253,
    0.6141615651499309,
    0.2982563094264894,
    -0.34387593920726545,
    -2.0687464315357373,
    -0.6234895048785272,
    0.7748949965712696,
    -1.8438911765902541,
    1.831778714418045,
    1.0332249214261515,
    0.5005869017982828,
    0.3612423342806528,
    0.9667791581425644,
    0.9836052688005538,
    0.8359912590917082,
    -2.292150273116091,
    0.7252254471692856,
    0.3438650209726879,
    -0.31887180080249333,
    1.4260343114082306,
    0.5484719622727515,
    -1.060980112782024,
    2.2106710118924164,
    -0.13894337553126912,
    0.3809303741534001,
    0.6538053434129025,
    0.9871647759895064,
    -1.9263729219167676,
    1.1308137608470321,
    -0.3647015984155517,
    0.4025197248367977,
    0.6101159266746744,
    -0.5890099352336595,
    1.4630900575415726,
    0.7996296915658613,
    0.5973951866105282,
    -0.13563961434366784,
    -1.061451618072895,
    -0.21404441959825382,
    -0.5066690507841567,
    -0.8484265597748312,
    -2.1736483923536887,
    -0.4246072538886424,
    -1.3785115183890306,
    -0.07889086983365208,
    -0.8792250112447756,
    -1.1630723670803276,
    -0.5538553228863725,
    0.9358512967907808,
    -3.439934738457474,
    -1.0536045016560405,
    0.6553692080549236,
    -0.4031346661881327,
    -1.2820994634738876,
    0.2968440816450833,
    -0.8486901671456034,
    1.1753227485481872,
    0.8158661896225138,
    0.917907274055326,
    1.1340574703305546,
    0.23549087097932359,
    0.42988324865352967,
    -0.9791433514038682,
    -1.6776037626865155,
    -0.8797374717935411,
    -1.0391762447819624,
    -1.7295726974242773,
    -0.6686917615379183,
    0.027609566288068505,
    1.656647572930191,
    -1.5113675415030343,
    -1.9139987512965186,
    1.1907290290221162,
    -1.4452180640025658,
    0.2857409742463285,
    0.5239417959845758,
    -1.0480276444602414,
    -0.4334447831338048,
    1.3907499990709131,
    0.4937011713236471,
    0.7085846828952611,
    -1.395867528182091,
    -0.8420040399278919,
    2.4052120889189363,
    -1.485516682225146,
    0.5577462603052332,
    1.1146419455387375,
    0.7035404334572612,
    -0.6171651064864273,
    0.7784231357129519,
    1.1475144953781262,
    0.14440627085890692,
    -0.5750594950658063,
    -0.5235995557574402,
    0.8627918711442181,
    0.446092959418647,
    1.090232220494483,
    0.2245631285468142,
    -1.2289712163528042,
    -0.6899073914493653
  ],
  "best_ctrl_weights": [
    0.454395086072082,
    -0.6636402286419052,
    2.0827593894448664,
    0.7837989342031014,
    -1.8153412393081274,
    -0.5300397414298867,
    -0.7259309231395177,
    -0.1368586991125645,
    -1.2545611543061383,
    -1.5422946526829224,
    0.05348798704120638,
    -0.15189267348117297,
    -0.3592097896083105,
    -0.6267152603316569,
    -1.0395382868487766,
    -0.41403570371542747,
    -0.18242492059599355,
    0.08494222484959503,
    0.6986271768432264,
    -0.09061355801672544,
    0.7944808944162384,
    0.26539790548264847,
    1.5319483876791773,
    -1.5974971623862306,
    0.661993086832754,
    -0.1905845288265249,
    0.16703103899791605,
    2.060539750321247,
    -0.9292287604682271,
    1.0801594456149413,
    -0.5654486943920028,
    -1.481553379765352,
    0.2545228541859883,
    0.4427706989241918,
    -0.44565727074189554,
    0.4111324387642655,
    0.12130609628449895,
    -1.1451920871724828,
    -1.531821653066642,
    -1.1008980207324897,
    -1.674053753099602,
    -0.769536485322254,
    0.2712146222133935,
    -0.25554682291817205,
    0.7091150394446357,
    -1.904807477976572,
    -0.5818174667354465,
    -0.8854517189523147,
    0.08161663836571163,
    -0.18827333934981746,
    0.09750027014893242,
    1.9991336810365763,
    -0.6948843067559184,
    0.37959456575741496,
    -1.1893780815743442,
    -0.18204499859765105,
    0.6648228244580173,
    -0.5219825351445952,
    0.3950213443837445,
    -0.08604664867732811,
    0.2843539516853182,
    0.7185563853741432,
    1.4973563843072548,
    0.6973016731096155,
    0.21868078474046776,
    0.4933672849746553,
    0.6681099661025608,
    -1.053856742451512,
    0.20466184446024174,
    1.8387897266005073,
    -1.0271039558582742,
    0.6987419156315628,
    0.030703836510421478,
    -0.011443875171149613,
    0.5171929153809646,
    0.615322061926107,
    -0.8091291019731984,
    2.3474631955010405,
    0.5041829352962905,
    2.713542489244121,
    -0.0671215165075,
    0.2752291035844615,
    -0.41656118783553775,
    0.47931909550365454,
    1.1439816783059502,
    1.5699722843093582,
    -0.9667967139627186,
    0.19154889485937113,
    -1.3706947526980735,
    1.7189119781267128,
    -0.13068824575803784,
    0.3652695203265028,
    -0.8475644148510274,
    -0.5660020190020917,
    -1.0798886224063937,
    0.8588720396579125,
    0.6462162294540823,
    1.5515350928874903,
    0.841147860021685,
    -0.597026976157553,
    -2.175018167183735,
    -1.4531822897719835,
    0.34756844061584136,
    -1.1412863086472353,
    0.6401333987502368,
    1.0482986257634725,
    0.0501740115835656,
    -1.1377315270908648,
    -1.117126069712783,
    0.4379792134575057,
    0.809801288943507,
    0.3746560512693248,
    -0.37176783642472494,
    1.018480412230047,
    0.6909519566904113,
    0.5780220307472822,
    0.7739035104115038,
    0.08635883051392748,
    0.29890839157420973,
    0.923525289560843,
    -0.10960471441600395,
    0.045602887304627956,
    -0.014784046675748704,
    0.5518906741886196,
    -0.14410302476951387,
    -1.1488216227115986,
    -0.7024071631652226,
    0.37612384679990907,
    1.228803969014891,
    0.2609722748608008,
    -1.2463481541949433,
    0.6497702361494273,
    -0.741857454802421,
    -1.6701933600615249,
    0.5582734033229368,
    1.7300014304063887,
    -1.980521635512059,
    0.2406933417320699,
    1.3591131319878305,
    -0.505834193479187,
    -1.24538138085669,
    -0.5029064990006895,
    0.3240581731169777,
    -0.4973218652887342,
    -1.9629008346043528,
    -1.4886932333678544,
    -3.532005321214125,
    -2.08041987321157,
    0.6203674881210532,
    -0.5162298992086032,
    -0.0661169045025833,
    1.4189796773281556,
    0.44983293208698766,
    0.49951448452534364,
    -1.4875402570875351,
    0.14524476235499598,
    -0.24789964118649893,
    -0.05222766993476108,
    0.5590058510848126,
    1.4546073354905378,
    2.466495116938677,
    0.7629738978970916,
    1.6479497726495524,
    -0.1961257339085705,
    0.6059947591740399,
    1.9381669202010494,
    0.5928185165480967,
    0.12922476408191758,
    -0.3037878783199915,
    -0.06935930294503391,
    0.7472990465273497,
    -1.2761807988812968,
    -0.4982821012753131,
    -0.11950534051205768,
    0.39192438949661607,
    -0.6473011418889739,
    0.3661102414375626,
    1.4419054592746738,
    0.8481447707698716,
    -0.8011847117192658,
    -0.9536281408812386,
    -1.1753021778629065,
    0.5375267126841113,
    0.10981905490948106,
    -0.7462286505503077,
    -0.18135411209949057,
    1.2675139486929343,
    -1.5224973911890436,
    1.9326391370872644,
    0.19650351290525944,
    0.6593830039956473,
    0.18485498661076188,
    0.40676404706791,
    -1.1495976274821857,
    0.3968377348947401,
    -0.566111997537569,
    -0.562694222185228,
    1.1175560971466054,
    0.5016560467308715,
    -0.017108563661730965,
    -0.7539162901430575,
    0.48291539389243143,
    -0.8991609475658993,
    2.1156920037926676,
    -0.8007611263622006,
    -0.0645414528481009,
    -0.058165391000634496,
    0.841326832811727,
    -0.3399819967465461,
    -0.6928109399938676,
    -0.031550468346737436,
    -0.5298494046523963,
    0.0531854585985493,
    -0.2192430311382798,
    0.04658966194084871,
    1.2460233112492554,
    0.7341088957429048,
    -1.8790711569319622,
    0.034730826257258124,
    -0.4185956563781286,
    0.4952226348602632,
    1.9220666440280831,
    0.9886153681951427,
    -0.7909381453103298,
    0.054723425701705894,
    -2.246276954726128,
    -2.4495933179114235,
    1.3387016721572422,
    -0.36568400189979755,
    -3.0844559345175178,
    -0.026776270731472818,
    -0.841282275083567,
    1.1732979419754015,
    -0.02891637629178867,
    0.11621673329028866,
    -1.2791884333096182,
    0.017616499242445106,
    -0.8913004988356965,
    -0.5863044015858888,
    0.9814144860962131,
    -0.2749143614093413,
    1.154580649128085,
    0.933003168734995,
    0.6882013589465646,
    -0.33210809977055783,
    1.50552957068706,
    0.2718851545524536,
    -0.9340510308400525,
    0.535251077009639,
    1.4129928722814444,
    0.5457860033557651,
    1.3084270398625468,
    1.541788705983484,
    -0.4806540322204381,
    -1.24175751653467,
    0.1525698530244309,
    1.33458947983402,
    -0.7210025710728084,
    -0.9499617043595846,
    0.269756576499418,
    1.0879676968761611,
    -0.47968610744540596,
    1.5325425950592308,
    -0.7487908369010481,
    0.3601169730529752,
    0.8684194347052029,
    2.178696045427463,
    0.05340990240274917,
    -0.2826419037778446,
    -0.9317091994845896,
    0.2745766917718421,
    -0.04814929737094733,
    -1.3032686745514934,
    0.30224490620399175,
    -1.0503437927938057,
    -0.5501230553262665,
    0.7145867995780635,
    1.0767361818102819,
    0.8046773986536535,
    -0.056285838080634025,
    0.5351109479704099,
    1.0433952760662601,
    -0.20861465604166318,
    0.21294350524967032,
    0.66389976547117,
    -0.8237441812849164,
    -0.661801010373377,
    -2.1168079254353915,
    -0.9064006278977252,
    1.3653881573712061,
    0.8564886659363555,
    0.17093064882774286,
    -0.11274372906671033,
    -0.35663946430621013,
    0.1360543885207403,
    -2.0486756685611436,
    -0.5976899832205155,
    -0.8009467771654017,
    0.20859346293555892,
    0.6716296669662692,
    0.11325748729534202,
    -2.600154288394158,
    1.044940270649848,
    -2.0276538927072165,
    -1.7701002354428248,
    -0.5924820442822527,
    0.9147243804366614,
    -0.15560473814044604,
    1.0224558566070714,
    1.5938860802927235,
    -0.19683508130690514,
    0.40769619867775725,
    0.5019166600871792,
    0.2246078474802563,
    -0.45953302340684,
    -1.1864702341100586,
    1.5112844071414548,
    0.38899610519977046,
    -0.21202559890370976,
    1.446977205738417,
    -0.36650602472659216,
    -0.43745494031050597,
    -0.9956994619798624,
    0.30461659139338704,
    0.046508051279095304,
    -0.41226065260956674,
    -0.16187855137639431,
    -0.8898884941201789,
    1.7870366242287168,
    0.24370962791462467,
    -0.6657677371856692,
    0.036675770244871654,
    -3.0742444754179306,
    0.5292967633721756,
    -1.9124400950041847,
    2.183859891754511,
    0.4983675722291795,
    0.2246592675847575,
    -1.0722226958082757,
    -0.8293595034500095,
    -1.2508981536179815,
    0.3715070247388502,
    1.0755688703381792,
    -0.8578366265691345,
    0.08435073461593905,
    -0.14267567098256217,
    0.22975090905501808,
    0.38555241516128924,
    -0.8271529636569884,
    -0.19408186649136144,
    -1.388286508536536,
    -0.1354982080003551,
    -0.3777639899337288,
    0.15670341629796933,
    0.20075316856010986,
    0.563875487117863,
    0.7114041349874416,
    -1.5733966868407478,
    -0.9147807341833777,
    -0.5919335625349442,
    -0.9024287787665062,
    -0.7213822837315574,
    -0.18741575971599606,
    0.8651289708411166,
    0.329749876649598,
    0.1678880650002179,
    0.6579127206295081,
    -1.4828797883557092,
    -1.0212789187208757,
    -0.15128418055500356,
    -0.6293902460318515,
    0.4901579182311367,
    1.3464243027519625,
    -2.118363803218084,
    0.04577627905790582,
    -0.060281878326373425,
    1.0325104970401515,
    0.34140689199309066,
    -1.0373920348210741,
    -1.8173388806657251,
    1.0308944389205708,
    0.41443323520477016,
    -1.1121810422932397,
    -0.08830730363611321,
    0.9093180622447593,
    0.7641716473848653,
    -1.651316163343754,
    -0.3848811196516053,
    1.0053854316380653,
    -1.1773890542712628,
    -0.9550426873086395,
    1.7504910327560992,
    0.32285645452288636,
    -1.6708983456741497,
    0.5344541776080156,
    -1.732790894071264,
    1.962584760411579,
    -3.1352899042423235,
    -2.645411020150899,
    1.1542287597344347,
    0.05038748852178642,
    -0.4231541156565636,
    0.6166282045471716,
    -0.21181163147070137,
    -1.1854303598200033,
    -0.9798128492269808,
    -1.8132016927243835,
    -1.4840310850473935,
    1.2493913544707953,
    -0.7499223655258289,
    -1.207434366148702,
    2.2942084338234854,
    0.5253526039397984,
    0.08860218104460668,
    0.2122960579817977,
    0.796585494676837,
    -0.48652329343227413,
    0.8228285263405495,
    -0.6144304623910422,
    -1.2449095987709438,
    0.09185459039777225,
    0.898486772062632,
    -0.5363535209351223,
    1.0158788189579073,
    2.582319147645831,
    -0.5849244831298208,
    -0.7268207761090596,
    1.0745307476900405,
    0.613619518079179,
    0.6702302200468018,
    0.3383411699433725,
    -1.6502735730744937,
    1.3513177670209202,
    1.5212118412075544,
    3.1619044491109976,
    -1.253973542232101,
    -2.2525118926761114,
    -0.6353526314438133,
    -1.4356918254553346,
    -1.0013817896666939,
    1.8514210777412718,
    -1.5739931187836125,
    1.3791764657307866,
    1.8736845167287295,
    -1.0390362465501404,
    -1.3455171180541163,
    -1.0802718671756095,
    -0.7846661645891925,
    -2.0068833460252096,
    0.642080586694624,
    0.6619052168926125,
    -0.5106126138844025,
    1.7854399863506754,
    0.35082480820022255,
    -1.6611254911500142,
    0.9380346343484843,
    -0.6249777345320651,
    1.1335931434847157,
    -0.062472833431212564,
    1.3610571760603114,
    1.024694947656829,
    -0.9635189236192867,
    1.950170905100555,
    0.38348392116160906,
    1.1785733079265819,
    -1.4053013599773794,
    -0.21809912247602298,
    1.3219306441804393
  ],
  "best_morphology": [
    [
      2,
      2,
      2,
      2,
      2,
      2,
      0,
      0
    ],
    [
      2,
      2,
      2,
      2,
      2,
      2,
      2,
      2
    ],
    [
      2,
      2,
      2,
      2,
      2,
      2,
      2,
      0
    ],
    [
      2,
      2,
      2,
      2,
      2,
      0,
      0,
      0
    ],
    [
      2,
      2,
      2,
      2,
      0,
      0,
      0,
      0
    ],
    [
      2,
      2,
      2,
      2,
      2,
      0,
      0,
      0
    ],
    [
      2,
      2,
      2,
      2,
      2,
      0,
      0,
      0
    ],
    [
      2,
      2,
      2,
      4,
      0,
      0,
      0,
      0
    ]
  ],
  "all_fitnesses": [
    146.3539108369327,
    9.047094678984251,
    92.59558763967809,
    451.7105584013588,
    -4.227440564786434,
    -162.4119544291213,
    -107.7271533475215,
    -0.3592804336041695,
    14.732104880155646,
    -6.288695924995409,
    -146.654180509949,
    1.8614311154033203,
    -0.8824376106289549,
    -0.37725316566940137,
    -176.34523639376195,
    1.3341712348129136,
    6.71939702030204,
    6.753254358607023,
    6.264669768899296,
    -863.3046703163925
  ]
}