{
  "generation": 1,
  "best_fitness": 45.56070071894078,
  "mean_fitness": -4.541044001981421,
  "best_morph_weights": [
    -0.0014400872136852687,
    -0.7563232842322701,
    -1.2354051940225117,
    -0.0335529830475566,
    1.059224030078718,
    0.03439858184053635,
    -0.6668776233606705,
    1.00064480022617,
    -0.5640979066254727,
    0.6133776953245625,
    1.1519083293764938,
    0.3899977372846922,
    2.157663230998532,
    -0.2964328636800876,
    0.7765660683723363,
    -0.4527308968876972,
    -1.040383501850019,
    -1.0706064787063396,
    -0.02845982718102959,
    -0.42463319823881723,
    -1.1460782631000557,
    0.13188219606695603,
    0.3382393979252197,
    0.20203434338134932,
    0.0799349735017133,
    -1.4762770349592873,
    0.8074914553489806,
    -1.1006314232418908,
    0.4907322391242051,
    -2.569337835749394,
    0.49182598063536737,
    -0.9061965475763482,
    -0.5634232858655646,
    -0.7567999119999932,
    0.6085839790711637,
    -0.897472519613686,
    -0.006920110580450942,
    -2.018692322338645,
    -1.2642026170100622,
    0.3692863731056121,
    -0.7281713427470927,
    1.0390051493854537,
    0.20610946256776375,
    -0.3656941778882009,
    0.8321285067055731,
    1.2251306804770214,
    -0.8025146575921013,
    1.533988229812165,
    0.2736969394099255,
    1.1030354696920335,
    0.3550485536965334,
    -1.0103149199387857,
    1.3406075554258157,
    0.12890180128234033,
    -0.5885258551133793,
    -1.3334862139331238,
    1.0163463258596959,
    -1.596335534255584,
    0.3086969406963837,
    -0.06859415815940618,
    0.7527141512592944,
    -0.909070170760332,
    -0.29344646799709734,
    -0.4193253569455981,
    -1.0904818904120193,
    0.5962798113464152,
    -2.493469760064677,
    0.1172903322046125,
    0.9236454220424346,
    0.3197305041608945,
    0.9880551754253737,
    -0.6376515877868811,
    -1.3408542857757202,
    -0.7913282430688505,
    0.8255555851274676,
    0.3525645677359388,
    0.8826884845673801,
    -1.3778532877027292,
    0.20286463812668568,
    2.31820862801732,
    -1.5875809099890208,
    0.03962712409729873,
    2.1036113125846536,
    1.4859736044776983,
    -0.8737397121312641,
    0.2597196795290457,
    0.9167435933178977,
    -0.626554716013318,
    0.6251662610831238,
    -0.30635185313690205,
    0.03131488675705815,
    1.2827238189564196,
    -0.005336561469013178,
    -1.2618784521548183,
    -1.2187606625438023,
    -0.9311169071583439,
    -0.3222108919563386,
    -1.1541454284611437,
    0.7392949492202469,
    1.4629797113963512,
    1.4190326199453984,
    -1.317804342010622,
    0.7043651091665695,
    -1.3409651386825294,
    -1.7908741403951594,
    0.8226780701137576,
    1.2240187855413227,
    -0.28102883177894505,
    1.0934907300375853,
    -1.2453322697685414,
    0.2810576692704855,
    0.04172510919504285,
    -2.102939773391788,
    -0.47869329081537554,
    0.09625049950855345,
    -0.4105968079769026,
    -1.4342765681588165,
    -1.6431715402192926,
    -0.36777042313498787,
    0.07055733450220486,
    -0.5697421278310293,
    -0.178341603835963,
    0.6118152037038641,
    -0.2998833721563161,
    -0.958749319387172,
    1.390747846304707,
    -2.8006383917247404,
    -0.4343340643636334,
    -0.4768922821280973,
    0.4900645091799462,
    1.4283724661762678,
    -0.7008237255831515,
    0.790209986990416,
    0.11755168020191718,
    0.033608513831257084,
    -0.3653924935792674,
    0.3668092112529516,
    1.6688193100481488,
    0.9673102205827308,
    0.5193948566278781,
    -0.14525632273213906,
    0.025349855877618024,
    1.3567613013214486,
    -0.5593181621545252,
    1.2661223387555653,
    -0.5642218025329312,
    2.0324200473303184,
    -0.700799300083902,
    -0.4213620374082387,
    0.26326787415111436,
    -0.5700184605526221,
    -1.0371616374303614,
    -0.03549432249201348,
    -0.2767595350911789,
    0.14349510408581706,
    0.8820257607376055,
    1.4254818204205588,
    -0.5772983405600318,
    -0.8383741784023411,
    1.5713293259996866,
    0.534540964321747,
    -0.5243264945274483,
    0.3605977581337792,
    0.6917511841116288,
    -1.371488659753139,
    1.8797560715410535,
    -0.83321986566377,
    0.5853293604413617,
    0.6141171476543867,
    2.316099321942908,
    1.530880934685425,
    -0.3858316288430613,
    -0.598483255865986,
    -1.3855239509577217,
    0.0483387128542906,
    1.683734037218812,
    0.3953161863694201,
    -0.22928827543787503,
    -0.966634601631159,
    1.883681394585378,
    1.7350469659013046,
    -0.9927031171307329,
    -0.832816820846847,
    -0.5928812749216169,
    0.9391977466621807,
    -1.3725604386837937,
    1.800200611403055,
    0.8514637767917369,
    -1.5324274589809568,
    -0.07085869767049076,
    1.1275586175777936,
    0.6447488557026224,
    0.4797642329028,
    -0.13406155877445625,
    0.9254374971634255,
    1.0311948124911028,
    -1.237696745783582,
    0.7227377526021246,
    -0.8440506292708522,
    -0.323752726204336,
    2.426956915913202,
    0.8706746911931157,
    -1.9818858104235315,
    1.37335634607582,
    -0.6349476655765275,
    -0.12163896056699389,
    -0.9639774797759274,
    -0.6851673828035489,
    0.46833040363351575,
    0.8726772181830736,
    0.5250634196806565,
    0.5665368694837764,
    0.8234811130739379,
    0.2812612861878567,
    0.5959100569240883,
    -0.26050015400754173,
    -0.2088030737922805,
    0.6417411418692516,
    -0.49840666752771334,
    2.706303317673762,
    -0.17773943286096958,
    0.8494078754370061,
    -0.20960438561647451,
    -1.013427989776324,
    1.1574633915349495,
    1.0900655591158173,
    -0.864471228476472,
    1.0950361475404995,
    -0.6306515680456106,
    1.8511672667130228,
    -0.9574153291004455,
    -0.6600086063523607,
    1.0554325709635448,
    -0.6794139027814107,
    -0.8034512133449974,
    1.3973800999818526,
    -1.3743778325589986,
    0.8245265618736682,
    1.5849498661905308,
    -0.96414130791025,
    -0.11211148349686618,
    0.8133052429899011,
    0.6858168629137629,
    0.5699326760621007,
    0.2358687559312376,
    1.4137657050170709,
    1.0361113360613603,
    0.882230620109734,
    -0.8504468074738979,
    -0.7618550812137729,
    1.480147070623425,
    1.0298606791114022,
    0.20554859759161373,
    -0.3462423841280549,
    0.6254732500801046,
    -0.5796515910455432,
    0.8719017794041203,
    0.21668723692343406,
    -0.14128139900211967,
    -0.26520447567735833,
    2.4473779196753664,
    -0.9935479114330577,
    0.41006307129139247,
    0.8614243315318059,
    -0.45933157880234093,
    1.2764784341076174,
    -0.16913169358989932,
    -0.12041148304201185,
    0.5045291492616597,
    -0.3918804985682458,
    0.5806069323719449,
    -0.2474946515673827,
    1.6910169252248268,
    -1.4090339161171639,
    0.13306872840168565,
    0.33616676368593323,
    0.5602914172269506,
    -0.9632332677268168,
    -0.3925986110237889,
    0.7498608294064605,
    0.9045863318974456,
    0.7435534307139118,
    2.002354880218428,
    1.5640522453487884,
    0.21819167124941077,
    0.8517395173168767,
    1.4821143549867626,
    0.24337100321021993,
    1.359079086119114,
    -0.905507021751692,
    1.061943892760161,
    -1.519680160911735,
    0.8437437863128768,
    0.8240228416149553,
    0.7783290166071087,
    0.8095890624564035,
    0.24949546149513763,
    -0.08688301380048748,
    -1.143987966693751,
    0.5750748322433143,
    -0.765024853127014,
    0.5251222671578665,
    0.48915859739072365,
    -1.382197112753679,
    0.0467701809958853,
    0.2018646070851504,
    -0.4248302117935887,
    -0.8036706581071736,
    0.0481623366690963,
    -0.7577744263253787,
    -1.2122496980517323,
    -0.22341119662132777,
    -0.32821436940097826,
    -0.43905444509070113,
    1.0962400062172486,
    0.7464942315433628,
    -0.3473065143898961,
    1.8309897164958837,
    -0.10262744322165747,
    -0.007048401609757291,
    -0.5399594551875609,
    0.3091571338836987,
    -0.39425149926644254,
    -0.4846251555977839,
    -0.18658937159493452,
    0.8632353518480775,
    1.1485199960031949,
    -0.6319460398530694,
    0.5087350413455847,
    -0.8323622461929605,
    -2.53617660979919,
    1.7897985113280483,
    0.7212008087269752,
    0.556251638703733,
    -0.907671728326805,
    -0.7113967231401432,
    0.1578174588393617,
    1.1195286895435483,
    -0.4008988372587696,
    -0.08493660949275017,
    1.0824498313825481,
    0.2599187750016705,
    -1.001965506717739,
    0.28364538356886354,
    -0.5927216001682203,
    -1.0162336780056938,
    2.0003052755680297,
    -0.6978681516986035,
    -1.8096388772436052,
    0.8467661559494566,
    1.2386319365596976,
    0.23337113307767554,
    1.4869537676235758,
    -0.1061293759073575,
    -0.1921003921687123,
    -1.8380976162312224,
    -1.106148994942695,
    2.124133826492715,
    0.2590151245130646,
    0.16055963116150054,
    -1.11287226380735,
    1.6682506316861587,
    -0.8814196537757881,
    2.1117985165120072,
    0.2103381490111304,
    1.3113973444456084,
    -0.29456005647296624,
    0.4685811552566962,
    -1.3253368625075888,
    -1.8883213444579225,
    0.17507349399212552,
    -0.5676653095375699,
    0.3305165049707937,
    -0.8300665688413554,
    0.9076216644676385,
    2.978825478903639,
    -1.5161029269159063,
    -1.2622414186081297,
    -0.09574470624866405,
    -0.4744258403601472,
    -0.307239224061185,
    -1.3370287505854113,
    -2.4127529030060533,
    2.315167157989898,
    -0.09633553027441716,
    -0.7901290963684534,
    1.7754674476338723,
    -0.564058625829938,
    0.14277840320834606,
    -0.667333102587444,
    -0.2456273704589514,
    -0.6172086041962236,
    -0.006176988288409132,
    1.0433018837617667,
    -0.7605883574288854,
    -2.3608700985469278,
    -0.5365583593207975,
    -0.72190463106933,
    1.002664342739181,
    -1.2100505640635242,
    -1.2436442106846328,
    1.861664047199079,
    -0.10425217690509846,
    1.957465502516561,
    0.7038920779524764,
    -1.1169087925521781,
    0.6423803873434379,
    0.718615614180975,
    -1.113797432787478,
    -0.42567084305284264,
    -0.6385818264906863,
    0.7645202674397698,
    0.33927743523325055,
    -0.38318362766389324,
    -0.09850449932772808,
    -0.1841656776517948,
    0.049529634982739316,
    0.16723967282889227,
    0.008420292596798364,
    1.2115361379529117,
    0.7645992517912449,
    0.10411224045844263,
    1.0966698410819926,
    -0.18238631572688405,
    -1.0183103572107952,
    0.6348617251129732,
    -1.7752701394319186,
    -0.5529088618712601,
    -1.8672650964127036,
    0.21511519723551392,
    0.6323290461740263,
    0.535504372989553,
    0.06779510992566178,
    1.5174361352362449,
    -0.5785387376451636,
    -0.32457776189692206,
    0.21036479440320344,
    0.23062634958621042,
    0.2751018792571187,
    0.18600739113299997,
    -0.005442617786347865,
    -0.5610186933481474,
    -0.21101553275283882,
    -0.6502595675193993,
    0.6041498090363085,
    0.8816353090652728,
    1.4003458839622365,
    -0.18264376080205322,
    -0.632552964000135,
    -0.6709333544208148,
    0.009041985465853409,
    1.4994109656698018,
    -1.3180008836823858,
    0.8340913395621106,
    0.1727214996149516,
    -0.31847209535614596,
    -1.012350074923924,
    0.42414577141054977,
    1.0804031466588144,
    1.0359893858315257,
    0.6971771921307741,
    -0.8649142689040177,
    -2.0167636212880113,
    -1.1509971924105227,
    -0.004995762023717732,
    -0.6625153511189589,
    1.8870502859763274,
    0.08067297548307131,
    0.17294278585927247,
    0.8021112674396277,
    -0.9668656477807444,
    0.8710177847373667,
    0.8840057272665406,
    1.4124340190963849,
    0.13799081035587388,
    0.8424019616098487,
    -0.10134484343078953,
    -0.8838895750216726,
    -0.5694864624264601,
    1.5383354147224526,
    0.28030332819880166,
    0.7970260479089378,
    1.1440734490860476,
    -1.3747464443282766,
    0.28320429343579273
  ],
  "best_ctrl_weights": [
    1.0975289521697504,
    -1.8158463260813344,
    1.499691858666771,
    -1.346129851139692,
    0.9872589859108694,
    1.3002524477042803,
    0.03497930139626718,
    2.0027407814328346,
    -0.30911110294410143,
    1.2226959352530886,
    0.026326622170938143,
    1.0138040579445422,
    0.41581176515592366,
    0.6724312737796713,
    -0.33471092909012873,
    1.0362242968285238,
    0.7939219443762492,
    -0.9465651243221623,
    -1.0966847681486522,
    -0.9645167316688116,
    -1.006648532599736,
    -0.7658931901765886,
    -1.1397469848927289,
    -0.07008519843376433,
    0.2783110687672669,
    1.4997155789673362,
    0.6863077220625353,
    -0.011433909782721302,
    -0.37951873430322086,
    -0.6861892620978499,
    0.5604403280713084,
    1.3576291880346616,
    0.03826368119005945,
    -0.09674469005621411,
    -1.4987969996497215,
    -0.7454784139491444,
    -1.2740043464789972,
    0.6947782949665914,
    0.047858888502409866,
    -1.2156534595212918,
    1.2540863363078039,
    0.8089492433018852,
    0.9496945327027627,
    -1.2740652230875014,
    0.35903825786822247,
    -0.04366421314024845,
    -0.5772712412108937,
    0.11150485802542809,
    0.011395673900166527,
    -1.5793161801246893,
    -0.6861240242879822,
    0.744708231610731,
    -1.7921144093948882,
    0.574288997416739,
    -1.1424696042432454,
    -1.6521959414036995,
    -0.24003538397353588,
    0.007272226544417641,
    0.5810664634430053,
    0.7216743812116573,
    1.1095055268251246,
    0.4172457473566234,
    -0.994354672185093,
    -0.44362394443951964,
    0.4266468067528511,
    -1.7976240899617786,
    0.8021242517612927,
    -1.8170749555551755,
    0.4872741912942434,
    -0.3418870225264399,
    -1.8378809581034667,
    0.4690023729930896,
    -1.1254371732380566,
    -0.7748503124444889,
    -0.37932994856110125,
    -0.38755422497657166,
    -0.8527687254182661,
    -1.0825190957646906,
    0.07660616912406368,
    -0.594021267725539,
    0.5244634672945327,
    1.070280716294492,
    -1.2662550695132722,
    2.11656436701353,
    -0.16258370656418772,
    0.6256664743051473,
    -0.028879632321675956,
    0.7381968411848708,
    0.02024213584703074,
    -0.5056757406743662,
    0.2085494910287322,
    -0.31297144405719945,
    -1.276366883780944,
    1.563928162649677,
    -1.0700072573327202,
    -1.0805393394392087,
    -1.235139585650494,
    -1.2234177196179115,
    -0.3174324798507099,
    0.8486989315547204,
    -0.11118735238985887,
    0.5378733975498824,
    1.3516342710637326,
    0.9286670671241064,
    -0.9925909315941945,
    0.8904166409146715,
    0.1045905684041931,
    -1.5775667757785383,
    -0.05061027645890008,
    1.1568780028845416,
    0.7245399183361937,
    0.07040330664138002,
    -1.9226575196154219,
    -0.36248120812023193,
    -0.32332180465588695,
    -0.3024570651364448,
    -0.427211688131301,
    -0.8608108391099009,
    0.24105700182246112,
    0.8750561097800857,
    -1.8884129459270589,
    0.8865454742241725,
    -1.4250643085981463,
    0.5229624955331477,
    1.9390116745605652,
    0.1400331241849562,
    -1.5518816222087668,
    -0.07377862042768406,
    1.0334876500043657,
    -0.5500631806846682,
    0.5814843020858491,
    -0.39767552235843245,
    0.977819084453295,
    1.1660778754726409,
    1.2248892068581114,
    -0.6299343298842836,
    1.509996971014603,
    -1.8623413060185523,
    1.8896520573842328,
    -0.0692097699887444,
    0.29056588188230387,
    1.2582514399499083,
    1.2374347338494804,
    0.9566672269123748,
    0.2644701761301937,
    -0.7342726914894517,
    1.512937297343834,
    1.4917735557604397,
    -1.2591812854823639,
    1.2840328089971074,
    -0.3516586429574795,
    -1.9238484174148924,
    -0.34077269269152977,
    -0.15618726865345,
    0.03731984976819024,
    1.5777997528784256,
    -0.4220711598827176,
    -0.47971154766063295,
    0.08838892143180804,
    -0.8524042779987872,
    0.6844105279822589,
    0.49297115678443887,
    -0.42808282086730187,
    -0.37321009333667254,
    -0.1993796496679878,
    1.517676040495714,
    2.4576799663640068,
    -2.248355919245171,
    0.268970856944011,
    0.055656128908497415,
    0.6069665907023697,
    0.5374315272484645,
    -0.847533945877935,
    -0.13880772781512773,
    2.059834698679233,
    -0.12349192567874129,
    0.4214459134203871,
    -0.5203012526005264,
    1.8217979139896545,
    1.3872592379941489,
    0.30999286472595144,
    -0.14076056486223068,
    0.45326726372317405,
    -0.3439453072852581,
    0.5428589658550961,
    0.078140588100837,
    0.2253150336255246,
    -0.16675466784079723,
    -0.3979102448453803,
    -0.08753828484705435,
    0.4796659665210104,
    -0.1107052074321927,
    -0.059647078057739826,
    0.48996051247094313,
    0.853694619323012,
    0.30161658948818365,
    -1.8554149588833597,
    0.9998551895351533,
    0.11854784228078759,
    0.998280822046985,
    1.8994354587589026,
    0.1992121635696931,
    0.7987147547436058,
    1.6282968903293238,
    -0.44881170290506534,
    -0.8361299328731323,
    -1.129652911991459,
    0.4705135477056872,
    -0.26234356580154,
    -0.8348791345718686,
    0.025603455194665777,
    -0.878597007486391,
    -2.459297711221469,
    -0.06761314919028687,
    0.1212576203207669,
    -1.2977162144873262,
    1.3332030691410188,
    -0.17914189032843988,
    0.6835083987390969,
    0.1022093559562919,
    0.35872200104488045,
    -0.8857035441440937,
    0.812310495487248,
    0.842770965000097,
    -0.36372116940898946,
    -0.43926028127915906,
    0.03903167557100029,
    -0.702704591372318,
    0.7979556293062827,
    0.5651395135432743,
    -0.7392118899322986,
    -0.8948740960630619,
    -1.4405008487010924,
    -0.45034161451733057,
    0.22530924793597162,
    2.0401801804091346,
    -0.6228992902923763,
    1.204863226681629,
    -1.3617424959217415,
    -0.6447722493477013,
    1.2470266909342176,
    -0.17485829682671966,
    -0.09934685812026607,
    -1.4153224970303326,
    -0.649627698713283,
    0.748511086138398,
    -0.2458243658423135,
    0.05399735396616316,
    0.5908204913305272,
    -0.3029733750119972,
    -0.5030410496829284,
    2.750586257528131,
    -2.118005805907707,
    -2.3869162604052354,
    0.6109862991435583,
    -2.905379719508649,
    1.036700123349272,
    -0.3338093237732685,
    1.262934794917382,
    0.5307221140510595,
    0.9226689419314146,
    -0.11255268208469996,
    0.9855705264069738,
    -0.23359488152685398,
    0.4633149475143194,
    -0.2549744471701659,
    0.818949772314238,
    0.20168193894857034,
    0.5668911090200197,
    0.9363905768438116,
    -1.3455306521364836,
    0.7155399162835077,
    -0.15037645689930126,
    -0.06478310331754863,
    -0.06973651705779432,
    1.5752563322303446,
    -0.24216065763535877,
    0.8244744330423551,
    -0.6957369102412427,
    -0.19549533899586716,
    0.6013623432280046,
    -0.7867968218098703,
    -2.1264389565152477,
    0.2039768360919436,
    0.3252358520984211,
    1.2145264925972907,
    2.6396139673601575,
    0.3093791196232632,
    -0.09259085543818774,
    0.004074559247901941,
    0.9095967434058456,
    -0.5280608176760087,
    0.0018295277574073517,
    1.7225654759199056,
    1.0053736942888711,
    -1.6936585553465446,
    -0.5944230006104869,
    -0.11173799645176885,
    -1.2172148994008658,
    -1.9760861151295102,
    1.6062504724174234,
    0.18218943194665932,
    -0.19716125132228154,
    -0.4570499866824759,
    0.4209583800438723,
    -1.747663113663077,
    -1.1694955590075002,
    0.11499637898233867,
    0.920734930883003,
    1.2154856450757405,
    -0.8252024580141825,
    0.7678997796414894,
    0.48375987691371425,
    -1.6940290585014315,
    -0.5555176631473036,
    0.8849000055681377,
    -1.1045610853244572,
    1.0709257522043691,
    0.24253363892267013,
    2.1200604328293116,
    -1.0625596580094765,
    -0.03153534430935263,
    0.15811451269722757,
    -1.2562309655870687,
    -0.665908104671369,
    -0.1563749390451237,
    -1.3663223808662444,
    0.5616756125992051,
    0.33343771732830424,
    -1.0922813987637947,
    0.6128705954990677,
    -0.94992017958972,
    -1.4276070615686056,
    0.30151120918972363,
    0.3681637751417338,
    -0.6664074495233006,
    -0.21664760777860032,
    -1.1270566979453682,
    -1.3600982719649708,
    0.062235250834573486,
    0.017743764875185444,
    -0.6777287777116164,
    0.7146264528033868,
    0.5442724347008151,
    -1.3117662605437221,
    0.7193610251532301,
    0.24133894387186763,
    0.15495593120192017,
    -0.633121418309203,
    -2.04749751812358,
    -1.2557508094002978,
    -0.28806430602721794,
    0.6891207045216599,
    1.6421959366398573,
    -0.02385532122987362,
    -0.4251629140670667,
    -0.7349187495527395,
    1.8232587130422753,
    -0.9967306122006817,
    -1.3442922308311127,
    -0.8108977288005205,
    -0.5743175670793349,
    -0.13588681852337037,
    -1.0506512558791383,
    0.3570511573626857,
    1.8709771625251352,
    0.3214804188069313,
    -0.30402130823130397,
    0.45653759819464773,
    0.29833037464636936,
    0.015991454344421903,
    1.1805822781252253,
    -0.7774419711835698,
    1.2956395153324518,
    -1.1174061726642914,
    0.5565498380296872,
    -1.6315675726859813,
    -1.685141978363705,
    2.2062493567891206,
    0.7327082323231393,
    -1.032554161778619,
    -2.229729589815233,
    0.843789386038003,
    -0.5498913588582315,
    0.3103659550978925,
    0.5116345049091087,
    0.11861397993045741,
    0.19809204592823307,
    -0.8081097354881791,
    1.9763939222182187,
    -0.16683644991986038,
    0.9133403120008716,
    1.5348897243205601,
    -1.6483366134976303,
    -1.4133783984874801,
    -0.7401134661462662,
    -0.010920754689686122,
    0.8193625932597078,
    0.08443902201865182,
    0.7526216172606882,
    -1.2511086955146287,
    0.3021124742142898,
    2.4421401961368914,
    -0.414267951686402,
    0.21603377750642416,
    -0.07322259170099894,
    0.6613172067209067,
    -0.8064776748952672,
    -0.8507250763898225,
    -0.15914643845134765,
    -0.8083389572801336,
    -0.33850514339958887,
    -0.9238634919460006,
    -0.2914431289378093,
    -1.2104034097896317,
    0.9958247766635148,
    -1.882763810113627,
    -0.12103671023557529,
    -0.31428134736034335,
    -0.715514511021901,
    -0.12220369113432171,
    -0.9702241793989017,
    -0.1415591404285632,
    0.4518667947719105,
    -0.17441556386292234,
    0.6512426662771821,
    -0.9951495220195669,
    -1.462933737115788,
    0.4925973196971772,
    -0.22245332325274805,
    -0.14311905226277907,
    -0.5304100323988137,
    -0.2885973001863359,
    1.2705795810373899,
    -0.4491269395002127,
    0.6145797557826677,
    0.5906734201028374,
    -0.9701890665868006,
    0.1449057268924765,
    2.2345565860732792,
    -0.2652668750108847,
    -0.3365835449239846,
    0.5869570531932133,
    -0.004324666562367186,
    1.6306941676384674,
    -2.35900181861259,
    -1.2868782621948829,
    -0.1278356046234161,
    -0.9752445121215866,
    -1.4823115821596782,
    0.012363183601768064,
    0.7879677216618652,
    0.24312092711785901,
    0.6950379207304158,
    1.0007968170216952,
    0.40122437180688836,
    0.7092018589730343,
    -2.636907066130075,
    0.8405028169755152,
    1.4429069937393315,
    -0.4864644871561777,
    0.3706718016382654,
    0.9499959552146071,
    -0.8181266813246898,
    0.963370281444647,
    0.9185402599329721,
    0.35528019161137536,
    0.13425442303842794
  ],
  "best_morphology": [
    [
      1,
      1,
      1,
      1,
      1,
      1,
      1,
      1
    ],
    [
      1,
      1,
      1,
      1,
      1,
      1,
      1,
      1
    ],
    [
      1,
      1,
      1,
      1,
      1,
      1,
      1,
      1
    ],
    [
      1,
      1,
      1,
      1,
      1,
      1,
      1,
      1
    ],
    [
      2,
      2,
      2,
      1,
      0,
      0,
      1,
      0
    ],
    [
      2,
      2,
      2,
      1,
      0,
      1,
      1,
      0
    ],
    [
      2,
      2,
      2,
      1,
      1,
      1,
      1,
      0
    ],
    [
      2,
      2,
      2,
      2,
      1,
      1,
      1,
      0
    ]
  ],
  "all_fitnesses": [
    9.801096259662643,
    2.3419786491986656,
    3.3111582478710204,
    -20.11889433167346,
    45.56070071894078,
    17.44171687227299,
    -64.11173641455417,
    -0.01896741504037891,
    0.03166548283826387,
    -5.685507378405191,
    -31.180232728135593,
    -25.466254649907313,
    -24.836183603613563,
    -0.9381658392842382,
    -4.330087646788968,
    -5.324521360867493,
    -1.2069763208671702,
    35.14144648454146,
    -18.621668432868177,
    -2.611446632948514
  ]
}