{
  "generation": 4,
  "best_fitness": 146.3539108369327,
  "mean_fitness": 21.549498619710658,
  "best_morph_weights": [
    -0.7354606084834578,
    -0.3661831846684165,
    -0.4525190879886596,
    0.7885934943785711,
    -0.04549412988461814,
    -0.6529482577160847,
    -1.6496051428816014,
    0.12054098356322147,
    -0.15541423267509236,
    0.03242081098312095,
    -0.6701941850626731,
    0.3066555198591977,
    0.27514285289262214,
    -0.5228387015482691,
    0.25833304347931607,
    0.19395752602394375,
    -0.35113026519422147,
    -3.284208176275483,
    -3.0976467285132077,
    -0.014203616217470462,
    -1.393594923662125,
    -0.5558637322266775,
    2.0608338025676183,
    0.645545059442748,
    -0.0924724017743178,
    -1.2160884962541343,
    -1.5195077532790404,
    0.6026463349938543,
    1.0878732638939286,
    -1.988532188505605,
    -0.24132089058924,
    -0.6815505489935787,
    -0.798686632980416,
    0.32634160179157307,
    -1.1165694529204016,
    -1.4404548772784027,
    -0.8060048387917308,
    0.7472552214480079,
    -1.768538905211907,
    -0.21248546126929765,
    -0.6839380400105387,
    0.9681425666800801,
    -0.19075064859600704,
    -0.6865979071941158,
    0.261420609868854,
    0.8590777209576264,
    0.27892588033924487,
    -0.011872713716933256,
    1.0645399246025447,
    -1.3521984421215598,
    1.2067654293246992,
    -1.1386104992426276,
    1.542046326544548,
    0.7486124198819412,
    -0.040532497131392585,
    0.11166610621911677,
    -0.38531186783909654,
    -1.4494375581013677,
    1.3338880091083998,
    0.9808761634399781,
    -0.8956016374836184,
    -1.1308385222110469,
    1.492301308536189,
    -0.06565284122576756,
    -0.6508472242623905,
    0.5431467102625954,
    -0.07656907750726061,
    -1.3250722621652624,
    1.6452626538880029,
    -0.18809381921298132,
    -0.571011942026358,
    -0.9438359423321917,
    1.3070614100120397,
    -0.2996827832443079,
    -0.4733807139406174,
    -0.3489996359558647,
    0.25007598833852124,
    -0.7201599335357035,
    -0.33105756533721964,
    0.8394611097712498,
    0.28313809545815427,
    -1.540498096737568,
    -0.10200991509875025,
    0.46796749378999747,
    0.5696933031248397,
    -0.08753308725267019,
    0.6760328964469028,
    1.3259246501608786,
    1.5209959597389284,
    -0.2909061017133301,
    0.2143106513221018,
    0.7254065378301933,
    2.0770662960109947,
    -1.7284672358008821,
    -1.0148975566614655,
    0.6099236567745097,
    2.116693339891821,
    1.485739576720559,
    0.6466801782255507,
    -1.1986683779742777,
    -0.26334185986926834,
    -1.1842731909920823,
    0.8618768737829249,
    0.16843842899517353,
    0.760317026586785,
    0.5401712911033913,
    0.04930451702800118,
    -1.2378142399863914,
    -0.030807478998335,
    1.1940028240578988,
    0.8244547998310824,
    -2.149392666238153,
    1.7957649480756845,
    1.1980009501705118,
    0.24900716302965614,
    -1.7489209843655145,
    0.48103729333756845,
    1.0754115813962402,
    1.6241638677086767,
    1.4662687487223462,
    0.4547879074452176,
    -1.0751466107240257,
    0.7386968251775408,
    -0.5073018707633761,
    -0.9968509660301353,
    -0.3859185422532943,
    -0.34067873289208733,
    -1.349548995427895,
    -0.6644204910796724,
    -1.2458144800088433,
    -1.7663150371154472,
    -0.3168013290769443,
    -0.8505044978498995,
    0.22973892719520245,
    -1.6859307663678376,
    1.2017525065685193,
    0.07903516933698838,
    -0.27547749525700393,
    -1.1505342455852356,
    -0.061332856524627576,
    0.19943066687733169,
    -0.09690696391607079,
    -1.6857526513456502,
    -0.3403693275341146,
    0.22295816218363293,
    0.7721487639844863,
    0.6511831320262123,
    0.20150860335121007,
    -0.23201146463892855,
    0.27700416947881235,
    0.7706308573165261,
    -2.7180295310299996,
    0.7171959175701741,
    -0.9189855543314934,
    0.8259911513974235,
    1.1140519248299288,
    -3.0411896295288043,
    0.7175011516542518,
    -0.07196182071876216,
    -1.5141323234596238,
    0.8282313202008853,
    -1.3430140468297447,
    -0.9247322624823326,
    -1.4520419227035384,
    -1.087154968322461,
    0.7129809249937911,
    -0.9233585760510008,
    -0.5999721989875321,
    0.03648569415467359,
    0.13071349651785472,
    -1.5343721092853762,
    0.8893635798928965,
    1.9243450441125332,
    -1.3747329181891397,
    0.551680768165557,
    -1.8566575719681797,
    -0.4684560759952375,
    0.39640122902958136,
    2.826455478405533,
    0.45407939971975836,
    -1.265572822633253,
    0.9970416352480629,
    0.43386239898506235,
    -0.7046903729759784,
    0.5077357841067404,
    -1.3348409871701388,
    2.1937494970780445,
    0.666853950141304,
    -0.177126034970059,
    0.2079424917382737,
    -0.6246314419495806,
    0.3443145984677321,
    -0.6480421681221656,
    -2.2848514415010936,
    -0.6340193404989556,
    -0.7200882756821296,
    -0.1547973167966285,
    1.2500613785491106,
    -0.37371410052146364,
    1.5586270062520944,
    -0.17889298742433665,
    0.7016777369628988,
    0.632858841271249,
    -0.3102857053725688,
    -1.4549610288427381,
    -0.5546984311548968,
    1.1597994565646008,
    0.4665182486764234,
    1.2116130046570859,
    0.9472424909554017,
    -0.14530429720727564,
    0.5038829392734567,
    1.3092762477636968,
    1.441514541826922,
    -0.594272848668348,
    -0.6596796811807393,
    0.03761950062539639,
    -0.33570115545828544,
    -0.8279345099554546,
    1.1700912075053724,
    -1.1959930021161989,
    -0.9111948684252884,
    -1.99111216009201,
    -0.610800588993027,
    0.5179609636001204,
    1.2125499702338849,
    -1.120800851543271,
    0.017698393745319785,
    0.7527924376410294,
    -0.11031749047680452,
    -0.09574026019916586,
    -2.2571860564733695,
    -0.05347897317222189,
    -2.3841346617316934,
    -0.9257200856137928,
    -0.26917107605027946,
    -1.5631727439327197,
    1.7185226193405454,
    0.2998275610207271,
    -1.3742705528012829,
    0.04661709012636738,
    2.1917883587016553,
    -0.20638898261195285,
    0.49824328812963325,
    -1.1668138999437123,
    0.20332615831675804,
    -0.08263697493544239,
    2.086687601167732,
    0.652988986379994,
    1.8809227235940458,
    1.1460535907341376,
    0.4417810549897869,
    1.7488811866296672,
    -0.969643835769969,
    1.013521609073015,
    -1.5092439726282756,
    -0.9939871941703956,
    -1.2577221116264306,
    0.5039433342262583,
    -1.8710313759462267,
    -1.5565266592042806,
    1.4865069307712038,
    -0.5135510101134666,
    -0.48964255371663995,
    -1.8483868310537683,
    -0.2626518810559908,
    -1.133276569643509,
    0.18195368962334074,
    0.7986850638000469,
    0.5438752370370957,
    0.38224970218345383,
    0.8925728329701836,
    -0.9727227299847889,
    0.025484499649010974,
    0.5300419950805295,
    -0.6869239337271067,
    -1.9680610284498834,
    -0.3633572818769397,
    -0.2539530868647595,
    -0.08372265607397852,
    0.30971380171436375,
    2.6292477372627654,
    0.42334105914324816,
    0.12362226833658807,
    0.31382315569022146,
    -0.5487157776033207,
    -0.21201471762183546,
    -0.019607495215128896,
    -0.2586202893562308,
    -0.45864364122079154,
    -0.654401946216064,
    -0.7840374768596027,
    -0.6190349062307808,
    -1.0096378678163662,
    -0.7125715538690711,
    1.0743333805109194,
    1.8093701391893429,
    0.7487453427036356,
    -0.8766831295693659,
    0.2074204136022409,
    2.8632196730331594,
    -0.8236188459649849,
    0.04842751311021642,
    0.4568063383485416,
    -2.3348561742033898,
    -1.4229317714574832,
    -1.1923631051829637,
    -0.6507531734407889,
    0.46638705261949087,
    -0.6579805308327289,
    0.2576771499101652,
    1.1294543230361596,
    0.5014575008633939,
    0.15724855721076966,
    -0.8058870349960767,
    0.3233788235101597,
    -1.605704210177927,
    -1.4190780742709501,
    -0.07621785250735245,
    0.7733815537345782,
    -0.6684884597968026,
    0.5119964838364752,
    -0.40233237019941914,
    0.8384119800092327,
    0.15086402589150916,
    -0.40469050330689854,
    1.3234944746783732,
    -1.2173084057066084,
    0.4058506499535228,
    1.0379709894462885,
    -0.21721410865326596,
    0.5520821368565308,
    0.26524441667231985,
    -0.41953378638901506,
    0.9586696308058382,
    1.4572812085470723,
    1.3723650777332776,
    0.5025660305127552,
    0.2695614087080042,
    0.5863614235176381,
    -0.04693128180538373,
    0.8828444606805793,
    1.4491257011930299,
    -0.5728585335599912,
    -1.0544607202191876,
    -0.5467395015865155,
    0.22655997328001584,
    0.7552924125900276,
    0.7356382945165554,
    -1.26276725416895,
    0.017202479607814517,
    1.460168264387139,
    1.4367886252629007,
    0.5821704016892273,
    -0.46540278890468334,
    -1.9056693214150657,
    -0.7572117887649298,
    0.19182767547852003,
    -0.5814940301069426,
    -1.3268538469879012,
    -0.8256027110469721,
    1.6034114600608427,
    -0.610195470101758,
    0.28220032350333946,
    0.22681494674572408,
    -0.6123220816091163,
    0.7784074236580057,
    -0.0638377015792338,
    1.1695901506504305,
    -1.565224679275694,
    -1.2475529038053104,
    0.4232322748905243,
    1.9129296331622223,
    0.2747130466071141,
    -2.022006923873385,
    -0.35271347787076324,
    -1.8851951854375633,
    1.7532176268159387,
    0.5864308338790604,
    0.45303319069835135,
    0.7242172468788279,
    -0.09925082561565977,
    0.9308093155631784,
    1.0229819042972643,
    0.33904288455212556,
    1.1042974045651253,
    0.6023018818059775,
    0.2982563094264894,
    0.1396111770176418,
    -1.3188081863708454,
    -0.27473264475967785,
    0.6072124205606773,
    -1.8438911765902541,
    1.8619359346355724,
    0.12721774259587562,
    0.8030031982160495,
    0.3612423342806528,
    0.9350981457726514,
    1.4667433345940757,
    0.8359912590917082,
    -2.292150273116091,
    0.7252254471692856,
    0.33653302734456925,
    -0.29142849689604744,
    1.0119125211600295,
    0.5484719622727515,
    -1.060980112782024,
    2.2106710118924164,
    0.3946779760428495,
    0.3809303741534001,
    1.4335757576692334,
    1.3539444404120278,
    -1.811132508948208,
    1.1308137608470321,
    -1.3883090532509716,
    0.4642078272174718,
    0.11114269720379227,
    -0.5890099352336595,
    1.9578439354527089,
    1.5933122394452035,
    1.0236587289723753,
    -0.13563961434366784,
    -1.061451618072895,
    -0.02630930332683884,
    -0.38086295678396914,
    -0.8484265597748312,
    -2.1736483923536887,
    -0.4584269136245053,
    -1.0716451091002739,
    -0.07889086983365208,
    -0.8792250112447756,
    -1.2324788876391106,
    -0.5538553228863725,
    2.110468204870881,
    -3.439934738457474,
    -0.7822209682639372,
    0.4217214616815148,
    0.1364843290655356,
    -1.2820994634738876,
    -0.4234512856872104,
    -1.7794301594626432,
    0.6240582536517193,
    0.8158661896225138,
    0.917907274055326,
    1.1340574703305546,
    0.4272193757932051,
    0.609175230515214,
    -1.8395588790892226,
    -1.6776037626865155,
    -0.831205774116841,
    -0.8789292512218673,
    -1.7295726974242773,
    -0.6686917615379183,
    0.006048641486292264,
    1.9101652457699214,
    -1.5113675415030343,
    -1.7743060445228838,
    0.6704817900439232,
    -1.4452180640025658,
    -0.0470301340926101,
    0.5239417959845758,
    -0.9462011825823118,
    0.02343393534465739,
    0.27045091674634714,
    0.4937011713236471,
    0.7085846828952611,
    -0.12628925544902744,
    -0.8420040399278919,
    2.1859977108648265,
    -1.485516682225146,
    0.5577462603052332,
    1.1146419455387375,
    0.7035404334572612,
    -2.0161797022114047,
    1.172796762410421,
    0.7729308081466861,
    0.14440627085890692,
    -0.5750594950658063,
    0.13519298793150059,
    0.7157867674259515,
    0.446092959418647,
    -0.01648470514569377,
    0.2245631285468142,
    -1.2289712163528042,
    -0.6899073914493653
  ],
  "best_ctrl_weights": [
    0.454395086072082,
    -0.6636402286419052,
    1.737206859495008,
    0.7837989342031014,
    -1.8153412393081274,
    -0.6449963560332573,
    -0.7259309231395177,
    -0.5086219197388188,
    -1.2545611543061383,
    -1.3236182827675933,
    0.05348798704120638,
    -0.15189267348117297,
    -1.1180740946256187,
    -1.0694402013040651,
    -1.0395382868487766,
    -0.6114764381380927,
    0.006907431545592424,
    -0.17631030427438343,
    0.6986271768432264,
    -0.586029616765058,
    0.7770782265260023,
    0.6627703879633873,
    0.7109903495319423,
    -1.6967965330986885,
    0.47183042125042396,
    -0.1905845288265249,
    -0.25699582755637523,
    1.8754513725118769,
    -0.9292287604682271,
    1.0801594456149413,
    -0.5654486943920028,
    -0.42570887125621143,
    1.1762224959166807,
    0.019354238752145182,
    -0.44565727074189554,
    0.4111324387642655,
    0.8510964422341718,
    -1.7472317223413998,
    -0.9835616831371653,
    -0.4837170200022847,
    1.0544162921723104,
    0.2918614842743688,
    0.4975947763685175,
    1.0605678646587835,
    -0.24583801445210435,
    0.5295303636774945,
    0.40335964812441955,
    -0.98406390245555,
    -0.8002715097001111,
    0.4038546889096592,
    1.3258787089743556,
    0.4395834519543321,
    0.0130235997492405,
    0.2387129602094745,
    0.13914720809521963,
    1.4357106118408491,
    -1.2842148998906209,
    -2.4063512077569817,
    1.3902333184291835,
    -0.9859914160602986,
    0.959537769524953,
    -1.061261043251244,
    1.1093867230996544,
    0.5999688582627368,
    0.061948951564503196,
    0.1925877407078196,
    -0.9717840111740867,
    -0.22615435113856844,
    0.29063285472741696,
    1.332857459484655,
    -0.28761900037143207,
    1.2606712509502616,
    0.1546485059978512,
    -2.0869561578946474,
    -0.5471235227326294,
    -0.49773598603708813,
    -0.9623281571030519,
    -0.4101784909515586,
    -0.14463367534324395,
    -1.7015335586064153,
    1.8608949213037158,
    0.5655534385795865,
    -0.6256892407190343,
    0.008327471348314519,
    -0.29113794951954564,
    -1.2866856797894624,
    -1.6356169845365975,
    0.1995111168292718,
    -2.8828492312188807,
    -1.3759263388989502,
    -1.5037171380617642,
    0.18855411829528995,
    -1.6277033228624254,
    -0.30793640506203074,
    1.652898570456215,
    0.7804983024063501,
    -1.341533952739577,
    0.7997358994182397,
    -0.43826446848525247,
    0.4341127009737,
    -0.5179385918297725,
    0.2866170038971508,
    2.3435340928251667,
    0.5709851577056944,
    -0.6102188308254374,
    -0.24322866819348135,
    0.8566072929346619,
    0.5457189740817984,
    1.358452502913649,
    -0.15173592264111216,
    -0.29123656167847134,
    -0.829785110396314,
    0.5647875463671201,
    1.7293966471678184,
    0.34697987194546265,
    1.1031305908085103,
    0.6086065113505571,
    0.9114219807500825,
    -1.1291238360389675,
    -0.519794149537399,
    0.48497882699984773,
    -1.3870383382654237,
    -0.28157225315837964,
    -1.1843892440238963,
    0.5112141312714515,
    0.3435526075062843,
    2.046756773082434,
    0.5047209204310024,
    -1.1336228821866876,
    0.36869501469041016,
    1.0853117318958043,
    -0.9937956166906041,
    -1.2529022872041824,
    0.8892869320011221,
    -0.11731305276253139,
    -0.22997356769932245,
    0.8883222859838551,
    0.34535255034139684,
    -1.9419549092655637,
    1.3587369991112646,
    -1.3227595336475126,
    0.32960649094347194,
    -0.16874592529291532,
    0.3031426888703202,
    1.1448194581601163,
    -0.188554212157871,
    0.2279155520188138,
    -0.7414570612339277,
    1.8561413534687186,
    -0.7935654345834068,
    -0.34759787166153755,
    0.6372319234676934,
    -1.3144188183685788,
    2.468353934500147,
    1.1755238439293594,
    -2.18082870937385,
    1.4868920962592882,
    -1.0410473228504724,
    0.5434085152259397,
    -1.2256094893029772,
    -0.8679597698905851,
    1.1473578195695344,
    -0.4977129796775645,
    0.9045587887179106,
    0.7412795314489818,
    0.004382793232339799,
    -0.7474834396022524,
    0.3006565846322605,
    0.3048178809151312,
    0.36610935399245803,
    -0.5983103420587892,
    0.4957129513710373,
    1.0011301392564882,
    0.25131291711178827,
    0.3533709528782942,
    0.7855249302062183,
    -0.7027944365210405,
    -1.6459486588819594,
    -0.5004298177432446,
    -0.974338132632378,
    0.3513787174334479,
    -1.5082724975478141,
    -0.5592522630187883,
    2.2653291520987104,
    -0.4354029456238197,
    1.239065213249614,
    -0.16146324281537522,
    -2.737221296431654,
    -1.0170903955978725,
    -0.21300263404710026,
    -0.5100501919981426,
    0.025265765080291804,
    1.7454455546296088,
    1.0759386448232138,
    -0.5600452700260632,
    0.9128813689776825,
    -1.9879845519010009,
    0.39000795484865386,
    -0.4537082991097756,
    0.24470434269032715,
    -0.7183852893712567,
    0.7710806041141709,
    -0.9602273884509371,
    0.30294775391071527,
    -2.2293361914382435,
    0.23711521450340883,
    1.065883764133108,
    -0.6779040158142692,
    2.5069610294694553,
    1.5142662038701185,
    -0.8243703528750728,
    0.8830166693325996,
    -0.3405886638423948,
    1.2911608893954218,
    1.1926292843975244,
    0.5427989429021323,
    -0.9731577622493759,
    0.24458131419251808,
    1.386418796072697,
    -0.4259711567260818,
    0.07984680873659918,
    -0.9449800157354634,
    0.16643766692736145,
    0.09981528557060282,
    -0.4620060774736294,
    -0.9833330796010148,
    -1.0525664874644045,
    0.3348443638032521,
    -0.17955934217828565,
    -1.976912171376805,
    -0.6683414954362785,
    0.05639021638390138,
    -1.3973481303809787,
    -1.1604711406197366,
    -2.5193080207573653,
    -1.0003398407369908,
    0.5040597984725885,
    1.2540462882249825,
    2.009112715638766,
    0.6053830130030383,
    1.7660549485696408,
    0.3168266551233092,
    -0.7196408080813886,
    -0.15245777188698362,
    0.21416364091944723,
    -0.12908495306186932,
    -1.4668436848609114,
    0.40081643623819446,
    -0.451328332380842,
    0.4072943296899598,
    1.2535563976371087,
    1.4322475006794244,
    0.974331114458593,
    -0.07464611680634076,
    -1.0935973097738811,
    -0.5324218258203229,
    2.233772045320011,
    -0.08063005075610062,
    -2.3317957241814087,
    0.4792852967094378,
    2.8374659396447584,
    -0.9540089460847413,
    -0.8694200191350281,
    1.462213775750949,
    0.37230371717850563,
    -0.5146338809962339,
    0.7883600677400672,
    -2.3302137145463706,
    -0.45842189251607157,
    0.2559667623061969,
    1.0788465668580633,
    -0.6240151689772507,
    -0.06440568675545455,
    0.11162408270849143,
    -1.5789216498591427,
    0.7392127711885883,
    -0.9769676587870839,
    -0.4572925575790686,
    -0.48076146275458537,
    -1.4857322589931659,
    0.3207759454190721,
    1.244775106854369,
    -1.9115578124877675,
    -0.2932763160489497,
    0.6790836948394114,
    1.2668799773897286,
    -0.013922606320088196,
    2.604163054091239,
    2.208659386998435,
    0.2414628237464149,
    0.7711480468943429,
    -0.24844781264360724,
    -0.4301538551212302,
    0.6783473996354005,
    0.6287195879415675,
    0.33743247617599853,
    0.9654393608279608,
    -1.3082510394783617,
    0.19860303809111768,
    1.651366530261979,
    -0.7283270269876035,
    0.008121996978016521,
    0.8066409387284788,
    -1.1694421398893502,
    0.5258537526771226,
    -1.4056595090070012,
    -0.4382522978032713,
    -0.5100384784825162,
    -0.3392241568900684,
    0.2703222427490386,
    0.6944135783872817,
    -1.464388742633294,
    0.7883331496843803,
    1.0968107331818022,
    0.34513635058409536,
    1.3204116134626946,
    0.6195334463601017,
    -1.266403866307489,
    0.16817456340800377,
    1.5525601297135636,
    0.614073108427405,
    0.8504041390171674,
    -0.07418627936938824,
    -0.3607454879611347,
    1.6092376054736122,
    -1.3928057305573618,
    1.723208821520626,
    -0.1310382623820305,
    -0.7471311863675713,
    0.036508014016410475,
    -0.4976136306608495,
    0.43495891339687465,
    0.09529803271408883,
    0.6149113162668872,
    0.5465724156457791,
    0.7704406072687969,
    0.36373331381569757,
    -0.27834265227273486,
    0.26558737663405585,
    -0.5882323978253372,
    -0.05232237677861651,
    -0.846500018892571,
    0.820178698026444,
    -0.7179290805060501,
    -0.37863271684899164,
    0.129040961789265,
    0.609947762622456,
    -0.6367420109511911,
    -0.31400690627622607,
    -0.8733817051547128,
    0.9308929320810091,
    0.2683910119994818,
    0.27104049669196073,
    0.4488223750940895,
    0.4674858794524327,
    0.10483626875513972,
    0.02778643204007869,
    -0.4941934020215516,
    -0.5488198019761596,
    -0.45224988409994615,
    -0.46249299123021237,
    -1.2829151513115218,
    -0.054772809332867434,
    0.38393222067453553,
    0.9712445951759424,
    0.8599781576820968,
    0.9068902662732387,
    -0.7295136433313366,
    1.1066888297655852,
    -0.527338891858546,
    0.1608143232496449,
    -1.4002775548998458,
    -0.7261264021383859,
    0.9869048684382188,
    -1.0336601512105068,
    0.3229853426646784,
    1.4087605262199467,
    0.6623162092188039,
    1.3827637669263158,
    1.0818835848533297,
    -0.02805158685160823,
    -0.10560303061261843,
    1.3395134567296054,
    -0.06833885537789697,
    0.14845078912268,
    0.8539122376241093,
    0.836787111277086,
    -0.9529173330017565,
    -0.6470888419181,
    0.7958936446901633,
    1.135798803587728,
    -0.25037860826360814,
    0.2635193980830666,
    -0.9316527196878636,
    -0.658745828824672,
    -0.13125391797024447,
    -0.3187585350471034,
    -1.5516962609561058,
    0.41459652537813313,
    1.626389447039025,
    -0.5879563597752738,
    2.13462680540475,
    -0.048256727027383595,
    -0.6773828820300898,
    0.6127885513543495,
    0.32666045917264686,
    -0.41970780591221124,
    -0.1669552845702082,
    1.158366900527947,
    -1.0392047310431005,
    -0.5834711902800526,
    0.36049984520185946,
    0.43680551557768,
    -0.6913850692234703,
    0.5646666559083642,
    -0.33113826373959687,
    0.4100065313024985,
    -1.2524102647741124,
    0.6829469047986554,
    -0.12425462920337167,
    -0.8962975053018061,
    1.0464720021001837,
    -0.8039988080787376,
    -0.05765879874739324,
    1.2532637784630754,
    0.11480029218845224,
    0.2419739989741519,
    -1.348122751777452,
    -0.8175245827376009,
    0.5133742911350901,
    0.09130193621895549,
    0.05493545443478798,
    -0.29574149370960817,
    -0.4690002927917786,
    -1.0010580452168254,
    -0.49828079383585555,
    0.7984101243308273,
    -0.23968448938159392,
    0.2944660891660289,
    0.5239141960202924,
    -0.531351271134427,
    -0.7997349327722298,
    0.3152419047495372,
    1.4963103492197862,
    -0.3601871056912505,
    -1.3599048448822337,
    0.14594917639416283,
    -0.6328817537346845,
    -0.6612299425727949,
    0.03191832772415887,
    -1.6011631100790322,
    -0.40004989689405057,
    -1.2056170606145176,
    -0.46147942969431544,
    -1.9068795349576462,
    0.7215973409767213,
    0.6142111551172057,
    1.169177507772729,
    0.7632487331109655,
    0.18903928322262253,
    -0.14130689938176638,
    0.9656639221012641,
    0.9888606707373205,
    -0.06667973970344199,
    1.0901489368580628,
    -1.1089197023710557,
    0.13396572321729686,
    0.9370489564002532
  ],
  "best_morphology": [
    [
      2,
      2,
      2,
      2,
      0,
      0,
      0,
      0
    ],
    [
      2,
      2,
      2,
      2,
      0,
      0,
      0,
      0
    ],
    [
      2,
      2,
      2,
      2,
      2,
      0,
      0,
      0
    ],
    [
      2,
      2,
      2,
      2,
      2,
      0,
      0,
      0
    ],
    [
      2,
      2,
      2,
      2,
      0,
      0,
      0,
      0
    ],
    [
      2,
      2,
      2,
      2,
      3,
      1,
      0,
      0
    ],
    [
      2,
      2,
      2,
      3,
      4,
      4,
      4,
      4
    ],
    [
      2,
      2,
      3,
      4,
      4,
      4,
      4,
      4
    ]
  ],
  "all_fitnesses": [
    124.84871386260602,
    -6.65859826874788,
    -0.1303382697421398,
    -1.3775600459849215,
    -7.692551214173477,
    126.82902922790413,
    9.608961080222514,
    -84.26804049834212,
    20.17188756402237,
    -2.649518245762522,
    -0.1960576739163571,
    40.505866120001315,
    -6.738460688994934,
    146.3539108369327,
    51.389661805471974,
    30.718854256023633,
    -0.24816524017649044,
    46.94504402649457,
    -47.06441414713069,
    -9.358252092494467
  ]
}