{
  "generation": 7,
  "best_fitness": 1021.1131651774654,
  "mean_fitness": 157.69156851901698,
  "best_morph_weights": [
    0.050612707368842214,
    0.6935210351213275,
    0.4247693287586638,
    -0.4539303822591821,
    0.8776874668294213,
    -0.6323299032908946,
    -0.26207394711569876,
    -0.4164867783986365,
    1.175627456097796,
    -0.7444858536987286,
    1.5617106954070714,
    0.04883851112167362,
    0.6505583769970164,
    -0.987569167717085,
    -0.6245421892080929,
    0.8384007872195706,
    1.3847866875613617,
    -0.7744308932865135,
    1.087384284382956,
    0.35040525198208317,
    0.5816303387154012,
    -0.4459567633695057,
    -1.124747047802953,
    0.6360892391330045,
    -0.22714632877592142,
    0.8021754898339234,
    1.5001454595197448,
    -0.10176826022168034,
    -0.3614540185059391,
    -0.10452847425851612,
    -0.32840389799849146,
    -0.5604943987032498,
    -0.4923207205570465,
    1.4357403636894646,
    -0.8751524057939449,
    -2.676003979901661,
    -0.6171346578373065,
    -0.7041438940306055,
    -0.0770433594313065,
    -1.6812280558306074,
    -0.16517356607466926,
    -0.23331510897090701,
    0.24806799404059082,
    -0.2511956714639292,
    -0.8368306148782984,
    -0.25397232794140395,
    0.41611173957865705,
    0.9590944194137495,
    0.2545555657439478,
    0.7272043983447619,
    -0.3121315861154559,
    -0.5955139592803572,
    0.5687348470161647,
    0.2447482395713417,
    0.18409923377983758,
    -0.011555236389042023,
    0.01982049553483455,
    0.4679501967776732,
    0.7467122958055817,
    1.118819604827083,
    1.094913579675193,
    0.317877130297064,
    -0.2378592273026262,
    -0.4379906482447075,
    0.5260876974724653,
    0.6554057195417168,
    -1.8918242233048446,
    0.1816517649331151,
    -0.5493707405035626,
    1.5786375474401078,
    0.0673655935398078,
    0.21593421062060772,
    -1.2179715851152326,
    0.8860959727429247,
    -0.8557436852742976,
    0.03973073360018731,
    0.8935543403473175,
    -0.6756212830945256,
    -0.30183521776862393,
    0.4637583191996025,
    -1.8470954096849563,
    1.0714621776361957,
    0.09494406048913398,
    0.006466619527239514,
    0.1658188876902842,
    1.0647319957956878,
    -0.39275208731482564,
    -0.9786693544053164,
    0.5061732643512221,
    0.19565371615000082,
    0.08894411779331732,
    1.068214428329823,
    1.0881090391911008,
    0.11695044523350243,
    1.145376605873085,
    -0.5580546930079476,
    -1.1837889254948875,
    -0.7665290470796501,
    0.7552510004099621,
    0.38628107219282387,
    1.3188443295428276,
    -0.19828782207949758,
    -1.700773666932093,
    0.27055238099828544,
    0.35700860550194563,
    -1.2936958610397573,
    -1.7137126113501693,
    -1.7900803968347527,
    1.4986440183527594,
    -0.2502734091690927,
    0.9025029778077501,
    -0.15829126759698614,
    -1.3686986112311854,
    -1.4735031022146179,
    -2.1645095185099343,
    -0.8211674907842346,
    -0.10669175182871002,
    -0.13712173200453692,
    0.8789512999686021,
    0.8465126427744498,
    -1.5602371804383242,
    -0.6437693756485349,
    -0.2883803608021232,
    -0.5567722311428176,
    -1.2448056818431124,
    0.026984310738656037,
    0.054914487918611345,
    -0.2551259690003569,
    0.7838972873769237,
    -2.134760244279998,
    0.15221490008319868,
    2.3471979132875687,
    0.06216819535768876,
    -0.6265235603143753,
    -0.9798720373813031,
    -0.2507652558619812,
    0.11534445322825969,
    0.40880836709344665,
    0.9801626583314984,
    1.5951830746216604,
    -0.13026969253135917,
    -0.10579251975484338,
    0.13053267712021538,
    1.0152397881128528,
    -0.6004585293827914,
    0.531339730656177,
    -2.3119952489446858,
    -0.6925511599618658,
    -0.0850769084305724,
    0.004711717057061324,
    -0.8929450666071409,
    -0.6382583371223178,
    -0.5830928014535034,
    -0.37591423629287946,
    0.6092950413773897,
    1.007799773269004,
    -1.0641753007049244,
    0.3802201587591816,
    0.1051565731311761,
    -0.16215990519669934,
    0.5006052476399292,
    1.1628456590011345,
    -0.6574692752957747,
    -1.0450647517026648,
    -1.0388905215935609,
    -0.6798071820141898,
    2.1268607872451266,
    -1.136201954169668,
    1.1717724812773427,
    1.0041635150142576,
    1.203757449532021,
    -0.761255334641883,
    -1.1985212583152978,
    1.3857060575491686,
    1.9630034321160192,
    -0.4264957285133375,
    -0.22217745687465237,
    2.8346882264450732,
    -1.0562652074589642,
    -2.012061559705853,
    0.8211647904585883,
    -0.3760374607046183,
    0.7869829292433356,
    0.8366916019628523,
    -0.3310478999610932,
    -1.6284389898332345,
    -0.8061628788136669,
    1.1698568583793758,
    0.3106087751408497,
    0.47235621192587807,
    -1.042715583349338,
    0.8618448073721977,
    -0.26302727469685755,
    -2.198068064701828,
    0.6963020451431767,
    2.1815469868093333,
    1.0530537826149902,
    0.012083485224862772,
    3.0619195451782395,
    -1.1563897038150204,
    0.788321191677868,
    -0.13996462741109333,
    -1.7599951216646679,
    -1.2989372298520243,
    -1.0001446481156513,
    -0.39385725731226523,
    -0.7024230391641016,
    2.0193079321234375,
    -0.6183476448807738,
    0.8784783211801003,
    -2.2892414506738636,
    -1.3780708022351975,
    -0.1599801629006785,
    0.8748525612983936,
    0.18503307227059804,
    0.430829190114159,
    -2.359511437016673,
    -1.416685231632494,
    0.09455126100910177,
    0.7975373153071286,
    -0.2023797124463573,
    -0.1671748326322292,
    0.959583268734778,
    1.022425923311649,
    0.4153998606387827,
    -0.3277096164838909,
    -0.213302862963846,
    0.13243413270201768,
    1.3954005435758112,
    -0.10871577082685352,
    2.0425421733491556,
    -0.32109353096053245,
    0.1864112873347476,
    -0.806828803361111,
    -1.1420558976813384,
    0.36978042179531606,
    -1.2209796072199648,
    -1.1553580891907107,
    0.37735326752487297,
    1.1273520395219772,
    -1.4826458360230559,
    -0.07999871010995273,
    1.0224505327825035,
    0.2632193015288616,
    -1.1729499800911787,
    -1.5404849373223346,
    0.16817580385772196,
    -0.6906734825212687,
    1.2334726390925066,
    1.1424214292417783,
    -0.27402246698023935,
    0.2709760697817463,
    0.07920000776877953,
    -0.10674387877297176,
    0.5613182856362854,
    -1.4514426517679375,
    0.04291115441372584,
    -1.833858217682062,
    -1.7101277300005666,
    1.8688753664281312,
    0.47780905474138896,
    -0.6782034892068012,
    -0.6246308104657737,
    -0.5792112188404385,
    -1.5700333083394478,
    0.20369180767930978,
    -0.05932227467806563,
    0.031171925979917667,
    3.2502282449638393,
    -0.41942560211624197,
    1.9722622815842656,
    -0.7673550205424161,
    -1.2782938347497326,
    -0.8128543801310505,
    -0.02460268295071555,
    -1.734183859965973,
    0.34570584249375225,
    -0.5144386930399203,
    1.9078190996153968,
    0.7914052929928453,
    0.24686573941604967,
    -0.7579073530842663,
    0.39264699339529896,
    -0.4033632567071343,
    1.1142859168699983,
    0.2092965789772339,
    0.2959847194489685,
    0.6514748985389811,
    1.4293808087430757,
    0.6148648632934192,
    0.7637248621828293,
    -1.0915045955308873,
    -0.6106785557144108,
    -0.5112165901088548,
    0.07535649623840894,
    -0.6830550402401442,
    0.8300069736084473,
    -1.073906196025295,
    -2.9011581901141588,
    0.19688672607912602,
    1.1214375475822926,
    -0.34088516898723337,
    0.18572952205986087,
    -0.2646363572915966,
    -2.282402920815808,
    -2.7397965419471384,
    -1.3261534866713725,
    -1.105145038851613,
    -0.3145024469656868,
    -1.425556642316964,
    -0.2147589973377294,
    -0.6830297694138017,
    0.7431640206618739,
    0.34173953668443363,
    0.02873265418690619,
    -0.5383467033479297,
    0.012074906235593433,
    -0.6244976767273,
    0.09314646008577122,
    0.6251539392159389,
    0.7960551898211077,
    0.9334134409516819,
    0.8394149354374101,
    0.5967853623970878,
    0.7317251128204356,
    -2.8927643677693626,
    0.24499208525190103,
    -1.5456853212775121,
    1.4891751522147945,
    -0.31788700554320237,
    -0.6412240443173022,
    -0.4306940204524674,
    -0.3976442609013507,
    -0.5028048621545115,
    1.1963092796515962,
    -1.4001127537864333,
    2.2451170810547665,
    1.1465329975530814,
    -3.128646909569973,
    -1.2486957777315482,
    0.3910378829839954,
    -0.10249158929081284,
    1.2569137910689923,
    -1.4136272012329363,
    0.08961374261770672,
    0.24319259785020628,
    -0.6754252510349874,
    -1.3585106358062413,
    -0.1318998536940267,
    1.068341574722035,
    -1.0659739152460075,
    -0.7831998173043967,
    -1.1198590428392126,
    -0.4219282344197361,
    -1.3661649241570504,
    2.583202478246571,
    2.3000400188757886,
    -0.4677151665743612,
    0.6657475235095952,
    1.4201836948328432,
    -0.6256988446000505,
    1.3632547901864909,
    -1.1887810113114152,
    0.47631080486335026,
    0.946761128657698,
    0.030477414138029863,
    -1.63689842965185,
    0.24748355956203244,
    0.37965577510540055,
    2.200883438943354,
    -1.1463685899700238,
    0.09700442793495373,
    0.20563961670456563,
    1.0658039988237185,
    -0.3767310941902507,
    1.23453311538122,
    -1.3209663293920106,
    0.8671594886565477,
    -0.1447301070535511,
    1.13913125883462,
    -0.6995704846676395,
    0.7552694493140037,
    -2.2468187339435284,
    0.29705013864369506,
    3.1682324052153668,
    0.308403880814188,
    -1.5297983914968645,
    -2.2405150421126994,
    1.1541114449321204,
    -2.025240287171765,
    0.10790154592216702,
    2.520644787515932,
    -0.01769188174169936,
    0.1486941454433016,
    0.12625506247840013,
    0.7867480131565395,
    -0.32372818086694377,
    -0.2643958975619866,
    -1.9203414189501065,
    1.46883251679614,
    0.5356400860665271,
    0.03185801723585467,
    -1.5604960975080058,
    -2.3802534006515046,
    0.4027983871393151,
    -0.25286876410070946,
    -0.6101465182963361,
    0.5624714184293209,
    -0.617565439253978,
    1.8382789505445039,
    -1.8202106885972171,
    0.586113935585436,
    0.5338882341132625,
    -0.6908520885171044,
    2.099410205823552,
    0.4987507880453316,
    -0.6220653062268707,
    -0.8196136625227508,
    0.7427586868867424,
    0.3695900372534659,
    0.2297199299931029,
    -1.6129580118177849,
    -0.30224602059635713,
    0.4361817359679774,
    -0.4146423707952861,
    0.2654891798881248,
    -0.05573098759116524,
    -0.843163060280754,
    -0.08382677121219428,
    1.038776714584802,
    -0.02130119130926371,
    -0.23048337830597249,
    -1.146422749730248,
    1.4972995354236576,
    -1.1491371203376561,
    -0.3688344708468122,
    -0.8356029199401547,
    -2.251981348972781,
    -0.847287123798525,
    -2.3188858860708024,
    -0.5186466790345617,
    0.34539461509479247,
    1.5996622455307625,
    -0.29327475895097754,
    -0.9331340063077187,
    1.392988378165152,
    1.015794316216638,
    -0.5612715579477611,
    -1.1490932627585557,
    -1.026188258385327,
    2.335315281436066,
    -0.9093855892395284,
    -0.037382998135921226
  ],
  "best_ctrl_weights": [
    0.5400861697875978,
    -0.43842502464960037,
    0.4582474606622932,
    -0.5055772934581173,
    0.558058836506257,
    0.32356905751967985,
    -1.286120957761972,
    -1.9237294652787826,
    0.7278202228935424,
    1.6873763000730624,
    2.2994238748652442,
    -0.6131161758912202,
    0.23851214785292657,
    0.6815577120570272,
    -0.6849840109583502,
    -1.1625532520637547,
    0.1315114180243805,
    0.47403405261473586,
    0.10111590467790493,
    -0.2945448989116187,
    0.5918435181266449,
    -0.9033140933303175,
    0.4231704412170859,
    -1.3554812396182454,
    0.00876117521003672,
    -0.6415324212165386,
    -2.3133495267166717,
    -0.2416664719264378,
    0.5904920528264265,
    0.5880968568153683,
    0.41386772938020927,
    0.5339134221427388,
    0.8083780805611891,
    -0.08219267092138946,
    1.8112424518339223,
    -1.1009954622612983,
    0.07921036391277732,
    0.8415746008685453,
    -0.6890595479063054,
    0.14302195225189068,
    1.1228678794479183,
    0.8281085700045696,
    0.10786304159114074,
    -1.4883879804649076,
    0.7379903770231623,
    0.988319958343794,
    1.672173555830925,
    -0.508842483470504,
    0.7522663005621782,
    1.6007045519705425,
    0.4559328658316408,
    -0.46064836668665726,
    0.04924477091968038,
    -1.4071845100973253,
    0.9665636287119252,
    -0.20101719499604417,
    -0.3440774990818726,
    -0.6867480692603546,
    0.5352053882580224,
    1.3047130602435655,
    1.5115614847239511,
    1.6453820157113972,
    -0.3366071883493566,
    -2.0475368090932755,
    0.4843208943545437,
    -1.5719785620523332,
    -0.29660820753324435,
    -0.2542304158421925,
    0.3145945523061322,
    -0.4906961501033451,
    -0.7726183485892483,
    0.8484633931591707,
    -0.04165580612378014,
    1.4309533088464703,
    0.2557962282348334,
    0.8729561012619523,
    0.18339279951371343,
    0.8661372639141278,
    -0.3197592180265325,
    -1.5381801823574812,
    1.4668013477631892,
    -1.4947967580854573,
    0.8017666303182813,
    1.1589343513662866,
    -0.6864464802231053,
    0.04436843486740116,
    -0.7949531500788967,
    0.08045757109243808,
    0.6211893372282097,
    -0.01940993859223434,
    -0.924421331687309,
    -1.819944912575345,
    -0.0754700887618662,
    1.0604580491448887,
    1.7395755696693396,
    -0.35266959231452527,
    -2.2396546293595905,
    -1.148018267480571,
    1.3175127812646077,
    -0.5526209281629154,
    -1.0497619086840102,
    -1.2772810026983845,
    0.42733427602835167,
    -0.5207057860039652,
    -1.0445587954468984,
    -0.20549868688539472,
    1.039206848579191,
    -1.4073691064818896,
    1.7526619336098836,
    0.6629780385864507,
    0.31648037094716924,
    -0.39302815447557415,
    -0.9466461067791713,
    -0.2387886025694107,
    -2.5264518404664273,
    -1.8467498742024555,
    -0.10819749896061831,
    -0.2668301603901135,
    -0.41921761632460325,
    -0.35019375259394697,
    -0.18041304928132448,
    -0.658525323493747,
    0.5224923277480944,
    1.7837201975939632,
    0.48520481440454344,
    -1.2457169122585494,
    0.2300211449453843,
    -0.19934041425546692,
    1.694551064126079,
    -0.3866100452793226,
    0.16393710187891428,
    -0.0882976904648194,
    -1.1260157961454467,
    -0.4679534672006684,
    0.20361371228097283,
    -0.07658731011482636,
    0.10335768869511303,
    0.08745799036343024,
    -1.1197169555339666,
    -0.617450466487719,
    0.5509726460265073,
    -0.623325958925519,
    -0.5022207377323976,
    1.6246509515945697,
    -0.64275901818987,
    -0.418397075637894,
    -2.184517621883785,
    -1.2688244701563578,
    1.6590370083951704,
    0.3882665198380888,
    0.9637687146654574,
    0.5691927942414384,
    -0.9577874646924553,
    -0.10533099923715071,
    -1.265683122172645,
    -0.8139451926469345,
    -1.8323062095535687,
    -0.36988726737335104,
    -1.5557283875107242,
    0.040929495486256934,
    1.2786930248490673,
    3.851454537865915,
    -1.6759744000454135,
    -0.5954608277925761,
    -2.3366871469088872,
    -0.4941507668858165,
    0.355409001209631,
    1.1920501796148388,
    2.145814601493754,
    -0.27844999179227153,
    1.4210528584417648,
    1.4203597600109816,
    0.36048246499111963,
    1.0729413444740579,
    0.03562501767495858,
    -1.3852409331988942,
    0.36608445400492573,
    -0.5600915848403654,
    0.4193752410769683,
    0.8951457444723129,
    1.8007122710679333,
    -0.34065060051622265,
    1.487884384905311,
    -1.3811658581292603,
    1.152523201116667,
    1.7337198329293755,
    1.9187240923186761,
    1.854493513680114,
    1.2990704711800762,
    0.8501919893242627,
    -0.3305914343332687,
    1.6837274897011458,
    1.45262649394819,
    0.9355847531146676,
    0.8249901921477095,
    0.9277241241278098,
    0.7592839324369179,
    -0.39276398166435045,
    0.521186408565406,
    0.8911107172667112,
    -0.5339434511733643,
    2.3944680579429654,
    -1.8958553048462097,
    -1.1233395911158115,
    -1.429122714719437,
    -2.675319639042418,
    -1.6122871193069725,
    1.5315055539505755,
    0.8184605619408882,
    1.4321288359951392,
    1.6812929656128297,
    1.0841328864248503,
    0.4624258455711432,
    -2.348658818488972,
    0.050372311152329464,
    0.07852174512911747,
    0.992564038801538,
    1.1863613163078157,
    1.112267072394562,
    -0.3626587189606319,
    -1.811423272468578,
    -0.40406752616179215,
    -1.3387448296440843,
    -0.543171908453002,
    2.153784653076457,
    -0.40695593818630194,
    1.3341447108567204,
    0.3569493303630517,
    0.6841504486512284,
    1.3654522462347611,
    -1.3938978458448124,
    -0.16398745779704363,
    -0.6117911175456261,
    -1.3911379494997484,
    0.18782393782272364,
    0.37150244826074186,
    -0.6174936846420991,
    0.4479573193658731,
    -0.6165129305007399,
    1.0968823409543347,
    -0.12548908587998453,
    0.11904293464056606,
    -1.0568092517387275,
    0.3781945006013265,
    -0.8981080427627668,
    -0.23843053967446404,
    0.6730787423991765,
    -2.926739759269072,
    -0.5874826258503418,
    -1.2076757153847058,
    0.4652917963981615,
    0.023004497821443204,
    1.639982215918729,
    0.062413170108893246,
    1.1911478905584125,
    -0.3244720681268622,
    1.2407353665992007,
    0.872376676284864,
    1.668806285877482,
    -0.5425329342939801,
    0.18247119782892052,
    2.8637696746337156,
    0.5244035096226207,
    1.6855251964840938,
    0.7284563836752019,
    -0.47807243932426535,
    0.5120242187415142,
    -0.4414339822206675,
    -1.742812266781853,
    -0.19994314748746883,
    -0.06899349386794848,
    1.0502180032750088,
    0.20839641201511216,
    0.194456501520989,
    -0.507911781324897,
    -0.1129829891008783,
    -0.9635246670772193,
    0.3018016421384095,
    -0.2835355081124591,
    1.3500187545867297,
    0.5648336665528774,
    -0.9444679010714265,
    1.694411314102234,
    -0.7474596596610614,
    -1.1173655776542568,
    0.814195332627896,
    0.008878995022291494,
    0.4414762885889446,
    1.791951690381242,
    -0.17900068878616726,
    -0.9855063521806529,
    0.5483469987376488,
    -0.6563570053080086,
    -0.2826867573113917,
    0.13241341582613844,
    -0.280709379136496,
    1.1591882264461464,
    -0.3741555914336775,
    -0.5615768057515061,
    1.0183567647489375,
    0.35894849408167095,
    -1.2559287918964588,
    0.24598220878115493,
    1.8303350010236645,
    -0.20739036695266966,
    2.216720953933856,
    -0.6864326135444048,
    0.32298173447163026,
    0.9971885003558787,
    0.8620890885625323,
    -1.4603187429740678,
    1.4449191344648393,
    1.6937108214145022,
    0.3941659598012989,
    -0.5157986536516266,
    -0.7171723589635322,
    -1.3482156022500038,
    1.037653520326489,
    0.20900080982682157,
    -0.3539089698741021,
    -0.746644655771771,
    0.6870392833070521,
    -0.41897401634828135,
    -1.0659527536239772,
    -0.4191123914209172,
    -0.6051113730986517,
    -0.3295503731115462,
    0.9428161676613931,
    -0.7329683584959684,
    -1.334145171762565,
    -0.41149273013451937,
    2.166158285189591,
    1.2200682580752717,
    1.4603417553687554,
    -0.6362696798181072,
    -0.12336361007389621,
    -0.4646266612277943,
    0.7931901379993864,
    -0.781522459887304,
    -0.9477272330405593,
    0.16257217292756435,
    0.9578671493128955,
    0.718634056149577,
    -1.9880766665727556,
    -1.0715422474222849,
    0.32903773826149907,
    -2.26048757258047,
    -0.4604989621922311,
    2.1523522000005224,
    -0.5134794990484892,
    0.6085648366567915,
    -1.7189492209501867,
    -1.6856391715807035,
    -0.2368690073693243,
    0.24729409485741535,
    0.9670972443352727,
    -0.3726495126453816,
    -0.8253340118906295,
    -0.050023385436027745,
    -1.4340184199747068,
    -1.324202227363961,
    1.9406444894919657,
    0.09316387720923434,
    1.4530139246161955,
    0.6197406832038449,
    -0.7548452536600996,
    1.519086450338764,
    -0.647126627772181,
    -0.5135879828085996,
    1.3700289211993752,
    -0.39637870411055975,
    -2.5671819791045105,
    -1.1189987081067638,
    -0.46489062778224743,
    2.658728735394923,
    -0.508080855896806,
    -0.6144766200209065,
    0.39757664158591427,
    0.7334114598241979,
    0.9073574209554937,
    -0.5566153020574456,
    -1.5782297617126853,
    0.07510992461875918,
    1.6797846239710346,
    -1.0224368928940135,
    -0.30040406201630787,
    -0.32087206965528664,
    -1.1718662363783574,
    1.3122786191735902,
    -0.9631595233824216,
    0.5337128171320821,
    0.3774570965396342,
    0.6361444308130961,
    -1.2018385598255261,
    -0.7650829482309423,
    -0.8000928161313008,
    -0.5510310402857578,
    -0.47506417754957964,
    -0.24281959398153097,
    -0.21399031648471573,
    0.49887948106701246,
    0.6445982690581653,
    -1.5655500803728242,
    -0.01620150613399611,
    -1.004069545011312,
    -0.40276593791179255,
    2.0185125460838753,
    -0.08970176548481898,
    -0.34742689965159756,
    -1.2975456665946627,
    -0.09342566739081291,
    -0.8930721393391353,
    0.5056022003361029,
    0.19490610275113585,
    0.06531580640520006,
    -1.7180133132373177,
    0.14308781036807344,
    -2.6277787195006588,
    1.3159199667460784
  ],
  "best_morphology": [
    [
      2,
      2,
      2,
      2,
      4,
      4,
      4,
      4
    ],
    [
      1,
      2,
      1,
      1,
      1,
      2,
      2,
      2
    ],
    [
      1,
      1,
      1,
      1,
      1,
      1,
      2,
      2
    ],
    [
      1,
      1,
      1,
      1,
      1,
      1,
      1,
      1
    ],
    [
      1,
      1,
      1,
      1,
      1,
      1,
      1,
      1
    ],
    [
      1,
      1,
      1,
      1,
      1,
      1,
      1,
      1
    ],
    [
      1,
      1,
      1,
      1,
      1,
      1,
      1,
      1
    ],
    [
      1,
      1,
      1,
      1,
      1,
      1,
      1,
      1
    ]
  ],
  "all_fitnesses": [
    1021.1131651774654,
    666.6812551040672,
    34.022312431311605,
    53.65121386137929,
    43.412403080860884,
    -49.408470043984266,
    66.7932193898717,
    3.9415935129456443,
    -5.642640769171749,
    -0.049608271810427595,
    86.26539434650249,
    22.65953789615895,
    -228.40765290281803,
    332.47440584559513,
    67.43793470402204,
    135.80031431421355,
    392.7340789253758,
    25.607629904749103,
    0.2561510063407013,
    484.4891328672649
  ]
}