{
  "generation": 1,
  "best_fitness": 207.55311862488918,
  "mean_fitness": -0.5452831278451271,
  "best_morph_weights": [
    0.5491391868278799,
    0.13784826556990293,
    -0.5783799372173373,
    -0.8443689074646646,
    -0.2478213392883861,
    0.8242808683064059,
    -0.8119390841808124,
    1.5173766550600183,
    -0.7275673506645821,
    0.9743260911369417,
    -0.15065287793594812,
    -0.16848133401733298,
    0.15601755370492731,
    -2.572794122518656,
    -0.31004423002949844,
    0.2955525643256383,
    -0.42539984441011147,
    1.8776036317033868,
    -0.4292122105451791,
    1.9335779460128184,
    -1.8483591634772951,
    0.6380603511144692,
    0.7912094068752099,
    0.43425358979780293,
    0.3261284433495297,
    1.291026144098391,
    -0.7681393816640174,
    -1.9937293612686577,
    0.5739653338144899,
    0.3563215954591259,
    -0.08860439039979716,
    -0.5720087544030066,
    -2.2574323645882473,
    -0.07055928328996389,
    -0.03717083931433441,
    1.1655040295393242,
    0.31938331437975415,
    -1.5108859005130406,
    -0.05881463306904935,
    -1.1563143345498363,
    -0.8495380993843622,
    -0.15584646610727784,
    1.6361127964001017,
    2.1503242518026995,
    0.9399343295921516,
    1.9433622652607043,
    -1.7929138015370387,
    -0.46553457035034207,
    0.6006636663666438,
    0.869865518812476,
    -0.4472285849658889,
    -0.06680544870056128,
    1.3778067823487268,
    0.23231058550595304,
    1.347810708238473,
    1.0529766585460592,
    2.3390987429732655,
    -0.584656668951383,
    0.8644845403294005,
    1.0537793428611837,
    -0.2781045415048668,
    1.564928140118045,
    0.19841509631949733,
    1.1397981736639367,
    -0.43299652148387563,
    0.23329863262215755,
    0.2878245458914606,
    -0.5136909824315825,
    0.4647394634587723,
    1.1491212973555087,
    0.08442264285561243,
    -1.1957399405534859,
    -0.16321820888623803,
    -0.7260875412388286,
    2.4811610502981782,
    1.5726061708221062,
    1.1295202746203226,
    0.9306893170134065,
    -0.14056808640234728,
    1.5941297659836227,
    0.5035050122460318,
    -0.17619242481089828,
    0.6891155152837886,
    -1.019048937584785,
    2.0729883300725387,
    -0.752336284560532,
    -0.9026754410717983,
    1.73792334165128,
    -1.2957105351437783,
    1.6365415404170973,
    -0.6307064677734681,
    -0.3072857647469282,
    -1.3309493169516513,
    -3.288959576771431,
    -0.2432937471138201,
    -0.02140555901095159,
    -0.635885355397575,
    0.1223245451163881,
    0.5450959235129116,
    3.6079733765976494,
    -0.12250891352040452,
    0.48890179270745776,
    0.39606712982334336,
    1.1273546024356529,
    0.6865741272671212,
    0.7230187571473775,
    0.5274531082461416,
    -0.032605249235551116,
    -0.07966556623102404,
    0.9493531077083545,
    0.9008894877707714,
    1.529181333185048,
    0.6732623364354594,
    -0.5570580391776205,
    1.4134480420468107,
    0.29741358034674,
    1.0279181231380266,
    -1.812285874395416,
    -1.3335084131698836,
    0.028297001168271545,
    -1.0894615688824236,
    1.0288679034252788,
    2.1014627442658105,
    0.7883994820915926,
    -1.5932521424754138,
    -0.6264869957725324,
    -0.00018198866255076355,
    0.9495469124253096,
    0.08012295126040421,
    1.7174906312366993,
    -0.9449898877985887,
    -0.3607573896523836,
    0.7709769155239823,
    -1.89910386027873,
    1.0331254594662922,
    1.1007576300826434,
    -0.28445866024836747,
    -1.8822618207676076,
    0.7945644786518202,
    -2.6386102356986334,
    -2.245768413977652,
    1.4064629362447734,
    -0.5570317176166405,
    -0.32460689246800406,
    0.30917243186845217,
    0.012746316252113372,
    -0.048948433213976704,
    -0.20240145196844508,
    -0.13461369204998677,
    1.1012807128669908,
    1.34868145407055,
    -0.5809024583608488,
    1.4452664292937967,
    1.8452730285244947,
    1.4162692003906512,
    -0.8575752713293715,
    1.5819402134020848,
    -0.6638209279033577,
    -1.4166753693310745,
    -0.9673241593532713,
    0.5123488601642695,
    -0.09011753743257929,
    -0.5746566394150182,
    -2.650945924922214,
    0.9567014396980673,
    1.2204515737966644,
    0.5373584951064055,
    0.7254340168913579,
    0.08088631453956438,
    1.0431394635948665,
    -0.2630755395261019,
    -0.5143409999239014,
    -0.7143130003480357,
    -0.6455327817504483,
    0.5788372973527907,
    -0.969465875007564,
    0.18942723062604994,
    0.9102726513527041,
    -1.185818394385586,
    0.11421141849399147,
    0.9243089354195461,
    0.29510658689301056,
    1.1601994800756406,
    -0.10740240888938345,
    0.47851723952771263,
    -2.624511014989216,
    -1.12217812882407,
    -0.7674928238861379,
    -0.1323518126403829,
    -0.22291416870864067,
    0.7628374982772661,
    -1.3079752826792137,
    0.7036375542708049,
    -0.8509364633038772,
    -0.6687605123275968,
    0.3421769828898746,
    -0.20300934588422664,
    -0.05846609747863671,
    -0.9073001531030297,
    0.5964099445458959,
    -0.6063484403058265,
    -2.3256124255466823,
    0.9275703292462695,
    1.4223004003497355,
    0.7337794972465485,
    0.39665833035594844,
    0.7722818499676328,
    0.6674807589812042,
    -2.2395601068470676,
    -0.3872979712488689,
    0.2572388517855663,
    1.369726668378471,
    2.6093452371939216,
    -0.2780886884913933,
    -0.8477977900872473,
    2.051945379557252,
    -0.0074631813087928855,
    -0.26956850224986795,
    0.34842789639961586,
    1.2743595433373474,
    -1.2592329306757202,
    1.1495507177422248,
    -0.012627201867450945,
    -0.8194616337804211,
    -1.6295593455262785,
    -1.3576229365359838,
    0.29025180985901383,
    0.15345677546034384,
    -0.06343618375443971,
    -1.3160074693812813,
    1.7141158837738948,
    0.9635203103393394,
    -1.0170898357865976,
    1.7950087331198605,
    0.473199010523375,
    1.2533102827994294,
    -0.1409469598735175,
    -0.5286390549928318,
    1.0441275412951592,
    -0.8016784882451975,
    0.633934109875424,
    -0.16868656954268552,
    -0.9236510532181818,
    0.9475064274571137,
    0.13316409556209333,
    -0.14927795593154772,
    -1.4309569879653348,
    -0.33287854839229575,
    0.3656832872058384,
    2.118666596969437,
    0.56010298376124,
    -0.5465007081412896,
    1.7769679446892637,
    -0.47061863398990544,
    -0.7673264066816319,
    0.3410969994789082,
    -0.06524950479955058,
    -0.6686133032084068,
    0.30686162803927525,
    0.24657955875376386,
    0.39581007047684064,
    0.4979905520640193,
    0.4634885677618675,
    -1.635144700686151,
    1.287514559343279,
    -0.36723158248690274,
    -1.1767477197022982,
    1.70304992869033,
    -0.14691014417859802,
    -0.21179828477028956,
    1.2441464319599336,
    -0.12726300838486088,
    0.26081958840065744,
    0.7079199775585554,
    -1.1017215734083778,
    0.4321405940318713,
    -2.1081789920562684,
    0.026023088289204535,
    1.2634304644912595,
    0.5645335612060473,
    -0.13293035489028324,
    0.2882709601728309,
    0.3916556263341249,
    -0.887135129232789,
    1.4404616331281501,
    -0.5648587465760487,
    -0.49527645315666247,
    -0.12084677314979488,
    1.602182816403233,
    0.13208548568610726,
    0.4994351077230485,
    -0.8401374640602688,
    0.6793216529866085,
    -0.1274788469766304,
    -0.41048507907013304,
    -1.1784026508539054,
    0.44764407337452644,
    -0.6715879067253151,
    -0.6540804742860583,
    -3.6395548672256828,
    -0.5232170709795312,
    1.1074561740556508,
    0.836685282151793,
    0.12321024051541316,
    0.6607832120105726,
    -1.4572805610317945,
    1.4672024473650913,
    0.41764159667655504,
    -0.3920083835042684,
    0.5558966094977902,
    -0.9248380680900968,
    1.474942561455156,
    -0.3787145300042157,
    0.7423672499072865,
    -1.2012242186844841,
    0.8994754295869714,
    -0.5619529299216458,
    -1.1532612064220804,
    0.26301445259216155,
    -1.008805647875211,
    0.329940963930015,
    -0.027307792237119755,
    1.1820894940576132,
    0.6131050778990909,
    0.8629184671871076,
    -1.1780712835614664,
    0.6328113188355099,
    0.43091269950913735,
    1.3856591851915703,
    0.14582554834516587,
    -0.3557401342164707,
    0.3175781855809056,
    -1.2401283628226256,
    2.312514997157808,
    0.06109725537433182,
    0.0002511181182585733,
    -0.16759446985329726,
    -0.29336711433670026,
    -1.7623271933548166,
    0.5742083061087371,
    1.5286254626127969,
    1.3103967693286493,
    0.8152502069936473,
    1.6403735256185656,
    -2.2663658809308895,
    1.4612937228147809,
    0.3502885387020411,
    0.5664964902296992,
    0.9457272962312712,
    1.1201701110850535,
    -0.8795452947787916,
    -0.3168224744298555,
    -1.3344511794723977,
    -0.15145216280938154,
    0.3470474442578888,
    -0.7444241249648968,
    -0.9810354647448772,
    -1.0297315990776512,
    1.0670668525195925,
    -2.070384819758271,
    0.8919933281680201,
    -1.2490201101552152,
    -0.24102417865858417,
    -0.6497005685941137,
    -0.4902523467617732,
    -0.8312555661654396,
    -0.3899121694280261,
    1.0043664411275854,
    1.0698806984653129,
    0.642941619461907,
    0.412223773844793,
    1.5304045036147504,
    1.2539798972296425,
    0.7978527530830173,
    0.34025930765912743,
    0.5567654913296504,
    0.8172183381229418,
    -0.12295022435196991,
    -0.3024062446828679,
    -1.2563521068085146,
    0.8188087677289593,
    -0.6782510849445347,
    -1.6171118264270958,
    -0.19948539912607974,
    1.0087255456383244,
    0.39220273493155094,
    -0.01459389566662697,
    0.44022480250724183,
    -0.003710656978340813,
    -1.2448812095024508,
    0.5837412939463589,
    -1.4289481168752236,
    0.09105737124936981,
    -0.05811341291766914,
    1.9342092347071362,
    -0.9278840752527667,
    0.20069178848174896,
    -0.5758963487104795,
    -0.608966709628244,
    1.2045933281566175,
    0.09404687409546357,
    -0.08245123150362191,
    -0.4880724217056024,
    -1.1367137614903327,
    1.02439454372352,
    1.4889683839190508,
    -0.4092546154748003,
    0.4310576733780924,
    -0.7685299028204542,
    -0.7442724787350943,
    0.058847867441617845,
    0.8778101699226891,
    0.8104812323230948,
    -0.1773246573349694,
    1.472767738045694,
    -0.3528804146060482,
    1.2315038951941426,
    0.8017487218725285,
    0.4522775036412386,
    0.4247057215721596,
    -1.2206635217499613,
    0.26395922612018635,
    0.5201100467901965,
    0.7386404008869637,
    2.1436883204238386,
    0.11779579535490246,
    0.6891384234126107,
    0.29031667225537733,
    0.44599818398537,
    0.15518458691245912,
    -0.6287711579283652,
    1.5688962639558868,
    -0.548638243065275,
    0.306509541125647,
    1.0621388870144093,
    -1.449709374435694,
    -0.6221960417329848,
    -0.31441582346483693,
    0.11006858974322965,
    1.9294496611036496,
    0.3508136528169224,
    -1.7774306748773672,
    -1.0256645400619164,
    -1.9582323589731179,
    -0.8616988998302137,
    1.700672899413469,
    0.1941179888294145,
    0.5573377549788382,
    -0.9385802762071435,
    1.5933461334325119,
    1.2204409500186961,
    -1.753265811150066,
    -0.3232468711951282
  ],
  "best_ctrl_weights": [
    0.34893650940596593,
    2.168411046329868,
    0.9876335515033654,
    -1.0876747839583054,
    -0.2956055677922985,
    1.2414932419713298,
    -1.1455329106410754,
    -1.4758425190652458,
    0.25454107283692506,
    1.1320327709477673,
    1.354021378016668,
    0.9262113763401978,
    -0.7199340383387218,
    0.8011840939227725,
    -0.3101005646449879,
    0.8410905758189949,
    1.4243221890146223,
    -0.5171202250906637,
    -1.389216982686639,
    0.43457349393656375,
    -0.3404400487838896,
    0.31648843975800345,
    0.2304213089069668,
    -0.969833776047571,
    0.7759397129897365,
    -1.8304558801852253,
    -1.3376193287628038,
    -0.38558279586304306,
    -0.37093879244425243,
    0.48557585746267,
    1.1574599808997714,
    -0.022146504903776672,
    -0.4245774478715816,
    0.6153877610378027,
    -0.997217335565365,
    0.5479662549384356,
    0.2677805975243498,
    -0.4035957340869877,
    -0.14521979921244443,
    -0.8544869144773287,
    0.4343743245967173,
    0.314205121339524,
    0.7027401025006743,
    0.7861451214474643,
    -1.6736336482993786,
    -0.9677255403816716,
    -0.4812823201619744,
    0.4652024031585911,
    -1.5928159989379427,
    0.5297267167878632,
    1.3454657678301516,
    1.3842696915328667,
    0.2999809516213259,
    -1.001193753148283,
    -0.10717797878549803,
    -0.07947362235222959,
    0.5433516001090722,
    0.27617058006324463,
    -0.38876409174833987,
    -0.00273176057889785,
    -2.1253546397394762,
    0.3339961592918132,
    -2.2327070113778693,
    -0.3347913351271503,
    -0.3559023008426492,
    0.1277815389751774,
    -0.5585550170415515,
    -0.44494038421493814,
    0.5255464498294876,
    -1.550557010093708,
    -0.5082241103602709,
    -1.671129028370964,
    -0.8026872247274371,
    -0.23462686934055627,
    -0.8088002682320414,
    -0.15325587944989827,
    -0.6176723660020178,
    -0.1034991862332154,
    -0.04202867914216606,
    -0.9906651863713708,
    -1.1386337841701604,
    1.0498989514427073,
    0.544647564076218,
    0.7251906991272365,
    0.18118360290878258,
    0.5862741173789643,
    0.481378593064412,
    -0.23401745650506817,
    0.6797766547309889,
    -0.07893451926504906,
    -0.3781979704397161,
    0.32513494540258653,
    2.4046149926903992,
    0.6681334581588053,
    1.4371070189510637,
    0.166118479030243,
    -1.4522143893562198,
    0.4460334413779426,
    -0.20850745028587,
    -1.274906967413838,
    -1.3482054971997686,
    -0.008115382151342783,
    -0.5563611600739619,
    0.7092577263917085,
    -1.4507043631230818,
    -0.4863462711831516,
    -1.415010579377968,
    0.38183552149853894,
    1.7615286262198018,
    -0.747019977276327,
    0.44217467191054466,
    -1.4544823847090973,
    -0.07179662619894361,
    0.46572328671075164,
    0.20734976013554887,
    -0.1723038991639164,
    1.2798701751242807,
    1.0520433849547748,
    1.1638567876281194,
    -1.5135685003126318,
    0.594540751804055,
    1.2659812288192056,
    -0.1294805786352724,
    -0.8372672891695713,
    0.14607113796756221,
    -0.8594273219023539,
    -0.7574616036056399,
    -1.9934393257850136,
    0.1311127454562318,
    0.4793072779106678,
    -0.8123571302176996,
    0.23209045484776714,
    0.018498886858115713,
    1.3293841930637373,
    0.10929236668351888,
    1.0318551994464975,
    -1.2735878914307082,
    0.14959401491182509,
    0.9536726083107595,
    1.288398358480648,
    -1.2590083306075759,
    0.8665946938809418,
    -0.9743973162632682,
    0.8258095284606753,
    0.8960432647536781,
    0.9843005736674167,
    1.183706581030226,
    -0.6266014031305236,
    0.5143559695743437,
    0.45550636236097425,
    -1.044135671717407,
    0.8601025048167998,
    0.19693946144968036,
    -1.1900229241771534,
    0.7847622426067744,
    0.3937896613089443,
    -1.9242707355041173,
    0.8394571570220619,
    -0.9035028922225464,
    1.137290402163064,
    -0.10214562149512305,
    0.33112597910585423,
    0.21787893667224675,
    0.08021873704416618,
    -1.2338586194733243,
    0.16981369002420477,
    -0.060925698695028126,
    0.9598638411399645,
    1.3139031355388868,
    -0.7864622515891603,
    -1.1267663860077797,
    0.41323865358149514,
    0.3109036550590047,
    -0.015671959186051663,
    -1.50975087041718,
    1.3027974875293429,
    -0.4175446604221228,
    0.6424020116533622,
    0.2937281823497416,
    -0.43739668745193705,
    -0.9053558044305585,
    1.1035904690502543,
    -0.06248033607772075,
    0.29434542583698,
    1.7785577036945144,
    -1.0039989385059058,
    0.257866024342395,
    0.3766840613310654,
    -0.4018578288390054,
    -1.3663846301847427,
    1.3371820086150148,
    -1.3644949889305595,
    0.10334779673025468,
    0.645860086350925,
    1.3434165671002556,
    0.8745458020711839,
    1.1681928198599703,
    -0.02609415877119789,
    -1.7149651233156844,
    1.0622422940065053,
    0.033401963577182885,
    2.66303598242445,
    0.8262092066288298,
    0.8082397337543039,
    0.4750886824985769,
    0.005745386665203291,
    0.6805670813950201,
    -0.28753724270330694,
    1.3262883992920338,
    -0.9093584254398133,
    -1.5072414556175515,
    0.3693582043589901,
    0.7582266595117254,
    -1.5063712873277377,
    -1.9424044343329239,
    -1.2776522814640046,
    0.08272505972916144,
    0.5818168771553485,
    -1.534976313486616,
    -1.0242257325679136,
    -1.78768169434998,
    0.15237176297350988,
    0.6970590403321711,
    -1.0044990578251183,
    -3.90178768434139,
    0.36181433248240125,
    -0.7050660235068981,
    -0.934362166033468,
    0.4259116006292095,
    -2.8738526207274036,
    -0.707396000750259,
    1.52426275656735,
    -1.9481444122038742,
    0.9188521647248991,
    1.2772912344948575,
    -1.6458885242943337,
    -0.4150396922879719,
    -0.6495956309797555,
    0.2713704672894432,
    0.6918552228835108,
    -1.3741519812596277,
    0.42082682053628834,
    0.9361559657775473,
    -0.8104166543024898,
    0.512870970234167,
    -0.09555130407074675,
    1.933759668810605,
    -0.07154480375153138,
    0.7529479264253663,
    -0.03662296133391718,
    -0.5511901714030624,
    0.22712425811107678,
    1.0116636954493479,
    -0.38098572456877056,
    -0.37477617849910216,
    1.2159771658553633,
    -0.39776024517626796,
    0.6465480540686468,
    0.24345799027058543,
    -1.564944599786548,
    1.3811654510370284,
    0.918005137420628,
    -0.9419978365828672,
    -0.5371803539956371,
    0.8018886662589526,
    0.5655929413577349,
    -0.3810488025808327,
    1.2160793983978204,
    -0.1252415312955491,
    -0.265103396738324,
    -2.487922174208606,
    1.3191200824834557,
    -0.2426567994499945,
    0.6957655938110311,
    0.34973758245959574,
    0.45427683661704477,
    0.8678551970290941,
    -0.23211900449467923,
    0.7146111490461009,
    -1.4579739237817084,
    0.5088380436036041,
    0.3681567945115937,
    -3.3715294376600107,
    1.28835433213644,
    -0.2691873332721022,
    -0.6502120506695228,
    -2.7478713128701022,
    -0.3715539849115063,
    -0.6232556737269751,
    -0.49235320747168465,
    -0.631944404084864,
    -0.2938954036338285,
    0.5826094797333211,
    1.4535776552616342,
    0.43769640692210054,
    0.06124966398829051,
    0.3437517030975098,
    -0.7831274105928977,
    1.407137719093825,
    2.0459935128598246,
    -0.22615927496832547,
    1.2065480733041618,
    0.4090885734104362,
    0.38432948611527845,
    -1.391599171937791,
    0.11760023326885784,
    0.946632811737996,
    -0.7576290723401516,
    -1.1901266679732274,
    0.29943574072420237,
    -0.7391203406813616,
    -0.12092829257206349,
    0.5196825380747379,
    2.3780036713683113,
    0.7247233608124188,
    0.1248519958214018,
    -0.8883245178661384,
    -0.38546017177399,
    -0.4288984307225761,
    2.6602292946973085,
    0.04597635629782141,
    1.3404675824801482,
    0.5613911788215298,
    0.07463773365614493,
    0.22154396554416952,
    -1.4647050190339987,
    0.6747406629826718,
    0.3009000470856224,
    -0.24568221996450818,
    -0.920541666779635,
    0.5461987999712767,
    1.1056856038232583,
    -1.081621641981415,
    -3.211638245769127,
    2.0075289766057915,
    0.5408407671269635,
    -0.812228118836833,
    -1.008640457435753,
    -0.9805480939536483,
    0.5799845701847423,
    0.012828267444949575,
    -0.08911810219087121,
    -0.29366749605397885,
    -1.7706603595246377,
    -1.047615770443566,
    1.0054603285703327,
    1.4390993580296119,
    0.11361320313493219,
    -0.6146101334548768,
    -0.47066911503494874,
    0.21976910361150392,
    0.596327489757784,
    -1.7626018777490209,
    -1.1272456393125034,
    1.194929224202264,
    -1.3742953661959616,
    -0.589014391493048,
    1.2405577061735686,
    -1.7131460319073968,
    0.7271379664035527,
    -0.6565188350276101,
    1.0210637016149338,
    -0.5069760082976319,
    0.4822854328674968,
    -2.4764354162901685,
    -0.2386334745118378,
    0.03226537712357956,
    0.05469240454361589,
    0.11545726105090891,
    -0.40719455762247975,
    -0.34609804174517034,
    1.3021851768118256,
    -0.5995664683743684,
    0.7303109726373372,
    -1.442777474801364,
    -0.9475457301539444,
    -1.1954463005338356,
    -0.2175357387028423,
    -0.18915520512051728,
    0.8109285108521201,
    -0.2578151145591397,
    0.17040047441979672,
    -0.5318713346271567,
    -0.6447566891357108,
    -1.897938724056221,
    0.16880498937661076,
    -1.3792120441552804,
    0.09642676212802276,
    0.7543636617941677,
    -0.7929259231531222,
    -0.12747346714465677,
    0.4976200523178309,
    -0.7665804872538261,
    1.4325272005189187,
    -1.2972512045163789,
    -0.7182607381186974,
    1.0866892826411974,
    0.27955692197374116,
    -1.3384460915429701,
    1.0113151555160445,
    -1.9448576534148843,
    -0.6562089543521605,
    1.2271555071082816,
    -0.005834928479469899,
    -0.31763781835637267,
    0.07465328067839215,
    1.124711248494241,
    0.5888699088287963,
    0.09699725915409337,
    -0.12775712608634723,
    1.3231917483370004,
    1.9858342869097658,
    0.9005316597176661,
    0.7838829462687498,
    1.848684893551176,
    0.4760540825757594,
    -1.0984364729049862,
    0.8102677014756386,
    -0.23981942209965115
  ],
  "best_morphology": [
    [
      2,
      4,
      4,
      4,
      4,
      4,
      4,
      4
    ],
    [
      2,
      2,
      4,
      4,
      4,
      4,
      4,
      4
    ],
    [
      2,
      2,
      4,
      4,
      4,
      4,
      4,
      4
    ],
    [
      2,
      2,
      2,
      2,
      4,
      4,
      4,
      4
    ],
    [
      2,
      2,
      2,
      2,
      4,
      4,
      4,
      4
    ],
    [
      2,
      2,
      2,
      2,
      2,
      4,
      4,
      4
    ],
    [
      2,
      2,
      2,
      2,
      2,
      2,
      2,
      3
    ],
    [
      2,
      2,
      2,
      2,
      2,
      2,
      2,
      3
    ]
  ],
  "all_fitnesses": [
    16.23261291764379,
    0.49321452634933394,
    0.29337854770585636,
    -0.6694417738337961,
    9.300820200735416,
    0.09876645945877272,
    207.55311862488918,
    -41.35863652598101,
    0.1191032721535521,
    1.9782399182655581,
    -184.87557740514262,
    -31.333272593344248,
    -0.2646955699376008,
    -1.7072654884316876,
    19.031692195709326,
    21.708325650694235,
    111.67393097719497,
    2.9329550911729143,
    0.386763161912711,
    -142.4996947441172
  ]
}