{
  "generation": 3,
  "best_fitness": 230.49899090516726,
  "mean_fitness": 34.14677401389095,
  "best_morph_weights": [
    1.097647099223731,
    0.08727968536891755,
    -0.9212994756167704,
    -1.8461741877513533,
    1.1022129106773397,
    -0.3509789682103573,
    0.33283815780077414,
    -0.8615614288418607,
    -0.5151749078873811,
    -1.0013304614874343,
    -0.42727225509257394,
    -0.28941945649642986,
    -0.5993961446702197,
    -0.7826254686399094,
    1.7368978613035673,
    0.6006137560679395,
    -0.4690578799646601,
    1.4006076793049662,
    -0.3630185295065359,
    0.2773891354099481,
    -1.0510408459939664,
    0.08912226441291193,
    0.8136417023711384,
    0.053699212132650914,
    -0.42383723036048415,
    0.41276503590188446,
    -0.4969836767116357,
    0.02637401330262449,
    -1.0396353079646579,
    -1.2000486000485058,
    1.5116096700548707,
    0.47617880864852924,
    1.113505805017696,
    -2.4769673052494485,
    -0.3368303143375586,
    1.1211872561509917,
    1.0369000645414936,
    -2.2301948269408007,
    0.429814528927266,
    -0.5551765528215126,
    -0.4881957055241104,
    -1.3112143478413911,
    0.08399743521013919,
    1.9696336889879913,
    1.4058413742446898,
    0.3022613761862165,
    0.48655596565327097,
    0.22827026325303496,
    -0.33636997104600797,
    -0.4563279968010693,
    0.2739765922190432,
    -0.8233857509677497,
    0.95447599511812,
    -1.4881062190257364,
    1.1049153339641022,
    1.0778933334408594,
    2.0766866781920728,
    -0.48528990274010486,
    0.9788056020717074,
    0.47773173781011036,
    -0.3248218450738961,
    0.7375034228759517,
    -0.22587771516314814,
    -0.4306775550915769,
    0.3967669199858913,
    -0.6495609242610689,
    0.7924683716099877,
    -2.062079909098797,
    0.1737262304226602,
    -0.3869264654461768,
    1.9032923496602696,
    0.2523390193284207,
    -1.3700516605606803,
    0.013683834191996173,
    0.3294505986632385,
    0.44303266168695377,
    -0.2992358636144847,
    1.578186016014676,
    -0.7285701032480455,
    -0.8670081168975672,
    1.7191618063639746,
    0.2095099628014801,
    0.9223491717960584,
    0.8404280913918336,
    0.6952704913946871,
    0.6132529793979021,
    0.5076120840713628,
    0.5753255068794848,
    -1.1147522981302957,
    0.39480640444569615,
    1.4303619930927987,
    -1.1601754325980316,
    -0.8504913161430235,
    -0.9682877404605122,
    -0.941032281820431,
    0.20698305693567978,
    0.18655774715942547,
    0.6167224768479858,
    -1.258671993383813,
    0.21090708325035243,
    -0.2887966010459349,
    -0.18890985350651673,
    1.0379217194956232,
    -0.3491043739714396,
    -0.24061440518670904,
    0.829795388684091,
    0.6115986389175146,
    1.4497494752512345,
    0.48059705530613933,
    0.9218025734236367,
    1.7585406325592077,
    0.12226628256715982,
    1.1051741132849284,
    -2.6068513397879207,
    0.1584174430721796,
    0.23034418284823585,
    1.9336686017236462,
    0.542961512376681,
    0.10407911347566562,
    -2.0768669351228715,
    -1.038415983464823,
    0.9390794622509568,
    1.1636680843482767,
    -0.051798861451499846,
    1.632171366924545,
    0.9755356366953468,
    1.060959546882235,
    -0.8448331539028856,
    -1.2975756483683814,
    -1.003297206129882,
    -0.9333972997204373,
    1.1637737832091102,
    1.0681532736072397,
    0.7967251313390054,
    -2.603506867059254,
    1.0880259049880163,
    0.5820749400831162,
    -1.5044571397133886,
    -0.026337214929554705,
    0.45859215751351234,
    -0.7786767218318634,
    1.2282115222024688,
    -1.725355622241663,
    -0.2737075280721922,
    0.02913214134241311,
    1.5563086116903513,
    0.19675889549119327,
    0.1868797823300385,
    -0.043488251018416135,
    1.8117029463763374,
    1.3261098108589384,
    -0.45573671941614113,
    0.7571447887217734,
    0.07585590375955795,
    0.0629476894185071,
    0.39966947036501616,
    -0.5588449715863422,
    0.7438641009827645,
    1.5311179491210738,
    1.4586331185416588,
    0.04347313136003743,
    -0.9172560380117305,
    -0.9784610730772796,
    1.6249513354434184,
    -2.0997934052161558,
    1.9297096704656262,
    0.4160101549370065,
    -0.24528079050260526,
    -0.22673644529206932,
    2.418818211532373,
    1.656206609379984,
    -0.3297214041365959,
    1.0677382949270038,
    0.18193844354404293,
    0.36259240700724177,
    -1.2865914494542625,
    0.3425410344499186,
    -0.46560501322029696,
    0.6609929138021574,
    2.378533746779209,
    0.11038677816784627,
    -0.10067949475150366,
    2.2994280131594347,
    -1.8399636311596281,
    0.6222510027071341,
    1.1437808584209816,
    -1.0890300748623407,
    -0.8240570022075248,
    1.8274795879734482,
    0.9275400183623299,
    1.2017024812181436,
    0.6298671321269951,
    -0.7432113240281881,
    -0.9133690288581321,
    0.21450542221199634,
    0.4440040458087526,
    0.05653184363512093,
    0.8743658678997202,
    0.5586924073612901,
    1.3648578470461679,
    -1.6084753548269513,
    1.4436680028911424,
    -0.42326228953856104,
    -0.9088997944455037,
    -1.6985568896347212,
    0.5450559903410713,
    0.11355255226228766,
    2.47319679615338,
    -1.1910316425849325,
    -0.030501534538737385,
    -0.4335898782949701,
    0.5141674922838201,
    1.0023158191617032,
    1.1032405743711455,
    0.35067852120908316,
    -0.144992714453805,
    -0.4229095199751988,
    1.8752655097655109,
    -0.27374517911378377,
    -0.08637441118680436,
    0.7398998066360767,
    -1.0365504233961562,
    -0.06814712121303691,
    -1.030946124814639,
    -0.8588467864085988,
    0.30121872948148776,
    -0.4802520559956783,
    -1.2686632212923554,
    0.9450264129143002,
    1.9463203111144578,
    -0.4674097283017531,
    0.13233919924219653,
    -0.8053580589482361,
    0.6239377225243984,
    -0.40691208836659865,
    0.7411322849211344,
    -0.6744929555506313,
    -1.4537490771216606,
    -0.30638319281652476,
    -1.2842158145345417,
    0.09781271216264066,
    0.9458465662764411,
    1.4093418631297032,
    -0.6457583959307823,
    -0.3373920679966817,
    1.8948047587279857,
    -0.868083739163669,
    -0.6536474217775904,
    0.11238960747549495,
    -0.6219421536848779,
    0.5781236283467843,
    -0.6873236842568435,
    -0.38767118527531047,
    -0.12506980510415255,
    0.6487880021170164,
    -0.4387782897215658,
    -0.9978863405247759,
    -0.2839473426139248,
    0.8157994762417782,
    0.5055404897693269,
    1.129866219276423,
    0.1694345900158732,
    0.21776678244618627,
    1.191619046976451,
    0.6266631299777722,
    0.1627949671540764,
    -0.47701672333468725,
    -1.609197390036419,
    -0.056408770067162696,
    1.0274038542555661,
    -0.21508813617017158,
    -2.443101417139109,
    -1.3471934136079122,
    1.157829975049342,
    0.7488622331451911,
    -1.2284670216139395,
    -0.5785839656375054,
    0.6091274416301302,
    1.202764075284323,
    -0.26021376478823544,
    0.33308801886574485,
    -0.06413923423221082,
    1.5292732526432868,
    1.3187679328033863,
    -1.4504417300601864,
    0.8602321905015201,
    2.2404026986207866,
    0.843446899394877,
    2.021468792125047,
    0.7412939113606272,
    -0.26779260917447734,
    -1.1509246190371365,
    0.4704549276821312,
    1.0983948235400898,
    -1.3791556894635189,
    0.8343501344873433,
    -1.94010935465011,
    0.5557391795595166,
    -0.2769083110250231,
    -0.6394571054332782,
    1.928681484553511,
    1.447826011753007,
    0.1163878785348741,
    -1.3010105259404163,
    1.967474727272527,
    0.7816406009280199,
    1.0756261574827077,
    -0.6416718354788796,
    0.14865295521469057,
    0.003419057717004102,
    -0.1901269957443181,
    -0.9221219387546049,
    -0.738641014029953,
    1.6919211897307507,
    1.1498670729034974,
    -1.618213404605978,
    -0.13141781374553899,
    -1.1711963619629115,
    0.03409751549637257,
    -0.3330334247463149,
    0.34679379301936886,
    -2.4124026925274427,
    0.44847398119000337,
    -1.042657561096801,
    0.9995703994243034,
    -0.8071351006069626,
    1.548510968185215,
    0.25255409481902596,
    0.4568149672690121,
    -1.3465257019705554,
    -0.8156608307989889,
    0.8420004228765715,
    2.427018035244807,
    0.3885244899139821,
    0.4646665425614164,
    1.929151343887054,
    -1.4273957691449264,
    1.2592424759470253,
    -1.3134610798445712,
    0.5238843430551706,
    -1.4387575809442446,
    -1.4288688919549666,
    1.2569746630006053,
    -1.178286493931534,
    -0.9734000634369935,
    0.6952854659239044,
    -0.4893203642918658,
    0.5119944184108997,
    -0.7180259255718148,
    -0.3416896503902262,
    -0.4465573291004414,
    -1.1633264498408622,
    -1.2799853609379026,
    -0.5655784067306028,
    -1.2706511061773458,
    -0.6214380327064286,
    0.0508421586312939,
    1.4584200551287114,
    0.46600844790899104,
    -2.044866350605586,
    1.2179687934145882,
    0.3239838196402716,
    1.1414630634878833,
    0.014575097628973476,
    1.2811870969380525,
    -0.767101691130975,
    1.3739602082584825,
    -1.1310166208867813,
    0.1576392885402508,
    -0.1424950561547134,
    -1.1029306970484256,
    1.1534817483331647,
    0.5632273122639457,
    0.5503472232478318,
    0.6178989698362733,
    -0.6311723161626894,
    -0.09115078358124165,
    2.535955012126648,
    -0.8727798441907806,
    -0.7644008355249224,
    -0.45486019784209925,
    -0.2547106864291301,
    1.2569460062193074,
    0.22491170522004714,
    1.3466220021311441,
    0.2181022376292251,
    0.4979355104713927,
    0.4877560459790456,
    -1.0391351851227288,
    -0.9033250016035985,
    -2.3173027583340926,
    -0.9270496698464331,
    0.8093351182139142,
    2.1197432398714287,
    1.3626043617937382,
    -1.845208783090576,
    -1.062997331716458,
    0.7214034284245686,
    -0.23642810442421713,
    -0.17784541538958587,
    -1.3662342273192458,
    1.1926315746408573,
    -0.04824187058240043,
    0.15453985057207273,
    -1.7129864954804819,
    -0.38895579205732445,
    -0.259000294482254,
    0.3452302698358625,
    0.5348105414655966,
    0.2965830308552175,
    1.1540155683984774,
    1.9208841610115328,
    1.8923543014924753,
    -1.0184370683166848,
    -1.5649540020719073,
    -0.7016275434446027,
    0.5937846174176444,
    -1.116674110615975,
    -1.9065519446932337,
    1.4213516673604039,
    0.1274406341235518,
    -1.8246229702891754,
    -0.27344512414790223,
    0.320934528783635,
    -2.394692597680467,
    0.6828962458583514,
    -0.3529461048409056,
    0.4806521941751065,
    0.6792239835014064,
    -2.4263674164525777,
    -0.5516331068485429,
    -1.9793324937774446,
    -0.43945261488372417,
    0.3958278746007999,
    1.4701411380841778,
    -0.8241250936722242,
    0.31309287335046865,
    -1.4160552053195983,
    0.42160923498845604,
    2.306339111762477,
    -1.7011007786285428,
    0.6559702805454309,
    -2.07377052022518,
    0.23540050941581792,
    -0.01755502698061605,
    -0.26487514215909075,
    -1.2825971007257468,
    1.2793092170079219,
    -0.24178587538085755,
    0.2055368006663448,
    -0.015072242459067157,
    -1.4337769638360558,
    -0.1697583018927765,
    -0.1695875144329589,
    1.2417266062351837,
    -0.19697174586946034,
    -0.9543040038669934,
    -0.0896759021761801,
    1.599747343769759,
    0.3796605728001972,
    -0.08639952358324118,
    0.22607941856364047,
    1.4755324716820397,
    -0.5005890095499984,
    1.4392486094735313,
    -0.01137137221576332,
    1.8913641337376157,
    0.23127796518212332,
    0.42748923774626063,
    -0.05344466650896158,
    -0.849997373192279,
    0.27784268478465607,
    -0.514111778818518,
    0.6491274926998637,
    2.1533759569893833,
    0.04220790720250051,
    2.250179010125266,
    0.5063561205103903,
    0.12626941152857282,
    0.7458267145886167,
    -2.2888753416019125,
    -0.6315023258633038,
    1.4270132492200427,
    -1.4222591290336477,
    0.7970122572136463
  ],
  "best_ctrl_weights": [
    -0.6752292405856533,
    -0.3973843456125142,
    0.05301975711424098,
    0.8117240732770775,
    1.4801459274933921,
    -0.995982009195009,
    0.5573282468038738,
    -1.2426630762711721,
    -1.5729563540921856,
    -1.294054187963435,
    -1.4500967353098364,
    -0.5840844295126545,
    0.9201230578130056,
    1.1710867339376625,
    1.3110231364671816,
    1.3707121798780282,
    -0.4214635742755063,
    -0.16659678584933607,
    -1.4367453827650654,
    -1.5902868580503435,
    -1.4060600777452066,
    1.1450180315056822,
    0.8381205631372215,
    -1.4162010614435743,
    1.1206439847253202,
    0.1539593888237427,
    -1.6828950535385796,
    -1.0299303032512794,
    -0.4199434280499908,
    1.6522520550502087,
    -0.24606843585754878,
    -1.195562469113271,
    0.17928878633137385,
    0.1293206811932359,
    -1.773032227204703,
    -0.542778451983773,
    -1.3193338901964053,
    -0.6873572385046699,
    0.6639675357071976,
    1.1358864194780671,
    0.03766690631960442,
    -0.6158944224446112,
    -1.3645767099228285,
    -0.6243913692745819,
    0.8552075751054155,
    0.02651682615302365,
    0.39790270440194275,
    1.8280688689936258,
    -0.6807761618965216,
    -0.36651157473069057,
    0.18297638402843636,
    1.772944156460722,
    1.8013405766092974,
    0.04150640424871149,
    -2.195421562809216,
    -0.1941933307982434,
    0.41148848888594813,
    0.6180820511333046,
    -0.12659122106237533,
    0.10604491411376595,
    0.5133258871251746,
    0.13166034493842943,
    -0.5427366229458548,
    -0.7942655726233998,
    1.3133459804087406,
    0.7537567516587815,
    -0.5592975232762616,
    0.5163072888254775,
    0.39581788332349727,
    -1.2129489726848597,
    -1.4338582850072314,
    0.2982739127832741,
    -0.6261295458047491,
    0.1399549050774312,
    0.1829839168299685,
    -0.5603264804960756,
    -0.5458982482844066,
    2.0759280189192983,
    -0.20431042576287411,
    -0.570598112256173,
    -0.1994862728136387,
    1.0578895448585606,
    0.5957529432059465,
    -0.6194584780620345,
    1.8674699140658255,
    -0.47349968257584785,
    -0.21823098827292972,
    0.7897665586829284,
    -2.0667474267733232,
    0.5731696546453134,
    0.590870985323,
    0.1053514232612858,
    1.3227894061305354,
    -1.4627710110102545,
    -0.12008636098504351,
    -1.273456582173513,
    -1.4742234017689184,
    -0.3071878206732181,
    -0.28676953078478845,
    0.3523637959354538,
    -0.9468894028751466,
    -0.6947933335176385,
    -0.019353750746169247,
    -0.48270652071217235,
    0.3525875886528684,
    2.3068892099522023,
    -1.4464973978911284,
    0.24805090258672763,
    0.6904842405289855,
    -1.7466370061733245,
    0.07814728653575385,
    -0.9030864275349811,
    -1.2512676119433355,
    0.028944190751527134,
    -0.735124083091231,
    -0.229395585696266,
    -0.6589914640002917,
    -0.836336852878772,
    0.7275190058719339,
    -0.02156869567442373,
    0.25346921056065747,
    -0.2282356481977847,
    -0.8242548077809795,
    0.05676047203060616,
    -0.5710341328247018,
    0.045148277797978545,
    -0.45372214134800615,
    0.6119879765449671,
    0.516570103441562,
    -0.5740732021538425,
    -0.6764903567534324,
    0.4016644483496898,
    -1.2371785193641758,
    1.364142665366509,
    1.0750801534719001,
    1.3754876200737223,
    0.494786071859086,
    -0.47160289166738023,
    0.02697529859178064,
    1.3271237796804998,
    0.04016628793781903,
    1.0292750888727598,
    1.6371958911649607,
    -1.4668395554538767,
    0.9167247787194069,
    1.6358664876266718,
    1.5833837498909724,
    1.5317585680790742,
    2.060885872475518,
    0.3260166728367548,
    -1.077716049867908,
    0.5054598124487509,
    -0.5557450131577283,
    -0.232892043992751,
    -0.6639201528286663,
    -0.30297944632599494,
    0.907046107184529,
    0.5293219673595915,
    1.6737927588483057,
    1.5562499918251245,
    -0.7633326662807983,
    0.9089160224413195,
    0.14347438012977354,
    -1.0993406875486362,
    0.348115437026447,
    -0.1443433243507945,
    1.2914517491491977,
    1.631620165474424,
    0.02731486907167951,
    2.0699506393190665,
    -1.282943912551076,
    -0.19242027941687745,
    -0.3161578974813296,
    0.13806729003742224,
    -2.9949546243936616,
    -0.17255285773615264,
    -0.2556975769505792,
    1.031449406439644,
    -2.291335584897372,
    0.8168464175915154,
    0.4737338232593467,
    0.3125874077087571,
    -1.4598145957561242,
    0.09825387981164016,
    0.5856987487937012,
    0.7247498169495313,
    -1.2613436864417213,
    0.47585865304691916,
    -0.8354406609268485,
    2.2067361949336712,
    -1.3857522633280326,
    -0.758286437457013,
    -0.07014030894169886,
    -1.2044840191812494,
    -0.46882476512039056,
    0.29798350736394774,
    0.12240683790438314,
    1.3819764797479521,
    0.3694199953327435,
    0.21190891439336806,
    -0.9207835586934218,
    -0.08380195338414856,
    2.4644055334432493,
    1.2319150481646004,
    -0.03585262277872999,
    -0.23948229890419173,
    -0.3519634443635211,
    -0.5383912758320412,
    0.37321135586583076,
    1.0247920656415976,
    -0.49219558082567877,
    -0.5186318953370754,
    1.6315790617398755,
    -1.4561112503063096,
    -0.29646839155348126,
    0.4128174462129455,
    -0.6373621557043503,
    -1.1003489620715015,
    1.6170680684293899,
    -1.0336683890284573,
    0.5251617606384946,
    0.9948318233953825,
    -1.1117546216331808,
    -0.970791844424799,
    1.4431644059459134,
    0.11154667280358782,
    1.533237340484365,
    0.2462703246499759,
    0.09209429675271442,
    0.3163997512480864,
    0.492361053606447,
    0.6233601603510112,
    1.2914609401924624,
    0.8975863271209582,
    -0.4373729426589992,
    0.1111113691888884,
    1.5616364889066214,
    -0.21166053682859276,
    -0.035363546377775675,
    -1.656952963243896,
    -1.3898186502952825,
    0.09343791953179867,
    -0.38498786742012675,
    0.386544630585285,
    -2.4576498592846514,
    -0.13236757185536271,
    0.16453294954330525,
    0.7111941222335577,
    -0.48504071352963146,
    0.25765204652117313,
    0.9560915834328285,
    1.3805683024823074,
    -1.8371745159017485,
    -0.41007065234125406,
    -0.4701200550030863,
    -0.6752819539128063,
    -1.30349519355958,
    0.9312361691388911,
    -0.0021826598083810322,
    -0.33730606573919625,
    0.917824357928286,
    0.22204192670495812,
    -0.10176468544657491,
    -0.1399598712927263,
    1.304352326072955,
    -0.8489590674929444,
    0.9246858935140426,
    -0.6626664668037656,
    -0.41662188920981913,
    0.023827076727019038,
    -0.7583831787376857,
    1.6837269443150324,
    0.5167078242286609,
    0.21922481023672963,
    -0.6325992296251801,
    -1.2157418171428473,
    0.4914508361115331,
    -0.48652749722517263,
    2.0394914034076073,
    -0.8707960931800892,
    -1.733990138792994,
    0.03799454192239046,
    1.2004888438459826,
    2.1438727865474685,
    0.9387429773999698,
    0.1205032300377007,
    -0.20390087500852358,
    -0.4203571889681347,
    0.14064377261182603,
    -0.16751187788882568,
    -0.010715320467490741,
    0.20409213159547213,
    -0.5035642800864162,
    -0.4117963673365415,
    0.41050374940657963,
    0.9216095318525273,
    0.20056967992007652,
    0.4593457191736501,
    -1.3085268606684028,
    0.40758982999300497,
    0.574852427373586,
    0.9958820768251537,
    0.623575297347265,
    1.1569277018713886,
    0.5046023547076897,
    1.287357509402943,
    0.47833545846399794,
    -0.5277370756499178,
    0.3364947205699008,
    0.520486443166891,
    0.1057307806795663,
    -1.3138587625033415,
    0.44549222819870843,
    -1.2969120012966935,
    0.24372021072588507,
    -2.354328050641412,
    -1.069866493319014,
    1.0744519896032474,
    -0.42851945182570017,
    0.1611436489452804,
    0.17612551847989152,
    -0.48787661866044085,
    -0.972900041849022,
    1.3243800904274645,
    0.05513758585683033,
    -0.6747566075045416,
    -0.8684729846051108,
    1.641904595395726,
    -1.1480848348456254,
    0.5798534212946918,
    0.11109939076642905,
    -1.288288406808472,
    1.8576316605656726,
    0.5104615361660636,
    -0.7484472059206451,
    1.7492543849472026,
    1.1853017156374717,
    -1.4398588873756504,
    0.17783876206922042,
    -1.4584048371712124,
    -0.7721738680344079,
    0.3993900733460358,
    -1.470265595800106,
    0.6036141753022304,
    -0.04129142051635951,
    2.061123368147988,
    -0.17315912180500942,
    0.8269188193906267,
    1.0745402823080874,
    0.2547176915888603,
    0.6566998254927149,
    -1.286969949241402,
    1.8075791850242298,
    -0.4393013158468669,
    -0.31327372436606543,
    -1.3561273613170903,
    1.1031674141263017,
    -0.22020388723465023,
    1.489510474227414,
    1.0911090470876381,
    -1.3362827894090061,
    -1.208526976613406,
    0.1044727671958321,
    -0.3155025927166135,
    1.0019468659777269,
    0.7584187720376221,
    0.08375004799061246,
    0.06605903873405591,
    -0.5148901514748655,
    -1.622039261626679,
    -0.8053080339166155,
    -0.31513964388620946,
    -0.22724671357955453,
    0.45423653879888376,
    -0.4246021567380334,
    -0.05818369133873051,
    -0.49916178212990114,
    0.09655320501870242,
    1.0802891481372998,
    1.4629864225472249,
    -0.6694968235486004,
    0.37446704437625067,
    0.6340611653917304,
    -0.09928006353894206,
    0.8009644457548009,
    1.5986681656585424,
    0.4128570387231047,
    1.8091750018390451,
    0.5973462979198076,
    0.60867052238253,
    -1.4810971508307107,
    0.7792491109036231,
    -1.0614153309663994,
    -0.3329343956081639,
    0.9832114219708308,
    -0.34852518454478254,
    -0.43503032447188117,
    0.4267960989191198,
    0.7601135644567475,
    -0.05445104431065463,
    -0.7256524652011415,
    0.3330197126511941,
    -1.298031330407789,
    0.6037889949634996,
    -1.1659393252065005,
    1.277731931776122,
    1.4722037060638982,
    -0.3465364327798121,
    0.20653425586303129,
    0.6400094115292878,
    0.5303172741473622,
    -1.0432993092589196,
    0.14718311017670008,
    0.2052493599863771,
    0.29478872914742893,
    -2.312826632864206,
    -0.6113145715652221,
    2.0489695538891093,
    -0.36634314875711926,
    -0.4842219700527127,
    1.1919568698029155,
    -0.3967820926301812,
    -1.413591976574399,
    1.8830598317041694,
    1.804589784532549,
    0.11146870132588062,
    1.0910228135189404,
    -1.8948425367315023,
    0.6732463384396079,
    0.5989922045290355,
    1.3104384886254643,
    -0.05124667957349913,
    0.7067431346417428,
    1.6406184576047054,
    -2.6527513058662877,
    0.22344301416761442,
    0.27161008297539796,
    -0.18157935630831573,
    1.7337596091145555,
    -0.9216441579528218,
    0.6104741349565908,
    -0.1644018813083134,
    1.3374477394680664,
    1.6551836987355182,
    -0.6031225142474304,
    0.19901639754436562,
    -0.1989356151378047,
    0.9401534478524446,
    -3.447982061576157,
    -0.8785225173601561,
    0.13868539096584878,
    1.1443881113048215,
    -0.017233454668384482,
    0.7084260355964017,
    0.39464476840044976,
    -0.14145534387673012,
    1.3011049691859002,
    0.4392279068623253,
    -0.8042434783186991,
    -1.5709443824729448,
    -0.8540127927624838,
    0.5338506205820807,
    0.6509723088788377,
    -0.5944357012704353,
    -0.7001967239532184,
    0.36258588036228423,
    -0.11828832885867964,
    -0.015266582650022186
  ],
  "best_morphology": [
    [
      0,
      0,
      1,
      1,
      1,
      1,
      1,
      1
    ],
    [
      0,
      0,
      1,
      1,
      1,
      1,
      1,
      1
    ],
    [
      0,
      0,
      1,
      1,
      1,
      1,
      1,
      1
    ],
    [
      0,
      0,
      0,
      1,
      1,
      0,
      0,
      0
    ],
    [
      0,
      0,
      0,
      0,
      1,
      0,
      0,
      0
    ],
    [
      0,
      0,
      0,
      0,
      1,
      1,
      0,
      0
    ],
    [
      0,
      0,
      0,
      0,
      1,
      1,
      0,
      0
    ],
    [
      0,
      0,
      0,
      0,
      1,
      1,
      0,
      0
    ]
  ],
  "all_fitnesses": [
    191.35242417122168,
    -11.638051703636677,
    0.4436170001791311,
    53.42735039815091,
    -1.1211293976518277,
    10.18918981551991,
    3.3258720977710823,
    -57.618331603693576,
    31.281098446685633,
    21.091673740567387,
    230.49899090516726,
    141.36118431639693,
    -80.26987020318705,
    90.9410759604009,
    0.001070900701932942,
    -16.99353145148649,
    -1.1026522838234882,
    84.36164080463436,
    0.07749875794070249,
    -6.6736403940398645
  ]
}