{
  "generation": 6,
  "best_fitness": 248.45451744749073,
  "mean_fitness": 22.963714856985792,
  "best_morph_weights": [
    0.14018825298682325,
    0.08727968536891755,
    -0.9212994756167704,
    -2.4955485137530213,
    1.6873092158331755,
    -0.4064685027582693,
    0.33283815780077414,
    -0.8615614288418607,
    -0.5151749078873811,
    -1.0013304614874343,
    -0.42727225509257394,
    -0.28941945649642986,
    -0.5993961446702197,
    -0.7826254686399094,
    1.7368978613035673,
    0.18571690757214449,
    -0.4919923467137105,
    1.4006076793049662,
    -0.3630185295065359,
    0.2773891354099481,
    -1.0510408459939664,
    0.08912226441291193,
    0.4941649486895066,
    0.053699212132650914,
    -0.6662103309503914,
    0.41276503590188446,
    -0.4969836767116357,
    0.02637401330262449,
    -1.0396353079646579,
    -1.2000486000485058,
    1.5116096700548707,
    0.47617880864852924,
    0.08671057526226544,
    -2.4769673052494485,
    0.13160249615574363,
    -0.19878348759841113,
    0.4277907253707536,
    -2.2301948269408007,
    0.429814528927266,
    -0.5551765528215126,
    -0.4881957055241104,
    -1.4718162232904648,
    0.2282228748278142,
    1.9696336889879913,
    1.4058413742446898,
    0.3022613761862165,
    0.48655596565327097,
    0.22827026325303496,
    -0.2561261958940212,
    -0.4563279968010693,
    0.2739765922190432,
    -0.8233857509677497,
    1.4238775572922475,
    -1.3043726294045912,
    1.1049153339641022,
    1.0778933334408594,
    2.0766866781920728,
    -0.16229211349872075,
    0.9788056020717074,
    0.47773173781011036,
    -0.3248218450738961,
    0.18533684425126218,
    -0.22587771516314814,
    -0.4306775550915769,
    0.3967669199858913,
    -0.6495609242610689,
    0.7924683716099877,
    -2.4012246999642026,
    0.1737262304226602,
    -0.3869264654461768,
    2.175832534860958,
    0.2523390193284207,
    -0.7876094232309011,
    0.013683834191996173,
    0.3294505986632385,
    0.44303266168695377,
    -0.4407048042563396,
    1.578186016014676,
    -0.7285701032480455,
    -0.8670081168975672,
    1.7191618063639746,
    0.2095099628014801,
    0.9223491717960584,
    0.8404280913918336,
    0.6952704913946871,
    2.193849038114512,
    1.0743145908410567,
    0.1795802406620018,
    -0.935596598142994,
    0.20409751851103225,
    -0.1644270841842516,
    0.8644150893802912,
    0.4767157874886842,
    1.7801224387617023,
    0.4534139319189792,
    1.2770848805118282,
    -0.5679132124724833,
    0.5540166320774529,
    -1.8409144871948349,
    -0.02509201138197097,
    -1.2754162279411816,
    0.5991048906171829,
    -0.288847098173143,
    -1.5107718758178665,
    -0.19853083550857764,
    0.27370907367624636,
    0.7916360975647635,
    0.14316031054774547,
    -0.7725584097036562,
    0.5501106910618933,
    -0.6254004716915261,
    -0.003423649653972555,
    0.8364060568644663,
    -0.46524267794076507,
    -0.12281642813847357,
    1.0186844966651363,
    -1.1064996703350245,
    0.24646785507764343,
    -0.12674754174421857,
    0.7951096678351487,
    0.9060217957201026,
    -2.0952197023664594,
    0.28038030573056916,
    1.3349387146766767,
    2.161511162835054,
    0.05201133969294893,
    0.5100015382369812,
    -0.25721635921243,
    -1.4848407855240306,
    0.8550620545155636,
    -0.2388124496020831,
    -0.14240749834362026,
    1.7502563274247005,
    0.4255917110708586,
    1.3642972973049416,
    -0.8824190088362741,
    1.6130054620881271,
    0.8065259099675236,
    -0.7912746710176783,
    -1.426862828373463,
    -0.6988266124044487,
    -1.199184025095978,
    0.010507164551845971,
    0.6822572201830824,
    0.6342231094503744,
    -1.7263930293550789,
    -0.9390461298623365,
    -0.5692854285666396,
    0.520356821098105,
    0.02058692925811483,
    1.442513468542125,
    0.5227896750308527,
    -1.7078807478858087,
    1.8098664279180388,
    0.22003089157577652,
    0.736106657326054,
    -0.8911146285492253,
    -0.014579178428675068,
    0.6455218941979981,
    -1.1123629895431346,
    0.4993616852845562,
    0.10359925869260396,
    0.012688601334822056,
    -0.5579014290536511,
    -0.6163412769930245,
    0.6699890069807656,
    -1.5778544766873457,
    -0.36483396279624425,
    -1.7041249895155772,
    1.2108865826020712,
    0.4943338485203666,
    0.4100967339132368,
    -1.1297745182190293,
    -0.9576104383017694,
    0.1906918193083259,
    0.6892001924156028,
    1.0251213511513841,
    0.5544243498528946,
    -0.2589573789621108,
    0.5275968595320244,
    2.064998276454993,
    -0.9597509673448923,
    -1.4984206960276036,
    0.7741018922594672,
    -0.9444637771733532,
    -0.2860126845223414,
    0.5249440887668481,
    -1.7702218240724996,
    0.23638337765467243,
    -1.2862343581412556,
    0.8798864288711085,
    0.23507253470226627,
    0.9087602412469276,
    -0.5116845937608819,
    -1.5619626600842407,
    -0.26768057090340586,
    1.1681190680270728,
    -1.132318104431877,
    0.20084583821080054,
    -0.514757801886751,
    -0.04767571673109605,
    1.6524125957118196,
    0.8293424998653877,
    -1.7858318350915974,
    -1.611799539829356,
    0.7968390084684018,
    1.8213792061840683,
    1.8503379328398537,
    -0.1177927768736693,
    1.8840524687524307,
    0.4181907323964127,
    0.9308087369608864,
    -1.5435494275557293,
    -0.2732946041397814,
    -0.343933847604152,
    -0.13152903996988113,
    0.33295531604464396,
    0.40290809005791434,
    0.08015711513225372,
    0.4317244976846267,
    0.2907318777052582,
    -1.6093901001084467,
    -0.07468983025644231,
    2.4832962697959506,
    0.5055175349395299,
    0.33196139670685815,
    -0.3223601079130948,
    0.8552459652704762,
    1.0242221602207504,
    1.7177556606034927,
    1.4161055361440276,
    0.17372162675189887,
    -1.0876963129255477,
    0.10122935545185405,
    0.6619523733346677,
    -1.5262604766120687,
    0.6362882234253485,
    0.004248544349121933,
    -0.41112411340881966,
    -0.5068403136916744,
    0.825722978819171,
    -0.08037996331797326,
    -1.602521823830214,
    0.6902896729524995,
    0.3494891085542854,
    -0.11689474186847085,
    -0.2736443792217175,
    -0.7412619869168412,
    0.5151366298074348,
    -1.4846321518357135,
    0.8306285293304779,
    -0.17222297759255337,
    2.6307669369038003,
    -0.07371951339604689,
    -1.9004462519603194,
    0.8183409723883516,
    0.33703489377084284,
    -1.099181165313445,
    0.39196188592093983,
    0.5376820633463346,
    1.4548385867094238,
    -1.2770518836068983,
    2.869714144647375,
    -1.331485949758824,
    3.2347408846183576,
    1.6282288066623074,
    -2.059243207666864,
    -2.1029691391624032,
    0.49034905032127557,
    -0.7282200432190851,
    0.3138864766194604,
    -1.3024215418037914,
    1.4926898079004132,
    -1.6431835629259923,
    -0.5017829016117096,
    0.08540781960094146,
    -1.5088448798057983,
    -0.8362059051656421,
    -0.6606744646621393,
    0.01769192726731526,
    1.4304694884125144,
    -0.23427630712736366,
    0.21630628875441507,
    0.9409593015918831,
    0.654147257763656,
    0.34926307052147115,
    -1.956861051065597,
    0.6551272804357777,
    0.4322047671654984,
    1.6429686450236312,
    1.7723061078151487,
    1.6035547815824163,
    0.15645088796918835,
    1.4597809039147882,
    -0.8975036496516,
    0.14135901438948537,
    -0.630243316945557,
    0.3865139062709757,
    0.042043266658921885,
    -0.5998914067440385,
    -0.9137656835040352,
    -0.1870192449254912,
    0.10025718397730515,
    -0.8138157888247708,
    -2.0870936107150255,
    -1.794812653120103,
    1.559596849587117,
    1.0962221306104027,
    -0.6276944892918942,
    1.664906951609932,
    0.5907951066141538,
    0.5735051749811426,
    2.723574090650314,
    0.19543477370671158,
    -0.32454424662106535,
    0.20499842243067587,
    0.26032519034638174,
    1.2845086993684993,
    -0.8803826583425602,
    0.7979189719001765,
    2.6449557246790545,
    0.835668474027089,
    -1.9696976357540974,
    -0.9271406209175895,
    0.36647219832717215,
    0.5763381006630042,
    -1.4552992687606237,
    0.8718982928961571,
    1.4465972859533822,
    -1.849259179964896,
    -1.874929586736965,
    0.2493496606266949,
    -1.2964894745627944,
    -0.1693048313228681,
    -0.9815076974735627,
    1.108787138257496,
    0.9824333103794907,
    -0.9217275044489261,
    -2.458996013169932,
    1.1402009821013093,
    1.9423690195312724,
    0.24359815035376253,
    0.04037024121675388,
    0.2323556373953648,
    0.03421207185270038,
    -0.2548166615058484,
    0.6480993664131908,
    -0.19697895339972937,
    1.3374943258557037,
    -2.2445914266920606,
    0.3429470682456396,
    -0.4935613816990275,
    -0.025934607108619667,
    -0.46559898125875704,
    -0.2495062439927343,
    -0.22488348214676543,
    -0.13185491076904782,
    -0.28789510183224326,
    -0.3812861078267179,
    2.4521049625091393,
    1.0009326786973392,
    -0.7727830484349136,
    0.673241695213457,
    0.3773735247393051,
    -0.20301736862788344,
    1.0999887408027553,
    0.020415035369203152,
    0.0982064760852707,
    2.0701496329494575,
    -1.1712028220928556,
    2.524366181875523,
    -1.729068219266127,
    -0.06337462809081869,
    0.04644702748547588,
    -0.6420249611494222,
    -0.6355123635765905,
    -1.6464828526807787,
    0.15499595052946638,
    -1.440275224771804,
    0.3195731718658059,
    1.0642867315764162,
    -0.49339184940432,
    0.8213666141847753,
    -0.24359662236730947,
    -1.412954749550163,
    0.5784551991479544,
    -0.2530838905365707,
    1.0104849284198676,
    0.6208208159825788,
    0.5892341027614137,
    0.09252139418027007,
    -0.4350718150569991,
    0.5331503072774141,
    0.38211124550638725,
    -1.4992537260645946,
    -0.8248999150472022,
    0.9533111029928201,
    -0.6908662278859943,
    -0.260217669004148,
    0.4823168606272245,
    -0.4908398318482058,
    -0.3196237075410652,
    0.5407899044108173,
    1.7648717942159702,
    0.4689515659637454,
    0.6233341565324783,
    -0.6926525310596011,
    -1.5769140605780467,
    2.363863691607072,
    0.9318917186760136,
    1.2710363747288183,
    -0.37126255098378613,
    1.200193989354007,
    -0.3797818624077241,
    -1.1194381173724548,
    0.5812181287797874,
    1.0001982519701196,
    -0.021244254848836328,
    -0.7795269060407863,
    -0.0598722371710539,
    -0.9610351719717212,
    0.09793360111384107,
    -0.36842740948689634,
    -0.8188107563370762,
    -2.215311777863896,
    -0.23583767842269693,
    -0.6284821734872443,
    -1.6587855691619613,
    -0.7834640645758644,
    0.554679932862243,
    0.41139473651340525,
    1.5382999592811277,
    0.7260788436172233,
    0.4494168242759948,
    -1.52895730544146,
    0.46724280875907154,
    -0.062353905538860444,
    0.6008667229615962,
    0.47703148784180227,
    -0.30266229402275624,
    -0.8146430272825183,
    0.16521075365837679,
    -0.11685002757154991,
    -0.674125450661076,
    -1.5037623916476737,
    -1.3904342039387136,
    -0.3695278000837465,
    1.2023073290290376,
    -0.26896738284241967,
    -0.19741014045452504,
    0.2438087427143214,
    -0.13992511689731202,
    -2.1398124643847476,
    -1.2241356623627593,
    0.2997032567545926,
    0.17404058026443203,
    0.016742831858661527,
    0.9751742074682842,
    0.05614829889852414,
    -0.1820973546988114,
    1.4832499573178313,
    1.3668055786375841,
    -0.12293408865143443,
    -0.8078258378813897,
    -2.3413520201607643,
    -0.18995943675673008,
    0.17021176243682654,
    -0.2900439992758489,
    -0.2758677553343113,
    -0.27190522251270716,
    0.6288437450523366,
    0.39682451431872784,
    -1.6694450135837662,
    -0.15302295814070455,
    -0.13515868382550364,
    0.2504476189679976,
    -0.9214546270898926,
    1.1041194236184315,
    -0.5874620160872113,
    -0.6432179865719272,
    1.9047669979365545,
    -0.5638303353203553,
    1.5576059093409544,
    -0.3104122421716161,
    0.45033091948057524
  ],
  "best_ctrl_weights": [
    0.5977453901326736,
    -0.9721393133074665,
    0.9222150706481507,
    1.689829847250388,
    0.7113336978308165,
    -0.8136337812968478,
    -0.8516247373470127,
    0.31344330604783227,
    -1.1464658973544481,
    0.061068036132716566,
    0.9832260189961373,
    0.6043778801056853,
    0.08291128394449226,
    1.3418217636020169,
    1.4459113000232202,
    -0.968133818270613,
    0.06019332223912737,
    0.8439794565765876,
    -2.4398911202440665,
    0.9464853292081374,
    -1.8843684804282514,
    1.80716090521856,
    0.45423171134365514,
    1.5052166525630335,
    0.8686696217177255,
    -0.04213117738580025,
    -0.3576083378018432,
    0.790920917959129,
    2.0846588401786406,
    0.01016083779676651,
    0.17702632503492524,
    0.01670623798102758,
    0.3158544391793533,
    1.6369246122896788,
    1.1615304757452416,
    -1.8428574960217976,
    -0.4947500650802803,
    -2.000234520721011,
    0.324353980469303,
    0.246661997443001,
    -0.5632731054382792,
    -0.9834888159542436,
    -0.8624499987813249,
    -1.5646024351563859,
    1.4062740222637493,
    0.9474000030835869,
    -1.1199804096318642,
    0.8524583479571458,
    1.0119611443606717,
    0.6634564592747011,
    0.35660888386821205,
    -0.09964425940110916,
    -0.5681875144084931,
    -1.8427450193530834,
    0.5954301486196829,
    -0.48825814799214284,
    -0.04379554666865748,
    0.8484698096908041,
    -0.8355576561548278,
    0.5580024489685237,
    -1.0735537564109559,
    -0.9653214591746531,
    1.943198424841819,
    -0.5514583668374518,
    -0.6817888139974627,
    0.011742713835416762,
    1.0310586983542824,
    0.7911064562044035,
    -0.00974541761522644,
    0.3246407630454075,
    0.8547438250384962,
    1.8509373851368225,
    0.577951649014571,
    -1.9761190438328589,
    0.769376471513286,
    -0.36647798002838106,
    0.4597548490164951,
    -0.6970122356585391,
    0.15490449870699574,
    0.6829207607397224,
    0.3227322244764905,
    1.705130508571078,
    -0.4481757671637636,
    -1.2361562104223152,
    -0.049159093483659766,
    -1.7819499517258381,
    0.7764398388203935,
    -0.9065266413188017,
    0.4090726543154163,
    0.9984709678915691,
    -0.02976847146580372,
    0.29678362653698664,
    0.23706861448017544,
    -1.3328053484651143,
    -1.0331052199961503,
    0.0049738587527194955,
    -0.6742393630615577,
    -0.6466651534718553,
    -0.7185136703932182,
    1.5770310611495575,
    0.32848695782521553,
    0.035391333744931475,
    -0.9009479182017711,
    -1.5304615652787719,
    0.03552057421651175,
    -0.05694053812977187,
    0.263078181634109,
    0.6875365884393674,
    0.3743117944943583,
    1.3133271926628278,
    1.2016388817145538,
    -1.1852082723146014,
    0.15082834710173942,
    0.39953821800440237,
    -2.5886691659954244,
    -0.3350899417187341,
    -0.4705234797917813,
    0.011007918128698906,
    1.1475659809676917,
    0.6332611008259975,
    1.3445833221727028,
    -0.17870308808776414,
    -0.3208857879839401,
    0.6723735443112686,
    0.3825742582777142,
    -0.32019629389436066,
    -0.3443590037936201,
    -0.5726211087924692,
    -0.7332674757474553,
    -0.7999813380499359,
    1.115568770008508,
    0.5018518511431205,
    0.8586917791872751,
    0.39754298581237224,
    -0.6199298882145857,
    1.2135750762405222,
    1.689816537205592,
    0.24271009247410094,
    -0.5614785504568803,
    -0.18380626749056098,
    -0.3107741579672768,
    -0.28140442940831817,
    -0.4377465911905772,
    -0.004874967553264953,
    -1.9972834033280478,
    1.1914963767848983,
    -0.9487398343866632,
    0.48181861866479897,
    0.7047279231045309,
    -1.556118873235902,
    0.9512829912975947,
    0.2535086379976524,
    2.40937299972361,
    -1.8011377494211307,
    1.3385526344057792,
    1.841044888236341,
    0.759424903305772,
    -0.39211218634661926,
    0.9280489002761914,
    0.43629972656956145,
    -1.2623631505845403,
    -2.558305028165059,
    0.07656617037525637,
    -1.5999126097567953,
    -0.20540926112976404,
    -0.22294521983799476,
    0.06589857140878116,
    -0.7663714551923447,
    0.21471461443406592,
    -0.47559633550037506,
    -0.5097516339942739,
    -0.33219662307421505,
    0.3063323967133072,
    -0.17573977729800083,
    -1.035515168668375,
    0.8035805743532468,
    -0.2078304390985378,
    0.8888310387605278,
    -1.135927226353429,
    -0.19611671679863985,
    0.11607865482179061,
    0.007437030705628345,
    1.567861419944387,
    -0.23584704292443714,
    0.9227978029991017,
    -0.7677056010448379,
    -0.6626376317003531,
    -1.1442631340886689,
    1.0954861213669924,
    -2.195396067067737,
    -1.3663533338539413,
    -1.8561135457277047,
    0.20010856265323726,
    0.8001569510161382,
    -0.8773083265262362,
    -1.314688359115617,
    1.6608610185841306,
    0.5298195084249893,
    -0.8402802526802896,
    0.5415232958291291,
    -0.9389546107818126,
    0.02286295970535778,
    -1.1994472183851517,
    -0.7888166269576568,
    1.6587498383761412,
    1.5993712070318435,
    0.313304344102476,
    0.09407473217485884,
    2.676364463808101,
    -1.2669028182708448,
    0.1942229679214761,
    -0.7868724035960958,
    -0.4694279161592805,
    0.7304625664758176,
    0.09457415836387406,
    0.5888964458263084,
    0.29759951901483755,
    -0.1203680562578594,
    0.3733597388285614,
    1.5782066518618758,
    0.2747051147988937,
    -0.564157120627314,
    -0.36682991546315263,
    -0.970791844424799,
    1.2103760487954303,
    0.11154667280358782,
    1.533237340484365,
    0.17090012357790152,
    -0.005277368791871136,
    0.08596577013389242,
    -0.24161493967325787,
    0.7912917396040186,
    1.6066663862247166,
    0.8975863271209582,
    -1.2583426151506556,
    0.38701141101301995,
    0.6670186073365253,
    0.42857570897972563,
    0.48627066806562635,
    -1.656952963243896,
    -1.3898186502952825,
    0.09343791953179867,
    -0.8070870890641333,
    0.386544630585285,
    -2.042865605178994,
    0.999697624182462,
    0.16453294954330525,
    1.7213257099947383,
    -0.4639088245171409,
    0.25765204652117313,
    1.0233240208806718,
    1.3805683024823074,
    -2.0555406795279842,
    -0.7056938817563886,
    -0.4701200550030863,
    -0.6752819539128063,
    -1.30349519355958,
    0.9312361691388911,
    -0.0021826598083810322,
    -0.7860398888032804,
    0.9304542966455019,
    0.22204192670495812,
    -0.10176468544657491,
    -0.1399598712927263,
    0.9848137691776967,
    -0.8489590674929444,
    0.8764635617498001,
    -0.27039598526359476,
    0.7170891817848385,
    0.023827076727019038,
    -0.7583831787376857,
    1.6837269443150324,
    1.1345791039850825,
    0.24806198452180533,
    -0.30067873187659383,
    -1.2157418171428473,
    0.4914508361115331,
    -0.48652749722517263,
    2.0394914034076073,
    -0.8707960931800892,
    -1.733990138792994,
    0.03799454192239046,
    0.8720022495270155,
    2.1438727865474685,
    0.23854108326688228,
    0.07402863626061745,
    -0.28049774056104787,
    -0.4203571889681347,
    -0.5525182500200787,
    -0.16751187788882568,
    -0.35883614726930296,
    0.20409213159547213,
    -0.5035642800864162,
    -0.19633890939750476,
    0.41050374940657963,
    0.9216095318525273,
    0.29910115201701865,
    0.30149639124372085,
    -1.3085268606684028,
    -0.5048973314846787,
    0.574852427373586,
    1.2292268001525728,
    -0.2684687916890067,
    1.1569277018713886,
    0.5046023547076897,
    1.090651773824454,
    0.7449125477883467,
    -0.5277370756499178,
    0.3364947205699008,
    -0.37203943304040904,
    0.1057307806795663,
    -1.3138587625033415,
    0.44549222819870843,
    -1.2969120012966935,
    0.24372021072588507,
    -2.081664674845041,
    -1.069866493319014,
    1.0744519896032474,
    -0.5221117066245703,
    0.5135565708538403,
    0.17612551847989152,
    -0.40701981300150947,
    -0.972900041849022,
    1.3243800904274645,
    0.05513758585683033,
    -0.6747566075045416,
    -0.8684729846051108,
    0.9921350531665637,
    -1.1480848348456254,
    0.5798534212946918,
    -0.16798939942672586,
    -1.0806824477639352,
    2.008510234385788,
    0.7154165627650544,
    -0.9602132093185153,
    2.9556174490880496,
    1.1853017156374717,
    -1.4398588873756504,
    0.17783876206922042,
    -0.5024554472935684,
    -1.1315952385441943,
    0.3993900733460358,
    -0.841033091780419,
    0.6036141753022304,
    -0.6296168113185827,
    2.1148836031613776,
    -0.17315912180500942,
    0.8269188193906267,
    0.3972582706075085,
    0.2252892266913075,
    0.6566998254927149,
    -1.286969949241402,
    1.8075791850242298,
    -0.4393013158468669,
    -0.31327372436606543,
    -1.3561273613170903,
    1.1031674141263017,
    -1.3681902420691805,
    1.9380791737533278,
    1.078127775235652,
    -2.0020560373923058,
    -0.5354693339933673,
    1.1849175784112196,
    -0.97006415635141,
    -0.30951459577517776,
    -0.5811175900192633,
    0.27393327197672046,
    1.7407110214226207,
    1.0958953536164942,
    -1.1494059916290487,
    -2.118829253549045,
    -1.434591779791906,
    -0.8340541735474246,
    2.0472882269277983,
    0.034298017691745286,
    1.0158512094049668,
    -0.37552031505212813,
    -0.08036387439792932,
    -0.2146423142305127,
    -1.4799205316585213,
    -1.890246496899453,
    1.4161501535354244,
    1.169462257725299,
    -0.05067054145286599,
    -1.6927757622615316,
    -1.26843245413518,
    -1.2315196784403446,
    0.05490762409603944,
    1.8577977615546168,
    -1.6814330513610602,
    -1.179002082457003,
    -1.304979430974266,
    -3.0222314617685275,
    0.4835354278554244,
    -0.41973680242622946,
    0.8555535345053288,
    -1.9688598981421603,
    -0.7078059255366459,
    0.10450580149001559,
    1.5952337936630507,
    1.3564782291474065,
    -0.6313333243046482,
    -0.9042942184110512,
    0.18670217001549985,
    -1.3370891050205271,
    0.7476071055406048,
    0.04704458711990178,
    0.6996189588299574,
    -0.3826290121073912,
    0.12513197737586165,
    1.6456306608684488,
    -2.064531166552345,
    0.8049817784210036,
    0.43345549604167183,
    0.2872703778607646,
    1.2145254718716127,
    1.6766411308751814,
    1.2056378839743103,
    -0.702714823644491,
    0.8994135602679926,
    -0.10054251774759704,
    -0.29763663183134903,
    0.709669651518344,
    -2.4136072396304997,
    1.5955435964847622,
    -0.6068604907711613,
    0.2816672302216113,
    1.285578294073179,
    -2.4166992738711057,
    2.2496172948932784,
    0.04327512849549331,
    0.7903520315485887,
    2.037156007144644,
    0.7918746636006263,
    -1.2419270112392526,
    -0.8442395971126504,
    1.1293413604544231,
    0.3536491093335774,
    -1.4298153379188376,
    0.8223679864190945,
    2.148565624321048,
    -1.2181068410453089,
    -1.0719405035755531,
    -0.26106378390875284,
    1.8092957148400293,
    -0.7142796163466036,
    -0.00313361885741994,
    -0.13033670966237731,
    1.626176082067647,
    -0.8933134332365125,
    0.19338046506327597,
    1.8596163326283135,
    -0.05349763208908282,
    0.3575447793125147,
    -1.0874078387253654,
    0.4224560675656375,
    0.758733548432303,
    -0.6270621174311131,
    -0.8405688922630107,
    -0.7160786210909911,
    -0.8540127927624838,
    0.5338506205820807,
    0.20971432039037707,
    -0.5944357012704353,
    -0.7001967239532184,
    0.36258588036228423,
    -1.0173031575904183,
    -0.015266582650022186
  ],
  "best_morphology": [
    [
      3,
      3,
      3,
      3,
      3,
      3,
      0,
      0
    ],
    [
      3,
      3,
      3,
      3,
      3,
      3,
      0,
      0
    ],
    [
      3,
      3,
      3,
      2,
      2,
      0,
      0,
      0
    ],
    [
      3,
      3,
      2,
      0,
      0,
      0,
      0,
      0
    ],
    [
      1,
      1,
      1,
      1,
      3,
      2,
      0,
      0
    ],
    [
      1,
      1,
      1,
      1,
      1,
      1,
      2,
      0
    ],
    [
      1,
      1,
      1,
      1,
      1,
      1,
      2,
      0
    ],
    [
      1,
      1,
      1,
      1,
      1,
      1,
      1,
      2
    ]
  ],
  "all_fitnesses": [
    231.72751896577142,
    9.68878372714346,
    -112.39963242236433,
    248.45451744749073,
    51.03426519869657,
    6.155607584757831,
    -0.1083239929171782,
    -205.7121717552725,
    -22.7992222583415,
    -41.84289495708052,
    3.6455337934233967,
    0.9011671308612677,
    -10.062634549437746,
    -6.909209394226821,
    23.807000120361238,
    27.041266599467406,
    -24.789799519729286,
    104.94696749065076,
    163.5077247203244,
    12.987833210137183
  ]
}