{
  "generation": 2,
  "best_fitness": 191.35242417122168,
  "mean_fitness": 33.60541596607514,
  "best_morph_weights": [
    0.987025193221233,
    0.6719211223165987,
    0.14896448831160353,
    -0.5620094460218035,
    -0.7041840157957165,
    -1.0221196764778442,
    -0.5802166214460585,
    -0.780512592078407,
    -0.4911648582777839,
    0.24104218537410355,
    -1.098948649926417,
    -0.11950102078433336,
    -0.667934735785251,
    0.5310785084453669,
    -1.4258296694470216,
    -1.1576826775996374,
    -0.28401061794116783,
    -0.5706874516380676,
    -0.05979658115953034,
    0.4578736950814955,
    0.9786047696664688,
    -1.05105865761871,
    0.455559393821143,
    0.9925866145599791,
    0.15749335656953314,
    -0.35730789501036553,
    0.9260077170934504,
    0.809069329184711,
    -2.397218274561027,
    0.15317202349634268,
    -1.076825482646632,
    0.21608558724523494,
    -1.714435561756854,
    -1.6720092276417196,
    1.201617757496777,
    1.0758808009019125,
    0.20611567759405566,
    0.30499098993089563,
    -0.47143507934701934,
    1.7286840489959916,
    -0.6160863885498766,
    -0.16134908231269238,
    -0.3571958588924418,
    1.0697277623910035,
    -0.3602641610680639,
    -0.25863408557345563,
    0.3032832927128828,
    1.210985441216819,
    0.26285018128547033,
    -1.6800011031275932,
    -0.9571218426903649,
    0.08464075264241391,
    0.2916835726164376,
    -0.3268266679127682,
    1.07497965915067,
    0.7766318231375493,
    0.7620441280978476,
    0.04212319845107371,
    -1.7862152501156465,
    -0.7534249523561319,
    1.5379768220561012,
    0.2805533129497334,
    -1.269080710859564,
    -0.169591470918529,
    -0.5445395904934165,
    0.9863797872352719,
    0.43463942443942816,
    -1.3931559104343132,
    0.6798582142036138,
    1.9636522534041247,
    -0.007047069395767833,
    -0.08009485080073261,
    -0.5498395266467225,
    -1.4412413061227314,
    0.43241904258872826,
    -1.0156363438744747,
    -0.225711173958748,
    -1.862517273145089,
    -0.9361047776087434,
    0.0368744095139759,
    0.30444702123492584,
    0.520037673925062,
    -2.502705202372203,
    0.6076723442078238,
    1.117162955576245,
    2.309332028829028,
    1.0743145908410567,
    0.5704219416987087,
    -1.2574147194735201,
    0.20409751851103225,
    -0.1644270841842516,
    0.8644150893802912,
    0.4767157874886842,
    1.7801224387617023,
    -0.3766339963346537,
    0.3678332606972663,
    -0.5679132124724833,
    0.5540166320774529,
    -1.8409144871948349,
    -0.02509201138197097,
    -1.4803066896248485,
    0.42154617979786074,
    -0.288847098173143,
    -1.5107718758178665,
    -0.19853083550857764,
    0.27370907367624636,
    0.7916360975647635,
    0.4320148411165256,
    -0.7725584097036562,
    0.5501106910618933,
    -0.6254004716915261,
    -0.003423649653972555,
    0.8364060568644663,
    -0.46524267794076507,
    -0.12281642813847357,
    1.0324641596823527,
    -1.1064996703350245,
    0.24646785507764343,
    -0.12674754174421857,
    0.7951096678351487,
    0.9060217957201026,
    -2.0952197023664594,
    0.28038030573056916,
    1.3349387146766767,
    2.161511162835054,
    0.05201133969294893,
    0.5100015382369812,
    -0.25721635921243,
    -1.4848407855240306,
    0.9622384230542376,
    -0.2388124496020831,
    -0.06968223911470514,
    1.1564164011525262,
    0.6166277510905342,
    0.3246593375193788,
    -0.8824190088362741,
    0.6323048169620205,
    0.8065259099675236,
    -0.7912746710176783,
    -0.7224897846130892,
    -0.6988266124044487,
    -1.199184025095978,
    0.3003116289797929,
    0.6822572201830824,
    0.6342231094503744,
    -1.7263930293550789,
    -0.9390461298623365,
    -0.5692854285666396,
    0.7004506029462064,
    0.02058692925811483,
    1.442513468542125,
    0.07024435785028915,
    -1.7078807478858087,
    1.8098664279180388,
    0.4239652525952499,
    0.736106657326054,
    -0.8911146285492253,
    -0.014579178428675068,
    0.6640843960890096,
    -1.1123629895431346,
    0.4993616852845562,
    0.10359925869260396,
    0.012688601334822056,
    -0.5579014290536511,
    -0.6163412769930245,
    0.6699890069807656,
    -1.5778544766873457,
    -0.36483396279624425,
    -1.7041249895155772,
    0.9045004056544463,
    0.4943338485203666,
    0.20645415865024083,
    -1.1297745182190293,
    -0.9576104383017694,
    0.1906918193083259,
    0.6892001924156028,
    1.0251213511513841,
    0.5544243498528946,
    -0.6322241673432057,
    0.5275968595320244,
    2.064998276454993,
    -0.9597509673448923,
    -1.4984206960276036,
    0.7741018922594672,
    -0.9759112065609129,
    -0.2860126845223414,
    0.7858889138429318,
    -1.7702218240724996,
    0.23638337765467243,
    -1.2862343581412556,
    0.8798864288711085,
    0.23507253470226627,
    0.3206604055630753,
    -0.5116845937608819,
    -1.5619626600842407,
    -0.26768057090340586,
    0.7811282004439974,
    -1.132318104431877,
    0.5994180550047018,
    -0.2905809928756939,
    -0.45731707687916995,
    1.6524125957118196,
    0.8293424998653877,
    -1.7858318350915974,
    -1.611799539829356,
    0.7968390084684018,
    1.8213792061840683,
    1.8503379328398537,
    -0.1177927768736693,
    1.8840524687524307,
    0.4181907323964127,
    0.9308087369608864,
    -1.5435494275557293,
    -0.2732946041397814,
    -0.343933847604152,
    -0.13152903996988113,
    0.4137618128135221,
    0.40290809005791434,
    0.08015711513225372,
    -0.34870364694067174,
    0.2907318777052582,
    -1.6093901001084467,
    -0.07468983025644231,
    2.4832962697959506,
    0.5055175349395299,
    0.33196139670685815,
    -0.3223601079130948,
    0.8552459652704762,
    1.0242221602207504,
    0.8950748285460126,
    1.4161055361440276,
    0.22775275285011964,
    -1.0876963129255477,
    -0.23188368191436368,
    0.6619523733346677,
    -1.5262604766120687,
    0.6362882234253485,
    0.004248544349121933,
    -0.41112411340881966,
    -0.9407317401931917,
    0.825722978819171,
    -0.8803425752803966,
    -1.602521823830214,
    0.6902896729524995,
    0.3494891085542854,
    -0.11689474186847085,
    -0.2736443792217175,
    -0.7412619869168412,
    0.5151366298074348,
    -0.19387448339322652,
    0.8306285293304779,
    -0.17222297759255337,
    2.6307669369038003,
    -0.07371951339604689,
    -1.9004462519603194,
    0.8183409723883516,
    0.33703489377084284,
    -1.099181165313445,
    0.39196188592093983,
    0.5376820633463346,
    1.4548385867094238,
    -1.2770518836068983,
    1.629648152782929,
    -0.9079085507131937,
    3.2347408846183576,
    0.7819355659277865,
    -2.059243207666864,
    -2.1029691391624032,
    0.5369694766979913,
    -0.7282200432190851,
    0.3138864766194604,
    -1.3024215418037914,
    1.4926898079004132,
    -1.6431835629259923,
    -0.5017829016117096,
    -0.46990322751096236,
    -1.5088448798057983,
    -0.8362059051656421,
    -0.6606744646621393,
    0.01769192726731526,
    1.4304694884125144,
    -0.23427630712736366,
    0.21630628875441507,
    0.03618023284240264,
    0.654147257763656,
    0.34926307052147115,
    -1.2705287244439727,
    0.6551272804357777,
    0.4322047671654984,
    1.6429686450236312,
    1.9787708492745308,
    1.6035547815824163,
    0.15645088796918835,
    1.4597809039147882,
    -0.8975036496516,
    -0.08298101187688009,
    -0.630243316945557,
    0.3865139062709757,
    0.042043266658921885,
    -0.5998914067440385,
    -0.9137656835040352,
    -0.1870192449254912,
    0.4289654004999369,
    -0.8138157888247708,
    -2.0870936107150255,
    -1.794812653120103,
    1.0848023576521804,
    1.0962221306104027,
    -0.6276944892918942,
    1.664906951609932,
    0.5907951066141538,
    0.17682653705090856,
    2.723574090650314,
    -0.7033777248930506,
    -0.32454424662106535,
    0.20499842243067587,
    0.26032519034638174,
    1.2845086993684993,
    -0.8803826583425602,
    0.7979189719001765,
    2.6449557246790545,
    0.835668474027089,
    -1.9696976357540974,
    -0.9271406209175895,
    0.36647219832717215,
    0.5763381006630042,
    -1.4552992687606237,
    0.8718982928961571,
    1.4465972859533822,
    -1.849259179964896,
    -1.4318634369251522,
    -0.22281443420370822,
    -1.2964894745627944,
    -0.5249947079648895,
    -1.4024197709157604,
    1.108787138257496,
    0.8439607156126194,
    -0.5283151525874631,
    -2.3767831363885468,
    1.1402009821013093,
    1.9423690195312724,
    0.24359815035376253,
    0.04037024121675388,
    0.2323556373953648,
    0.03421207185270038,
    -0.2548166615058484,
    0.6480993664131908,
    -0.7923816282027449,
    0.5915744583516416,
    -2.2445914266920606,
    0.9551356088289951,
    -0.4935613816990275,
    -0.025934607108619667,
    -0.46559898125875704,
    -0.2495062439927343,
    -0.22488348214676543,
    -0.13185491076904782,
    -0.28789510183224326,
    -0.3812861078267179,
    2.122239396755722,
    1.0009326786973392,
    -0.15218590713730842,
    0.976220720786848,
    0.9136089322383064,
    -0.20301736862788344,
    1.0999887408027553,
    0.020415035369203152,
    0.0982064760852707,
    2.0701496329494575,
    -1.1712028220928556,
    2.425743492530836,
    -1.729068219266127,
    -0.06337462809081869,
    0.04644702748547588,
    -0.6420249611494222,
    -0.6355123635765905,
    -1.6464828526807787,
    0.15499595052946638,
    -1.440275224771804,
    0.3195731718658059,
    1.0642867315764162,
    -0.49339184940432,
    0.8213666141847753,
    -0.24359662236730947,
    -1.412954749550163,
    0.07518952932852871,
    -0.2530838905365707,
    1.097914140253638,
    0.6208208159825788,
    0.5892341027614137,
    0.09252139418027007,
    -1.3723577536718974,
    0.5331503072774141,
    0.6959134560575144,
    -1.4992537260645946,
    -0.8248999150472022,
    0.9533111029928201,
    -0.7408852074710294,
    -0.260217669004148,
    0.4823168606272245,
    -0.4908398318482058,
    -0.3196237075410652,
    0.5407899044108173,
    1.7648717942159702,
    0.4689515659637454,
    0.6233341565324783,
    -0.6926525310596011,
    -1.5769140605780467,
    2.363863691607072,
    -0.05035208196347214,
    1.2710363747288183,
    -0.37126255098378613,
    1.200193989354007,
    -0.3797818624077241,
    -1.1194381173724548,
    0.5812181287797874,
    1.0001982519701196,
    -0.021244254848836328,
    -0.7795269060407863,
    -0.0598722371710539,
    -0.5326212433275354,
    0.09793360111384107,
    -0.36842740948689634,
    -0.8188107563370762,
    -2.215311777863896,
    0.37442673658243436,
    -0.6284821734872443,
    -1.6587855691619613,
    0.0940541930361001,
    0.554679932862243,
    0.41139473651340525,
    1.5382999592811277,
    0.7260788436172233,
    0.4494168242759948,
    -1.52895730544146,
    0.46724280875907154,
    -0.062353905538860444,
    0.5419427417156327,
    0.47703148784180227,
    -0.30266229402275624,
    -0.8146430272825183,
    0.16521075365837679,
    -0.11685002757154991,
    0.31695587743255993,
    -1.5037623916476737,
    -1.3904342039387136,
    -0.3695278000837465,
    1.2023073290290376,
    -0.44991786884128665,
    -0.19741014045452504,
    0.2438087427143214,
    0.7334692856280289,
    -2.1398124643847476,
    -1.2241356623627593,
    0.36516969768304763,
    -0.7243949401016246,
    0.016742831858661527,
    0.7446459941430087,
    0.05614829889852414,
    -0.6196545821998248,
    1.4832499573178313,
    1.3668055786375841,
    -0.12293408865143443,
    -0.8078258378813897,
    -2.6952197354458165,
    -0.18995943675673008,
    0.17021176243682654,
    -0.2900439992758489,
    -0.2758677553343113,
    -0.27190522251270716,
    1.1570044720611419,
    0.39682451431872784,
    -0.7915368209929836,
    -0.15302295814070455,
    -0.13515868382550364,
    0.2504476189679976,
    -0.02721270465514753,
    1.1041194236184315,
    -0.5874620160872113,
    -0.6432179865719272,
    2.065350209068269,
    -0.5638303353203553,
    1.5576059093409544,
    -0.3104122421716161,
    0.45033091948057524
  ],
  "best_ctrl_weights": [
    0.4228202839063623,
    -0.9721393133074665,
    0.345325181910299,
    1.5781636892419186,
    1.191083352239821,
    -0.8136337812968478,
    -0.8516247373470127,
    0.31344330604783227,
    -0.6572536163612015,
    0.07939021547900717,
    0.6900884511283595,
    0.6043778801056853,
    0.5403773165923018,
    1.12227276335145,
    1.4459113000232202,
    -0.27905630872690623,
    0.06019332223912737,
    0.8439794565765876,
    -1.5879737051875649,
    0.9464853292081374,
    -1.8843684804282514,
    1.80716090521856,
    0.45423171134365514,
    1.5052166525630335,
    0.8686696217177255,
    -0.04213117738580025,
    -0.3576083378018432,
    0.790920917959129,
    1.753337965738085,
    0.01016083779676651,
    0.17702632503492524,
    0.01670623798102758,
    0.3158544391793533,
    1.6369246122896788,
    1.1615304757452416,
    -1.8428574960217976,
    -0.4947500650802803,
    -2.000234520721011,
    0.6194235794478703,
    0.7268411282735835,
    -0.5632731054382792,
    -0.9834888159542436,
    -0.8624499987813249,
    -1.5646024351563859,
    1.4062740222637493,
    0.9474000030835869,
    -1.1199804096318642,
    0.8524583479571458,
    1.0119611443606717,
    0.6747568330904624,
    0.35660888386821205,
    -0.09964425940110916,
    -0.5681875144084931,
    -1.758129145735839,
    0.5954301486196829,
    -0.48825814799214284,
    -1.4221473748775166,
    0.3723039689805487,
    -0.8355576561548278,
    0.5580024489685237,
    -1.0735537564109559,
    -0.9653214591746531,
    1.943198424841819,
    -0.8257481242727844,
    -0.6817888139974627,
    0.011742713835416762,
    1.0310586983542824,
    0.7911064562044035,
    -0.00974541761522644,
    0.3246407630454075,
    0.8547438250384962,
    1.8054640027408075,
    0.577951649014571,
    -1.9761190438328589,
    0.4877018314597253,
    -0.36647798002838106,
    0.6869551780308643,
    -0.6970122356585391,
    0.15490449870699574,
    0.9356399882087296,
    0.3227322244764905,
    1.4319086510248682,
    -0.4481757671637636,
    -1.2361562104223152,
    0.3806596292598179,
    -1.9685109572680233,
    0.7764398388203935,
    -0.9065266413188017,
    0.00586276950297203,
    0.9984709678915691,
    -0.09069892262759743,
    0.29678362653698664,
    0.23706861448017544,
    -1.3328053484651143,
    -1.0331052199961503,
    0.7324542347416432,
    -0.6742393630615577,
    -0.6466651534718553,
    -0.7185136703932182,
    1.5770310611495575,
    0.32848695782521553,
    -0.299666508979419,
    -0.9009479182017711,
    -1.5304615652787719,
    0.03552057421651175,
    -0.05694053812977187,
    0.43636441907165674,
    0.6875365884393674,
    0.3743117944943583,
    1.3133271926628278,
    1.2016388817145538,
    -1.1852082723146014,
    0.15082834710173942,
    0.39953821800440237,
    -2.5886691659954244,
    -0.3350899417187341,
    -0.699254880565693,
    0.011007918128698906,
    1.1475659809676917,
    0.6332611008259975,
    0.49146651025118554,
    -0.17870308808776414,
    -0.3208857879839401,
    0.6723735443112686,
    0.18521744613188776,
    -0.32019629389436066,
    -0.3443590037936201,
    -0.5726211087924692,
    -0.7332674757474553,
    -2.115459815669694,
    1.3249991715810403,
    0.5018518511431205,
    0.8586917791872751,
    0.8092194696650116,
    -0.6199298882145857,
    1.2135750762405222,
    1.2403975127528362,
    0.24271009247410094,
    -0.5614785504568803,
    -0.18380626749056098,
    -0.3107741579672768,
    -0.28140442940831817,
    -0.4377465911905772,
    -0.004874967553264953,
    -1.585771919215318,
    1.1914963767848983,
    -1.6133193601244606,
    0.48181861866479897,
    0.7047279231045309,
    -1.556118873235902,
    0.9512829912975947,
    0.15525792964907137,
    2.40937299972361,
    -1.8011377494211307,
    1.3385526344057792,
    1.841044888236341,
    0.7968780372164442,
    -0.39211218634661926,
    0.9280489002761914,
    0.43629972656956145,
    -1.2623631505845403,
    -2.558305028165059,
    -0.8271869000981261,
    -0.8610024429079627,
    0.05210722606157751,
    -0.8559906640008977,
    0.5126348193277035,
    0.3231440150879164,
    0.6117845788538068,
    1.016616660369591,
    0.01526510476225923,
    0.7729419698291486,
    -0.992980918240322,
    0.009064301357423385,
    -0.00717184957198038,
    0.7101298021441742,
    0.13686516911197838,
    1.361639362315404,
    0.03210452616081023,
    -0.38414252358510026,
    0.5535625002548452,
    -1.7959415421894551,
    0.05291288119151636,
    -2.595855461891961,
    1.0184569427106986,
    0.02727990622867267,
    -0.1253954516236688,
    -0.44903238059727335,
    1.0051939422653553,
    0.3065811695478598,
    0.5876320439513483,
    -1.4161030923839515,
    -0.07559795622362094,
    0.37900003078498984,
    -1.2926421986570897,
    0.061435867435490746,
    2.0609550822054468,
    -0.6928758404984837,
    1.346791760700219,
    -0.2771445789451206,
    0.1232967008254342,
    0.8081953128328486,
    0.6356867675960015,
    0.8919132146933543,
    -1.7815723990488141,
    -0.48133938109814317,
    -0.2623078623635221,
    0.6262989118574538,
    0.6437631818338367,
    1.192492663291103,
    0.2038496779512246,
    -0.8532004219115735,
    -0.7306742138539828,
    0.9743430127582624,
    1.3953174412804061,
    0.038325411304654604,
    0.5718980091720404,
    -0.5772684457539395,
    -1.5057782891450922,
    -1.2123616923329628,
    1.8252920051890142,
    -0.27265163457218844,
    0.20234050837599465,
    -1.3995943640960968,
    -0.1938047064479146,
    -1.5491012724981519,
    1.618216161928438,
    -0.24272100137011665,
    0.9045452866090462,
    -0.28328433492215394,
    -0.03672474990430262,
    -0.7411171525553221,
    0.5966817044880355,
    -1.0437670597482476,
    1.7636096436831326,
    0.4128113270731558,
    1.5814283849579711,
    0.3392106573835966,
    -0.6931599705587383,
    0.4617217873032242,
    0.6952090629506769,
    -0.2385978742472008,
    -0.3253103652299661,
    -2.4280447912798637,
    -1.6180228139708577,
    1.689944338044607,
    -0.1556288273820902,
    2.089269739194725,
    -1.0358964534713513,
    1.8297276097960649,
    -1.5774639181056294,
    0.22759850262079173,
    -1.2238532250479346,
    -1.5690018187717079,
    -0.20540777194318946,
    -0.9309283770510782,
    -1.5066032390268322,
    0.34037257537294807,
    3.0588547163125672,
    0.0748622764890364,
    -2.0559656655299103,
    -0.9066695441387088,
    1.3062837442995439,
    -0.5674134984433713,
    0.31375708589505097,
    -1.5655700152065464,
    1.61534570614304,
    -1.4035554118711149,
    0.8452034637465707,
    1.4451390734690577,
    0.3967781228765969,
    0.8909695485111644,
    -0.9110552520633334,
    -0.6285136004988195,
    -0.1362021388850625,
    0.8573766051725682,
    1.7012848278495591,
    0.29889844638044666,
    0.627941004334419,
    0.961331161574272,
    -0.07446184890454242,
    -0.5567429260108294,
    -1.6130061340252027,
    -0.3101891644488536,
    -2.2562984407128814,
    0.048745824021967143,
    -0.5065337305923366,
    0.045796081279679296,
    -0.38334927012566417,
    -0.6252701664915877,
    -0.5566705710726931,
    0.13489053299619708,
    -0.27247992946884514,
    0.5825548050955709,
    -1.2125149121671106,
    -2.164974514142678,
    0.09401460022745552,
    1.2800650963221512,
    2.338942351764863,
    -1.6767220631755388,
    1.5056305447828933,
    1.4626635900430331,
    0.23241188342952104,
    0.4156787509714871,
    -1.210808533876512,
    -1.2302382565594459,
    1.7970289052833677,
    0.6336942161509025,
    0.5726364150019363,
    -0.785117363349714,
    1.1459901265896761,
    -0.6916895659773797,
    -0.735671348171534,
    -1.6344950646306302,
    -1.9867047802202227,
    -1.5032663568895932,
    -0.055118543956641675,
    0.4755422547215005,
    -0.0819402639612771,
    0.041665762901897906,
    -0.4736066606216862,
    0.5571707859473135,
    2.0309787109830895,
    1.620047863108482,
    -0.34202459034554256,
    -1.91523225648851,
    0.22237781335928397,
    -0.24266415500019345,
    -1.1999354399510564,
    0.5258804398627136,
    0.5211970509705329,
    0.1970615186609164,
    0.05602049603444143,
    0.20983081787736138,
    -1.1532851447941816,
    -0.43631913617768825,
    0.4478332248017537,
    -0.653339676752064,
    -0.6663444039857832,
    0.13872423188148678,
    -0.7950029703209474,
    0.025622372458275814,
    -0.10683419619838183,
    -0.7919623157303533,
    0.5935232009335455,
    -0.43474743627309886,
    0.04564824047757671,
    -1.1223139957637416,
    1.2981068195073033,
    0.9949818344431746,
    -0.23226668525811528,
    0.03737797516166356,
    0.22594637981324955,
    1.268628807710742,
    -1.319344284392663,
    0.13960200639164436,
    -2.052527630498486,
    -1.116515768194014,
    2.022903565612913,
    0.13418151337108558,
    -0.2029923023993724,
    1.0350803501414907,
    -0.641868647833023,
    -0.6379411764508985,
    -0.8335998927645654,
    -0.2109006580334088,
    1.2046430675431605,
    1.2907021378052181,
    0.04473561749819904,
    2.2312227886243936,
    -0.38003988760960167,
    0.36045914561494646,
    0.2766731457457176,
    1.2427456613288501,
    -0.7132472045103007,
    0.4150539918252404,
    0.4560472732089676,
    0.20520848490685353,
    1.6464689740732212,
    -0.09203472951949898,
    -0.11966240211200357,
    -1.8366976011415848,
    -0.20180156393576007,
    -0.7745583774749512,
    -1.378983275457375,
    1.2861205726740308,
    0.6829319223446069,
    0.8333086277608018,
    -0.7959656239245364,
    0.428243116104757,
    0.5277203858208525,
    0.15956514813707437,
    0.22083650162475402,
    0.04141987840696941,
    0.20431866314565325,
    -0.4047523915162282,
    -0.1460686625921711,
    0.7575109066924431,
    1.0509490945819753,
    -0.1618598382686849,
    1.65396449670277,
    0.03474999950581689,
    0.43037410615990995,
    0.009039809296119422,
    -0.3969163212167182,
    -1.4173505196465448,
    1.6304298119731118,
    -0.4384404346101555,
    0.11857632941811629,
    -0.12388190300227546,
    0.500929654188961,
    1.1893930453693942,
    0.5139886233708457,
    -0.2097718822358397,
    -0.08083284251828039,
    2.116435869487881,
    1.3604481884650306,
    -0.5062061821723538,
    -1.5718539817842059,
    -0.3762125578514914,
    -0.8554429687197856,
    1.2463343677817276,
    1.0628449503805713,
    0.20768862532528118,
    -0.5631983021063299,
    -2.2087630424960616,
    -1.3373137264212716,
    -0.24702172540668826,
    -0.6782792524374379,
    0.2368164274872513,
    -0.41029270755509445,
    -1.9979091867505117,
    -1.0685482919264477,
    -1.153080149688517,
    0.15973001571364326,
    -1.193406911728003,
    -0.581235954361465,
    2.0554654407694226,
    0.32558765069816914,
    -0.6959260681756313,
    -0.42477925803250244,
    -0.05949364904569162,
    0.6745073647639913,
    0.7595447694245211,
    1.0733236146092546,
    -1.364868044445,
    -0.9536031273364157,
    -0.9912637279698407,
    -0.5146194732638202,
    -0.4828949541529658,
    -0.2624150995246594,
    0.23760915546350717,
    -3.226901515673582,
    -1.960712562575656,
    0.9014586933129307,
    0.285699436172551,
    -0.649645432180134,
    1.4864228744640007,
    -1.3390514383255658,
    -1.6346206598420494,
    -0.42618381763966545,
    -0.9311779149246796,
    -1.0461396424804275,
    1.1328585316875774,
    0.9720697048737144,
    -0.04905566912760271,
    0.9560271156428631,
    -0.4882497851019739
  ],
  "best_morphology": [
    [
      0,
      0,
      0,
      0,
      0,
      0,
      0,
      0
    ],
    [
      0,
      0,
      0,
      0,
      0,
      0,
      0,
      0
    ],
    [
      0,
      0,
      0,
      0,
      0,
      0,
      0,
      0
    ],
    [
      0,
      0,
      0,
      0,
      0,
      0,
      0,
      0
    ],
    [
      2,
      2,
      2,
      1,
      2,
      2,
      1,
      0
    ],
    [
      2,
      2,
      2,
      2,
      2,
      1,
      1,
      1
    ],
    [
      2,
      2,
      2,
      2,
      0,
      0,
      1,
      1
    ],
    [
      2,
      2,
      2,
      2,
      0,
      0,
      1,
      1
    ]
  ],
  "all_fitnesses": [
    102.06716862458347,
    -40.704885950593365,
    -5.236916138073866e-06,
    89.73540090657414,
    5.744710009889047,
    115.21167449714807,
    191.35242417122168,
    10.468559852595376,
    9.013507567808688,
    -10.614330750185218,
    -8.738011216619384,
    114.85320245725603,
    11.358947635071218,
    -1.6353742299970122,
    -4.439882287744098,
    -25.14610611462939,
    0.8051873286538296,
    -7.8314544794003496,
    0.8811587351406445,
    119.72642780164551
  ]
}