{
  "generation": 1,
  "best_fitness": 102.06716862458347,
  "mean_fitness": 3.0033069300338155,
  "best_morph_weights": [
    -0.17381271463168974,
    2.084260208697637,
    0.6100084781818379,
    -0.3876000796705536,
    0.12225202232012465,
    -1.226754530957773,
    0.5256150509670336,
    -0.4081981596674508,
    -0.17545343526405663,
    -0.3200818611930014,
    0.19570821086890633,
    0.07136125982336368,
    1.3157961155350473,
    0.7146346854850409,
    1.0026279556366313,
    -1.0130335780958641,
    1.3121226233426264,
    1.3921546814812529,
    -1.3770299750696307,
    1.1716760649687914,
    0.08224840400391438,
    -1.2196500246587283,
    0.6957990810050128,
    -1.853598102095985,
    -1.0127757649996498,
    1.7641561220655695,
    -0.5383662035253273,
    -0.34591764889400745,
    0.6007081094641535,
    -0.8253186575148048,
    0.2765528584412465,
    0.18705783480109822,
    0.7855841717624962,
    2.443636426264384,
    0.2700888305675932,
    1.3181589274608336,
    -2.2777444868923036,
    -0.018752501874077787,
    1.8916649643132222,
    2.4372265263449435,
    0.8505064463454642,
    -2.066989608847856,
    -0.46586546074324753,
    -0.28579465494198275,
    -0.7336809495147955,
    0.4589685354928253,
    -0.11381748132489918,
    1.4805534908910747,
    0.23023399535853778,
    -1.2812096967597262,
    0.7484351242289923,
    -1.0236542655238463,
    -1.2362574115578784,
    0.4232749857067087,
    1.2921028383863682,
    -0.2744146041924235,
    -1.5964770781219026,
    1.467369343690801,
    0.7098239620512817,
    -0.3834844764766123,
    0.8716098092416837,
    0.23094798695035818,
    -0.003994050622769034,
    -1.3413852049872912,
    0.5894132922825699,
    -0.03279377819616505,
    -0.6535228880374483,
    -1.0907725505139263,
    -0.24715011986462224,
    -1.4674458033031048,
    1.2810013276777727,
    -0.5789734142976507,
    1.7697735984219607,
    0.7312364309655204,
    0.9501918790096215,
    0.27370926597151457,
    -0.27579188412114997,
    1.4341439186383054,
    -0.21556398464054974,
    -0.5551510331717654,
    -0.7552072904759988,
    -1.9733595935457027,
    1.2348091699965127,
    -0.6968377692352146,
    -1.6330738161240947,
    -2.1460792441943557,
    0.3451248525189523,
    -0.4818834972325653,
    -1.7040529299302667,
    -2.163220497422341,
    -0.7052023967594072,
    -0.1138810468707309,
    0.36272222591760833,
    0.8818578203348508,
    2.118420032739018,
    1.5626183727389797,
    0.5713876217131763,
    -0.9184932124959541,
    -0.1525857959685229,
    -0.6796558140269572,
    -1.0274487304929831,
    -0.492912040150647,
    -1.4565883810446423,
    -1.0323883017650513,
    0.522951703516738,
    0.5085574042077065,
    1.187838183058377,
    0.2801681593969676,
    0.3997798811745894,
    -0.8908693666218815,
    0.7965315725979556,
    -1.1097943593998174,
    0.5501651810886417,
    -0.37803296032417094,
    -1.4819091250795315,
    1.2464880424859914,
    -1.0630926968143324,
    0.5214140503430053,
    -0.32956537798067664,
    0.2853468798088473,
    -1.3253706196951753,
    0.6786076948419066,
    1.6964777521055832,
    -0.9159646743392348,
    -0.5824567401397651,
    0.7488642957148457,
    -0.31160005768291676,
    1.3681317310210006,
    0.5778647455718819,
    0.8907023284701981,
    0.5579086583898802,
    -0.6373318691662215,
    -0.5844707688845064,
    -0.2856907352417381,
    1.347078269885603,
    0.5715427060261298,
    0.5584158312786747,
    -0.426605621365709,
    -0.925519312904069,
    0.21020063387154306,
    -1.2890236413253167,
    1.563834632333648,
    0.608757982822376,
    0.7403803277208145,
    0.5351520887403975,
    0.6111156699858945,
    0.7347637873989089,
    -0.047610360174312055,
    0.42810959805030274,
    -0.47647225288732575,
    -1.0552379810243038,
    -0.16358139343604614,
    -1.143802359365886,
    -0.5049736772477466,
    -0.8428637122271595,
    0.3199151263452816,
    -0.9280541375934432,
    0.1537806885297517,
    0.142967666763552,
    -1.057673170897587,
    0.22819245364417273,
    -1.660302096948136,
    0.24994955607475455,
    -1.8678608572851951,
    -1.3507453422797084,
    0.7772714568484027,
    -1.559001022420483,
    -1.1509932514266972,
    -0.9574221795222259,
    1.1338930518373527,
    -0.4646183574743243,
    0.361898438321944,
    -0.42520914654165964,
    1.3367084844283301,
    0.795624872107921,
    0.2928430514301436,
    -1.0391688240319283,
    0.11614083239862306,
    0.8113804638317473,
    0.9814119477791429,
    0.6718478812336174,
    -1.2519360063623726,
    0.4853562165171308,
    -0.46564553287892496,
    0.3461315255957394,
    0.5341853838277608,
    0.22343456930286598,
    -0.02714868988843812,
    -0.09714270525668289,
    0.4010648985094392,
    0.9445893299186743,
    1.084073787676498,
    0.5316950890928054,
    -0.2940409818844474,
    -0.03616814449229586,
    0.4315342730586341,
    2.143171371451022,
    -0.8359766982553676,
    -0.6046124842085605,
    0.3947374993251163,
    -0.21362529958911416,
    -0.9758070684872469,
    0.9439900559421001,
    -1.060341925155487,
    0.7591684392440958,
    -0.4846067196627954,
    0.14381714978315382,
    1.916561037508636,
    0.35992086902857673,
    1.9366233197507392,
    0.563806650483295,
    1.7644053229691403,
    -1.1573124996919697,
    1.9522020566649108,
    0.593754126397857,
    0.4474115539654068,
    -2.0837048030889673,
    -0.8020744646390021,
    0.17917343610626885,
    1.6045466371743364,
    1.4420635536265276,
    -0.3966048827647724,
    -0.9408475597564142,
    -0.47693067366907954,
    0.26019711421082536,
    0.6831600993214261,
    -0.15471840619682042,
    -0.042631073677892505,
    -1.05082139529359,
    -1.0444882582929413,
    0.39866330933842914,
    -0.08220372607821518,
    1.2552216361268729,
    1.092673520240933,
    0.8990100293306598,
    -0.388227530189834,
    0.933935757757607,
    2.166235968916076,
    1.6105790903022057,
    -0.3707458695753071,
    -1.4503281665816505,
    -0.5348097530209759,
    0.5797621286379647,
    -0.19408848449451604,
    0.09162293716184297,
    -0.813545357761878,
    -1.0883640113037534,
    1.2525304073323378,
    0.14618056264990248,
    -0.2327857478046002,
    0.2366380258180357,
    0.7070119047229346,
    0.3983531953210572,
    1.187786507089814,
    -0.994263678985182,
    0.5286683253464892,
    1.0693795228390999,
    -0.18230770748225927,
    0.3156090291347219,
    0.8244840989432769,
    0.7565736411283299,
    0.6589379391803388,
    1.7033322680990388,
    0.8437744556774323,
    -0.15596793109549673,
    1.2716995973647778,
    -0.16490826364056146,
    0.5656903547939498,
    1.6142801784688559,
    1.3405748670211177,
    -0.43584198134810054,
    -2.6832568950032987,
    -0.6957149245900671,
    0.4108597105113469,
    -0.42717796671453667,
    0.8118795705345,
    1.6391586171058645,
    2.5117724321043458,
    -0.14908167251225277,
    -0.04146960543033815,
    0.7602246267797342,
    -0.3564604395398217,
    -0.4821817490271625,
    -0.49639570327524457,
    1.0426281484197089,
    0.6418320277455921,
    -1.9936322589229016,
    -1.7994735848610823,
    -1.1597161265657394,
    0.011268110015295856,
    0.7956454352995987,
    1.2365433493220161,
    -0.5776811118955885,
    -1.3124063490330675,
    1.6377681716622539,
    -1.9274016314077103,
    1.458159454172903,
    0.8566516489550895,
    1.151399993180438,
    -0.06353138055439744,
    0.5994122599284292,
    -0.09780462004976427,
    -0.16682032194333085,
    -0.23765638941907735,
    2.0046696764997307,
    0.32691875905541606,
    0.40439261490757805,
    -0.6387292930133694,
    -1.063287119541497,
    -1.4344431434824185,
    1.2101314620542962,
    1.7708466818918083,
    -0.09284048060470519,
    1.1480048127825488,
    -0.12883180548770454,
    -3.136320522876155,
    -0.2555729886419274,
    -0.43277066146294596,
    -1.6523519858364086,
    -0.559213765269709,
    0.4306599124068798,
    -2.3373498354384017,
    -1.5332528390621574,
    0.4660781508637774,
    0.45047740341911646,
    -0.6172480885921042,
    -0.017498570634471806,
    0.9710713493404013,
    -1.5114392088229658,
    1.1902546520096924,
    1.5400112195133584,
    0.8357058767564002,
    -0.8663569567764178,
    -1.212263942447793,
    -0.49085617905958484,
    -1.220446245480102,
    -0.3339158699965695,
    -0.12540462937013663,
    1.19867689875291,
    1.510934880827352,
    0.12250950441584202,
    -1.2309127538186102,
    0.5357696058756733,
    0.5012106077341846,
    -0.9788418144892567,
    -0.2961004815346484,
    -1.3285422461996987,
    -0.8067362378834084,
    0.7032349984837926,
    -0.3823913861921157,
    -1.1822258317667955,
    -0.5302507886311467,
    1.406980502301042,
    -0.28648445566578706,
    0.6385021847760588,
    -0.2401407501821982,
    -1.0134042838089203,
    0.4494144376942565,
    0.9545629432363268,
    0.7785178085759653,
    -0.1685519264292186,
    -1.340739515006344,
    -0.5006166736675562,
    -0.4338715979054504,
    -0.340044220885549,
    -1.7372667729135411,
    0.03343296714451287,
    -0.9004361500651764,
    -0.7916426048038067,
    0.30997016830397645,
    -0.30065521215208496,
    2.079595926837305,
    -1.9993875995438695,
    -1.5184011226084901,
    0.19018497850834726,
    0.414671329696359,
    1.0002194263889008,
    -0.44911208676340364,
    -0.697317116965459,
    0.6325571210156073,
    -0.5037973444104642,
    -0.8043262941966548,
    1.0463912298097227,
    0.46847328333192506,
    1.046509193392226,
    -0.6057386907060834,
    -2.246955532212143,
    -1.4815824707518281,
    -0.22505044706928456,
    -1.5057009765216305,
    -0.36215668609718116,
    0.06397784601189051,
    0.358670958021971,
    -0.10916159264579178,
    -1.2044098616267929,
    0.5462689366755714,
    -0.6848422578434685,
    0.9227207424909861,
    -0.8861284947634345,
    -1.6179246599419395,
    0.12806587501468056,
    1.1663472107733976,
    0.6728719191529859,
    0.3486090736589107,
    -0.7900264988552277,
    -0.8140029865226983,
    -0.4708977576673692,
    0.3149233765587265,
    0.055278256243926974,
    -1.311639576767598,
    0.9298167182555396,
    1.0911847330548314,
    -0.5035536162166387,
    -0.8232773079524609,
    0.9034701136802943,
    -1.2341040565661205,
    -1.4588643069127107,
    0.32637686666856036,
    1.3202115810784305,
    -1.2456860319710334,
    0.10689063064370395,
    0.31593916323124704,
    0.3914265827750858,
    -0.23696758997506476,
    1.596451409395958,
    -1.023174039622184,
    0.0662587015303607,
    0.34537413197787853,
    0.9126286425464568,
    -1.4181022148465867,
    -0.3175721805252968,
    0.30908137035663263,
    -0.5559578186215661,
    0.9539939127930338,
    0.920736892252785,
    0.5937998415358704,
    0.9096759127071962,
    0.4283450963832091,
    -0.0038965331893232777,
    -0.5592204719721829,
    -1.260796222999177,
    1.0368249183780147,
    -0.465819845371874,
    0.4079498113417583,
    -0.394252441013718,
    1.6599358185120885,
    0.32889174373053903,
    -0.12866627597816424,
    -0.5647692367149846,
    -0.22657320412544815,
    0.08949303909635745,
    -1.5649489645959698,
    0.36123124890451175,
    1.028858271049664,
    0.8196522169515129,
    -1.1202846332688907,
    0.4477062293771232,
    -0.7172574429679831,
    -0.4954136982843093,
    0.11204172782573069,
    1.626948814854281,
    0.06764913321922718,
    0.5562425557350442,
    -0.1188730920801802,
    0.6446846427591906,
    1.046476893449103,
    0.14983868808197168,
    0.6044523899358524,
    0.2810564654262557,
    1.172591077444488,
    -0.09784288876450362,
    -0.8114626844907092,
    0.2839261495850352,
    0.7496128713415171,
    -1.8146256057462826,
    0.21726947502072474,
    1.1634796083470915,
    -0.9645287282552621,
    0.7635967932202634,
    -0.710431738536991,
    -0.39834375746120704,
    -1.3912467972762124,
    2.6172956222578705,
    -2.45454619103746,
    0.06831924258902626
  ],
  "best_ctrl_weights": [
    -1.0967965591226265,
    -0.24525409197307207,
    -0.058921371924752865,
    0.01819795202761636,
    -1.0616353558181946,
    0.5779496816937897,
    -1.634932427086723,
    0.10258425988321812,
    1.0740414729996166,
    0.3411577719430068,
    -0.07439217893920903,
    0.11859853655804754,
    -0.15719190071484776,
    0.7017484205149309,
    1.8648530587405936,
    -0.23430854412361352,
    0.7008979604051265,
    -0.220926197321894,
    -0.7027554141236471,
    0.1608938076524129,
    -0.0764630076574481,
    -1.4154944325940495,
    0.04164812720566777,
    0.4205154147385033,
    -0.9099490065347376,
    1.6525019540006414,
    -0.0724681997320205,
    0.9716178624018296,
    0.23913975231966125,
    0.5637373197597058,
    0.13694677382552273,
    -0.6596253399552224,
    -0.6035731300469267,
    0.2851434971431599,
    -0.3449681331850153,
    -0.3107386951674392,
    -1.163493482187927,
    0.7762176183897564,
    -0.8476593237494153,
    0.36236610187948814,
    0.8915417551728182,
    -0.07706665593458462,
    -1.1353859598156437,
    1.6691826465907211,
    0.6411739631905581,
    -0.13923533383182587,
    -1.1432841930576372,
    1.6291024794865991,
    -0.5551331677571738,
    0.7752129543007711,
    -0.17250820597508795,
    1.086788960880329,
    1.1338930330918395,
    0.8037563728166045,
    0.38689480466216997,
    -0.3140167890050913,
    0.18866105242239511,
    0.5390901084765616,
    -0.04807931828169166,
    -1.0880007717859361,
    1.4947329660622184,
    -0.7444724114506232,
    0.06297107824386795,
    -1.085711274351572,
    0.3878607601925546,
    1.4116785560420109,
    -0.13152838211919793,
    -0.6280302438192056,
    0.607178888104238,
    1.858692061659612,
    -0.17698547879010768,
    -0.17119511409189106,
    0.28449815181093446,
    0.5823489242832657,
    -1.4729925903003607,
    -1.4647016218406894,
    0.35680116555065233,
    0.9419523546810564,
    -0.04214059150403785,
    0.32292708250021623,
    -0.8843836568659352,
    -1.2138968042873632,
    1.2545970242880407,
    -0.9163892573926213,
    -1.0675619230458075,
    -0.5574231169014937,
    1.3783505328226768,
    -0.9140419796048564,
    -0.521185795308662,
    0.9805533533757527,
    0.00025143690947228455,
    0.537994910053004,
    0.2835297004464045,
    -0.6231543791425553,
    0.21671844783295574,
    0.32288272052553807,
    0.7539270486315002,
    -0.6651905724614153,
    0.38443026520488127,
    -0.7250362402767642,
    -0.3567139348234989,
    -1.6153111375167821,
    0.8699029816240426,
    0.6161642744698842,
    0.9645321067141442,
    -0.5925832991287479,
    1.9267678784414979,
    -1.4845054299797436,
    0.900905445164764,
    -0.7598640747718273,
    0.5884527457826823,
    -1.3066292364819392,
    0.26401700612675866,
    0.12248026986832741,
    2.0913711505616854,
    -0.12758776255020823,
    1.03484446114167,
    -0.08220698783906438,
    0.7096966918645449,
    -0.33435825191702967,
    0.7239643344212744,
    0.5136285901376899,
    -0.9980819562310136,
    -0.20179910278386728,
    1.6225915979110075,
    -1.8689608707475407,
    1.7160993853356281,
    -0.06260813340269528,
    -0.38991456412424924,
    1.4195898958782767,
    0.42643636433129434,
    -0.8793998155724085,
    0.0317976784842242,
    -0.8866511291237893,
    0.8082569366310708,
    0.5429044901500336,
    -0.12499955626282222,
    0.6642946871474614,
    -1.0076717996266462,
    0.32670004149342907,
    -0.7107581873923907,
    0.8009571421271113,
    1.339354416342003,
    -0.8756028634150107,
    -0.308767154147609,
    -0.5762363426654642,
    -0.13550939521271413,
    0.475573224703799,
    -0.4078553176202449,
    0.1824917423412123,
    -1.7958424124881478,
    -1.035810023523495,
    0.805536578039363,
    0.9240277599726499,
    -0.45437105382565557,
    1.398673420418111,
    0.8579803635780295,
    0.39216205919500524,
    0.36555615687008636,
    -0.0689878199866654,
    -0.2196389024852846,
    -0.9188907848283998,
    -0.08833165063651915,
    1.1637856404384563,
    1.2199579548045338,
    -0.5586159222524464,
    0.4494437513396178,
    0.7869143930099942,
    -1.3068141699400537,
    0.18382432179606673,
    1.201535971171797,
    -1.2308650203562441,
    -0.06198716596617548,
    1.3066122004448446,
    -0.14809623648473014,
    -1.4950013533670607,
    0.6859522361501611,
    0.041716902697980805,
    1.8879034096062999,
    -1.088399586175141,
    -0.656149428627282,
    0.6050403501296499,
    0.7867547353340856,
    0.4153917312109074,
    -1.0821752926329165,
    0.1577246068080636,
    -0.9631603701113107,
    -1.2563816288164689,
    -0.04772745725379105,
    0.6924473348344987,
    0.6156620632285958,
    0.5412149622766274,
    -1.56202228592748,
    1.7416668011073428,
    0.062137798272164736,
    -1.1585771054963092,
    0.6499915878179258,
    0.2406365535949214,
    -1.371708367427241,
    1.0004477736928346,
    -0.12856520867297183,
    2.0521622232062335,
    0.48061943197130513,
    0.35403910357098584,
    -1.9293968488640527,
    0.7139119144434498,
    0.8723583485221424,
    -0.5610382972301046,
    -1.1456999885594066,
    -0.9219366510521364,
    0.30360714118486765,
    -0.1787841467845615,
    -0.9255632416072821,
    -0.18707163475275657,
    1.1758079064558096,
    -0.2707715801263586,
    -0.6345412685535219,
    1.0770309322572023,
    -0.678643823428917,
    2.3673685012534285,
    0.4933058427293962,
    -0.014964279966066396,
    1.8378923101479079,
    0.6517615785238199,
    1.0403446649666492,
    -0.20219205811343824,
    -0.6404429478750789,
    2.0551221850202466,
    0.6579666501033501,
    -0.2948418235242951,
    0.8388028044836897,
    0.04804125950200634,
    -0.23031877865006778,
    -0.1771205670049153,
    -0.7202027082377696,
    0.9284941420104752,
    -1.7099034039437868,
    -1.193975397384331,
    -0.1394699698005406,
    -1.1102626061322471,
    1.8565838322952648,
    0.26701410963912176,
    1.6045029134166882,
    0.31049713105287313,
    -1.4031878328613936,
    -0.388284220004597,
    -0.1379504038469454,
    1.6359641262119688,
    -0.03070062653378301,
    -0.3511148324010556,
    -0.03633279487400472,
    0.03693865780608947,
    0.6361703904124622,
    -1.1109025036582232,
    -0.5874956760714294,
    0.7795104796457418,
    -0.34979369837864366,
    -2.1721660273032795,
    1.8550285139067952,
    0.46100438126639054,
    0.4297933216427693,
    -0.32669698940315883,
    -0.009855499455411882,
    0.9339648326478519,
    -0.6106301859306781,
    -0.8297429555229344,
    0.5171432806882548,
    -1.096150781954245,
    -0.23186135321687257,
    -0.2827451867276382,
    0.8310853898277208,
    0.9983403130302917,
    1.3068205275749503,
    0.40615898352932167,
    0.9017051765191676,
    0.30740141628100537,
    -0.5748198820395146,
    -3.5598276359689605,
    0.36984438706985984,
    -1.2480018172539376,
    0.6105283644652807,
    -0.6167902013289244,
    -1.0594930564780274,
    -1.0046105801985288,
    -0.5830864709952781,
    -1.5283313123580164,
    -1.3334470128283724,
    -1.7563516942524058,
    -0.8403329464929788,
    1.1111313953369748,
    0.3321059704558233,
    -0.0069718631540208464,
    0.33959687323340493,
    -0.15174901360908472,
    1.2099787452997381,
    0.21419933719929019,
    1.884126061027022,
    -0.6183065360537245,
    -0.7053606215760337,
    -0.37371015937924607,
    -0.8571003815683677,
    -0.38601837145893103,
    2.150847909627475,
    0.20867921095245698,
    -0.7236977401945367,
    -0.3684801084108996,
    -0.662038958273975,
    -1.7422906178238307,
    -2.1991119384844096,
    -0.286161580444821,
    1.1837600880388741,
    -0.8449431295964281,
    -2.2034077827205474,
    1.4856950619491252,
    -0.24773633768456588,
    -2.591502559893079,
    1.161050543847263,
    0.11237177605690932,
    -1.3610776038675272,
    -0.02339147232611643,
    0.8738792956955256,
    1.305503386033594,
    1.700403563724273,
    0.25022404289320166,
    -0.5368949800712935,
    -1.220825443985392,
    -1.7215849918304618,
    -0.1342937943909106,
    1.434976815239646,
    1.272229795325229,
    0.6085355291719255,
    -0.5786175392949292,
    0.7366001281167098,
    -0.8758659157409436,
    -0.7285806897501484,
    0.7720425912138164,
    1.1850009395555319,
    -0.6357750401782262,
    -0.38107641111997476,
    0.6343750135622009,
    -0.5006144715331791,
    -1.2897524414312391,
    -1.6818285344623516,
    0.24749539966041367,
    0.6257462545474637,
    0.17551720860461725,
    0.6203060304856233,
    2.35686099548205,
    -1.2510199877889243,
    -2.03636737470639,
    0.9930987691214981,
    -1.2654059877606822,
    0.07959489757211692,
    0.8936356398910734,
    0.41197156724775225,
    -0.41367893025353464,
    -0.3810169744190624,
    1.2982281240522164,
    -1.1831185752550468,
    0.24179980922263497,
    -1.0059478493638452,
    -0.5801208455917424,
    1.2944983842509905,
    -1.5365246077623103,
    -0.30951459577517776,
    -0.5811175900192633,
    0.27393327197672046,
    2.145884995242173,
    1.0958953536164942,
    -1.1494059916290487,
    -0.6749088068825209,
    -1.434591779791906,
    -0.8340541735474246,
    2.0472882269277983,
    0.3474760821419392,
    1.0158512094049668,
    0.06010819005271806,
    -0.08036387439792932,
    -0.2146423142305127,
    -1.4799205316585213,
    -1.890246496899453,
    1.0394599442562489,
    0.4851943664349753,
    -0.05067054145286599,
    -1.8491774914388222,
    -1.26843245413518,
    -1.2315196784403446,
    0.31844407143332015,
    1.266471940636153,
    -1.6814330513610602,
    -0.6523486551074539,
    -1.304979430974266,
    -3.0222314617685275,
    0.4835354278554244,
    -0.41973680242622946,
    1.2073222901418859,
    -1.3397776973351168,
    -0.7033561169907779,
    0.10450580149001559,
    1.184376163061236,
    1.3204569247805475,
    -0.6313333243046482,
    -0.4567664070095667,
    0.18670217001549985,
    -1.3370891050205271,
    1.2430331066998968,
    0.4427061141637761,
    0.6996189588299574,
    -1.3962402821592483,
    0.12513197737586165,
    1.6456306608684488,
    -1.6848644631227399,
    1.0178100510410708,
    0.43345549604167183,
    0.2872703778607646,
    1.2145254718716127,
    1.6766411308751814,
    1.1583550054560825,
    -0.702714823644491,
    2.0203499282391886,
    0.5682898617534646,
    -0.29763663183134903,
    0.709669651518344,
    -1.6376360270971666,
    1.5955435964847622,
    -0.6068604907711613,
    0.2816672302216113,
    1.4651395639445537,
    -2.4166992738711057,
    2.2496172948932784,
    -0.15032584458574905,
    0.30125635646529864,
    0.8988871962676881,
    0.7918746636006263,
    -0.29308654106614973,
    -1.3137447759377168,
    1.1293413604544231,
    0.3536491093335774,
    -0.6785467124611442,
    0.8223679864190945,
    1.8314235533237357,
    -1.2181068410453089,
    -1.0719405035755531,
    0.5432615792972054,
    1.8092957148400293,
    -0.7142796163466036,
    -0.00313361885741994,
    0.6841240095849711,
    0.9844091131248749,
    -1.455544451501742,
    0.19338046506327597,
    1.8596163326283135,
    -0.05349763208908282,
    -0.2815701657640379,
    -1.0874078387253654,
    0.7771889922157472,
    0.20650765181382946,
    -0.6270621174311131,
    -0.4571975262220719,
    0.9812213625928594,
    -2.0721461330005932,
    -0.5626327805425937,
    -0.7455132076485825,
    1.214836301006058,
    -0.21375442310423332,
    0.4465651401220694,
    1.6817499758507026,
    1.8398304507646193
  ],
  "best_morphology": [
    [
      4,
      4,
      4,
      4,
      0,
      0,
      0,
      0
    ],
    [
      1,
      1,
      1,
      1,
      0,
      0,
      0,
      0
    ],
    [
      1,
      1,
      1,
      1,
      0,
      0,
      0,
      0
    ],
    [
      0,
      0,
      0,
      1,
      0,
      0,
      0,
      0
    ],
    [
      2,
      2,
      2,
      2,
      0,
      0,
      0,
      0
    ],
    [
      2,
      2,
      2,
      2,
      0,
      0,
      0,
      0
    ],
    [
      2,
      2,
      2,
      0,
      0,
      0,
      0,
      0
    ],
    [
      2,
      0,
      0,
      0,
      0,
      0,
      0,
      0
    ]
  ],
  "all_fitnesses": [
    -41.09302268247484,
    3.207317233036065,
    0.5041093324259123,
    4.639991839129664,
    -9.235765100409367,
    -0.5927044620861466,
    101.44364751920551,
    -0.24120910546781715,
    -2.848165422619786e-06,
    1.3887137110422145,
    60.153635660463806,
    1.493576914511948,
    -30.134978620026743,
    66.66820010086252,
    102.06716862458347,
    -223.54672744832968,
    4.150136992194689,
    -2.0045562631797225,
    0.8658462131084832,
    20.332760990251757
  ]
}