{
  "generation": 6,
  "best_fitness": 869.0366884889377,
  "mean_fitness": 90.21814913446282,
  "best_morph_weights": [
    2.0008949853320757,
    1.8601134355205617,
    -1.198895619142674,
    0.6133436219264008,
    0.11687186313815626,
    -1.3168698449813179,
    1.9377345522608738,
    -2.1659858492906787,
    1.6726989273143367,
    1.5598384470304667,
    2.089572089733027,
    0.3512129425920157,
    1.250712371207635,
    0.5239838242948301,
    -1.2988850146506887,
    0.8430663573689164,
    -2.5930212018548717,
    -0.36221125134018134,
    -0.13895791491816759,
    -0.3693282732089495,
    0.9269136934973193,
    -0.9292864368574956,
    0.020605957263470143,
    -0.9241714028582549,
    -2.4436381367438513,
    0.6480189759325171,
    0.6199995860815481,
    0.2695255108576188,
    0.6612286825782447,
    0.33086247781758243,
    -0.3070282383843375,
    -1.3135685312943954,
    0.17898965737259342,
    -0.7190551249154704,
    -0.8652157545979247,
    -0.019841157800065075,
    -0.5120899310911913,
    -0.10054837089607335,
    -2.6220984531984866,
    1.1073923221033328,
    0.7370919791822271,
    0.7849316895985261,
    0.6663561150674594,
    1.2398011617933047,
    -1.6116343504683432,
    -0.4169362031003448,
    -1.1246205608988882,
    -0.8400634066180542,
    -2.6477648280952018,
    -0.12896511035270464,
    2.52889948136357,
    0.6169402717558687,
    0.33666117359599373,
    -0.35662978575085724,
    -0.4075178522400588,
    -1.7606257792090936,
    0.7966066641709081,
    -0.7752766287830493,
    -2.4653171346195024,
    -0.035207674616696265,
    0.9191890506175422,
    0.49742124739274296,
    -0.6552826986186842,
    -0.4430997313006023,
    0.301371287791885,
    0.396519710235076,
    0.330649757654967,
    -0.7696161939843659,
    -0.952112327312591,
    -0.7135011054243413,
    -0.4395281395933495,
    -0.15221152131582724,
    -0.08031389047545695,
    -0.8882597769069218,
    -0.1873331779181081,
    0.3657957528617692,
    0.5210568391908745,
    -0.1048425232294477,
    0.7551901977460903,
    0.5219028555451378,
    -0.44383165798756724,
    0.32312003259816247,
    -0.025801085596509392,
    -0.011110848758523882,
    1.9553666696268273,
    -0.6662019499967399,
    0.13464816938342578,
    -1.9760910808895145,
    0.43914733097290065,
    -1.6112002015775926,
    1.2150851450222604,
    -3.305926961701189,
    -0.1254118109723388,
    -0.3230153674387624,
    0.5005531861760355,
    -0.4669547308299597,
    -0.2701253025999405,
    -1.3056950291632867,
    0.7899879653539597,
    -0.09003325342934868,
    -0.4459166883700604,
    -1.0337252111278494,
    -1.1504198108732804,
    1.154463410910739,
    -2.1314959173156445,
    1.1994942349800026,
    0.36450854722515935,
    0.18361525826199215,
    1.8464072118943406,
    -1.4003545372060204,
    0.09035894347150138,
    1.0650793772827658,
    -0.9657234976764834,
    -0.5924960430753923,
    -0.425171970955924,
    0.4791810094576578,
    1.1652428596445086,
    0.5489520359243455,
    1.4932782659341859,
    -0.5721288104071267,
    -0.5964748215063355,
    -0.49279261873191105,
    1.284153017988949,
    0.4866089751642953,
    0.7996032949273735,
    0.37381390703741124,
    -1.9502841942716933,
    -0.24412244954274415,
    -0.34179096401670694,
    -0.4035899570390676,
    0.17320718641438568,
    0.009503152589229671,
    2.651075682271075,
    0.24609916922435193,
    0.44206878615725675,
    -0.034216765462551854,
    -1.0485493236160242,
    0.15196676490014321,
    -0.948655972330435,
    -0.499210866893959,
    0.15706401162295935,
    0.7275025147099009,
    1.633779187276633,
    -0.006799797654877407,
    1.4256183249508831,
    -0.8659034857728808,
    -0.4925327579976312,
    0.29216047530851186,
    0.3723302312739888,
    -0.0848808847865456,
    -0.5985865662938851,
    -1.1119777930996069,
    -1.999484604537006,
    1.2034627796895245,
    -0.13861623000846826,
    -0.6359460897093894,
    -0.0011676632593021763,
    -0.1340900882609477,
    -0.41640392543511723,
    -0.3105358352203201,
    -1.758633768699238,
    0.9447787850371389,
    -0.359143835500806,
    1.0932715870085659,
    -2.3530584436596294,
    0.21149074357897618,
    0.3402115700073708,
    0.7631462097642397,
    0.9451345814559837,
    0.8344548081180556,
    -0.15903022064919034,
    1.325143582309721,
    0.23777798771714898,
    -0.033649599682606765,
    -0.5722033462741878,
    -0.6226790406357893,
    -0.6756007440906849,
    1.8713145923918166,
    0.2537292542563493,
    0.7976792414170006,
    -0.9807474916494111,
    0.7487594072303702,
    1.2194098558820237,
    -0.6038470117733458,
    0.06087740894328572,
    -0.5061278816306058,
    0.31265522012330826,
    0.7884131176915885,
    -1.4646879350672586,
    0.2593374481488826,
    -0.44077942676349774,
    0.8759137707566372,
    1.3903185579536665,
    0.10930565421776917,
    0.9083936212513993,
    0.13052198584652766,
    -0.004889475839210514,
    0.3116399648071315,
    1.0722410784752594,
    -1.6766714728581305,
    -1.3751957584156527,
    -0.09906437001251817,
    -0.0391010995949009,
    1.19777728786744,
    -0.45115639060834023,
    -1.2510716559172597,
    -0.9185807193317825,
    -0.8247594208618882,
    -0.36904970424970235,
    0.2833318843291856,
    0.572912393486939,
    -0.2541222716218346,
    -0.6596710598345176,
    -0.9803784767760375,
    0.4594343428694858,
    0.12186943310949779,
    -0.20197139872765105,
    2.737992339162587,
    1.0709066514183574,
    0.26917087729547895,
    0.4547941914228568,
    -0.5374041204342768,
    -0.3418814496136921,
    -0.34362841019065765,
    -0.4892238523655853,
    -1.1663715281908371,
    -0.8129272987730347,
    -1.0667135825307057,
    -2.3390952073968996,
    0.733692098484451,
    -2.2116081327341814,
    -0.27561450312423585,
    0.17965926622460235,
    0.3902371434897844,
    -0.47847700603800936,
    1.0729241518033978,
    1.6177007268976649,
    -0.8787302919863397,
    0.5716812496672418,
    1.3817905688947498,
    -0.5673429101501889,
    -0.3214103489544775,
    -1.730767525309427,
    0.32940050905600293,
    -0.5487239629553944,
    0.16029991766550844,
    0.7823565991048819,
    -0.18029076830094717,
    0.004338173935024294,
    -1.1023389322999886,
    -0.22882676703896201,
    1.4468414304396622,
    -0.6408926249472807,
    -1.0651408318530462,
    1.2555140728528644,
    -0.4044840069577017,
    0.011294816103694863,
    0.28922119901215787,
    1.3815857138831664,
    -1.3600044171287136,
    1.0345241826966995,
    -2.064183151362532,
    -2.123611538440888,
    -0.9361766777157644,
    1.75506711814739,
    -0.942042046391679,
    1.0686960898332158,
    -0.3290352357908091,
    2.096059429643211,
    -0.7674158513916693,
    1.7633354793393745,
    0.47765860376477814,
    0.5762110104828216,
    0.6476011433838822,
    -0.37492753164935044,
    -0.03801697122181466,
    0.14715936254423637,
    -1.1544554790873405,
    0.2511897066186949,
    1.8663110866010642,
    0.23221237583492005,
    -1.4144246450544844,
    -0.6845930302611171,
    -2.082549805701989,
    0.30230183014133644,
    -2.002000373938679,
    -1.4331195607449276,
    -1.6897102581184305,
    -0.05086867729067635,
    0.403487594818583,
    1.6695206938171645,
    -0.5999440142437238,
    2.374101258460869,
    0.6964027215134696,
    -2.0935276091481305,
    -1.5699095563709702,
    1.0940755551818733,
    0.3056423597780794,
    0.0806533859615797,
    0.7586497932080717,
    -0.2460717111483551,
    0.35658858481777356,
    0.9971140655165118,
    0.41410335500213,
    -0.9583717679616964,
    -0.446273375745352,
    0.049194018206396004,
    -0.6422141325125533,
    -0.2623200001134156,
    -0.8709268498153133,
    -0.036646315485883596,
    1.0986741044467212,
    0.4799127102649278,
    0.2815303043310252,
    0.7463444562192897,
    2.115052636286025,
    -0.7048076433175345,
    -0.4006649403692654,
    1.7802487370627962,
    1.1144721722920776,
    -0.06851685437374473,
    1.0574341701024461,
    0.18108830806485424,
    0.017130139454696474,
    -1.0777992443099944,
    1.4215584395685976,
    -1.4208740851896857,
    -1.6100701334372056,
    0.7257231482718998,
    0.5552984880224909,
    0.7074652056092424,
    1.3407488821427411,
    0.5589730216153326,
    -0.2031500831447529,
    -0.441507553417021,
    -0.1803746770201831,
    -0.5839458141198727,
    -0.06902833191010377,
    -0.8485535967810212,
    -0.5505493710940462,
    -0.9229914944749057,
    0.9618173315214896,
    -1.4829074925665737,
    1.1915206342034443,
    0.178336995330002,
    0.9990691378379342,
    -0.5217394286617955,
    -0.9682554135461648,
    1.162119079328197,
    0.058277251509982246,
    1.5291093419658255,
    -0.5487202518150283,
    0.3874565322538102,
    -1.7202756766171436,
    -1.0507111320185265,
    1.286188125416782,
    0.9263140017910263,
    0.17096550249062623,
    -1.2222301141217673,
    -1.066217797047772,
    0.295521651950363,
    1.3932318987974674,
    0.12338498823696266,
    -0.8672221920017209,
    -0.23594251004431224,
    0.6265725321679431,
    -0.42809036506351217,
    -1.2674219648884688,
    0.6410588694103715,
    -0.7143841855420252,
    -1.0689523075626441,
    -0.28276136955602854,
    -1.4702647605235803,
    -0.14472939925432168,
    -0.9844973768218348,
    -0.7841599845012206,
    0.8106391859374515,
    -0.3036103481071542,
    -0.4227908973686323,
    0.9394883358581944,
    0.6462611548489382,
    -0.14003065212223434,
    -0.8213309921200177,
    0.5754597054398984,
    -0.3454774579301824,
    -1.1240871962147698,
    1.8754340321126242,
    -0.4458763008338138,
    0.14700788983798316,
    -0.2647915706662973,
    2.4212210434950663,
    0.34105911242413134,
    0.45249131758778505,
    0.961729541350292,
    -0.9895820233473642,
    -0.16708511939404122,
    0.1943831147693623,
    0.8337629521530527,
    -2.7099358100400694,
    0.3712494538177753,
    1.6426315286376216,
    1.4994120259078993,
    -1.750025310562087,
    2.2427409646337764,
    -1.3925495595926816,
    0.1640141832683483,
    0.2524831486455019,
    -1.5710860790626588,
    -1.370000206872968,
    0.49291752031889474,
    -0.012731404675670927,
    -0.09939505329569726,
    1.3223514416671038,
    -1.4252742843509096,
    -0.7119658935070059,
    -0.37955580431546126,
    -0.4595620682698814,
    1.3314721825228002,
    -0.4379224080478087,
    0.2883435391551671,
    0.7827936937238925,
    -0.9574647755386525,
    0.6224779308226049,
    0.7210874025810788,
    -2.64054709360477,
    -0.1466249522245265,
    0.6140128307511007,
    1.5513470939925047,
    -0.6115575440500848,
    1.4223057643010786,
    1.0313584254139199,
    -0.6851237122370504,
    -0.28940067568397465,
    0.9562159307619416,
    -2.578639958105571,
    3.0436881740667965,
    0.10166565342245698,
    -0.08785555333149973,
    -0.3135397335522614,
    -1.4969168879143167,
    -1.3477377374838488,
    -2.148430067992477,
    -1.6445964122006016,
    1.0561492473349263,
    0.21360400289029893,
    1.345725316386137,
    1.597442242267087,
    0.460987873402585,
    1.9974199455369783,
    -0.05733911155865022,
    1.2970403110730508,
    0.9397629836735828,
    -0.9198690544004647
  ],
  "best_ctrl_weights": [
    0.3104823334607,
    0.668429383810983,
    0.036241387328995144,
    -0.7206839564494812,
    1.214586793143141,
    0.46727399618530036,
    0.07715411819101119,
    -0.9519271184051384,
    -0.16196997139184674,
    -0.8027001482305809,
    0.4420107666242527,
    1.6113302598716417,
    -1.4988695777642538,
    -0.04513536131795944,
    0.3388769372076548,
    0.9816107244451271,
    0.12958707916309334,
    2.653145267876651,
    0.319405485124209,
    -0.2727873218342165,
    0.9276283678064496,
    -0.7147416926646452,
    -0.5829494018913103,
    0.1466829064979709,
    -0.9920436641431806,
    -0.909870238295549,
    -1.6779381936153785,
    0.17351187616747726,
    0.5352855961641435,
    0.5551081375889136,
    0.11676851573872289,
    -0.11295042137515521,
    0.17165576656390488,
    -1.6042519387639411,
    0.5131394916007532,
    -1.2332757883796466,
    0.44992700469420016,
    -0.3597271828869116,
    0.8568944331119467,
    -0.34511384840275455,
    -2.931151223029347,
    0.7543245588616656,
    0.33371704567069477,
    1.4875832656204149,
    -0.5806782485779857,
    0.8156531404027496,
    1.6548664335495968,
    -0.624196461437238,
    2.2628189018600016,
    -1.3542701409950866,
    0.042392307622385994,
    1.486416977741516,
    -2.0626358270346548,
    -0.16299763873119538,
    2.280708257093211,
    -0.7606401761453466,
    -0.13106167224592136,
    -1.0382403405661238,
    -0.4800588384714962,
    0.17116930011697185,
    -0.1800267305168366,
    1.051045256295361,
    -0.4740076133932636,
    -0.07604152940115777,
    -1.6010016361472126,
    -1.2337087846802048,
    -0.27039327975601735,
    -0.25099637236854544,
    0.07245308105783417,
    0.9787958364950664,
    0.3242142667180339,
    0.34737785851604247,
    -1.1358845175405847,
    -1.0306721103705532,
    -0.18276608092854765,
    0.6325152812351369,
    -0.402808622909689,
    -0.48186556217122406,
    1.1880220845962914,
    0.15182290006811805,
    1.5184755982626408,
    2.0169571309750665,
    0.47439094474984406,
    0.041956450515006065,
    -1.7961992856215139,
    -0.022207429938901364,
    0.5999124304485708,
    0.15339867076350022,
    1.1430400527484699,
    -0.46649219949524107,
    -1.278308421336061,
    -1.085524570401929,
    1.1386259982149434,
    1.311898850860923,
    -1.523250479184597,
    -1.044977111234783,
    -0.27300546876826237,
    -1.624636725652097,
    0.42066569791124014,
    -0.4692409387343516,
    -0.5620689805754281,
    -0.9197039743225909,
    -0.6410276131769029,
    -1.2158411108163907,
    1.2801245473467815,
    1.5739165062649285,
    -0.4384176831554912,
    0.722225992668629,
    0.1749516582337569,
    1.2064550288492246,
    -0.11612710267845851,
    -0.008761867945599161,
    -1.397085211192245,
    0.5393294231876558,
    1.4667269295647236,
    -0.0991122061410103,
    -0.10988598987550874,
    1.8183207520214832,
    0.6495499929664479,
    1.4252092116031938,
    -0.1633391225140816,
    0.6303062576289011,
    -0.12619594512572294,
    1.1450197056785933,
    -0.47255422317240003,
    -1.7347974476151233,
    0.8028488541553405,
    1.8501245682490286,
    -0.8234708450244818,
    0.3877526490763325,
    -1.8202303018048782,
    0.8025440225825493,
    1.2146470061152745,
    1.8464858171697096,
    1.299838153563698,
    0.8333983127264895,
    0.27216014328289845,
    -0.6663343726220177,
    0.12336613050449903,
    -0.33714011108885356,
    0.09450292497455874,
    0.5691379825981926,
    -0.18018619698336852,
    0.21871509934782182,
    -0.19451432235002164,
    0.7036253161915009,
    -1.1624194779582369,
    -1.8493829921011489,
    1.8891482061425207,
    1.4286583580254757,
    1.7834306575520493,
    -1.602076902835126,
    1.4232126403659455,
    -0.1594775501667977,
    0.5351792456132337,
    -0.12780877597889367,
    1.4532628523517772,
    1.092909378079659,
    -1.8636208347548928,
    0.803031944051401,
    0.7389114899786224,
    -1.0129307747945036,
    0.8497869778578346,
    -0.9279425336853695,
    -0.1789261519857779,
    -0.6098763808776491,
    1.0290517603158742,
    -1.502913539473796,
    1.439219927858238,
    0.5247603543849753,
    -0.26391242917993607,
    -1.3572562892029034,
    -0.03281653400922546,
    0.021495662951028293,
    2.349096430252438,
    0.072480491746358,
    -0.42216011797147407,
    0.9419368455791297,
    -0.32737329484981154,
    1.0277736392497931,
    0.40964653886677016,
    1.2934150192240874,
    -0.431107645136309,
    1.830457643520018,
    0.06499256725594255,
    0.7460945258568235,
    -1.3601154351239093,
    -0.9996663014743807,
    -2.399429298885434,
    -0.41443801603879693,
    0.3306221941414837,
    -0.29529616951805593,
    0.42137659674122074,
    0.4957603515604363,
    -0.2606125437213234,
    -0.936833476392595,
    1.8490076260449608,
    0.10654351489970552,
    0.7124925049000421,
    -2.1393526023300327,
    0.21295700998731795,
    -0.33577956377458196,
    0.606294554721545,
    1.422436802159778,
    0.04592086520982227,
    0.8605249576899004,
    1.0460725710922638,
    -0.7156598886460455,
    -1.8597360158878327,
    -0.16445577048406312,
    0.8014732402861201,
    -0.47505955598785354,
    0.6929965425150234,
    0.2243382675889793,
    1.2268406348318137,
    1.4749881213521174,
    -1.3772410156282826,
    0.18724396390859685,
    -1.533761068051516,
    0.43866782399266474,
    -0.43359636832971427,
    1.554794671899966,
    -0.33298779930423383,
    0.14232084518348637,
    -0.13545545575850607,
    0.17976129927444096,
    0.07269749153334407,
    2.0652229840991194,
    0.5624687398981106,
    -1.0014845269374275,
    1.0779982920427733,
    -0.01753818059391516,
    -0.3119132489505061,
    0.16554363506217804,
    0.4813957846618505,
    0.49415168909360463,
    -0.08760795040357744,
    1.604146031530827,
    0.8246543540839198,
    -1.2348523734432628,
    0.8476179329083268,
    -0.024490709764419877,
    0.7333710817136245,
    -0.02496816482930986,
    -0.48565464684064874,
    -1.299313907049817,
    0.6890666232686891,
    -1.3230073628222536,
    2.103567020785239,
    -0.19448564595078183,
    1.2391564107442816,
    0.7964456590221645,
    -0.3573617577739081,
    -0.4783512990161993,
    -0.6562740555282478,
    0.8056818472980575,
    -0.08622540683003765,
    -0.9290464883892813,
    -1.6058037081428922,
    0.03322869282417156,
    0.04925175717826797,
    -1.4735130007972155,
    0.9453088575073043,
    0.20448533181489098,
    0.5747859622747898,
    0.8602143391859159,
    -0.05128413400029572,
    -1.4433171908190092,
    0.34741890795065034,
    -0.5709846280785529,
    0.7088403726424591,
    -2.1168513032654417,
    0.8140674581391208,
    -1.009956843552439,
    -1.3643417127024124,
    -1.4627200076368378,
    -1.809266065985048,
    1.2451711453001202,
    -0.38738396083029586,
    1.6261482330631425,
    -0.8747862379185212,
    0.2859342183940477,
    0.6241288059002759,
    0.5226497324351421,
    -1.2665414481601551,
    -0.1794979936086536,
    -0.4336091966820357,
    0.8972222914207405,
    -1.400704505873356,
    0.5482356718122019,
    -1.3722981797391196,
    -1.0154654649229098,
    1.1750638297985052,
    1.4411072351146352,
    -0.9389185590023392,
    -0.6941408537897354,
    1.2757787459034928,
    -1.695276848372243,
    -0.2657191757315209,
    -1.2992592287739961,
    -1.8743370813209597,
    0.04890577090813912,
    -0.04823625051063111,
    -0.3623901152772334,
    0.9705456541022733,
    0.39034083502760986,
    -0.14146764203566445,
    0.6362472548791906,
    2.2242352882643632,
    0.22734009081448076,
    -0.9222157290288113,
    -0.7369651094988611,
    1.870613561926766,
    -1.244320721559688,
    -1.5133032407241187,
    0.29171655033569577,
    0.4635210596893131,
    0.3506287557765407,
    -1.39051112428805,
    0.6529367269589731,
    -0.6095520954413441,
    0.23602769772631518,
    -1.0396851133777216,
    0.883360637652473,
    0.16620049467594,
    0.4526230441573056,
    1.8748697976862456,
    -0.13518940415199493,
    -2.2945523160976733,
    -1.3953678223624066,
    2.0802604140432126,
    0.8891205382086943,
    -0.008767123332672155,
    0.44942623523055064,
    -0.36060530027818777,
    0.5356762430712835,
    -0.3087796026189608,
    -2.3150295351058356,
    0.2066592599744461,
    1.672085497510182,
    -1.0720468525674465,
    2.037939899849663,
    1.7174642803903972,
    0.4403482733647115,
    -0.461086863898936,
    -2.242530394940836,
    0.6008269121453932,
    -0.7972460643213153,
    0.7348192956233581,
    0.5238356286237378,
    0.3860992631447141,
    -0.5586167948978126,
    0.9408912098839488,
    -1.154438727517711,
    -0.5981400295890534,
    0.38612696825909903,
    -0.2153534284782176,
    -0.07100828603844311,
    0.0004257149464948858,
    -0.049754240432728865,
    -1.0610771970781052,
    0.5416343135359561,
    -0.47436059906882805,
    -0.8324754930458026,
    -0.3408656315071817,
    0.5431341857169233,
    -0.4266843608144284,
    1.7827104386559651,
    0.9961717602471076,
    -0.6071527289369871,
    0.3726624401743358,
    -0.3239517228897113,
    -0.3050701261881246,
    -1.079571154246897,
    -1.0386325459313905,
    0.5831512910397422,
    0.079272652208703,
    0.6267843947579357,
    0.5732505723523175,
    -0.49092400740157355,
    -1.3066865900919074,
    -0.992253100769823,
    -0.07024086340416326,
    -0.5823085164142264,
    -0.3401406541170911,
    0.7634980782964709,
    0.8505109852807256,
    -0.7167091359419551,
    0.057697000130780114,
    -0.32084533519288855,
    0.4376241041036106,
    0.24462100280350707,
    -0.1344997380020989,
    -0.6536253855865546,
    0.907154745097965,
    0.7978498196248285,
    -3.191170275070958,
    0.6271859806998592,
    0.7290676027791444,
    -1.0723092136133134,
    1.2610514707436025,
    -1.4167240401787726,
    -0.6148076803546341,
    -0.807796590344472,
    0.7477742409998537,
    -0.23255153405006884,
    -0.302397350363729,
    0.17975359107316008,
    -1.3715217328261506,
    0.5539971957179638,
    0.10812534285242335,
    -1.5001530873694673,
    2.1106954244151512,
    0.19438084544333126,
    -0.1896108610674489,
    -0.13059547095917715,
    -0.05149247377351533,
    0.09106927112001925,
    -0.9023817264385181
  ],
  "best_morphology": [
    [
      0,
      0,
      0,
      0,
      0,
      0,
      0,
      0
    ],
    [
      0,
      0,
      0,
      0,
      0,
      0,
      0,
      0
    ],
    [
      0,
      1,
      1,
      1,
      1,
      0,
      0,
      0
    ],
    [
      3,
      3,
      1,
      1,
      1,
      1,
      0,
      0
    ],
    [
      1,
      1,
      1,
      1,
      4,
      1,
      0,
      0
    ],
    [
      1,
      1,
      1,
      1,
      2,
      1,
      1,
      0
    ],
    [
      1,
      1,
      1,
      1,
      1,
      1,
      1,
      1
    ],
    [
      1,
      1,
      1,
      1,
      1,
      1,
      1,
      3
    ]
  ],
  "all_fitnesses": [
    508.8706158178352,
    7.6221347364241865,
    -15.690655385350283,
    376.20562656526323,
    0.2275160472946709,
    -324.7316704647591,
    0.11014343617091527,
    -40.7958731904925,
    -0.06673298701912245,
    124.13859918541885,
    130.37479471121526,
    -0.08257955950318774,
    -102.106243514411,
    869.0366884889377,
    50.809001447522746,
    -166.52054623623928,
    150.93013582800427,
    265.3855442111791,
    65.5654563881169,
    -94.91897283635214
  ]
}