{
  "generation": 4,
  "best_fitness": 318.7483629067477,
  "mean_fitness": 13.562639918188244,
  "best_morph_weights": [
    0.3244477614347416,
    -0.44152118540116814,
    -1.3446920807028562,
    -1.8987559206293736,
    0.5895244892901531,
    -1.9680139499631457,
    -0.721930603106172,
    0.456569712638107,
    -0.3598787654256784,
    0.3355389610168385,
    0.7443855607184431,
    -0.6733396912825278,
    -0.07601721539420757,
    0.22790656615436314,
    0.4297499028260455,
    -0.06059997309878413,
    -0.3054762280248823,
    -2.495712974256471,
    -1.0586065745583004,
    2.0303317277433766,
    0.544187183498969,
    -1.1192239219891518,
    2.1320701040705057,
    -0.6415591092408961,
    1.238821288919686,
    -1.080252395204339,
    -0.5004441292199202,
    -0.5103636221599809,
    -0.4486936921269167,
    1.0283079082264899,
    1.4305911016593593,
    -0.4355276525108681,
    -0.2619316435402467,
    0.46994994898036346,
    0.6078902813732026,
    -0.1851658285028321,
    -0.36246386106902484,
    0.782620051952715,
    -1.702131844417513,
    -0.14400971802665602,
    -0.8552399697913663,
    1.8392028791162554,
    -0.504964969461193,
    0.729908419969219,
    -0.4114900554419211,
    0.044902322615099334,
    -1.2005796493143213,
    0.2818928216975171,
    0.8996634299839242,
    -1.2221057725395548,
    0.5053136814698664,
    1.2208385865425744,
    1.1338242184415706,
    0.12105411522834747,
    -0.778967231338085,
    -0.35058522716011026,
    1.4651609152905978,
    0.3708882833968665,
    -0.6276245782889294,
    3.480848496458049,
    0.7922752549281254,
    1.088931397255952,
    -1.0096758370993266,
    -1.781826256666754,
    0.24711695810271442,
    0.8798452382488768,
    1.9831025845570216,
    0.9230111531861604,
    -2.1578414182421786,
    -0.17608039230376685,
    -0.3835453784988251,
    0.8631451170206422,
    -0.7190223034978538,
    0.5541339832389913,
    1.2987994593311574,
    0.016210938258732408,
    -1.5003726002813498,
    -0.8687337338419617,
    -0.3432506016760354,
    1.7095308734257622,
    0.9933353714980528,
    0.4622917976981431,
    0.08857019886120117,
    0.2273967853680421,
    -2.1712575034838117,
    -0.025342932090952376,
    -0.9844208716460554,
    -0.0849039033530409,
    0.23345466418536454,
    1.963512565696296,
    -1.2601168892291859,
    -0.33384941092006065,
    0.9234437609846678,
    -1.0067973749171248,
    0.22990384754903337,
    -0.6568661542498507,
    1.0722776519346913,
    0.018585449254172767,
    1.0781084085323984,
    1.9676505949874723,
    -0.27514994600898607,
    0.9922429674229033,
    -1.028131845503379,
    0.32422931559932283,
    -0.6819936084944459,
    -1.005019257069638,
    -0.706837703715512,
    -0.9765028327359788,
    -0.5802659897313265,
    0.5948488021462954,
    0.6890655760178507,
    0.35938903545534906,
    0.822470200318354,
    -0.9728174753204827,
    -1.3552899966841028,
    2.555132064035063,
    -0.9796810556005702,
    0.3680175951291731,
    -1.1734376020274786,
    0.5723925381286478,
    -0.5731871449439806,
    1.9842987998863566,
    0.7155222582230608,
    0.7500229289384619,
    -0.7365404019311662,
    -0.0371404831899477,
    0.3830014519264532,
    -0.08064045765838543,
    0.28786987553422033,
    0.8341874129349066,
    0.5585931418138237,
    0.9233919616528183,
    1.2750923882120115,
    -0.585390716289524,
    0.28019758068590017,
    1.3141402829658362,
    -0.25654522561035564,
    0.6110051307507021,
    0.5890647409638592,
    -2.0719275592911286,
    0.2366330943528703,
    0.33130745442982634,
    0.006472024954800083,
    -0.7778855422974881,
    -1.1853842788593467,
    -1.5999653128076607,
    -0.5010027567624132,
    0.8677451897743444,
    -0.24249376541892928,
    -1.0202277149256818,
    1.1703307661895408,
    -1.5318231003354295,
    1.2641203352667048,
    1.2704812760623834,
    -1.5836101411202999,
    -0.9324418094837901,
    -0.14318309410256785,
    -0.5061502083835085,
    0.6263886273708384,
    -0.9667148338123779,
    1.2357678454300134,
    0.6255758525108722,
    -1.6425217045548701,
    -0.5183209697591551,
    0.6013046518817121,
    -0.38216010184408067,
    -0.5609262796925819,
    -0.9749098580803248,
    -0.13736252260026804,
    -0.34130371003571597,
    0.9250220332088092,
    0.7176935485170762,
    -0.9327573727816091,
    0.3796400747834322,
    0.9202291676732118,
    2.731540075032626,
    0.17950653813150227,
    1.1869280120660848,
    -0.6216140691176167,
    -0.23583232434349016,
    0.929945452380949,
    1.5200398282958056,
    -1.1994639543147037,
    -2.2050286560617636,
    1.045868778477861,
    0.820819254291915,
    -1.0665788911062537,
    -0.6394390080039806,
    0.10083118300661909,
    -0.5588188102298954,
    0.178912654797175,
    -0.12016311496247988,
    -0.7409126085748484,
    0.28834884081044904,
    -1.069347222299259,
    0.33039983354732355,
    -0.28986119220567624,
    0.3972462369266184,
    0.9704499281378514,
    0.5839580978764861,
    0.06482201814178218,
    -1.0070956199216436,
    -0.8975540953731348,
    0.8337602866983893,
    0.004991987646925408,
    0.5730224210284758,
    -0.8624209579062946,
    -0.407394743860149,
    0.3250342729665021,
    1.244123311204624,
    -1.143231574901151,
    1.7899415781545396,
    0.36280830039816053,
    0.9068506827743944,
    -2.6130859066108423,
    -0.04153065821723975,
    -1.4753559833547034,
    0.5843854129876701,
    0.8409627628290636,
    -1.0901232306408561,
    1.0963786877932775,
    0.2729753696206204,
    0.6346808378812739,
    0.5308978378442621,
    1.4728582792041536,
    0.6975075892781704,
    -2.105734947115459,
    0.5082211230997062,
    -0.31127657297101136,
    -0.896191171499738,
    0.18457342443629152,
    -1.331574347856442,
    2.247189250980063,
    1.6899948988685103,
    -2.0095978912598107,
    -0.5517522817316681,
    0.9122546794804376,
    1.4418871872978096,
    0.953126718199375,
    -0.4161685816293078,
    -1.2940154343402532,
    -2.7622185696133554,
    -0.28657882940699736,
    -1.1012748910591168,
    0.38240914141922705,
    0.6916471176221467,
    -1.1596549447354834,
    -0.6096705310239638,
    0.5593889262887494,
    -1.058084199929741,
    -0.04998197917642495,
    -1.9611919849982282,
    0.4636509226135723,
    -0.6498531982722102,
    0.8174291513936897,
    -0.8384374760733391,
    1.1143130272328425,
    0.8392763920976626,
    1.0360705462416977,
    0.1852330052044802,
    0.8374326886043372,
    1.1376558228480929,
    0.9645727227947212,
    -1.9777212374242057,
    1.1139245153509965,
    -1.3048919015573688,
    -0.24773085523195792,
    -1.1448880105269696,
    -1.528590412317229,
    1.0258038186569298,
    0.6737035569736514,
    1.377404057752956,
    -0.6070071744109848,
    -0.3324981853131993,
    1.1397178187205312,
    0.12389530406267239,
    2.736333027949159,
    0.5378924880246954,
    -0.4987045348505744,
    1.4238003130115338,
    -0.1395700742622325,
    -0.017740299292020766,
    -0.7161723499860062,
    0.265782910489316,
    1.2752690501952186,
    -0.5443711685037378,
    -0.13907221723650248,
    1.2362063046800285,
    -1.516375739966101,
    0.12379739121976507,
    -0.4146817728136274,
    0.4500346673063838,
    1.0741583130908416,
    0.23871496887564045,
    -1.3880826769538182,
    1.0416581771400462,
    -2.622885243179124,
    -0.18744389235084158,
    -0.00978127883707747,
    2.145809348594458,
    0.8799627936826395,
    -0.5527333545513528,
    -0.00474334712413045,
    -0.021092339087828666,
    0.6427053998273052,
    0.7305585166936708,
    0.9243287703614073,
    -0.9669001465311289,
    0.14233828584348773,
    0.4627807746655703,
    1.7623513459675786,
    1.15508081564713,
    0.2499711440172452,
    -0.013181409937544852,
    -0.9401288467393836,
    -2.1085025706983744,
    -0.04277756941904681,
    -1.7479993434827557,
    -0.819125412540041,
    0.11036550852556937,
    0.6581418099304339,
    0.22604124457285393,
    1.5021466036349527,
    -0.162954864439678,
    0.005957876315596373,
    -0.9415418060186989,
    -0.078290331599635,
    -0.42762977516163864,
    0.6303889062511899,
    0.673778530422493,
    -0.23391389055632153,
    1.5800671316229093,
    2.2990692545450995,
    0.4437894451807793,
    1.0301670316323284,
    0.09471735728541372,
    1.0530888615110154,
    1.0639845319203332,
    0.009060932609458982,
    1.5320554723988418,
    -1.312964804810259,
    -2.4775296844598267,
    0.8385300166989915,
    -1.522951276240845,
    -0.0872837127773814,
    -0.5821460223181628,
    1.7154471506710054,
    -0.4662674336711202,
    0.9938494313327115,
    0.5462941126511499,
    0.32078498641562636,
    2.242874768778642,
    0.41666263167935075,
    0.23761082034496456,
    -0.5673968840481444,
    0.15653500038183868,
    1.2065937677910237,
    -0.4861480704872889,
    0.8873159795402401,
    0.7391569130288368,
    -1.5380241398434993,
    0.9220583183147463,
    -1.4178974993175901,
    -0.05400417435388775,
    0.42595062465777617,
    0.18577028854848004,
    -0.4896186344423913,
    -0.12746497173379406,
    1.0455047947319187,
    0.7046131895383557,
    -0.4815737753435308,
    -0.21601258197828677,
    1.1932386455767285,
    -0.9139713702523877,
    -2.2200901976915723,
    0.12267468792725945,
    0.38490938074246034,
    -0.24285460116528604,
    -0.5152954231750648,
    -1.4017214712249249,
    -0.8406904485483973,
    -0.23511548152420556,
    1.2405180007676633,
    0.5964676471495819,
    -0.7614329998426732,
    -0.4215521410325352,
    0.9559688836258765,
    0.43316495135254246,
    -0.5169516417280867,
    0.02196876087422628,
    1.2937240680747206,
    -0.90256745283087,
    -0.9561049447044169,
    0.43622290300499417,
    0.7567258490044654,
    -0.7998258190155764,
    -1.7717180995279231,
    0.6358237087352828,
    0.08950740527412518,
    -0.7818454341705632,
    -0.2698895939975672,
    -0.8114311400974691,
    0.9933530682414176,
    1.7447443631704211,
    0.1750401465129327,
    0.006044188272750228,
    1.831480537708891,
    0.6157435714859025,
    1.222270764861836,
    1.753758865468701,
    -1.6035628330508378,
    -1.7335055161166975,
    0.7679576310671027,
    0.7483022590139345,
    -0.8523367590693329,
    -0.5856239365141909,
    -0.19597103616299275,
    0.3282210876430292,
    -0.595816935178323,
    -0.171072980433355,
    1.855147366192747,
    -1.2570243029457118,
    -1.218964200219428,
    0.9297475835864157,
    0.5001938033805798,
    -1.518903009409333,
    -0.7183322046632523,
    0.7103849705802827,
    0.4083822474276208,
    1.9339101905395624,
    -0.11877735839247658,
    0.3790727367360292,
    0.3897186447921717,
    -0.6021061009235719,
    1.855606098929739,
    -0.12297227537719502,
    0.9189200370980328,
    0.28603640026689775,
    1.3103987553662122,
    -0.06212869185550995,
    0.5927243983357603,
    -1.0555661951760469,
    -0.6649817870874755,
    0.5792373104089523,
    -0.0026353685444118406,
    -0.6927090521790324,
    -1.6931118659227786,
    -2.150874101655334,
    1.113970700399138,
    -1.7130918066261418,
    0.24090824400389144,
    0.4474903427680794,
    0.35390995024914157,
    0.20412610992884853,
    -0.29196052627905705,
    -0.1343719467014366,
    1.239891979307211,
    -2.068301339164694,
    0.9460729030938028,
    0.9026379028881321,
    0.784367538623007,
    -0.34642463599032985,
    -1.9073410941870381,
    0.6604539694118254,
    -0.789972119938541,
    0.4983101374451148,
    -0.8936419993585106,
    2.16083031501289,
    1.2556935888850402,
    -0.2237159524212914,
    -1.2796209955318696,
    -0.3484771204053867,
    0.3195395953296799,
    0.045627824825794555,
    0.4220036906794443,
    1.2838206445574794,
    -0.8050077087344457,
    -0.06476516689004556,
    -0.5641319801880832,
    -0.054059639937372464,
    0.16536052954737615,
    -1.8427293701048206,
    -0.9639989458391653,
    0.3505562078267793,
    0.6133602811474738
  ],
  "best_ctrl_weights": [
    -0.768368643140184,
    -0.5142482567713771,
    -2.6607320433748645,
    0.8958008748951697,
    -1.0940402541633836,
    -0.7275096154949221,
    -0.1667090077944565,
    -1.048368590352845,
    -2.769511167187398,
    -0.08388053579051338,
    0.4861306230376242,
    -1.151043886633915,
    0.8414684590468172,
    1.3291976120019136,
    -1.1485871414811504,
    0.3777267493680213,
    -0.32644800954613173,
    -0.17374110491316952,
    0.04424904442276437,
    1.4305205731624677,
    1.7870063324201613,
    -0.1667476132996815,
    0.9552191628388539,
    0.14036856263772252,
    -2.4035210422235562,
    -0.795149522638492,
    -1.2134098025665985,
    0.4449833049714385,
    0.4876011232747261,
    0.43229766404010883,
    2.0414540136232118,
    0.5576410920259292,
    0.16646718504256391,
    -0.7708966656650509,
    -0.28910242844499423,
    0.10517446519901513,
    -1.733921204292957,
    1.713373160562586,
    0.9729616950415001,
    1.2234744735447944,
    -1.7754891319323995,
    0.0719368458901774,
    -1.207126386958056,
    0.9596470936222228,
    -0.5633159763690547,
    0.6621196433794567,
    2.0788071799612786,
    1.04596289308586,
    -1.4445128500773765,
    1.0256586908588816,
    -0.9993822201056487,
    0.6367701438803403,
    0.14990762643319477,
    -2.2737030603347113,
    -1.3120224065804282,
    0.8591067119889012,
    -0.41617263846745783,
    1.212888514738539,
    -1.4241709287780266,
    -0.6914817454193541,
    -0.6037100308451517,
    0.5528940167037943,
    0.12084392422911851,
    0.47983044657579493,
    0.98203846135673,
    0.7329375520929496,
    -1.0029237032785403,
    0.767523439444146,
    -0.04447027618678078,
    -1.2765528419666288,
    -0.8930983859344653,
    0.26778208378380786,
    -0.5338583614352016,
    0.7246493411732984,
    -0.8166334035591041,
    0.48535555205569725,
    1.8097463255102904,
    -0.7030678213526196,
    -0.7156346602515553,
    1.2639151423313808,
    0.8340003510899159,
    0.8877928230132293,
    -0.244451347920834,
    0.10128824135200855,
    -0.7930185351259671,
    -1.2050149801627148,
    -1.0946958876407349,
    -0.4126347580574412,
    -2.882513701253376,
    -0.15165876982218213,
    -1.181377145809387,
    0.26911116382818473,
    0.5077670486934603,
    0.7142518490444875,
    0.3694100630559341,
    -1.12957094531707,
    0.5832914944816696,
    -0.023875419575508563,
    0.3250973223858031,
    0.04427235959942288,
    -0.4215142077040489,
    0.4100566828128761,
    0.09808034943174157,
    -1.1775477548917563,
    0.26796860796738253,
    1.087819746310368,
    0.9220803066721304,
    0.20848343926022703,
    -0.43237166847281117,
    -1.7457185810296756,
    0.8430238057514814,
    -1.6155557653173518,
    -0.9837053081607051,
    -2.1195091289024655,
    -0.22475317988290655,
    1.2561305067532982,
    0.9150087837347965,
    1.1486901838586674,
    0.4715788366094144,
    -0.6234842195040745,
    0.3702261589106904,
    -1.2190864771506202,
    -0.24884801952911484,
    -0.12380092492255668,
    1.169090882244284,
    0.8327659187339735,
    -0.10829475054122314,
    -0.9780317436234506,
    0.9114062395362029,
    -1.4861172167079908,
    0.19214076066539046,
    0.04832245680862079,
    0.1509218854589825,
    -0.9438042422957441,
    -0.7902303708580839,
    1.1043740147097416,
    0.3257046443866843,
    -0.08909505185735989,
    0.10544821389077592,
    1.0553155353134025,
    -1.3700916888072199,
    1.9678588107393609,
    0.2565062226975212,
    -0.4568602800576613,
    0.5388266390952922,
    1.636823069697139,
    -0.7903215847286442,
    0.27910321359530416,
    2.1105828963582436,
    1.0446381615877245,
    1.6827638930162208,
    -0.211524239071705,
    0.851557841241149,
    1.4276903005862325,
    0.5828177999439373,
    -2.2246463438270867,
    0.1998676291900997,
    -0.6240898953399113,
    -0.6137664009007943,
    0.6787058787186979,
    2.3952384474837025,
    1.6624514006963713,
    0.5939996307820276,
    -1.1606957774320161,
    0.023728443524634178,
    0.4228729227042068,
    -0.20023193237328524,
    0.7943896109263473,
    1.569520903426247,
    -1.8492900826245768,
    0.25399904872150203,
    -0.37588761114119723,
    0.8622614787044538,
    -0.5693453055930651,
    0.39680574831647386,
    1.857137140344701,
    -1.3013905922109947,
    -1.0684687000308597,
    -0.3095428020421987,
    1.0634248221348175,
    -0.330285562820717,
    -0.7518410341229411,
    0.5814201088935621,
    -0.6409162224158953,
    -0.764442023742977,
    0.13996701789756918,
    0.5157035040531814,
    -0.6854304592796003,
    -1.7063697876962696,
    0.006227242977733297,
    -0.11244103863961609,
    -0.9125333707124891,
    -0.16386646630263757,
    -0.47805833240982815,
    -1.441854317318614,
    -0.012860320168109078,
    1.2616752023565285,
    -0.46797144758289033,
    -0.570552024041527,
    2.319378985462777,
    -1.2220760335902154,
    0.5081745774835383,
    -1.0907532235437034,
    -0.8721716027314316,
    -0.19597386243757317,
    -1.0543242686080703,
    0.43268698249424,
    0.27090489892098285,
    -1.6322676893411352,
    1.0621286876204288,
    0.8130694732954113,
    1.1742448092657067,
    -0.779085202979029,
    -1.2017587165540853,
    -0.9135040983317406,
    1.2360396349297584,
    1.0300716029910562,
    -0.6804778713197577,
    -1.0187367681858133,
    -1.6215368676748265,
    0.03685581938576819,
    0.20965795313208702,
    0.08605304080819792,
    -0.23111233863157765,
    -0.34855692779169517,
    -1.2677236995980246,
    -0.3728535651933818,
    1.3979666824970547,
    -0.2725334080410533,
    0.7182071505441401,
    1.5993361924660887,
    -0.4388770274567369,
    -1.2279553725215597,
    3.1911668210687214,
    -0.7849966530889931,
    -1.7005504693267315,
    0.5437759135150714,
    0.5550703312189346,
    -0.40909539253795235,
    0.8885171940601676,
    0.1630012716229973,
    0.5347113067003325,
    -0.9155196891866647,
    -0.433655553947061,
    -0.41541489184240626,
    -0.3745065371610102,
    0.21571691976522656,
    0.08302687289652744,
    -0.06586923659480552,
    0.3750646915368513,
    -1.2760071396639632,
    0.5375860603988745,
    0.16479445768866896,
    -1.0969033699528237,
    0.6777715644295438,
    -1.2123158045567797,
    -0.5071512649958541,
    -0.6617770624137987,
    -0.25775335324101656,
    0.3159365951050809,
    -0.8171342358247529,
    -2.113539538764761,
    1.0314601265060077,
    -0.8689111826221817,
    0.7849388517457222,
    -0.6160778814795251,
    -0.057104834139177725,
    3.448456499312781,
    -0.6949023660009686,
    -0.1726535149806198,
    0.5809976363806543,
    -0.08125564739517188,
    -0.3143400818843153,
    -1.0506590053480187,
    0.54868355270874,
    -0.2196892064772901,
    0.0814576412763446,
    0.06637263453495382,
    0.26810640984174483,
    -0.33404054486407,
    1.3350163193691955,
    -0.8206751179297063,
    -0.10257106114244953,
    1.0192887137505615,
    0.8749282704144317,
    -0.890715569525041,
    0.7258224201654493,
    0.09912913094532032,
    -1.061305927812168,
    -0.7266340526820476,
    0.22653805680903125,
    -0.08190961279924998,
    -0.8211209483399526,
    1.1975702478405499,
    1.0292397492880228,
    -0.11928082701847462,
    1.6934903401948174,
    0.7992416256980042,
    -1.3253910795910908,
    1.5242704847160258,
    0.8578257592094748,
    0.7424603292762493,
    0.3179026711697969,
    -1.0493658579996865,
    0.9473450203186287,
    0.2144037542887092,
    -1.4319127015345678,
    -1.5656432679721708,
    -0.22732036030293087,
    0.46744468200181694,
    -0.8378711752736954,
    -1.1227436194914424,
    -1.093497122639767,
    -0.6116520524510164,
    -0.473483828325273,
    -0.07848843382136131,
    -0.634889001515331,
    -1.7021676800522247,
    2.0436810219089105,
    0.7829643686916913,
    -1.2824103432590226,
    1.2032925681877167,
    0.08184912553288543,
    -0.6766658361905277,
    0.4575068182986451,
    -0.25614888534923363,
    -0.24783979951256765,
    0.16110597470769028,
    0.7626280400961011,
    -0.3204697512164372,
    -2.7073240293216867,
    1.0178758767637768,
    0.8568534658040288,
    1.5386534205655495,
    -0.7656890072764453,
    0.7424473397272864,
    0.7070206996386267,
    -0.3688169807886827,
    2.1725619554743334,
    -0.6539838014860574,
    -1.4580587040525665,
    0.5823552592677713,
    0.23098210442717101,
    1.797501194505429,
    0.15524302629776848,
    -0.14548352897837125,
    0.026735466568850074,
    0.6574796513826096,
    -0.41508948358223596,
    -0.28168056439420475,
    0.9472245055876162,
    -1.0098906225576496,
    0.8995581898784455,
    -0.13461494947819333,
    1.4648108810760974,
    0.22383349995682533,
    -0.5794720935427135,
    -0.37217831149339947,
    -0.158372490813931,
    1.2834853143182887,
    0.44087378706961466,
    1.48767150870203,
    0.1389274097316861,
    0.2192162849551728,
    -1.0662827268028174,
    0.7865463162241342,
    1.153241636733227,
    -0.4995464438162748,
    0.12247746618711791,
    -0.5741329454232688,
    0.5334221713867864,
    0.20268027435722763,
    0.033529507791250475,
    0.2224823265484844,
    0.9000979649560688,
    0.14942023397749418,
    0.044935959028188456,
    -0.9741988525806968,
    -0.26420426686321274,
    0.5926565869131691,
    0.5213977820886104,
    -1.0421332797122478,
    -0.39592373297310707,
    -1.2023557937601599,
    2.249166360938337,
    0.40743679710911557,
    -2.352538022947516,
    0.4331617993313572,
    -0.39893287718767406,
    0.0374217919993965,
    -0.40410730062856576,
    0.6893963949759666,
    -1.0626488592431345,
    0.7600353915573701,
    0.6982404541994525,
    -1.4838183937336658,
    0.6189644937826622,
    -0.15110681732597628,
    -1.9037675204942983,
    0.009430103459723584,
    1.3913862680893445,
    -0.1183530761949259,
    -0.12503548721343075,
    -0.3894335486648562,
    -0.041660478097421426,
    0.8172557882813113,
    -0.2778359281971704,
    0.5829161002559107,
    0.4077780537083904,
    0.8599260065400652,
    0.24204069973091952,
    -0.5533525735018847,
    -0.6585051214250234,
    -0.41829143304445787,
    0.345587244305052,
    0.46884609451735193,
    -0.6424999337832032,
    0.1773687788175901,
    -0.28177948992880614,
    0.42497419595601127,
    -1.4605346571503683,
    0.49532030149306105,
    1.4694418850551776,
    0.5750161357717514,
    1.7034040821705592,
    0.06757851222230708,
    -1.576170531349128,
    -1.6163217639331684,
    1.090531843607356,
    0.17892742344382076,
    0.8066548684621482,
    0.10463859714909465,
    -0.22350023916874873,
    -0.44516551675310995,
    -1.7850255657877379,
    0.6107849318264009,
    -0.6556474956668156,
    0.08609107306528152,
    1.025954307961113,
    0.17936455094899345,
    0.00976168459204481,
    0.44998997037561006,
    -0.2460710857822165,
    -0.3280171102949818,
    0.5311176318176714,
    2.1255901730610725,
    -0.06570378595635915,
    0.27056698778551186,
    1.3668006832353738,
    0.9797740133229225,
    0.32721711118264435,
    -0.8661334532354199,
    0.040470300043974755,
    0.10518522620371555,
    0.8491577525253595,
    0.7716219479619966,
    0.03176953421887208,
    0.760665742564884,
    -1.266953712580307,
    0.36078953084108184,
    0.18301036218094247,
    -1.1361087377932866,
    0.4656255032837036,
    1.7871461529198465,
    -0.7870407460847345,
    0.20236684700122226,
    -1.3255957958104527,
    -0.15602174127141344
  ],
  "best_morphology": [
    [
      0,
      0,
      0,
      0,
      0,
      0,
      0,
      0
    ],
    [
      0,
      0,
      0,
      0,
      0,
      0,
      0,
      0
    ],
    [
      0,
      0,
      0,
      0,
      0,
      0,
      0,
      0
    ],
    [
      0,
      0,
      0,
      0,
      0,
      0,
      0,
      0
    ],
    [
      2,
      1,
      1,
      2,
      2,
      0,
      0,
      0
    ],
    [
      2,
      1,
      2,
      2,
      1,
      1,
      1,
      0
    ],
    [
      2,
      1,
      1,
      2,
      2,
      1,
      1,
      1
    ],
    [
      2,
      2,
      1,
      1,
      2,
      2,
      1,
      1
    ]
  ],
  "all_fitnesses": [
    318.7483629067477,
    -6.706074372958938,
    0.29922364433531357,
    -113.87118944444777,
    1.5988767101712256,
    -9.224609847136378,
    71.79645422607251,
    -93.73861123914492,
    -9.841027875303666,
    -2.5162709742743914,
    -1.8384862830698125,
    -100.14570200786568,
    1.8677940349464848,
    1.415857186979565,
    23.466685243626046,
    194.61075130094252,
    10.825485647153585,
    0.30711738146476364,
    8.070425618560193,
    -23.8722634930335
  ]
}